tree
version=v4
num_class=1
num_tree_per_iteration=1
label_index=0
max_feature_idx=165
objective=regression
feature_names=x_120m_C2VWAP_neut x_120m_Close_Diff_Rate x_120m_Close_Diff_Rate_neut x_120m_CrowdingPressure_neut x_120m_H2C x_120m_H2C_neut x_120m_H2L_Vol x_120m_L2C x_120m_L2C_neut x_120m_NetTaker_neut x_120m_O2H x_120m_O2H_neut x_120m_O2L x_120m_O2L_neut x_120m_OI_Chg x_120m_OI_Chg_neut x_120m_PremiumDiff x_120m_PremiumDiff_neut x_120m_Vol x_120m_VolDiff_neut x_120m_Vol_neut x_1440m_Close_Diff_Rate_neut x_1440m_EffRatio x_1440m_EffRatio_neut x_1440m_H2C x_1440m_H2C_neut x_1440m_L2C x_1440m_L2C_neut x_1440m_NetTaker_neut x_1440m_O2C_neut x_1440m_O2H x_1440m_O2H_neut x_1440m_O2L x_1440m_O2L_neut x_1440m_OI_Chg x_1440m_OI_Chg_neut x_1440m_OI_Price_Ratio_neut x_1440m_PctB x_1440m_PctB_neut x_1440m_Premium x_1440m_PremiumDiff x_1440m_PremiumDiff_neut x_1440m_RVol x_1440m_RatioSkewDiff_neut x_15m_H2C x_15m_H2C_neut x_15m_H2L_Vol x_15m_L2C x_15m_O2H x_15m_O2H_neut x_15m_O2L x_15m_O2L_neut x_15m_OI_Chg x_15m_OI_Chg_neut x_15m_PremiumDiff x_15m_PremiumDiff_neut x_15m_RatioSkewDiff_neut x_1m_C2VWAP x_1m_C2VWAP_neut x_1m_H2C x_1m_H2C_neut x_1m_H2L_Vol x_1m_H2L_Vol_neut x_1m_L2C x_1m_L2C_neut x_1m_O2H_neut x_1m_O2L x_1m_O2L_neut x_1m_Premium x_1m_PremiumDiff x_1m_PremiumDiff_neut x_1m_Premium_neut x_240m_C2VWAP_neut x_240m_EffRatio_neut x_240m_NetTaker_neut x_240m_O2C x_240m_O2H x_240m_O2H_neut x_240m_O2L x_240m_O2L_neut x_240m_OI_Chg x_240m_OI_Chg_neut x_240m_OI_P_Corr x_240m_PctB_neut x_240m_PremiumDiff x_240m_PremiumDiff_neut x_30m_L2C_neut x_30m_O2C x_30m_O2H x_30m_O2H_neut x_30m_O2L x_30m_O2L_neut x_30m_OI_Chg x_30m_OI_Chg_neut x_30m_PremiumDiff x_30m_PremiumDiff_neut x_480m_Close_Diff_Rate x_480m_EffRatio x_480m_EffRatio_neut x_480m_H2C_neut x_480m_H2L_Vol x_480m_L2C x_480m_L2C_neut x_480m_NetTaker_neut x_480m_O2C_neut x_480m_O2H_neut x_480m_O2L x_480m_O2L_neut x_480m_OI_Chg x_480m_PremiumDiff x_480m_PremiumDiff_neut x_480m_RatioSkewDiff_neut x_5m_C2VWAP x_5m_C2VWAP_neut x_5m_H2C x_5m_H2C_neut x_5m_H2L_Vol_neut x_5m_L2C x_5m_L2C_neut x_5m_O2C x_5m_O2C_neut x_5m_O2H x_5m_O2H_neut x_5m_O2L x_5m_O2L_neut x_5m_OI_Chg x_5m_PctB_neut x_5m_PremiumDiff x_5m_PremiumDiff_neut x_5m_Premium_neut x_5m_RVol x_5m_RVol_neut x_5m_RatioSkew_neut x_5m_WhaleGap x_60m_Close_Diff_Rate x_60m_EffRatio x_60m_EffRatio_neut x_60m_H2C x_60m_H2L_Vol_neut x_60m_O2H x_60m_O2H_neut x_60m_O2L x_60m_O2L_neut x_60m_OI_Chg x_60m_OI_Chg_neut x_60m_OI_Price_Ratio x_60m_PremiumDiff x_60m_PremiumDiff_neut x_60m_Vol_neut x_720m_Close_Diff_Rate_neut x_720m_EffRatio x_720m_H2C_neut x_720m_H2L_Vol x_720m_O2C_neut x_720m_O2H x_720m_O2H_neut x_720m_O2L x_720m_O2L_neut x_720m_OI_Chg_neut x_720m_OI_Price_Ratio x_720m_OI_Price_Ratio_neut x_720m_OI_XSkew x_720m_OI_Z x_720m_OI_Z_neut x_720m_PremiumDiff x_720m_PremiumDiff_neut
feature_infos=[-5.3763438477060221:5.3615893637010821] [-0.92028674036347813:0.95704761390628379] [-5.375046127153138:5.3742204852263882] [-4.2859247756182475:4.9104601340648886] [-9205.086216549098:0] [-5.3697965947346447:3.12494360102836] [9.413043891137729:144879.82658176401] [0:9799.8569041039027] [-3.3334513609682266:5.3755116427680854] [-4.522645259207299:4.7438836122590997] [0:15854.426459102049] [-3.0612427527450703:5.3788312241208951] [-9354.3268238233377:0] [-5.3749401361041089:3.7981132957130779] [-8519.5383890127123:23001.09179750787] [-5.3215767439474266:5.3753068722923087] [-0.14269280000000001:0.17848358] [-5.3840988309966225:5.3845754150542202] [-3.0540647272352714:12.599162707193482] [-5.1173491432011167:5.257459586873785] [-4.3331501953751186:5.3001468822732587] [-5.3155355943133822:5.3595711329576279] [0:0.40679167499237529] [-3.9714676963243027:5.2725245209200411] [-9284.4036986230167:0] [-5.3333385193063929:3.4028186977301393] [0:29388.888888888894] [-3.0391918651870826:5.3794942594290749] [-4.1633189089762572:4.5231809284885056] [-5.3129593029264059:5.3589571837349776] [0:29957.058507783146] [-2.4092042333659878:5.3782983650272032] [-9416.4377799809936:0] [-5.3093510101235353:3.4272796376526924] [-8637.3586553720233:137341.89161490873] [-5.1499184927166866:5.382956993736947] [-5.382618775480819:5.3811030104077311] [-1.3551107385434473:3.7759045249951009] [-4.6053537219553284:5.1452162280188753] [-0.093707932048611095:0.0019818186319444445] [-0.21168963000000002:0.29323533999999996] [-5.3842430090647131:5.3836457411814251] [1.9746785263138029:301.94282454235764] [-4.6939668839763842:4.7080593351310887] [-3346.9023179535238:0] [-5.3628883168597703:3.2233041000950697] [1.067642254433121:12572.376527243483] [0:7048.8576830105612] [0:12392.144604955924] [-3.0516385535309394:5.3833338339480399] [-3159.1532586935568:0] [-5.3795300218719513:3.2367522559292481] [-2862.6073074267142:4050.3751044327087] [-5.312991356966986:5.3432031945653806] [-0.066882120000000017:0.085691670000000011] [-5.3834619825980248:5.383164048712981] [-5.3489325462002482:5.3186585475520802] [-407.43423846518965:277.72800573373945] [-5.3544474682517027:5.3483785182654691] [-2447.0258315806359:0] [-5.3799592781199603:3.0664754124337925] [0:7855.6627778935153] [-3.007979608015368:5.3832540536855404] [0:3486.3359721436882] [-2.9333225174707986:5.3811086818490841] [-2.8492890237723425:5.3841413873694703] [-1177.0447003708762:0] [-5.3664163915546963:2.8940683996234879] [-0.22658828:0.021647799999999998] [-0.029914670000000001:0.053622439999999993] [-5.3781240720681911:5.369100119007622] [-5.3848736837233941:5.3695398144500617] [-5.3770875705830994:5.3709449039623953] [-3.5147761329286387:5.2453204809382461] [-4.4746052978226549:4.8632466613555589] [-9258.8097498588941:14761.117417699028] [0:23315.236168007501] [-3.0612427527450703:5.383484813985203] [-9398.1601525106689:0] [-5.3807078113340587:3.3514720286689559] [-8610.4697065891087:39757.500339568243] [-5.3328954319455004:5.377418588102219] [-0.94740695324914925:0.99549069583152694] [-4.774930645931251:5.1426351060786688] [-0.21722416:0.19942701000000002] [-5.384717012698192:5.3840646484061301] [-3.3763209744570144:5.3811892433686417] [-3457.9277774578131:9594.698617758293] [0:14262.825859480443] [-2.9375347023106153:5.3825167067959194] [-4686.2581351149001:0] [-5.3701546561815192:3.2783507208428384] [-3093.2630914141992:10920.392097755748] [-5.3139484762006743:5.3634838324132863] [-0.10040529000000001:0.073579999999999993] [-5.3839792392873891:5.3832605223730043] [-0.92764922069567324:1.3126684550143377] [0:0.50628183715712327] [-4.0431570532744292:5.2437487627102506] [-5.3705321617725241:2.988375698058944] [30.05963659368005:160243.86939439102] [0:19040.509416068282] [-3.0400624687184949:5.3773846678525938] [-4.2181908118150195:4.7290157168115581] [-5.3310468448369255:5.3666158889638398] [-2.7981304157984361:5.3838971969206568] [-9412.392226795424:0] [-5.3729696870284931:3.310199277392007] [-8636.3089199952065:71044.589884198373] [-0.22082572:0.13493138000000002] [-5.3843283949737168:5.3831056661587224] [-4.7993571227943868:4.9108666914968451] [-1050.3265271235218:1958.2290701126603] [-5.3036425430831269:5.3762056583716538] [-2447.0258315806359:0] [-5.3699848566778652:3.3245356853757446] [-3.1945039121502177:5.3830383002786082] [0:5574.5230208749526] [-3.0837009453282076:5.3817187247170057] [-1811.9302734687349:5141.7699894954258] [-5.3176781048939583:5.3789529778497132] [0:10047.427214575255] [-2.8801805188693037:5.3840754057339808] [-1856.069086838319:0] [-5.3698385497837053:2.9830204252558126] [-1904.6475842026166:1748.7340300250698] [-5.3793193376265256:5.235735694227003] [-0.047669190000000014:0.048182660000000002] [-5.374464504588798:5.3748097415940093] [-5.3850624269107552:5.3119375396109518] [0:1051.3365384409356] [-3.0009074121393722:5.3744881978692565] [-4.3267079471054295:3.9051082698449489] [-0.99366902000000046:2.4411292460000018] [-0.64361405903161795:0.95933871021719486] [0:0.76299287494605561] [-4.3417140373792238:4.7610809087726365] [-6689.5446265938062:0] [-3.0899587537642348:5.3825864609790477] [0:15364.810269066234] [-2.7622023987349249:5.3808074049571957] [-7016.5723524656432:0] [-5.3671088812906556:3.4545942422316087] [-4084.6907839340283:13875.517975499748] [-5.2421924650539786:5.3801090702064975] [-1105132247.7840834:796612896.96005487] [-0.13964522000000001:0.12343245999999999] [-5.3835688545205969:5.382334712319552] [-4.4318470205785081:5.2196132046820587] [-5.3392589162609356:5.330554221190539] [0:0.48054553508749437] [-5.3660770338693204:3.1258239759971387] [33.727020642908556:162046.87711692179] [-5.3396704329480125:5.3328114209590147] [0:20593.253829140351] [-2.7201146933038158:5.3809311470467369] [-9415.5561362250664:0] [-5.37455701771301:3.3747536211444054] [-5.2749192550164832:5.3784892004034202] [-1476798506.4857249:2014640179.1796207] [-5.3851648071345029:5.3851648071345046] [-20.241993903226589:26.935441258746859] [-9.891621992400049:12.555681132277023] [-4.5258210284130316:5.167654173739864] [-0.21339160000000001:0.23137128999999998] [-5.384631454326346:5.384443974825297]
tree_sizes=2945 3021 2975 2946 2959 2968

Tree=0
num_leaves=31
num_cat=0
split_feature=116 3 18 42 43 40 27 42 123 124 61 101 44 96 21 42 28 42 42 7 42 43 42 28 50 114 52 17 123 18
split_gain=4.18196e+06 4.40373e+06 6.29978e+06 1.65733e+06 2.91043e+06 2.25602e+06 1.45742e+06 2.69173e+06 1.19273e+06 1.10675e+06 1.08325e+06 1.2773e+06 1.04129e+06 1.1767e+06 847454 3.81948e+06 906431 2.39096e+06 1.54477e+06 1.36787e+06 1.11346e+06 1.26324e+06 1.39767e+06 1.33113e+06 1.26408e+06 955992 933481 1.36417e+06 870556 1.00178e+06
threshold=4.4177532592148792 -0.75647233600513475 1.880613174644129 77.235354010232086 -0.57394470498052563 -0.00071559499999999986 4.4322679329483794 56.75905399399074 -128.25262717570172 -4.551326937139577 59.501943338322597 588.90708154093602 -405.55104758338007 -0.058808487863646446 3.814769635784661 44.334356868992913 1.8529882376393909 45.579189728805709 50.037793959474449 364.74361626725022 42.456582829913934 -1.5713284322639096 53.851526037207115 0.76331895019172957 -222.78616277092652 -94.736091191024983 9.602643458055395 -0.57857156316659897 -5.1671868392916256 0.94299679648254509
decision_type=2 2 2 2 2 2 2 2 2 2 2 2 2 2 2 2 2 2 2 2 2 2 2 2 2 2 2 2 2 2
left_child=3 -2 8 6 -5 -6 9 10 -3 -1 11 -8 13 -11 16 -16 20 19 -19 -18 -14 22 -22 24 25 -23 -21 -28 29 -25
right_child=1 2 -4 4 5 -7 7 -9 -10 12 -12 -13 14 -15 15 -17 17 18 -20 26 21 23 -24 28 -26 -27 27 -29 -30 -31
leaf_value=-0.2613178067156221 -0.20581944561067947 1.1308584243809034 2.6206086384850971 -1.2669811815731375 0.85715756551415379 -0.38779203312204302 -0.051606494508764394 1.3136260745830932 0.087013135929190244 0.34923191136084064 -0.092385034366299051 0.90185052836729962 0.21765015284347608 -0.63594904280249787 0.70489554629050899 -0.9808158840215826 0.22218735082115226 1.5875137933651857 0.52925979873870677 1.1264147138960303 0.026226875549442363 0.16377730633415227 -0.95167757687895205 0.086932106550133725 0.17472052880213895 0.96244323024408207 -0.23401444224900572 0.81000387408248131 -0.64263716176487784 -0.49446355642644702
leaf_weight=489 267 215 238 205 243 363 219 339 223 203 436 392 219062 301 256 283 6128 226 354 280 404 245 229 2406 4548 386 202 329 217 338
leaf_count=489 267 215 238 205 243 363 219 339 223 203 436 392 219062 301 256 283 6128 226 354 280 404 245 229 2406 4548 386 202 329 217 338
internal_value=0.216908 0.881537 1.31101 0.214287 -0.237004 0.11142 0.215823 0.539151 0.599403 0.213931 0.288389 0.560104 0.214914 -0.23914 0.215884 -0.180181 0.216791 0.324819 0.941614 0.273264 0.213226 0.102758 -0.327549 0.136221 0.232913 0.652343 0.659207 0.412844 -0.0329018 0.015317
internal_weight=240026 943 676 239083 811 606 238272 1386 438 236886 1047 611 236397 504 235893 539 235354 7519 580 6939 227835 8773 633 8140 5179 631 811 531 2961 2744
internal_count=240026 943 676 239083 811 606 238272 1386 438 236886 1047 611 236397 504 235893 539 235354 7519 580 6939 227835 8773 633 8140 5179 631 811 531 2961 2744
is_linear=0
shrinkage=1


Tree=1
num_leaves=31
num_cat=0
split_feature=127 23 157 117 108 100 75 135 111 43 5 108 5 23 133 135 86 128 12 157 24 101 100 27 111 75 43 134 86 43
split_gain=3.30317e+06 6.79134e+06 3.33776e+06 3.08904e+06 2.43499e+06 1.82967e+06 3.149e+06 1.65275e+06 1.41672e+06 1.51827e+06 1.29537e+06 1.29187e+06 1.23066e+06 4.61014e+06 2.2208e+06 1.03424e+06 1.01673e+06 1.0116e+06 708025 1.82503e+06 832954 1.00598e+06 984724 775199 1.23689e+06 1.69898e+06 1.66317e+06 1.255e+06 985311 1.00619e+06
threshold=-0.0024680699999999997 1.6424083491325321 -3.8494971358979213 128.66828557662637 -849.75934776704889 4254.4630561254598 757.50626432057436 0.23879360726559906 -0.74165131543692087 -1.3757861528565845 -0.54811470838930021 -398.39611926709591 -3.8954059888308135 1.7369954057005577 0.065098063999999969 0.11948377804028661 1.7325137806885236 0.093807967111860943 -830.88782942313912 -2.42733944573988 -655.29599927619472 2817.7762767533927 2732.2364679793291 3.5026863245552597 -0.30762845260997856 410.05567955468513 0.34608942253843827 0.023597896297503532 4.2146714943555894 0.15233101131056115
decision_type=2 2 2 2 2 2 2 2 2 2 2 2 2 2 2 2 2 2 2 2 2 2 2 2 2 2 2 2 2 2
left_child=1 4 3 8 -1 12 -7 10 9 -2 16 15 13 14 17 -10 -6 -4 19 -14 -20 22 23 28 -25 -26 -27 -28 -22 -30
right_child=2 -3 5 -5 7 6 -8 -9 11 -11 -12 -13 18 -15 -16 -17 -18 -19 20 -21 21 -23 -24 24 25 26 27 -29 29 -31
leaf_value=0.98100358789457998 -1.3409287954732776 1.6660887065866572 0.13048327937451565 -1.3937588956423685 0.10857724784726629 1.2678339279792348 -0.14373311454203072 -0.84357508185198482 -0.056551102347541279 -0.27902312464505724 -0.32434376475474269 -0.42017762997986929 0.94977359786356763 -1.3986341239477083 0.95201687237620347 0.86332959303997936 0.98382336686595839 -0.51424975371925086 -0.028474317893610001 0.063825992657826763 0.012521406488883807 -0.61344546100972697 0.54254339018889841 0.40959974147022182 0.0076982285932962738 -1.4252900528788568 0.068835928820512551 -0.88692305024147033 0.0070614487318031698 0.88014372801330854
leaf_weight=272 200 354 468 282 387 305 328 223 285 412 408 409 273 299 200 214 202 507 77418 1568 152189 257 350 292 854 200 305 250 263 265
leaf_count=272 200 354 468 282 387 305 328 223 285 412 408 409 273 299 200 214 202 507 77418 1568 152189 257 350 292 854 200 305 250 263 265
internal_value=-0.000508224 0.420872 -0.00377119 -0.43252 0.125426 -0.000505621 0.536406 -0.0653261 -0.254185 -0.626051 0.108746 -0.00354315 -0.00194598 -0.289991 -0.00787666 0.337947 0.408747 -0.204778 -0.000135291 0.195202 -0.00168108 0.011682 0.0127187 0.0115194 -0.189172 -0.297837 -0.643436 -0.361686 0.0140175 0.445256
internal_weight=240239 1846 238393 1802 1492 236591 633 1220 1520 612 997 908 235958 1474 1175 499 589 975 234484 1841 232643 155225 154968 154618 1901 1609 755 555 152717 528
internal_count=240239 1846 238393 1802 1492 236591 633 1220 1520 612 997 908 235958 1474 1175 499 589 975 234484 1841 232643 155225 154968 154618 1901 1609 755 555 152717 528
is_linear=0
shrinkage=0.01


Tree=2
num_leaves=31
num_cat=0
split_feature=149 9 15 31 148 29 83 148 105 138 100 29 152 25 139 149 76 100 32 149 11 6 103 83 103 83 152 6 117 23
split_gain=3.59416e+06 6.63072e+06 3.57477e+06 3.08286e+06 2.63482e+06 3.28733e+06 2.20304e+06 2.10511e+06 1.97903e+06 2.40372e+06 1.6359e+06 1.49058e+06 2.12843e+06 1.97283e+06 2.23135e+06 1.1096e+06 2.0656e+06 2.45796e+06 2.6158e+06 3.43691e+06 2.02343e+06 2.39536e+06 1.83449e+06 1.33243e+06 1.10589e+06 1.10203e+06 1.02831e+06 996778 937875 926370
threshold=-3.3244481827241068 -0.74984045508768149 -0.29841444268805145 4.3419554924349315 1.821242085999877 4.3740529427148891 -0.83755949898309723 -0.62973344754497429 4.7387362979145928 2.2700600746162403 2238.8319761225844 3.4152616491165233 5356.1677284806965 0.15350660459351623 419.35513759683414 1.2747988779498078 620.19209921503682 2352.6024650449813 -1197.9327346065768 2.5603237932083558 2.251666840117768 1411.7892012743496 1.2576886698443228 2.0025302575557413 1.1326404214727546 1.7995598600552769 1464.4560118010156 2085.0250262124696 41.524275173223664 0.22037578884231632
decision_type=2 2 2 2 2 2 2 2 2 2 2 2 2 2 2 2 2 2 2 2 2 2 2 2 2 2 2 2 2 2
left_child=1 -1 7 11 5 6 -5 -3 9 -7 24 12 15 14 -13 20 -17 18 19 28 27 -22 -19 29 -8 -15 -25 -2 -18 -20
right_child=3 2 -4 4 -6 8 10 -9 -10 -11 -12 13 -14 25 -16 16 17 22 23 -21 21 -23 -24 26 -26 -27 -28 -29 -30 -31
leaf_value=-2.2309422198414803 -0.0017148742761223831 -0.33786269953891412 -0.97517377205055922 -0.11059401045750528 1.3276482381453192 -0.70012244879007346 0.15760449144958463 1.060241939060647 -1.0097653245925904 0.76811244585684368 1.6847585941950483 -0.34455966955716061 0.84144864788582152 -0.21525616870151731 -1.5557008263380221 -0.0053335272701697592 0.94031811884794192 -0.47051337657154418 0.57073456491241936 1.8394921605806722 -0.143279528962897 -1.0133253801609639 0.53571685842458638 0.3002476403615732 1.159825343982418 0.67238433077459425 -0.49696446349174517 0.61312885140492157 0.092068645619402187 0.19628154560864911
leaf_weight=200 214144 201 326 274 266 200 242 232 237 252 210 616 301 381 202 9753 211 730 952 245 4960 338 241 269 202 221 406 264 341 2159
leaf_count=200 214144 201 326 274 266 200 242 232 237 252 210 616 301 381 202 9753 211 730 952 245 4960 338 241 269 202 221 406 264 341 2159
internal_value=-0.000115616 -0.611084 -0.184244 0.00233986 0.405365 0.253647 0.642157 0.411237 -0.269629 0.118451 0.95753 -0.000865828 0.00108342 -0.323884 -0.643643 7.10157e-06 0.0823286 0.236266 0.333098 0.853799 -0.00572827 -0.198786 -0.220769 0.223484 0.61357 0.110605 -0.179261 -0.000957819 0.416309 0.310868
internal_weight=239576 959 759 238617 1883 1617 928 433 689 452 654 236734 235314 1420 818 235013 15307 5554 4583 797 219706 5298 971 3786 444 602 675 214408 552 3111
internal_count=239576 959 759 238617 1883 1617 928 433 689 452 654 236734 235314 1420 818 235013 15307 5554 4583 797 219706 5298 971 3786 444 602 675 214408 552 3111
is_linear=0
shrinkage=0.01


Tree=3
num_leaves=31
num_cat=0
split_feature=27 82 55 155 26 124 147 73 116 111 103 64 85 73 82 26 132 80 128 73 155 30 145 80 67 85 80 82 82 103
split_gain=5.18339e+06 7.08235e+06 3.69428e+06 2.00611e+06 1.97548e+06 1.51735e+06 1.40764e+06 1.40358e+06 874440 3.40813e+06 1.94133e+06 891386 1.67299e+06 1.42498e+06 1.66816e+06 671768 1.1675e+06 1.32187e+06 1.39418e+06 2.44878e+06 1.3736e+06 985817 962705 1.06421e+06 908350 1.04233e+06 927213 892015 739588 721829
threshold=4.4322679329483794 0.9649942756923876 -1.2131091814835804 2.8479291543756236 5374.1535439343643 -2.516446858079584 -2.1871301842210751 0.31830637691935343 4.4177532592148792 -0.22072760599332727 0.49085544909788353 3.7800760511723164 -1.8739701771894726 1.2387753305615572 0.94080060450978409 3250.3054905948761 1.0544742666850102 593.41970507029725 -0.5978195448145186 0.85746271522170325 1.7554803541621005 2816.0360777716146 0.1922114951257585 -722.59235519015522 -2.2896979496523695 -0.23913525418279541 767.72612880865688 0.87861347023982717 0.82993322774249767 0.24760526316276091
decision_type=2 2 2 2 2 2 2 2 2 2 2 2 2 2 2 2 2 2 2 2 2 2 2 2 2 2 2 2 2 2
left_child=4 2 6 -4 8 -5 -2 -7 11 -10 -11 15 -13 -14 -15 21 17 20 -19 -20 29 -1 24 -24 25 -23 27 -26 -22 -17
right_child=1 -3 3 5 -6 7 -8 -9 9 10 -12 12 13 14 -16 16 -18 18 19 -21 28 22 23 -25 26 -27 -28 -29 -30 -31
leaf_value=-0.0011958793694764845 1.6163893830989089 2.2632674437504638 -0.69726745490934339 0.85753541472527117 -0.73940813731391897 0.33093821255254069 0.54501951530410797 -0.70831532610335002 -0.50504003605089698 0.21880276801360546 1.550653091557324 -0.99545008387026923 -0.29587590855753915 0.75795570958295511 -0.32447307032298273 -0.30540382528588889 -0.690895413745094 0.97714592988193039 0.76930775061029522 -0.73613902868388537 -0.32513738101090844 0.14251052852564081 1.1038571442840712 0.26642368119588644 0.28504764737502525 -0.85164484790269879 0.80160751320891876 -0.19397305873038651 -1.1320829686169376 0.46590308472641512
leaf_weight=229622 224 209 306 275 363 355 271 205 285 214 224 239 1256 338 246 252 370 200 203 231 246 215 202 610 950 207 206 658 211 234
leaf_count=229622 224 209 306 275 363 355 271 205 285 214 224 239 1256 338 246 252 370 200 203 231 246 215 202 610 950 207 206 658 211 234
internal_value=0.00183143 0.529827 0.308379 -0.00461278 -0.0022654 0.249222 1.02984 -0.0495028 -0.00113835 0.346105 0.899932 -0.00219902 -0.208352 -0.106115 0.302001 -0.000372248 -0.185349 -0.0667363 0.286357 -0.0319784 -0.304129 0.00117565 0.179836 0.474751 0.0727377 -0.345144 0.169952 0.0890305 -0.69771 0.0659662
internal_weight=239627 1845 1636 1141 237782 835 495 560 237419 723 438 236696 2079 1840 584 234617 1947 1577 634 434 943 232670 3048 812 2236 422 1814 1608 457 486
internal_count=239627 1845 1636 1141 237782 835 495 560 237419 723 438 236696 2079 1840 584 234617 1947 1577 634 434 943 232670 3048 812 2236 422 1814 1608 457 486
is_linear=0
shrinkage=0.01


Tree=4
num_leaves=31
num_cat=0
split_feature=5 133 39 150 73 108 31 139 39 111 84 111 54 150 32 31 116 161 26 74 6 51 15 98 73 73 2 40 39 40
split_gain=2.87893e+06 1.0639e+07 4.48944e+06 3.62851e+06 3.85365e+06 3.29972e+06 3.21805e+06 2.71363e+06 4.55462e+06 2.40814e+06 2.69325e+06 2.24583e+06 1.70566e+06 2.67899e+06 1.56599e+06 1.20144e+06 1.5769e+06 1.43422e+06 768055 1.38371e+06 1.20714e+06 739565 817037 805341 662429 637422 561887 498660 421923 421000
threshold=-3.8954059888308135 -0.074647739999999893 -0.00035457174652777772 0.012201885745979026 0.62247016337849703 466.7465256933113 4.3419554924349315 1020.1471122297213 -0.00026464946874999996 -0.32452248452591997 -0.00020046499999999999 0.055034419068517984 -0.00381483 0.029535226252286811 -718.0542079883777 4.8027509527238754 2.0590142817759696 1.0980267216510842 4266.1457513920832 1.023022227490656 1048.940356464894 -4.0961643220974082 1.12669191720678 1.2706164797146138 -0.45436367182770909 -1.5225502621041083 2.1345848697541463 -0.00013718999999999995 -0.00073955982986111102 0.00090022000000000019
decision_type=2 2 2 2 2 2 2 2 2 2 2 2 2 2 2 2 2 2 2 2 2 2 2 2 2 2 2 2 2 2
left_child=1 2 -1 -3 5 -5 7 12 -9 10 -8 -6 13 -2 -11 16 -16 -17 21 20 27 22 23 24 -14 26 28 -20 29 -23
right_child=6 3 -4 4 11 -7 9 8 -10 14 -12 -13 18 -15 15 17 -18 -19 19 -21 -22 25 -24 -25 -26 -27 -28 -29 -30 -31
leaf_value=-2.3314349778085854 -0.30823786139672948 1.1575977910214361 -0.52695088893808728 -0.1088263508944827 -0.15893730179415985 -1.6556943370042176 1.7928620307736036 -1.3763551081349186 0.24072200128454374 0.91921059775327318 0.30516453620659778 1.1085774257967527 0.30960053937812138 1.0304874033673341 -0.19787648454696272 0.19428083771031077 0.91229253068322036 -0.99006300864558594 -0.60584656962409178 0.42230838553286071 -1.1595921493745318 -0.45354156614737362 0.6950099524797746 0.6300788544434045 -0.37886951422571069 0.0015051682278178224 -0.51362417258084958 0.057234541758720975 -0.045550251677927305 0.032335447193531507
leaf_weight=317 242 257 244 340 301 232 238 374 326 237 249 261 234 391 269 205 244 204 203 204 204 537 309 203 347 226747 314 257 5052 267
leaf_count=317 242 257 244 340 301 232 238 374 326 237 249 261 234 391 269 205 244 204 203 204 204 537 309 203 347 226747 314 257 5052 267
internal_value=-0.00162636 -0.384099 -1.5466 0.0847442 -0.158398 -0.736227 0.00151245 -0.00155801 -0.623259 0.442142 1.03221 0.429713 0.000289849 0.518684 0.1942 0.00783657 0.330157 -0.396443 -0.00110723 -0.298022 -0.519329 -5.90082e-06 0.259509 0.0878633 -0.101586 -0.00122371 -0.10151 -0.235386 -0.0794122 -0.292187
internal_weight=239809 1952 561 1391 1134 572 237857 236211 700 1646 487 562 235511 633 1159 922 513 409 234878 868 664 234010 1093 784 581 232917 6170 460 5856 804
internal_count=239809 1952 561 1391 1134 572 237857 236211 700 1646 487 562 235511 633 1159 922 513 409 234878 868 664 234010 1093 784 581 232917 6170 460 5856 804
is_linear=0
shrinkage=0.01


Tree=5
num_leaves=31
num_cat=0
split_feature=31 159 29 81 134 162 84 161 81 153 162 9 9 30 67 31 38 76 19 87 158 91 140 38 30 38 56 9 76 17
split_gain=2.94742e+06 5.74794e+06 3.74864e+06 2.64211e+06 2.45887e+06 3.16231e+06 1.9033e+06 1.69283e+06 1.34767e+06 2.03403e+06 1.93372e+06 1.45378e+06 2.14258e+06 1.236e+06 1.14455e+06 937730 3.93755e+06 3.34015e+06 4.49811e+06 1.67206e+06 872610 1.28053e+06 2.0448e+06 1.66075e+06 2.2899e+06 1.62502e+06 1.09047e+06 1.05741e+06 913403 2.01185e+06
threshold=4.3419554924349315 -1.1667588882077344 4.3740529427148891 1.3142243948608621 0.075039390725386582 1.1931817886237601 -0.00079068999999999982 2.9499753740380599 -3.2949003721936636 -3.3251533670643472 -1.0384456088605594 0.463780633437747 -0.7100790023149669 724.25754197878894 -2.5361074176259537 3.5333904665602547 2.3948550657497276 575.56913948003012 0.69648189621835788 -130.26176266691502 1.3290319316764656 -2.6586637210227551 3.1597470741552596 1.9993777697657331 1831.0512061929387 1.3422163936875566 -0.02512197211436205 0.152234942897401 677.997802778081 -0.83063714997056648
decision_type=2 2 2 2 2 2 2 2 2 2 2 2 2 2 2 2 2 2 2 2 2 2 2 2 2 2 2 2 2 2
left_child=4 -2 6 -4 8 -6 -3 -7 11 10 -10 12 -1 -12 -8 20 17 -17 19 -19 -11 26 28 25 -25 -24 -22 -28 -23 -30
right_child=1 2 3 -5 5 7 14 -9 9 15 13 -13 -14 -15 -16 16 -18 18 -20 -21 21 22 23 24 -26 -27 27 -29 29 -31
leaf_value=-0.15997141197138462 1.9730304055679135 1.2440463725447655 0.35566552446206984 -0.92499573352274955 0.48556032113406972 -1.45547970135428 0.936108821932779 -0.34373174171137616 0.03155575287384646 -0.0028360670247821189 -1.5435363429516553 -0.21690717702991558 1.114933856581739 -0.4525640860420686 0.06871154445015254 -0.0121411139319827 0.87249142612618813 0.36604086802686964 -1.9533177658842831 -0.70482466261591792 0.091913384808891122 0.042139805898878613 -0.52116996767077328 -0.28962256304634887 -1.5457148042015914 0.66671618658208076 1.0999764908768213 0.25999143779072975 0.77918939276735166 0.10562304942584014
leaf_weight=201 205 300 277 385 207 309 209 246 350 218494 200 265 383 216 559 1327 307 210 246 477 609 8886 215 497 205 248 309 291 572 1973
leaf_count=201 205 300 277 385 207 309 209 246 350 218494 200 265 383 216 559 1327 307 210 246 477 609 8886 215 497 205 248 309 291 572 1973
internal_value=0.00103311 0.389735 0.202119 -0.38913 -0.00213722 -0.569279 0.568605 -0.962705 -0.00030975 -0.0017427 -0.51621 0.397391 0.676139 -0.97707 0.304761 -6.47962e-05 -0.190146 -0.334496 -0.792979 -0.377486 0.00203568 0.0791417 0.0493034 -0.349802 -0.65643 0.115106 0.390013 0.692584 0.0899786 0.25701
internal_weight=239178 1935 1730 662 237243 762 1068 555 236481 235632 766 849 584 416 768 234866 2567 2260 933 687 232299 13805 12596 1165 702 463 1209 600 11431 2545
internal_count=239178 1935 1730 662 237243 762 1068 555 236481 235632 766 849 584 416 768 234866 2567 2260 933 687 232299 13805 12596 1165 702 463 1209 600 11431 2545
is_linear=0
shrinkage=0.01


end of trees

feature_importances:
x_1440m_RVol=7
x_240m_EffRatio_neut=6
x_1440m_O2H_neut=5
x_1440m_RatioSkewDiff_neut=5
x_480m_RatioSkewDiff_neut=5
x_120m_NetTaker_neut=4
x_240m_OI_P_Corr=4
x_480m_H2L_Vol=4
x_480m_NetTaker_neut=4
x_120m_H2C_neut=3
x_120m_H2L_Vol=3
x_1440m_EffRatio_neut=3
x_1440m_L2C=3
x_1440m_L2C_neut=3
x_1440m_O2C_neut=3
x_1440m_O2H=3
x_1440m_PctB_neut=3
x_1440m_Premium=3
x_1440m_PremiumDiff=3
x_240m_O2H=3
x_240m_OI_Chg=3
x_240m_PctB_neut=3
x_480m_OI_Chg=3
x_5m_H2L_Vol_neut=3
x_720m_Close_Diff_Rate_neut=3
x_120m_OI_Chg_neut=2
x_120m_PremiumDiff_neut=2
x_120m_Vol=2
x_1440m_NetTaker_neut=2
x_1440m_O2L=2
x_1m_O2L_neut=2
x_240m_O2C=2
x_240m_OI_Chg_neut=2
x_240m_PremiumDiff=2
x_240m_PremiumDiff_neut=2
x_30m_L2C_neut=2
x_480m_L2C=2
x_5m_L2C=2
x_5m_O2L=2
x_5m_O2L_neut=2
x_5m_PremiumDiff_neut=2
x_5m_WhaleGap=2
x_60m_Close_Diff_Rate=2
x_60m_EffRatio=2
x_60m_O2H=2
x_60m_Vol_neut=2
x_720m_EffRatio=2
x_720m_H2L_Vol=2
x_720m_O2H_neut=2
x_720m_O2L_neut=2
x_720m_OI_XSkew=2
x_720m_OI_Z=2
x_120m_Close_Diff_Rate_neut=1
x_120m_CrowdingPressure_neut=1
x_120m_L2C=1
x_120m_O2H_neut=1
x_120m_O2L=1
x_120m_VolDiff_neut=1
x_1440m_Close_Diff_Rate_neut=1
x_1440m_H2C=1
x_1440m_H2C_neut=1
x_15m_H2C=1
x_15m_O2L=1
x_15m_O2L_neut=1
x_15m_OI_Chg=1
x_15m_PremiumDiff=1
x_15m_PremiumDiff_neut=1
x_15m_RatioSkewDiff_neut=1
x_1m_H2L_Vol=1
x_1m_L2C_neut=1
x_240m_NetTaker_neut=1
x_30m_O2C=1
x_30m_O2L_neut=1
x_480m_Close_Diff_Rate=1
x_480m_EffRatio_neut=1
x_480m_O2H_neut=1
x_5m_H2C=1
x_5m_PremiumDiff=1
x_5m_RatioSkew_neut=1
x_60m_H2L_Vol_neut=1
x_60m_O2H_neut=1
x_60m_OI_Price_Ratio=1
x_60m_PremiumDiff_neut=1
x_720m_O2C_neut=1
x_720m_OI_Chg_neut=1
x_720m_OI_Price_Ratio=1

parameters:
[boosting: gbdt]
[objective: regression]
[metric: rmse]
[tree_learner: serial]
[device_type: cpu]
[data_sample_strategy: bagging]
[data: ]
[valid: ]
[num_iterations: 4000]
[learning_rate: 0.01]
[num_leaves: 31]
[num_threads: 0]
[seed: 42]
[deterministic: 0]
[force_col_wise: 0]
[force_row_wise: 0]
[histogram_pool_size: -1]
[max_depth: -1]
[min_data_in_leaf: 200]
[min_sum_hessian_in_leaf: 0.001]
[bagging_fraction: 0.4]
[pos_bagging_fraction: 1]
[neg_bagging_fraction: 1]
[bagging_freq: 1]
[bagging_seed: 400]
[bagging_by_query: 0]
[feature_fraction: 0.2]
[feature_fraction_bynode: 1]
[feature_fraction_seed: 30056]
[extra_trees: 0]
[extra_seed: 12879]
[early_stopping_round: 0]
[early_stopping_min_delta: 0]
[first_metric_only: 0]
[max_delta_step: 0]
[lambda_l1: 0]
[lambda_l2: 0]
[linear_lambda: 0]
[min_gain_to_split: 0]
[drop_rate: 0.1]
[max_drop: 50]
[skip_drop: 0.5]
[xgboost_dart_mode: 0]
[uniform_drop: 0]
[drop_seed: 17869]
[top_rate: 0.2]
[other_rate: 0.1]
[min_data_per_group: 100]
[max_cat_threshold: 32]
[cat_l2: 10]
[cat_smooth: 10]
[max_cat_to_onehot: 4]
[top_k: 20]
[monotone_constraints: ]
[monotone_constraints_method: basic]
[monotone_penalty: 0]
[feature_contri: ]
[forcedsplits_filename: ]
[refit_decay_rate: 0.9]
[cegb_tradeoff: 1]
[cegb_penalty_split: 0]
[cegb_penalty_feature_lazy: ]
[cegb_penalty_feature_coupled: ]
[path_smooth: 0]
[interaction_constraints: ]
[verbosity: -1]
[saved_feature_importance_type: 0]
[use_quantized_grad: 0]
[num_grad_quant_bins: 4]
[quant_train_renew_leaf: 0]
[stochastic_rounding: 1]
[linear_tree: 0]
[max_bin: 255]
[max_bin_by_feature: ]
[min_data_in_bin: 3]
[bin_construct_sample_cnt: 200000]
[data_random_seed: 175]
[is_enable_sparse: 1]
[enable_bundle: 1]
[use_missing: 1]
[zero_as_missing: 0]
[feature_pre_filter: 0]
[pre_partition: 0]
[two_round: 0]
[header: 0]
[label_column: ]
[weight_column: ]
[group_column: ]
[ignore_column: ]
[categorical_feature: ]
[forcedbins_filename: ]
[precise_float_parser: 0]
[parser_config_file: ]
[objective_seed: 16083]
[num_class: 1]
[is_unbalance: 0]
[scale_pos_weight: 1]
[sigmoid: 1]
[boost_from_average: 1]
[reg_sqrt: 0]
[alpha: 0.9]
[fair_c: 1]
[poisson_max_delta_step: 0.7]
[tweedie_variance_power: 1.5]
[lambdarank_truncation_level: 30]
[lambdarank_norm: 1]
[label_gain: ]
[lambdarank_position_bias_regularization: 0]
[eval_at: ]
[multi_error_top_k: 1]
[auc_mu_weights: ]
[num_machines: 1]
[local_listen_port: 12400]
[time_out: 120]
[machine_list_filename: ]
[machines: ]
[gpu_platform_id: -1]
[gpu_device_id: -1]
[gpu_use_dp: 0]
[num_gpu: 1]

end of parameters

pandas_categorical:[]
