tree
version=v4
num_class=1
num_tree_per_iteration=1
label_index=0
max_feature_idx=165
objective=regression
feature_names=x_120m_C2VWAP_neut x_120m_Close_Diff_Rate x_120m_Close_Diff_Rate_neut x_120m_CrowdingPressure_neut x_120m_H2C x_120m_H2C_neut x_120m_H2L_Vol x_120m_L2C x_120m_L2C_neut x_120m_NetTaker_neut x_120m_O2H x_120m_O2H_neut x_120m_O2L x_120m_O2L_neut x_120m_OI_Chg x_120m_OI_Chg_neut x_120m_PremiumDiff x_120m_PremiumDiff_neut x_120m_Vol x_120m_VolDiff_neut x_120m_Vol_neut x_1440m_Close_Diff_Rate_neut x_1440m_EffRatio x_1440m_EffRatio_neut x_1440m_H2C x_1440m_H2C_neut x_1440m_L2C x_1440m_L2C_neut x_1440m_NetTaker_neut x_1440m_O2C_neut x_1440m_O2H x_1440m_O2H_neut x_1440m_O2L x_1440m_O2L_neut x_1440m_OI_Chg x_1440m_OI_Chg_neut x_1440m_OI_Price_Ratio_neut x_1440m_PctB x_1440m_PctB_neut x_1440m_Premium x_1440m_PremiumDiff x_1440m_PremiumDiff_neut x_1440m_RVol x_1440m_RatioSkewDiff_neut x_15m_H2C x_15m_H2C_neut x_15m_H2L_Vol x_15m_L2C x_15m_O2H x_15m_O2H_neut x_15m_O2L x_15m_O2L_neut x_15m_OI_Chg x_15m_OI_Chg_neut x_15m_PremiumDiff x_15m_PremiumDiff_neut x_15m_RatioSkewDiff_neut x_1m_C2VWAP x_1m_C2VWAP_neut x_1m_H2C x_1m_H2C_neut x_1m_H2L_Vol x_1m_H2L_Vol_neut x_1m_L2C x_1m_L2C_neut x_1m_O2H_neut x_1m_O2L x_1m_O2L_neut x_1m_Premium x_1m_PremiumDiff x_1m_PremiumDiff_neut x_1m_Premium_neut x_240m_C2VWAP_neut x_240m_EffRatio_neut x_240m_NetTaker_neut x_240m_O2C x_240m_O2H x_240m_O2H_neut x_240m_O2L x_240m_O2L_neut x_240m_OI_Chg x_240m_OI_Chg_neut x_240m_OI_P_Corr x_240m_PctB_neut x_240m_PremiumDiff x_240m_PremiumDiff_neut x_30m_L2C_neut x_30m_O2C x_30m_O2H x_30m_O2H_neut x_30m_O2L x_30m_O2L_neut x_30m_OI_Chg x_30m_OI_Chg_neut x_30m_PremiumDiff x_30m_PremiumDiff_neut x_480m_Close_Diff_Rate x_480m_EffRatio x_480m_EffRatio_neut x_480m_H2C_neut x_480m_H2L_Vol x_480m_L2C x_480m_L2C_neut x_480m_NetTaker_neut x_480m_O2C_neut x_480m_O2H_neut x_480m_O2L x_480m_O2L_neut x_480m_OI_Chg x_480m_PremiumDiff x_480m_PremiumDiff_neut x_480m_RatioSkewDiff_neut x_5m_C2VWAP x_5m_C2VWAP_neut x_5m_H2C x_5m_H2C_neut x_5m_H2L_Vol_neut x_5m_L2C x_5m_L2C_neut x_5m_O2C x_5m_O2C_neut x_5m_O2H x_5m_O2H_neut x_5m_O2L x_5m_O2L_neut x_5m_OI_Chg x_5m_PctB_neut x_5m_PremiumDiff x_5m_PremiumDiff_neut x_5m_Premium_neut x_5m_RVol x_5m_RVol_neut x_5m_RatioSkew_neut x_5m_WhaleGap x_60m_Close_Diff_Rate x_60m_EffRatio x_60m_EffRatio_neut x_60m_H2C x_60m_H2L_Vol_neut x_60m_O2H x_60m_O2H_neut x_60m_O2L x_60m_O2L_neut x_60m_OI_Chg x_60m_OI_Chg_neut x_60m_OI_Price_Ratio x_60m_PremiumDiff x_60m_PremiumDiff_neut x_60m_Vol_neut x_720m_Close_Diff_Rate_neut x_720m_EffRatio x_720m_H2C_neut x_720m_H2L_Vol x_720m_O2C_neut x_720m_O2H x_720m_O2H_neut x_720m_O2L x_720m_O2L_neut x_720m_OI_Chg_neut x_720m_OI_Price_Ratio x_720m_OI_Price_Ratio_neut x_720m_OI_XSkew x_720m_OI_Z x_720m_OI_Z_neut x_720m_PremiumDiff x_720m_PremiumDiff_neut
feature_infos=[-5.3495323200422646:5.2950845960410842] [-0.18951870802686277:0.87223665715381005] [-5.2231750834362884:5.3661867800553988] [-5.1247904526445094:4.9641534875682618] [-2762.9166949555297:0] [-5.325179285653495:2.7767417460715995] [10.200548261434239:11592.505854800938] [0:10587.587822014051] [-3.9861010213412498:5.381279156490451] [-4.134986954060512:4.3753337640776193] [0:9726.1446298673527] [-2.769440594713021:5.3845059019657393] [-2268.5053741634565:0] [-5.3570553127754339:3.7402533891308063] [-3412.7547003618574:13800.781354335184] [-5.2295006041243424:5.3576011576632965] [-0.10901545000000001:0.10964072] [-5.3843975925636425:5.3841130240469974] [-3.075077251808318:14.716515653818] [-5.1333570874167469:5.2573827380450151] [-4.6557322684276476:5.266907756991432] [-5.040674573802729:5.3600884103962887] [0:0.23253478697460947] [-2.9212089783950739:4.8589180558972647] [-4708.2494969818908:0] [-5.230580102841297:2.6030768660959125] [0:46564.40281030444] [-4.1351363525859606:5.3691206431853633] [-4.0755246799139533:3.6363282692670302] [-5.0483141561631815:5.3616179809359075] [0:44509.587020648971] [-2.4512570798498898:5.3559018067518078] [-4821.6862502576787:0] [-5.2919326795592712:3.1184997374284249] [-5525.0702642733195:102929.83300033865] [-4.6170234443707932:5.3810866423886816] [-5.3842865277373768:5.3843095867615993] [-2.3535577720124463:3.5368049306451659] [-4.3534006184837475:5.2049979796258352] [-0.052623290666666676:0.0013800820069444445] [-0.1295095:0.13164745999999999] [-5.3847375469607393:5.3840890708859055] [1.8528245714349909:140.26151709908149] [-4.3696846669935692:4.704656398219262] [-1586.8192580899765:0] [-5.3657261989261276:3.3929646158905964] [1.7265360523310846:3049.6967502489379] [0:1970.1818455630437] [0:2990.8984410200956] [-3.3383872567386788:5.3732841197269376] [-1792.6227321237998:0] [-5.3681806642949708:3.321810220264283] [-1928.2589193447009:3028.0074536692391] [-5.3505425565607103:5.356945294840755] [-0.031830659999999997:0.040759789999999997] [-5.3727512980414289:5.3761527566107548] [-5.3361557109265449:5.3664842690171888] [-139.4893516525797:153.73653185930536] [-5.251628880898175:5.2818564319242576] [-433.40105726363265:0] [-5.3689723522673232:3.465131139401195] [0:845.62563580874883] [-3.1129230220669637:5.3742089102806636] [0:531.44316044074321] [-3.4164973652509132:5.3806660978801348] [-3.0730288253328961:5.3802213140618411] [-779.69281275647836:0] [-5.3751856226191626:3.4339547494790752] [-0.14881435000000001:0.012073179999999999] [-0.036136520000000005:0.021005070000000001] [-5.3741810011180666:5.3680933519678362] [-5.3846765007309108:5.2425196335998088] [-5.2234267691627689:5.3294937673892644] [-3.8242510365518894:5.1177402643134693] [-4.3017551694665741:4.5892484463797709] [-2533.6083892040574:11229.383632056495] [0:12285.752875762555] [-2.7927463122206162:5.3848640510663222] [-2756.7474643286914:0] [-5.3678453256629073:3.5099072401492291] [-3805.2704187094687:25573.389712881166] [-4.9180149311929746:5.3697653745962839] [-0.96800140934956835:0.99455791463620513] [-4.6784627971279793:5.2871813620492683] [-0.14458483000000003:0.15723668000000002] [-5.3847927654310546:5.3848215053879072] [-3.9861010213412498:5.3698386462374454] [-1738.4227862817281:3268.4556243935203] [0:4614.8391430917354] [-2.8342410811629493:5.3847530542508126] [-2236.447834377554:0] [-5.3657923615098913:3.4041384024181998] [-2967.8658152450789:5109.1036352406081] [-5.3501466835197986:5.3599582303441045] [-0.056925550000000005:0.053965630000000007] [-5.3810019578759603:5.3810954837530502] [-0.3079086791003468:1.7134312675544061] [0:0.35167286245353352] [-3.5603061936461882:4.9909164205557328] [-5.3149984096979059:2.9451350038247277] [28.716630812988253:21046.135762562444] [0:18186.264220645651] [-3.9861010213412498:5.3829705193869319] [-4.3767058413018267:4.2794323422480094] [-5.0803915735140865:5.3662653786516428] [-2.6457478800579524:5.3830044424816688] [-3317.122159283248:0] [-5.2997532547882074:3.4527601829273769] [-4286.9854438709635:41976.595796854956] [-0.14430969000000002:0.14562652999999998] [-5.3845152657669386:5.3843266941970285] [-4.8938242037202118:4.942317812025002] [-369.12140693079022:461.73797871382317] [-5.2592547296099568:5.2882137768525173] [-1275.6659267480586:0] [-5.3678414158243832:3.3938532200119034] [-3.7633135492978913:5.3529649200835605] [0:1154.7671840354767] [-3.9861010213412498:5.3714043903375055] [-881.00827875942196:1108.4614025790484] [-5.2642963305142061:5.346120881955601] [0:2732.7327327327343] [-3.0653570214953487:5.3851019026313702] [-1411.5999638630406:0] [-5.3822605437018058:3.4200293785248035] [-1281.5043270223525:1485.5432134152059] [-5.2632209816573443:5.1698635132009381] [-0.021852220000000002:0.035360300000000004] [-5.3451050146310894:5.381767054792947] [-5.3848759554115979:5.3617221214679844] [0:539.12654549782008] [-3.8391868326839051:5.3392313196665508] [-3.2871203845469266:3.2491603137572174] [-1.901811092:1.3471515580000002] [-0.22754447624913943:0.58765211566372666] [0:0.71478200451624241] [-3.9083855583229341:4.7223058178314377] [-2338.4604326888516:0] [-3.321746057413268:5.3458992298248793] [0:7517.2784003220831] [-2.4714720475458103:5.3849038809800289] [-2543.2320690275033:0] [-5.3592782896706925:3.5365318328121687] [-3264.4053559345521:9639.4047212144724] [-5.3077639253832842:5.3618728355830365] [-737893805.56701791:1036035239.0243896] [-0.069203690000000012:0.079161630000000011] [-5.3832244738968784:5.3843062134383075] [-4.3618315702548518:5.288492788142598] [-4.9092375625002891:5.3629364172569991] [0:0.27295652650622293] [-5.239398036002525:2.7277300118840353] [40.515777617133878:32085.948477751761] [-4.9000451222361807:5.3642972532440885] [0:31819.556920785628] [-2.938526051168354:5.3799295328195225] [-3411.8653993423131:0] [-5.289876255618104:3.3901387894438155] [-4.7779149403008416:5.3777968114372809] [-1872218877.469408:502239234.42645121] [-5.3851648071345029:5.3851648071345037] [-25.518381996781841:38.206757435679009] [-11.094698991913347:10.605389252991554] [-4.4923881414497489:5.0027761305234941] [-0.14635555:0.14865937000000001] [-5.3846618992979076:5.3846989426962901]
tree_sizes=2816 2812 2810

Tree=0
num_leaves=31
num_cat=0
split_feature=108 25 33 7 3 124 84 59 42 39 138 25 109 15 42 37 33 43 161 102 39 82 142 52 35 7 15 73 8 96
split_gain=1.57232e+06 1.09647e+07 2.97993e+06 1.94449e+06 1.72976e+06 912225 1.26519e+06 885200 957574 727549 693181 645982 583968 1.17175e+06 856832 2.12938e+06 1.31427e+06 1.2706e+06 1.21031e+06 1.04542e+06 1.69669e+06 1.22944e+06 1.3345e+06 1.48008e+06 1.10737e+06 1.0731e+06 1.03306e+06 1.0121e+06 902926 1.29753e+06
threshold=3738.6182569404132 1.2837343613382108 -2.7252938551275965 234.21736588534972 1.1950310628013896 -1.9236067378447554 -0.00048764499999999993 -18.069771543114395 53.329062232876318 0.000515277888888889 1.8769073266939162 0.51529080266818028 -0.0020166449999999996 4.2917917215219452 41.246658087634707 1.2043769685531995 1.660813412793728 -2.0126770462402601 -1.0858260018168433 4.115753987664589 -9.6643437499999979e-06 0.57548839722464018 -0.61472633084518857 168.32310113830798 0.17077001031320813 759.68823816262591 2.9489879886563557 0.1966714003829638 1.0367410667063479 0.12399699891686679
decision_type=2 2 2 2 2 2 2 2 2 2 2 2 2 2 2 2 2 2 2 2 2 2 2 2 2 2 2 2 2 2
left_child=12 2 -2 4 -4 6 -5 8 11 -8 -9 -7 13 -1 19 16 17 18 -16 -14 -21 -22 24 25 -23 -24 28 -18 -19 -30
right_child=1 -3 3 5 -6 7 9 10 -10 -11 -12 -13 14 -15 15 -17 27 26 -20 20 21 22 23 -25 -26 -27 -28 -29 29 -31
leaf_value=0.43189215196397801 -2.1500031666121231 7.8860452733779107 1.2870067458312744 2.4422576630627693 4.5449913521325174 0.47033496420062132 0.98799297984264745 1.8928992268756608 -2.4613478757028204 -1.1132075760310847 -0.17860257211740449 -1.3659949925228378 0.23922241924554316 2.6276526484047951 -3.1062228384414028 -2.8972197503928765 -0.33296594287140996 0.082979866243163475 -0.41223349642341284 0.18836004877114509 3.2872178308794759 4.0258478274857579 0.4170618004498281 -1.2841031860291123 1.3699546525043402 3.1219770193705294 -0.72623964066539659 -2.6566749813208919 0.63310548662743116 -0.49182526731277881
leaf_weight=872 39 21 88 40 20 53 45 30 24 26 35 30 115814 25 21 24 53 1784 81 304 28 20 55 38 73 20 123 29 741 119
leaf_count=872 39 21 88 40 20 53 45 30 24 26 35 30 115814 25 21 24 53 1784 81 304 28 20 55 38 73 20 123 29 741 119
internal_value=0.241102 0.830446 0.485871 0.748784 1.89034 0.313138 1.01988 -0.142957 -0.702098 0.218539 0.777475 -0.193399 0.238891 0.493089 0.236981 0.0694006 0.0935277 0.129206 -0.966878 0.241265 0.681058 1.32114 1.05391 0.323735 1.94111 1.13837 0.169611 -1.15477 0.211286 0.477446
internal_weight=120675 451 430 391 108 283 111 172 107 71 65 83 120224 897 119327 2975 2951 2869 102 116352 538 234 206 113 93 75 2767 82 2644 860
internal_count=120675 451 430 391 108 283 111 172 107 71 65 83 120224 897 119327 2975 2951 2869 102 116352 538 234 206 113 93 75 2767 82 2644 860
is_linear=0
shrinkage=1


Tree=1
num_leaves=31
num_cat=0
split_feature=63 147 43 103 163 138 100 133 65 50 117 108 19 63 100 23 68 43 101 6 43 64 103 110 19 94 27 100 150 13
split_gain=1.35795e+06 3.082e+06 5.2599e+06 2.48862e+06 1.80592e+06 1.5586e+06 1.36765e+06 1.2071e+06 680836 607592 663450 598705 1.11283e+06 1.27428e+06 1.09294e+06 1.01142e+06 1.59501e+06 1.07108e+06 1.25848e+06 1.23041e+06 2.09102e+06 2.25899e+06 1.08241e+06 1.02398e+06 828808 728031 686040 4.15418e+06 2.323e+06 1.43874e+06
threshold=94.673724246292508 2.4843758037119934 -0.38535429363239515 1.8138801199763963 1.4516959516304819 2.9623845115981466 2200.6790242836628 -0.030388489999999987 3.8278562002361691 -123.57107028218016 213.4430578327862 2013.3102996839393 2.8135799623296598 56.021589960835179 2052.666833846823 3.380387658771475 -0.00046469499999999994 0.57405338171681086 2223.934874759922 833.57780915100727 1.1414863428801063 1.4688537057912765 0.73917962173582785 0.16734181774549836 -1.2792576074377402 0.00067136500000000005 4.6723962578261036 2395.9271535974431 0.043841248170562362 -4.3201588467406777
decision_type=2 2 2 2 2 2 2 2 2 2 2 2 2 2 2 2 2 2 2 2 2 2 2 2 2 2 2 2 2 2
left_child=11 3 -3 4 5 9 -6 -7 -4 -2 -11 26 15 14 -14 17 24 18 -13 -19 21 -21 -22 -20 -17 -24 -1 29 -29 -28
right_child=1 2 8 -5 6 7 -8 -9 -10 10 -12 12 13 -15 -16 16 -18 19 23 20 22 -23 25 -25 -26 -27 27 28 -30 -31
leaf_value=-0.0054024265905255955 0.42197659532571663 6.8033430655598641 -0.32749651608643709 2.6339949469952972 -0.55351209439729387 0.33112459552288059 -3.7333986668359667 3.8054536705017092 1.9397084711148187 -0.16032292775618726 -1.979058032212434 0.069424867615506453 -0.87672023480938321 -2.9895154020190238 1.1000375398993492 0.73906511688232424 0.28144194113640558 0.18819551494548489 -0.26804305394490557 1.2645631520291591 1.6789040525393055 5.1471561223810376 -0.75014912986755378 -2.2184427443971027 3.278018753230572 1.1828417399415263 2.1801348495483399 5.643970752897717 1.244161812237331 -0.42899873434992158
leaf_weight=117585 116 20 27 37 38 20 21 20 26 78 27 555 93 20 40 20 105 608 63 47 44 22 70 47 36 27 24 21 28 177
leaf_count=117585 116 20 27 37 38 20 21 20 26 78 27 555 93 20 40 20 105 608 63 47 44 22 70 47 36 27 24 21 28 177
internal_value=0.000489037 0.561444 2.43366 0.178611 -0.105293 0.251882 -1.68534 2.06829 0.784717 -0.07688 -0.627998 -0.00152724 0.179626 -0.636103 -0.282207 0.255542 1.00833 0.173817 -0.124245 0.416128 1.07605 2.50249 0.378 -1.1014 2.37125 -0.2121 -0.00428985 0.519002 3.12979 -0.11746
internal_weight=120062 430 73 357 320 261 59 40 53 221 105 119632 1797 153 133 1644 161 1483 665 818 210 69 141 110 56 97 117835 250 49 201
internal_count=120062 430 73 357 320 261 59 40 53 221 105 119632 1797 153 133 1644 161 1483 665 818 210 69 141 110 56 97 117835 250 49 201
is_linear=0
shrinkage=0.01


Tree=2
num_leaves=31
num_cat=0
split_feature=29 111 133 139 142 51 51 84 149 51 104 86 117 147 107 32 32 9 107 25 111 127 32 39 103 39 103 154 109 103
split_gain=4.14858e+06 5.29767e+06 2.58344e+06 1.37996e+06 1.31595e+07 1.36108e+06 1.88797e+06 1.5033e+06 1.6576e+06 1.27074e+06 1.70343e+06 1.96056e+06 1.24889e+06 1.11979e+06 1.1119e+06 1.06791e+06 1.54234e+06 977702 1.19655e+06 945930 902620 779352 1.27669e+06 634424 795856 567720 552983 439454 1.25009e+06 1.03049e+06
threshold=4.316820429033748 2.7813052358227459 0.16998040300000014 806.36419485099384 -1.6804273764993494 -0.2024015291938307 -0.69667475968675052 -0.0015071499999999999 4.1212605751560618 0.4977791263062683 4.1091220464964655 4.481921518542733 213.4430578327862 2.7234933801919232 -0.64670810345477803 -1127.5643622262612 -1642.4786425053665 1.4324170904076372 -3.3326303930942287 -1.8304442458892927 -1.2891180090064982 -0.00085954499999999986 -199.88384405893399 -0.0001313926111111111 0.76571084853437776 0.00078847860763888919 0.98565672594396381 2159.7354254306083 -0.00087370999999999987 1.1698070373865024
decision_type=2 2 2 2 2 2 2 2 2 2 2 2 2 2 2 2 2 2 2 2 2 2 2 2 2 2 2 2 2 2
left_child=3 2 5 27 -5 6 7 8 -2 10 11 15 -11 17 -7 16 -6 18 -9 -20 -17 -21 -23 24 -22 26 -25 -1 29 -29
right_child=1 -3 -4 4 9 14 -8 13 -10 12 -12 -13 -14 -15 -16 20 -18 -19 19 21 23 22 -24 25 -26 -27 -28 28 -30 -31
leaf_value=-0.0024934082109666061 0.36457509168872132 6.0032172384262088 3.5626545441945394 8.2969180715651731 0.30962146357792181 -1.962977559498378 3.3579126516977951 -1.9752581700411711 3.9021752817355666 -0.2333961516824262 2.9044719444788423 -2.2303964609113236 -3.1312736715078353 1.7640044269806299 0.34248231053352357 -1.911669174775481 3.3229662066492542 -1.939855574131012 2.490078271230062 1.8285021133526513 2.8297113761901858 -1.6987944854630366 0.71495118219937592 -1.2300370288954841 0.073481448346918277 1.0479422334035238 0.76840398025512702 0.37369269265183086 0.042700020426023777 1.9170056927376899
leaf_weight=117950 27 20 30 21 41 35 27 22 26 58 26 29 20 39 52 20 29 25 21 23 20 36 56 45 22 30 20 116 855 69
leaf_count=117950 27 20 30 21 41 35 27 22 26 58 26 29 20 39 52 20 29 25 21 23 20 36 56 45 22 30 20 116 855 69
internal_value=0.00480358 0.975136 0.735132 0.00123508 0.6021 0.517071 0.834555 0.586807 2.1 0.153236 0.4657 0.218012 -0.976442 0.225549 -0.585002 0.530804 1.55801 -0.102318 0.188432 0.53844 0.072816 0.182054 -0.229558 0.362522 1.38597 -0.0899507 -0.615132 -0.000688858 0.203971 0.949307
internal_weight=119810 439 419 119371 381 389 302 275 53 360 282 256 78 222 87 227 70 183 158 136 157 115 92 137 42 95 65 118990 1040 185
internal_count=119810 439 419 119371 381 389 302 275 53 360 282 256 78 222 87 227 70 183 158 136 157 115 92 137 42 95 65 118990 1040 185
is_linear=0
shrinkage=0.01


end of trees

feature_importances:
x_480m_NetTaker_neut=5
x_1440m_Premium=4
x_1440m_RatioSkewDiff_neut=4
x_1440m_H2C_neut=3
x_1440m_O2L=3
x_15m_O2L_neut=3
x_480m_H2L_Vol=3
x_120m_L2C=2
x_120m_OI_Chg_neut=2
x_120m_VolDiff_neut=2
x_1440m_O2L_neut=2
x_1440m_RVol=2
x_1m_L2C=2
x_240m_PremiumDiff=2
x_480m_O2L_neut=2
x_480m_OI_Chg=2
x_480m_PremiumDiff=2
x_480m_RatioSkewDiff_neut=2
x_5m_L2C=2
x_5m_WhaleGap=2
x_60m_H2L_Vol_neut=2
x_60m_O2L_neut=2
x_60m_PremiumDiff_neut=2
x_120m_CrowdingPressure_neut=1
x_120m_H2L_Vol=1
x_120m_L2C_neut=1
x_120m_NetTaker_neut=1
x_120m_O2L_neut=1
x_1440m_EffRatio_neut=1
x_1440m_L2C_neut=1
x_1440m_O2C_neut=1
x_1440m_OI_Chg_neut=1
x_1440m_PctB=1
x_15m_O2L=1
x_15m_OI_Chg=1
x_1m_H2C=1
x_1m_L2C_neut=1
x_1m_O2H_neut=1
x_1m_Premium=1
x_240m_EffRatio_neut=1
x_240m_OI_P_Corr=1
x_30m_L2C_neut=1
x_30m_PremiumDiff=1
x_480m_Close_Diff_Rate=1
x_480m_L2C=1
x_480m_L2C_neut=1
x_480m_O2C_neut=1
x_480m_PremiumDiff_neut=1
x_5m_O2L_neut=1
x_5m_PremiumDiff=1
x_60m_O2H=1
x_720m_Close_Diff_Rate_neut=1
x_720m_EffRatio=1
x_720m_O2H=1
x_720m_OI_XSkew=1
x_720m_OI_Z_neut=1

parameters:
[boosting: gbdt]
[objective: regression]
[metric: rmse]
[tree_learner: serial]
[device_type: cpu]
[data_sample_strategy: bagging]
[data: ]
[valid: ]
[num_iterations: 4000]
[learning_rate: 0.01]
[num_leaves: 31]
[num_threads: 0]
[seed: 42]
[deterministic: 0]
[force_col_wise: 0]
[force_row_wise: 0]
[histogram_pool_size: -1]
[max_depth: -1]
[min_data_in_leaf: 20]
[min_sum_hessian_in_leaf: 0.001]
[bagging_fraction: 0.2]
[pos_bagging_fraction: 1]
[neg_bagging_fraction: 1]
[bagging_freq: 1]
[bagging_seed: 400]
[bagging_by_query: 0]
[feature_fraction: 0.4]
[feature_fraction_bynode: 1]
[feature_fraction_seed: 30056]
[extra_trees: 0]
[extra_seed: 12879]
[early_stopping_round: 0]
[early_stopping_min_delta: 0]
[first_metric_only: 0]
[max_delta_step: 0]
[lambda_l1: 0]
[lambda_l2: 0]
[linear_lambda: 0]
[min_gain_to_split: 0]
[drop_rate: 0.1]
[max_drop: 50]
[skip_drop: 0.5]
[xgboost_dart_mode: 0]
[uniform_drop: 0]
[drop_seed: 17869]
[top_rate: 0.2]
[other_rate: 0.1]
[min_data_per_group: 100]
[max_cat_threshold: 32]
[cat_l2: 10]
[cat_smooth: 10]
[max_cat_to_onehot: 4]
[top_k: 20]
[monotone_constraints: ]
[monotone_constraints_method: basic]
[monotone_penalty: 0]
[feature_contri: ]
[forcedsplits_filename: ]
[refit_decay_rate: 0.9]
[cegb_tradeoff: 1]
[cegb_penalty_split: 0]
[cegb_penalty_feature_lazy: ]
[cegb_penalty_feature_coupled: ]
[path_smooth: 0]
[interaction_constraints: ]
[verbosity: -1]
[saved_feature_importance_type: 0]
[use_quantized_grad: 0]
[num_grad_quant_bins: 4]
[quant_train_renew_leaf: 0]
[stochastic_rounding: 1]
[linear_tree: 0]
[max_bin: 255]
[max_bin_by_feature: ]
[min_data_in_bin: 3]
[bin_construct_sample_cnt: 200000]
[data_random_seed: 175]
[is_enable_sparse: 1]
[enable_bundle: 1]
[use_missing: 1]
[zero_as_missing: 0]
[feature_pre_filter: 0]
[pre_partition: 0]
[two_round: 0]
[header: 0]
[label_column: ]
[weight_column: ]
[group_column: ]
[ignore_column: ]
[categorical_feature: ]
[forcedbins_filename: ]
[precise_float_parser: 0]
[parser_config_file: ]
[objective_seed: 16083]
[num_class: 1]
[is_unbalance: 0]
[scale_pos_weight: 1]
[sigmoid: 1]
[boost_from_average: 1]
[reg_sqrt: 0]
[alpha: 0.9]
[fair_c: 1]
[poisson_max_delta_step: 0.7]
[tweedie_variance_power: 1.5]
[lambdarank_truncation_level: 30]
[lambdarank_norm: 1]
[label_gain: ]
[lambdarank_position_bias_regularization: 0]
[eval_at: ]
[multi_error_top_k: 1]
[auc_mu_weights: ]
[num_machines: 1]
[local_listen_port: 12400]
[time_out: 120]
[machine_list_filename: ]
[machines: ]
[gpu_platform_id: -1]
[gpu_device_id: -1]
[gpu_use_dp: 0]
[num_gpu: 1]

end of parameters

pandas_categorical:[]
