tree
version=v4
num_class=1
num_tree_per_iteration=1
label_index=0
max_feature_idx=165
objective=regression
feature_names=x_120m_C2VWAP_neut x_120m_Close_Diff_Rate x_120m_Close_Diff_Rate_neut x_120m_CrowdingPressure_neut x_120m_H2C x_120m_H2C_neut x_120m_H2L_Vol x_120m_L2C x_120m_L2C_neut x_120m_NetTaker_neut x_120m_O2H x_120m_O2H_neut x_120m_O2L x_120m_O2L_neut x_120m_OI_Chg x_120m_OI_Chg_neut x_120m_PremiumDiff x_120m_PremiumDiff_neut x_120m_Vol x_120m_VolDiff_neut x_120m_Vol_neut x_1440m_Close_Diff_Rate_neut x_1440m_EffRatio x_1440m_EffRatio_neut x_1440m_H2C x_1440m_H2C_neut x_1440m_L2C x_1440m_L2C_neut x_1440m_NetTaker_neut x_1440m_O2C_neut x_1440m_O2H x_1440m_O2H_neut x_1440m_O2L x_1440m_O2L_neut x_1440m_OI_Chg x_1440m_OI_Chg_neut x_1440m_OI_Price_Ratio_neut x_1440m_PctB x_1440m_PctB_neut x_1440m_Premium x_1440m_PremiumDiff x_1440m_PremiumDiff_neut x_1440m_RVol x_1440m_RatioSkewDiff_neut x_15m_H2C x_15m_H2C_neut x_15m_H2L_Vol x_15m_L2C x_15m_O2H x_15m_O2H_neut x_15m_O2L x_15m_O2L_neut x_15m_OI_Chg x_15m_OI_Chg_neut x_15m_PremiumDiff x_15m_PremiumDiff_neut x_15m_RatioSkewDiff_neut x_1m_C2VWAP x_1m_C2VWAP_neut x_1m_H2C x_1m_H2C_neut x_1m_H2L_Vol x_1m_H2L_Vol_neut x_1m_L2C x_1m_L2C_neut x_1m_O2H_neut x_1m_O2L x_1m_O2L_neut x_1m_Premium x_1m_PremiumDiff x_1m_PremiumDiff_neut x_1m_Premium_neut x_240m_C2VWAP_neut x_240m_EffRatio_neut x_240m_NetTaker_neut x_240m_O2C x_240m_O2H x_240m_O2H_neut x_240m_O2L x_240m_O2L_neut x_240m_OI_Chg x_240m_OI_Chg_neut x_240m_OI_P_Corr x_240m_PctB_neut x_240m_PremiumDiff x_240m_PremiumDiff_neut x_30m_L2C_neut x_30m_O2C x_30m_O2H x_30m_O2H_neut x_30m_O2L x_30m_O2L_neut x_30m_OI_Chg x_30m_OI_Chg_neut x_30m_PremiumDiff x_30m_PremiumDiff_neut x_480m_Close_Diff_Rate x_480m_EffRatio x_480m_EffRatio_neut x_480m_H2C_neut x_480m_H2L_Vol x_480m_L2C x_480m_L2C_neut x_480m_NetTaker_neut x_480m_O2C_neut x_480m_O2H_neut x_480m_O2L x_480m_O2L_neut x_480m_OI_Chg x_480m_PremiumDiff x_480m_PremiumDiff_neut x_480m_RatioSkewDiff_neut x_5m_C2VWAP x_5m_C2VWAP_neut x_5m_H2C x_5m_H2C_neut x_5m_H2L_Vol_neut x_5m_L2C x_5m_L2C_neut x_5m_O2C x_5m_O2C_neut x_5m_O2H x_5m_O2H_neut x_5m_O2L x_5m_O2L_neut x_5m_OI_Chg x_5m_PctB_neut x_5m_PremiumDiff x_5m_PremiumDiff_neut x_5m_Premium_neut x_5m_RVol x_5m_RVol_neut x_5m_RatioSkew_neut x_5m_WhaleGap x_60m_Close_Diff_Rate x_60m_EffRatio x_60m_EffRatio_neut x_60m_H2C x_60m_H2L_Vol_neut x_60m_O2H x_60m_O2H_neut x_60m_O2L x_60m_O2L_neut x_60m_OI_Chg x_60m_OI_Chg_neut x_60m_OI_Price_Ratio x_60m_PremiumDiff x_60m_PremiumDiff_neut x_60m_Vol_neut x_720m_Close_Diff_Rate_neut x_720m_EffRatio x_720m_H2C_neut x_720m_H2L_Vol x_720m_O2C_neut x_720m_O2H x_720m_O2H_neut x_720m_O2L x_720m_O2L_neut x_720m_OI_Chg_neut x_720m_OI_Price_Ratio x_720m_OI_Price_Ratio_neut x_720m_OI_XSkew x_720m_OI_Z x_720m_OI_Z_neut x_720m_PremiumDiff x_720m_PremiumDiff_neut
feature_infos=[-5.278132129656032:5.3074849848250167] [-0.28717691148630375:1.0570054717293984] [-5.3070828932310432:5.3698854756024001] [-4.6176485185175693:5.1199865198209418] [-2897.1530865623372:0] [-5.356587908069212:3.1384790366105904] [11.89465983906457:11734.387138176782] [0:10950.788664842772] [-3.2948454427408755:5.3787518727408994] [-4.3980697561564561:4.8599139727278056] [0:11608.126259234383] [-2.8578909888294288:5.3842752395470788] [-3128.0174427659244:0] [-5.3787197962922777:3.7402533891308063] [-2965.4033534596392:20194.405099872954] [-5.202177228966562:5.3731306130670049] [-0.11614755000000002:0.10735568000000001] [-5.3844896359168848:5.3844198749219947] [-3.0451080505986723:13.970326420447298] [-5.0837830432688227:5.2234429369019955] [-4.6488589767574302:5.2759797386506744] [-4.6258056616003973:5.3564733706974978] [0:0.20636256522471003] [-3.9579833586812523:4.7519467865696043] [-5112.5180465966432:0] [-5.3262601992461649:3.0939666642073105] [0:44937.002341920379] [-3.2765283601020996:5.3717431159593101] [-4.1040890584648295:4.1058651412602938] [-4.5909181802700694:5.3562597432490833] [0:45557.392643594852] [-2.9573632511768948:5.3537965981317504] [-5146.4320087996703:0] [-5.3451846447501001:3.2530938810236512] [-5120.9636566665531:107335.45863608173] [-4.3918454399243121:5.3815087329423292] [-5.3791254639467887:5.3847492888410926] [-2.1047570713590327:3.8856532520352784] [-5.1011892464960873:5.2261185625358708] [-0.052603552944444437:0.0016908716250000001] [-0.13849446000000001:0.15659154] [-5.3845970043408862:5.3841355614891127] [2.0193546456001275:173.55029648120444] [-4.6584532386859347:4.7160167831618196] [-1932.3101141282962:0] [-5.3466889370373964:3.8297794839007868] [1.1967653143218904:2979.214350843893] [0:2338.3390089134527] [0:2681.371524148024] [-3.3383872567386788:5.3772731390469817] [-2281.8734111766994:0] [-5.3748309913171957:3.781279196479824] [-1527.0158277078017:3940.1844621719006] [-5.3505425565607103:5.356945294840755] [-0.054113170000000002:0.039715739999999999] [-5.3833233891735128:5.3760278596579223] [-5.3489325462002482:5.3234712864936355] [-140.82288450633308:568.96268447554462] [-5.3045630976204565:5.3755108007035881] [-556.01351908334038:0] [-5.3726330811080532:3.2701345747712218] [0:2513.8576275741589] [-3.2653003664650933:5.375349875541553] [0:2245.7755232304244] [-3.1531331661535669:5.3807755208349395] [-3.3661914818398384:5.3779459848799558] [-801.24516061525594:0] [-5.3718191391605554:3.0887848197470014] [-0.16376476000000001:0.020769180000000002] [-0.017107560000000001:0.023352919999999999] [-5.3527988873367462:5.3713541654687713] [-5.3849037621506941:5.3273595623811554] [-5.299059649991487:5.2995640364844858] [-3.8218726311562619:5.0230511516638572] [-4.2520058361924038:4.6932687012240599] [-3398.2401598845281:10510.200707601762] [0:11592.899567128621] [-3.0778376257338809:5.3826174012950192] [-4785.5715316715705:0] [-5.3815440599697864:3.4511676433511966] [-3858.1641048547376:21265.159773976422] [-5.075676963835809:5.3555601878322774] [-0.95813338613807164:0.99471900917511791] [-4.6389260094807749:5.1129269203913443] [-0.13855336000000001:0.16661252999999998] [-5.3848503316559357:5.3843628010210347] [-3.0884512716639692:5.3839306492861301] [-2001.9074041962904:2706.925754276248] [0:2730.0053976585327] [-2.9278513812738955:5.3735531198707411] [-2468.4661957618569:0] [-5.3692281016590471:3.9178992933450152] [-2516.9798670172695:4928.1019267438287] [-5.3430994128828804:5.3568683992671868] [-0.067092349999999995:0.054603430000000008] [-5.3834024293486653:5.3819374033672034] [-0.37673459908262197:2.2345744804096483] [0:0.30218135158254955] [-4.0055051761285476:4.9119285273215345] [-5.2761034180803295:3.0647960446694973] [31.33850614201128:24639.344262295086] [0:22614.008036632091] [-3.2948454427408755:5.3817073937431674] [-4.3342334520599497:4.1559058584181363] [-4.9138096366268904:5.3719669228689977] [-2.6335421477959717:5.3847192830508543] [-4731.6833765687452:0] [-5.2760972993349817:3.484734425349818] [-4330.9332163672252:51254.152986145855] [-0.15344265000000001:0.12756050999999999] [-5.384733834613221:5.384371890229227] [-4.8938242037202118:4.9542435351351619] [-624.85949598053537:641.84833790688072] [-5.3069761900330867:5.3333694419018602] [-1220.9580265799791:0] [-5.3646717924750362:3.3477213225056164] [-3.197552210427165:5.3605968704867548] [0:2311.9532542979714] [-3.2469587078589304:5.3725592548452248] [-1206.6653897720746:2183.1550802139031] [-5.2911636956698054:5.3701484197545684] [0:2580.7622504537208] [-3.1131856297457614:5.3780460970763189] [-1435.2866676408983:0] [-5.3650437316575115:3.6260555101861969] [-1463.0028673727368:4138.5157006948893] [-5.2115451036382918:5.2560922539697454] [-0.032938110000000007:0.033387729999999997] [-5.3660248160061412:5.3784089586640338] [-5.3849924591477087:5.327632068327846] [0:808.83327116703424] [-3.8391868326839051:5.3709733340084993] [-4.3313531137316863:3.3844422419765401] [-1.9054462379999997:2.4633130679999988] [-0.28756226589952505:0.44981842893244717] [0:0.86177311725452599] [-4.1258903857540767:4.9859661679379226] [-2895.6488255679637:0] [-3.3905889697243907:5.3471907489366357] [0:7451.5227944566486] [-3.2882876467027558:5.3782198277618152] [-3120.2494640420973:0] [-5.364197967919786:3.5829739581816846] [-2743.6244200173742:12472.275647645236] [-5.2919944673739492:5.3549849592447574] [-645616845.48910034:478957749.48452473] [-0.10138917:0.06261926000000001] [-5.3842294357286802:5.3841201770829397] [-4.6721727900899159:5.2772121360513751] [-4.8966013877382455:5.3662077534738852] [0:0.25319614147909952] [-5.2151223858062172:3.0645857065252806] [53.73895618908886:32085.948477751761] [-4.9164696696626038:5.3660962449576806] [0:29285.370759006644] [-2.8434955449679378:5.3795392050091602] [-4843.8229078033655:0] [-5.3403520381375218:3.3259527084719722] [-4.8074678779512752:5.3791287878981446] [-2422334175.9390712:26.814175355557424] [-5.385164807134502:5.3839024703154585] [-24.042328364816974:23.289016366374128] [-11.438647765340434:11.210664495814749] [-4.6929156101106582:5.0069857933422304] [-0.14179854:0.17549065999999999] [-5.3847825491919536:5.3848145394391453]
tree_sizes=10800 10934 10871 10827 10920 10866

Tree=0
num_leaves=127
num_cat=0
split_feature=21 28 32 52 82 43 160 101 126 43 114 96 42 49 42 49 7 120 28 82 18 123 123 161 50 18 161 7 17 123 110 43 50 8 120 44 84 21 42 49 27 116 49 127 8 43 27 44 43 21 120 28 61 52 44 161 18 28 27 61 40 49 84 21 8 52 61 84 42 124 50 110 82 40 114 110 82 119 8 114 42 28 42 44 116 82 8 21 161 101 96 21 161 3 27 120 61 96 21 114 40 3 101 27 7 27 126 18 49 43 43 17 3 126 52 32 119 124 49 52 40 82 42 126 61 123
split_gain=1.36061e+06 5.89513e+06 8.78021e+06 1.50991e+06 3.12863e+06 1.88116e+06 1.12481e+06 1.05962e+06 1.03483e+06 1.58137e+06 1.03483e+06 990184 1.50586e+06 1.92328e+06 1.33019e+06 3.96231e+06 2.40313e+06 3.41227e+06 1.62395e+06 2.36922e+06 1.7908e+06 1.21145e+06 1.05559e+06 1.64431e+06 1.50356e+06 1.31963e+06 1.01974e+06 967816 938525 990882 916220 783415 751689 742388 726438 699888 616875 798496 614706 1.12652e+06 820410 810037 504642 477788 423695 1.43393e+06 1.16514e+06 1.89016e+06 1.31038e+06 1.22728e+06 1.18513e+06 964936 1.03141e+06 715661 624414 610289 500665 513309 497835 455392 454199 458230 442180 537894 655296 459559 441113 407683 390940 378607 830051 702903 618623 404013 374933 362742 357156 350831 430533 364698 691921 350736 329508 677909 830128 487684 1.14497e+06 378488 1.15719e+06 2.13081e+06 999546 841756 1.10492e+06 833391 825762 755735 745268 991885 591952 525746 520679 653355 526232 489181 480926 479381 431484 371358 368802 365774 444395 430692 420496 369131 354889 351957 341973 544920 552064 338092 326122 323942 323103 320032 320030 318206
threshold=4.3144032150592198 2.3788659660826519 -538.79756945110751 191.79759841239544 0.93714387726318071 0.056148541781783724 -0.13792284869521373 1717.8005219473328 -0.2101853467238802 0.68349637257960505 -136.13183784861869 0.16280259135703992 72.330445267502967 2.5227865141001957 72.330445267502967 4.134727408775726 1230.745061105745 1.8290347480011702 1.7600430950525103 0.77474583847214873 -0.3388788524944169 -54.152774557753574 -95.485952030385221 -3.3191759072793108 -71.400505042924479 3.5583500092467575 1.6462765188677602 749.74937231005913 0.19236133205970185 -51.787967849390434 -0.26687640200144314 1.1343693203985432 -213.30770732117639 4.1159766832897224 -0.23209737488953749 -234.13110240054212 -0.00053131999999999995 0.92162321405504077 35.33972732156893 3.0321704224383912 3.8994989193908451 1.984237036600087 1.3686681661596403 0.0010057800000000002 3.7593402814948247 0.39155079400595777 1.3938790666406458 -256.61429515321623 -0.81275193702868498 -0.43695151683523292 3.8142513992356091 1.8589081294376597 61.505997842297162 285.14768292592703 -154.91073893002803 -3.2183672639218419 3.7462973182385522 0.94543390259498972 0.65391247435825683 72.265563311649814 0.00031763000000000006 4.6290642438652112 0.00063396500000000011 1.3650523039814904 4.1159766832897224 191.79759841239544 54.650962025164517 0.00093576500000000008 46.974911773200354 -4.4418440526610121 -310.05821642984483 -1.8012878998667525 0.8565426752084575 0.00097853500000000021 -42.783200736161703 1.1072905114493514 0.96059523997646867 -23.206217125549262 -0.46202736744355782 -86.914898770834 29.459826992800664 0.70635638212451624 41.194964613637374 -357.07560630379879 1.984237036600087 0.97555609896851025 0.8516402209349544 1.6062011254895638 -1.4207165446664189 1116.2538596580341 0.055950348517551325 2.8054164755829021 1.3448273046406138 -0.82033371722662773 2.5729119875426454 0.25731302644302917 119.42608959390812 -0.072822662709603123 -0.29829095621092816 -45.51196176320493 0.0010120299999999999 1.0864706116283984 1553.1680316737609 2.4228348993537243 90.573352186463794 0.33893111505056839 -0.60688539382730311 -0.68426748678415439 3.0321704224383912 -1.0357209452645575 0.93448718999734692 -0.20276601841958555 -0.31926656149363142 1.2953392825126648 -176.02092844672399 -436.57890075404987 -57.277099260120139 0.29317896720619246 2.3957671857096101 25.257286764761581 -0.0011031049999999998 0.87558507884129877 32.268487051983051 0.57594642612527391 75.192047216120514 -156.62871062195546
decision_type=2 2 2 2 2 2 2 2 2 2 2 2 2 2 2 2 2 2 2 2 2 2 2 2 2 2 2 2 2 2 2 2 2 2 2 2 2 2 2 2 2 2 2 2 2 2 2 2 2 2 2 2 2 2 2 2 2 2 2 2 2 2 2 2 2 2 2 2 2 2 2 2 2 2 2 2 2 2 2 2 2 2 2 2 2 2 2 2 2 2 2 2 2 2 2 2 2 2 2 2 2 2 2 2 2 2 2 2 2 2 2 2 2 2 2 2 2 2 2 2 2 2 2 2 2 2
left_child=11 3 -3 5 27 7 -4 -2 9 -7 -11 14 22 -14 44 16 17 18 19 -16 35 -19 23 -13 30 33 -20 -5 68 34 -25 81 -12 36 -30 -21 37 -24 39 -38 41 74 -37 67 69 46 50 -48 -49 -50 54 62 -53 55 58 -47 59 -58 -46 66 61 -55 63 123 -65 -66 -57 -32 -10 70 72 -72 -1 77 -40 -34 -35 78 -73 -80 -81 -27 125 84 -84 87 -87 96 89 93 109 94 -93 -89 99 -94 98 -98 103 106 102 104 105 115 -102 114 -92 -95 119 -90 113 112 -112 116 -100 -85 -111 118 -118 120 -107 -104 -68 -51 -39 -71
right_child=1 2 6 4 -6 8 -8 -9 28 10 32 12 13 -15 15 -17 -18 21 26 20 -22 -23 25 24 -26 31 -28 -29 29 -31 43 -33 75 76 -36 42 38 124 40 -41 -42 -43 -44 -45 45 53 47 48 49 51 -52 52 -54 60 -56 56 57 -59 -60 -61 -62 -63 -64 64 65 -67 122 -69 -70 82 71 73 -74 -75 -76 -77 -78 -79 79 80 -82 -83 83 85 -86 86 -88 88 90 -91 91 92 95 107 -96 -97 97 -99 100 -101 101 -103 121 -105 -106 108 -108 -109 -110 110 111 -113 -114 -115 -116 -117 117 -119 -120 -121 -122 -123 -124 -125 -126 -127
leaf_value=-2.0997655952643939 -0.61702130056924587 7.4825051026331622 -0.61284391890575896 1.1890281349082752 4.2357150051492791 3.0678535139486884 2.3138201060282424 -3.5665377234744082 -0.31595906104770954 -1.6125797666360069 2.4643023866232046 3.0147201163915032 -0.23976069457050059 -4.0343426136694216 3.5776196120567358 4.607126149172462 -2.8172270373913415 5.0280911366813328 -3.1650408275934816 -1.8059227000665738 2.221005427577817 1.7392492801335688 2.3651682001736996 -1.7568177747341758 1.9526776565270092 -1.2440410353355373 -0.0099513207062278397 -1.4831750065092315 0.67218152847617363 1.6197848918064039 0.062656124586376483 0.19744626000306445 0.7820008966992551 -2.0031475631164124 -1.9002983303566494 -0.49019023792075767 -0.022444700741117707 -0.1129925742413001 -1.0957806196867996 2.4060258639785341 0.96725615122077924 -2.3282955364450193 1.3840301934865349 -0.96687346712875011 -0.066851589522040455 -1.5234308997007973 3.9031517896570436 -0.80668781304904524 3.4411263444049753 1.0809566814092035 2.2861816505975758 0.85844528084025973 3.7655603295949338 -1.1313052377465134 0.22175759527953809 0.076213082408522231 1.999668385232662 0.13175991609281928 -2.2980728398176797 -0.71671390294433013 -2.020864187639233 0.74348313720171721 -0.40338694508997253 1.5464734524873132 0.48510918247211687 -1.2351478623959191 0.34303307303460784 1.7494819650568236 -2.0877845638605717 0.41580325850264754 -1.1809853725578487 -0.69617430112602252 0.083191961514249319 1.2220336744210503 0.16733440853222048 -0.7218473174135478 -0.32913933566538145 -0.72865886842024186 0.12424314873333597 0.11461452690633482 2.7450544463780759 -2.7731713322016365 -0.066721045071492513 0.11829006836150047 2.0264174514201518 -0.046155190975742111 2.7295004609482292 2.1176469222691887 1.6523082919397099 4.2199300433781977 -0.71070648573962514 -0.26914927301723457 -3.7445825365397103 0.5810927414086694 1.4505263257922252 -1.028442797026313 0.56424059330495546 -1.9301183875739611 -0.69260982016930261 -1.3071452902170786 -1.7682242733848854 -2.3067968026231673 -0.010147961140947098 1.3022413901349821 -0.078277444681799979 -1.3161963146540292 1.3187538929261908 -1.3459716232630377 -1.3593040496427466 -0.43897268006422685 -0.80304357859144015 1.4809338819513811 0.86546394866758758 -0.77519830687967595 0.21069804663956415 1.1989855982988247 0.48648772076269242 -0.5012584430112943 2.1682237384755818 0.095830774010686626 -0.34152680393469348 1.3645016655412552 1.9674326199677821 2.6934898659375546 1.3069149220916318 0.20388727598886394
leaf_weight=34 29 30 29 33 27 26 24 21 20 22 21 25 34 22 24 26 20 21 20 29 32 24 24 32 39 30 21 23 21 33 38 22 53 26 23 51 145 57 47 22 28 31 20 24 20 20 23 38 22 32 24 26 23 32 152 193 31 28 20 55 24 22 33 36 44 24 25 23 33 713 36 28 21 41 47 23 25 38 46 20 20 30 36 1081 40 42 23 20 22 20 20 67 20 20 35 21 25 44 49 35 21 22 30 38 85 41 22 20 34 55 23 56 44 40 387 31 129 46 23 153 211 40 24 20 22 113938
leaf_count=34 29 30 29 33 27 26 24 21 20 22 21 25 34 22 24 26 20 21 20 29 32 24 24 32 39 30 21 23 21 33 38 22 53 26 23 51 145 57 47 22 28 31 20 24 20 20 23 38 22 32 24 26 23 32 152 193 31 28 20 55 24 22 33 36 44 24 25 23 33 713 36 28 21 41 47 23 25 38 46 20 20 30 36 1081 40 42 23 20 22 20 20 67 20 20 35 21 25 44 49 35 21 22 30 38 85 41 22 20 34 55 23 56 44 40 387 31 129 46 23 153 211 40 24 20 22 113938
internal_value=0.204721 0.730061 3.15945 0.235847 1.43963 -0.0715809 0.712438 -1.85582 0.252826 0.833664 0.345522 0.202575 -0.149621 -1.73049 0.204914 0.883705 0.514205 0.78953 0.222002 0.687463 0.16198 3.27404 -0.0295005 0.633803 0.252246 -0.245432 -1.54902 0.0915161 -0.395032 0.309894 -0.314565 -1.41674 0.789628 -0.0428009 -0.672524 -0.496909 0.0946163 0.767724 -0.12204 0.297474 -0.579941 -0.926513 0.0377592 0.228401 0.203273 0.409182 0.75894 1.14104 0.927856 1.18137 0.191097 0.972481 2.22301 -0.00451857 -0.0707882 0.176315 0.271806 1.1132 -1.18246 0.10466 -0.876229 -0.367503 0.64827 0.870735 0.455522 -0.12204 0.291336 0.698672 -1.41917 0.201545 -0.163135 0.10181 -1.26627 0.341088 -0.464223 0.326889 -1.18256 0.103465 0.380839 0.731495 1.42983 -2.00861 0.202424 0.101867 1.03493 0.0789553 0.936 0.0605699 0.257533 1.39317 0.119461 -0.430478 -1.06039 0.450923 0.176936 -2.35339 -0.00285003 -1.02637 0.028919 -0.401969 -0.140017 -0.738561 -0.0589445 0.186544 -0.413078 -0.125689 0.352344 -0.382439 -0.358953 0.395685 0.329229 0.833681 0.292693 0.117463 0.10918 0.148417 0.258596 0.452365 0.740961 -0.274973 -0.500104 0.775366 1.13866 1.70116 0.282425 0.205205
internal_weight=120669 491 83 408 83 325 53 50 275 145 119 120178 793 56 119385 288 262 242 197 156 132 45 737 181 156 556 41 56 130 77 117 82 97 474 44 100 423 103 320 167 153 125 71 85 119097 991 537 321 298 260 216 238 49 454 192 376 356 59 40 297 78 54 189 156 104 68 242 61 53 118106 284 229 55 193 94 76 51 152 114 86 40 60 117822 3171 76 3095 65 3030 738 80 658 220 108 60 112 41 2292 69 2223 77 1073 128 945 1150 106 875 42 40 439 438 416 123 67 293 436 1112 253 198 152 405 252 70 49 52 79 114651
internal_count=120669 491 83 408 83 325 53 50 275 145 119 120178 793 56 119385 288 262 242 197 156 132 45 737 181 156 556 41 56 130 77 117 82 97 474 44 100 423 103 320 167 153 125 71 85 119097 991 537 321 298 260 216 238 49 454 192 376 356 59 40 297 78 54 189 156 104 68 242 61 53 118106 284 229 55 193 94 76 51 152 114 86 40 60 117822 3171 76 3095 65 3030 738 80 658 220 108 60 112 41 2292 69 2223 77 1073 128 945 1150 106 875 42 40 439 438 416 123 67 293 436 1112 253 198 152 405 252 70 49 52 79 114651
is_linear=0
shrinkage=1


Tree=1
num_leaves=127
num_cat=0
split_feature=134 95 61 27 127 23 76 157 24 74 2 157 100 75 74 5 75 65 95 94 157 61 150 43 24 119 24 61 86 100 74 43 150 64 122 43 95 122 43 123 108 24 134 23 157 60 27 100 43 150 133 27 2 135 123 117 23 43 86 134 133 27 65 150 43 157 157 122 111 5 61 74 128 24 5 75 122 123 122 2 12 128 43 94 128 61 12 100 86 75 150 61 119 64 101 111 90 157 135 76 27 5 27 133 90 117 128 5 12 74 64 23 94 117 122 128 157 133 157 135 2 123 24 5 65 23
split_gain=2.4697e+06 3.8003e+06 2.42278e+06 3.62606e+06 4.2642e+06 3.00555e+06 1.62705e+06 1.08579e+06 872177 4.02311e+06 1.78399e+06 2.50065e+06 3.28703e+06 1.73148e+06 1.57673e+06 1.14496e+06 1.32734e+06 893544 830001 1.68923e+06 773048 1.27029e+06 1.20919e+06 742320 948634 1.38479e+06 1.01319e+06 1.90641e+06 947480 893850 1.37367e+06 866699 1.06532e+06 853963 699212 807649 967684 632172 631781 593412 2.96261e+06 3.91157e+06 1.53102e+06 640486 587131 574456 590261 559236 2.71542e+06 1.85498e+06 1.08578e+06 1.62668e+06 2.13119e+06 1.38944e+06 1.16457e+06 749558 632047 1.3063e+06 1.17802e+06 1.14617e+06 743896 611636 538254 528966 523529 481520 587201 587126 468124 582897 644003 523397 463270 553892 457669 557685 449430 443382 439789 388722 577670 525050 382954 368976 356803 349853 703713 505830 366801 518464 761425 987354 1.77842e+06 829162 836121 704921 459725 420802 394298 500067 389695 531319 670455 551290 1.36253e+06 1.67346e+06 450755 384052 374417 399069 516359 606825 501682 562505 719159 446140 371522 614668 465453 560423 408172 591720 457527 453883 410533 362695
threshold=0.053440073346816004 3.7710038664654451 147.99435578584209 4.7696120132599367 -1.0000000180025095e-35 -0.6287484465874279 1064.5993815445879 0.19865618928762899 -2036.8010811811798 -1.8908506089975263 -2.5012838194260367 -2.1756166561425467 2394.0346520542125 610.98830923426942 -0.09619589578781669 -3.1429985613267797 -773.02717234911108 0.29938457569966814 1.6004940306816724 0.00082613500000000009 -4.0536371980152435 72.265563311649814 0.055333348506902844 -1.6193473099953548 -1566.7037467971454 23.654104226760179 -240.23238485905594 119.42608959390812 3.7123057889334121 1540.9492924608173 1.1294599434348471 -0.23585404727292666 0.11565722264244756 2.3562766673341993 1.9359642009374298 -0.25387521687408549 -0.32360641926478484 3.4627054815309593 -0.39246637157674308 -227.27533136435548 2049.2680931369459 -989.47709140404675 0.0069207894939254952 -1.1412168112155554 0.80955898530341408 -3.1484552753946149 0.24949401991537426 2618.0331535746532 -1.3593016351807563 0.010132893730456284 -0.058329407999999965 4.7696120132599367 0.44628839337460319 0.060590869736896029 -55.745032363184173 111.47734609460836 -0.020354509096126672 -0.67631461827477801 1.9395470608012546 0.0010139335103200866 0.02857081499999992 0.2363139814493114 -0.15463799050218835 0.084047311488804136 0.65818554999176959 0.89909208119005235 -0.18870020225343828 1.0000000180025095e-35 1.7401498367366 0.28194259460912113 59.896789996515274 1.2513653184441498 0.86279823135905931 -1114.0372253134758 -1.6420736114108603 -881.39297292577783 0.81890344173424057 -92.731835950051178 0.046849789824293143 1.8202748052838365 -220.63798990428481 -0.24850088775944426 0.67079627378749385 7.2335000000000045e-05 -0.019980235388562802 147.99435578584209 -78.490844322275365 1751.7869688203393 2.6304674588788344 610.98830923426942 0.058375095338901235 75.192047216120514 103.50784422826332 1.4027125483748171 1116.2538596580341 2.5872133941640971 -181.88334892597746 -0.25760963675530452 0.15772291110866585 1064.5993815445879 2.026169540074001 -4.1846381662798153 3.8994989193908451 0.44051106699999992 -161.66960611405042 49.857343798224157 -3.7472847970071239 0.34040343365476849 -5.8473756615706742 0.66199612911527672 2.4959866835622937 -0.95524577740324201 0.00066399500000000001 21.141809831404238 0.31033703334985635 -1.1367338324308058 1.5097792784401738 -0.053360102000000069 -0.090276442577656976 0.082177606799791983 2.6298943846624847 -73.569190347524952 -222.34280499930756 -0.80456363346401794 0.018754546513093308 2.4814442292115517
decision_type=2 2 2 2 2 2 2 2 2 2 2 2 2 2 2 2 2 2 2 2 2 2 2 2 2 2 2 2 2 2 2 2 2 2 2 2 2 2 2 2 2 2 2 2 2 2 2 2 2 2 2 2 2 2 2 2 2 2 2 2 2 2 2 2 2 2 2 2 2 2 2 2 2 2 2 2 2 2 2 2 2 2 2 2 2 2 2 2 2 2 2 2 2 2 2 2 2 2 2 2 2 2 2 2 2 2 2 2 2 2 2 2 2 2 2 2 2 2 2 2 2 2 2 2 2 2
left_child=8 2 3 23 -5 -4 -7 -8 9 -1 11 12 38 15 -14 16 -12 -13 34 -20 21 45 -23 -2 25 -25 28 29 33 44 31 -31 -33 79 -17 -36 -37 -30 -11 40 43 -42 -43 -22 68 -10 -47 85 -49 -50 53 56 -53 54 -51 -55 77 60 61 -60 -58 -59 82 76 -61 66 78 83 69 70 -28 -71 73 -48 -21 -76 -64 -52 -45 -26 -81 -82 -63 -68 -80 88 87 -87 100 95 91 92 93 107 -95 125 -92 -97 99 -98 -41 102 -102 106 105 -105 -103 -91 109 110 -108 -112 116 114 -114 -115 118 -118 119 -111 121 123 -123 124 -120 -90
right_child=1 -3 5 4 -6 6 7 -9 20 10 13 17 14 -15 -16 18 -18 -19 19 74 39 22 -24 24 26 -27 27 -29 37 30 -32 32 -34 -35 35 36 -38 -39 -40 47 41 42 -44 65 -46 46 72 48 49 50 51 52 -54 55 -56 -57 57 58 59 64 -62 62 63 -65 -66 -67 67 -69 -70 71 -72 -73 -74 -75 75 -77 -78 -79 84 80 81 -83 -84 -85 -86 86 -88 -89 89 90 96 -93 -94 94 -96 97 98 -99 -100 -101 101 103 -104 104 -106 -107 108 -109 -110 112 111 -113 113 115 -116 -117 117 -119 120 -121 -122 122 -124 -125 -126 -127
leaf_value=4.1399151213352496 -1.2132696092902469 3.9643639804470925 2.3323424024167272 0.19965388488769531 6.6515312744322275 -0.002480940818786621 -1.5334185006277903 -4.2312643520648665 1.105434780438741 -0.19972536596092016 -3.2043199748884548 0.57865796356201171 6.2007531438555032 -2.3653113818990774 2.2774994850158694 -0.01565285723845701 -0.051974560933954576 -2.2194034721737816 3.5735408660173413 1.3580950826864975 1.2585445924238725 -2.9512191440661746 0.02454322858290239 0.14529872038785149 0.31267680485700738 2.940931867715475 0.38665621239798414 3.1509212621053058 0.0061799135208129886 2.1205500727114468 2.786905123865282 0.8151832732481834 -1.9784714072091241 1.7668967628479004 -0.20043915216312852 2.9563996360983169 0.42887324687206391 -2.3216116659981867 2.0062712435722352 -0.0053795074908182293 6.0337205944061285 2.5252732892263503 -1.340687099456787 0.033228038434059387 -1.1778913953227383 0.01617158186786315 -2.1462351730974709 2.7107075816187365 -2.8450034796396895 -4.3208555723689495 1.7440227301915487 3.7790247384707136 -0.19020250566544072 -0.90369295678640671 -1.0833931304931641 1.0924260509490966 -3.4555515125819616 0.48953617802397775 2.7181924784701805 1.0249488441467285 -0.79383621726717268 0.49906321903554407 -1.2362226244807244 -0.47128916868796716 -1.0427756704638402 -1.604244087882664 -0.82268875401595543 1.7381927067892893 -1.0245755333250219 0.55263551794752785 2.4643822585619413 -1.2254938850402832 0.058155424865809352 -0.41995299816131593 1.5383068938255309 -0.35216888693017018 -2.9482589456309443 0.081681484825470871 -0.35763152711666552 0.83689262676239018 -2.1758894377488356 -0.20241482836859567 -0.88512174948667866 0.77251050159848977 -1.9844736058371408 -0.27421819438253131 2.0691541488965353 1.4351314803828366 -0.22997273840929616 0.38281660047070731 -1.358407571726832 -0.64566452825353249 3.518921265983582 0.42547925779694007 2.8096255803108217 2.0242567912015046 -0.46934778849283854 0.21589881189407842 -0.36856119403881688 1.2749957262902032 0.11199524154265722 -0.95041773483488301 1.7770957374572753 0.29913303662430157 0.054054535329341888 3.206338051689996 0.036335998573379422 -1.3693278557604009 -0.51511462688915899 0.098200131372865193 0.86734900419054362 -0.68567405670567572 -0.26792439531396939 -1.8030286310911181 2.1994869540986559 -0.24562109455531342 2.4368536911010743 0.46100715054048075 2.3810092722851297 0.81069570706279803 -0.63240436932811994 -0.1769644731892781 0.43036836624145508 0.0068594778620678443 0.7765109730913089 0.31763258221326396
leaf_weight=26 26 31 23 20 21 36 35 26 30 37 22 25 21 29 20 925 34 21 20 39 33 36 22 34 116 37 35 30 20 23 37 39 21 30 43 28 33 28 20 109434 20 21 20 62 31 170 41 29 30 20 21 24 31 76 25 25 21 44 23 25 21 41 46 52 24 23 29 28 22 49 26 25 33 34 20 71 23 68 26 20 26 28 39 29 28 70 24 23 2196 29 29 42 25 38 24 22 27 31 112 42 57 45 42 44 192 36 1674 22 111 203 29 190 27 20 21 229 20 74 23 242 73 385 183 46 52 128
leaf_count=26 26 31 23 20 21 36 35 26 30 37 22 25 21 29 20 925 34 21 20 39 33 36 22 34 116 37 35 30 20 23 37 39 21 30 43 28 33 28 20 109434 20 21 20 62 31 170 41 29 30 20 21 24 31 76 25 25 21 44 23 25 21 41 46 52 24 23 29 28 22 49 26 25 33 34 20 71 23 68 26 20 26 28 39 29 28 70 24 23 2196 29 29 42 25 38 24 22 27 31 112 42 57 45 42 44 192 36 1674 22 111 203 29 190 27 20 21 229 20 74 23 242 73 385 183 46 52 128
internal_value=0.000901756 0.524244 0.400814 0.613483 3.50427 -0.917733 -1.68837 -2.68332 -0.00302892 0.242102 0.170126 1.22472 2.12757 0.0499816 4.28697 0.106697 -1.2904 -0.698718 0.173056 0.867991 -0.00601475 -0.464882 -1.82248 0.444888 0.508569 1.60218 0.38044 0.744537 -0.0787575 0.510149 1.18444 0.470083 -0.162596 0.198975 0.0717534 0.849165 1.58905 -1.3517 0.574309 -0.00458376 0.426133 2.40806 0.639439 -0.0424611 0.0797522 -0.20923 -0.3511 -0.00575767 -0.285955 -0.413942 -0.301566 -0.0812013 1.54182 -1.06077 -2.52227 -0.409604 -0.280457 -0.467475 -0.247906 0.876605 -2.12469 -0.578375 -0.812146 -1.23292 0.0121858 -0.233275 -0.0771748 0.549003 0.328077 0.548509 1.27224 -0.0480839 -0.929212 -1.36365 0.451753 0.0633203 -1.8069 0.473919 -0.54141 -0.0485915 -0.614904 -1.15261 -0.175727 -0.0250891 -1.20118 -0.00405244 0.5425 0.148524 -0.00460266 -0.11836 0.219578 0.696838 1.10543 0.571466 1.34837 -0.173806 -0.189501 0.966538 -0.00221781 0.592427 -0.00182823 0.0948943 0.818402 0.0766174 0.510914 1.60738 0.0442267 -0.37301 0.0566529 0.0748328 -0.0234012 -0.480023 0.191201 -0.179638 0.811568 -0.370714 0.275859 0.8814 0.2287 0.48567 0.0786324 0.153967 0.0187079 0.788903 1.26856 -0.199812
internal_weight=120058 895 864 744 41 120 97 61 119163 1434 1408 144 98 1264 41 1235 56 46 1179 150 117729 366 58 703 677 71 606 338 268 308 120 83 60 220 1029 104 61 48 57 117363 319 61 41 258 188 308 278 117044 708 679 649 503 55 146 45 101 448 359 317 72 42 245 201 121 49 225 202 86 157 135 61 74 108 75 130 91 69 89 116 190 74 54 80 58 54 116336 117 93 116219 2767 390 180 138 113 62 2377 210 53 181 69 113452 4018 99 3919 272 80 3647 51 3602 3491 1893 219 1598 297 48 249 1301 94 1207 445 762 689 568 121 75 2324
internal_count=120058 895 864 744 41 120 97 61 119163 1434 1408 144 98 1264 41 1235 56 46 1179 150 117729 366 58 703 677 71 606 338 268 308 120 83 60 220 1029 104 61 48 57 117363 319 61 41 258 188 308 278 117044 708 679 649 503 55 146 45 101 448 359 317 72 42 245 201 121 49 225 202 86 157 135 61 74 108 75 130 91 69 89 116 190 74 54 80 58 54 116336 117 93 116219 2767 390 180 138 113 62 2377 210 53 181 69 113452 4018 99 3919 272 80 3647 51 3602 3491 1893 219 1598 297 48 249 1301 94 1207 445 762 689 568 121 75 2324
is_linear=0
shrinkage=0.01


Tree=2
num_leaves=127
num_cat=0
split_feature=25 83 32 103 122 9 100 138 100 23 152 147 32 22 105 11 138 89 100 152 32 6 75 86 140 103 72 100 25 6 111 29 32 149 95 111 32 76 148 9 11 117 152 111 72 139 95 139 148 122 149 95 76 76 135 146 11 152 31 15 117 139 72 31 122 25 83 135 23 6 15 117 55 31 72 152 55 9 147 147 148 72 103 31 148 149 29 111 105 149 149 122 22 111 95 111 86 9 76 29 147 146 55 32 15 6 29 105 149 76 29 152 117 23 23 149 111 147 139 105 146 148 122 76 86 117
split_gain=976521 2.24679e+06 6.27318e+06 2.71105e+07 1.36901e+06 3.12708e+06 6.96161e+06 1.64542e+06 1.42521e+06 1.41286e+06 1.25261e+06 975007 953924 948112 933934 889684 867452 766225 604275 1.42234e+06 915830 595253 497065 688470 643763 610606 596651 552996 493712 832527 1.3678e+06 655341 2.17216e+06 1.85519e+06 2.16751e+06 1.57569e+06 2.42188e+06 836198 1.8368e+06 607719 593890 538556 498700 868684 992246 587696 572547 490071 484734 454728 528634 429098 422240 421480 858354 2.09838e+06 2.20066e+06 1.14354e+06 1.15393e+06 1.06445e+06 1.12948e+06 992505 1.01425e+06 904079 629093 536749 403371 399908 450404 706463 391121 380757 389477 461415 639589 374690 1.3943e+06 1.4023e+06 833172 818750 711377 719054 808929 741529 623969 531438 812691 841653 600374 650248 404463 407433 381192 423314 359337 390612 371665 355574 330264 329580 326636 336653 318165 341264 315156 429790 551824 804461 467412 766904 470555 454350 566500 453137 428099 377628 365606 517045 352146 318402 306696 568753 341395 329896 543051 1.42555e+06
threshold=-2.4744998603955226 -1.6176374584097475 -1539.3917890454481 -1.3010962452286392 4.6167679555743391 1.5820866024987066 1583.9640085329745 4.280436458661268 2618.0331535746532 1.2672955962167929 2598.3090948914637 -3.7727857774765812 -311.83618985419707 0.038574056637324723 4.2138945640047281 4.1614355555544806 4.280436458661268 0.70843310533808745 1044.0921323926611 1371.6132456939893 -467.03175277888693 1050.002789611736 -39.985361163877293 4.0738966917901616 2.7045505530213263 1.8741538285713624 -1.7970779490479007 1372.9177952484863 -1.5570166384443114 1822.2788180134464 0.047234235557602582 4.308382451868157 -918.35529785023289 2.3916598367634454 -1.1942514208992951 -0.13092758563735671 -64.410706534885335 1542.303484451937 1.9738699123226944 0.51129323444022379 2.0677646492383395 77.632217521250723 2948.675788236736 -0.29142712581687674 -0.31604201922201819 307.38090595208496 0.27725106695305796 172.6631719785166 -0.11417559686695394 2.2423623453321357 -1.7673122056583777 0.39379590661553199 232.78447535437178 1542.303484451937 0.28701553215290115 -0.00073908999999999986 3.2864424820161786 3211.7840049507413 3.565559525142004 1.8177527505674818 37.514015883756137 905.6532277091801 2.4636877120295395 2.2078414402698932 1.9359642009374298 -0.45034453740033281 1.7471818779173212 0.11256670979494189 0.78146567342077267 1050.002789611736 0.34334100756550084 98.0009735517895 0.18216980998789725 0.10545752955943329 -1.8825324961420249 2756.4054710653759 3.1491924411376537 2.1726042495407412 -2.2999027728513046 -2.0178345214381337 2.6137296331318307 -0.16067137866704123 1.6389023450822162 3.8453472115346852 0.44366480934312419 3.6373879272396095 0.91421849491066831 1.2273137039644026 1.2972623289011354 0.66173990181305065 3.6373879272396095 3.7529761623589497 0.066925815141165315 -0.1467751445291581 -0.75406682180409523 1.9481586591102633 0.028008868146770345 1.0158953781962647 520.95133577273475 -0.5684973892454751 -1.2620998451509295 7.0220000000000029e-05 -0.50491344826159712 -2107.8802658114059 -2.5061125521257037 547.44002501853186 1.8251814043688717 2.8838791050811592 -0.39258900141219866 558.01219297170212 -1.2950522828620603 2354.7924239098952 43.109601503139594 0.30769772007744922 0.68553322417233564 -0.61294531420806309 -1.0102266921330225 -1.4268947377277634 364.88372546776731 0.91606755033430753 0.0015584900000000003 2.6137296331318307 1.5620359280954415 639.74993221021862 3.7123057889334121 160.30593026356237
decision_type=2 2 2 2 2 2 2 2 2 2 2 2 2 2 2 2 2 2 2 2 2 2 2 2 2 2 2 2 2 2 2 2 2 2 2 2 2 2 2 2 2 2 2 2 2 2 2 2 2 2 2 2 2 2 2 2 2 2 2 2 2 2 2 2 2 2 2 2 2 2 2 2 2 2 2 2 2 2 2 2 2 2 2 2 2 2 2 2 2 2 2 2 2 2 2 2 2 2 2 2 2 2 2 2 2 2 2 2 2 2 2 2 2 2 2 2 2 2 2 2 2 2 2 2 2 2
left_child=1 2 3 -1 28 7 51 8 14 -9 21 13 -12 -3 18 16 22 98 -6 -20 66 -4 24 25 49 -24 -26 -28 29 42 -31 53 -33 34 -34 -35 37 39 -39 40 -37 -41 71 47 46 -46 -45 -44 -17 -13 52 -7 -51 75 57 -56 -57 61 59 65 -61 62 64 -62 67 -59 -21 68 70 -70 -55 104 99 -74 -75 90 77 78 84 -80 81 82 94 85 -77 86 88 92 89 -83 120 -92 93 -88 -81 96 -96 100 102 -73 -64 -102 -5 -104 116 118 107 108 110 -110 113 112 -108 -107 -115 -112 119 -118 -106 -2 123 -122 -123 -30 -125 -126
right_child=4 11 10 17 5 6 -8 9 -10 -11 12 15 -14 -15 -16 48 -18 -19 19 20 -22 -23 23 -25 26 -27 27 -29 31 30 -32 32 33 35 -36 36 -38 38 -40 41 -42 -43 43 44 45 -47 -48 -49 -50 50 -52 -53 -54 54 55 56 -58 58 -60 60 63 -63 97 -65 -66 -67 -68 -69 69 -71 -72 72 73 74 -76 76 -78 -79 79 80 -82 83 -84 -85 -86 -87 87 -89 -90 -91 91 -93 -94 -95 95 -97 -98 -99 -100 -101 101 -103 103 -105 105 106 111 -109 109 -111 115 -113 -114 114 -116 -117 117 -119 -120 -121 121 122 -124 124 125 -127
leaf_value=12.492060428287672 0.15379328060657421 0.24089293887740687 0.060729456928283646 1.5910553205013276 0.050540192862433837 1.0257803469399611 6.7324870697021479 -3.1177958694458012 2.9620813940871846 -0.07244873438126001 2.7380005678822918 0.15231043265688521 0.082467607657114667 2.6917209540473088 -1.4868958972967588 -2.4359233539754697 1.5432370878520767 2.0437577398816744 3.2207011985778808 -1.3590032620231309 1.8545732249153986 -1.666187987554641 -0.073378296914173288 -1.9801236562728883 -0.48682855558395388 -1.7565878969972784 0.60955506689846517 2.5338977267912455 -0.0026302759791030552 -0.50755439405257885 2.6776823006357469 3.651547450900078 4.4683566775321957 -2.2131725331508751 0.48359920923099964 1.329632428898053 2.9257326353920834 3.0739870977401735 -1.1604702281951904 -0.78139501131497902 -1.0513237862586975 -2.7123179521560665 -0.44864840334111999 -1.0366698377447972 -0.88754182295365769 -3.0550022255552229 0.38978963253398741 1.070921890793777 -0.3596576392132303 -0.54212508714362362 0.18333078647768777 -0.9574990347921849 -2.1511862146286735 0.47039206902186076 -1.9819062076915395 -0.48418190274919781 3.2770838702065608 -1.5586049513816835 0.72492031914847233 -0.38578184908086605 -2.0231303630955519 1.5757743376493454 -2.4177964318882337 -4.6934086499895367 1.3181389504008822 0.41077127993106843 0.56390230238437655 -0.58815214065214005 -0.016865765606915509 2.4628205311298372 -1.0619688296005609 -0.39914718670989657 -0.10915381185404241 -2.6177063738781472 -0.74033392141031673 -0.29539992820057609 2.523124154853821 2.7536601777076721 2.1524955688714984 -0.46459582975653357 1.8056738217671713 0.11767615171415466 2.1710502682561459 -1.580767348005965 -2.4643918146405901 0.99242125880718235 -0.65072144610541205 0.84777793739152996 -1.2557120989050183 1.9725257464817592 -0.25412748044653649 -1.5635811742681724 -0.54368082997344791 -2.4198349066784508 0.18453047078778173 -0.46410796628846807 0.88075772489575177 -0.051488340165879998 -0.93341548919677741 0.53005317938132368 -0.10121520957946778 -1.5953841184314927 -0.9178027386665345 0.74736035272479062 -0.048794923349580993 -1.3670540839301217 0.15699641382694243 -1.7918235600622077 -1.3443301414450011 0.043710644411690092 -0.014933642332878295 -0.69127331085205068 2.0759162490844729 0.93808648618367996 -0.42046065867363019 1.0588887643814087 1.6647186318039895 0.27005231403051666 0.95832268469674253 -1.2430103180885315 -0.12045974062725404 -0.43940092750217602 -2.2029247608638944 0.057807353715242142 0.18703864654948038 2.2730532498359679
leaf_weight=23 47 38 403 20 121 24 25 25 22 39 31 1330 24 27 26 22 38 30 24 24 27 21 1058 20 20 22 32 28 101370 26 28 20 20 33 43 22 27 20 21 52 20 20 44 68 22 29 48 41 23 73 86 20 21 36 22 28 35 25 28 22 32 32 22 21 36 31 20 96 27 20 31 102 73 23 86 36 25 20 20 61 24 189 23 37 21 40 21 23 28 21 276 26 42 38 171 49 139 27 20 61 25 38 20 32 4319 45 40 38 96 68 237 25 25 26 215 38 32 157 35 25 1045 23 21 4887 181 40
leaf_count=23 47 38 403 20 121 24 25 25 22 39 31 1330 24 27 26 22 38 30 24 24 27 21 1058 20 20 22 32 28 101370 26 28 20 20 33 43 22 27 20 21 52 20 20 44 68 22 29 48 41 23 73 86 20 21 36 22 28 35 25 28 22 32 32 22 21 36 31 20 96 27 20 31 102 73 23 86 36 25 20 20 61 24 189 23 37 21 40 21 23 28 21 276 26 42 38 171 49 139 27 20 61 25 38 20 32 4319 45 40 38 96 68 237 25 25 26 215 38 32 157 35 25 1045 23 21 4887 181 40
internal_value=0.00223681 0.167741 0.711032 2.5334 -0.002688 0.583538 2.51856 0.176475 0.525205 -1.26204 0.159376 0.0482864 1.57922 1.25893 0.303671 0.0199086 0.0429138 0.655943 0.519202 1.11613 0.404725 -0.0248018 0.0217197 -0.141711 0.134785 -0.107666 1.00898 1.50758 -0.00469521 -0.0921178 1.14405 0.000175443 0.468488 0.239491 1.7486 -0.202714 0.16182 -0.319636 0.905119 -0.760118 0.195844 -1.31776 -0.103124 -0.53864 -0.957513 -2.12002 -0.446411 0.284321 -1.37472 0.0884697 -0.383242 0.12429 -0.901596 -0.00109869 -0.258188 0.676928 1.60541 -0.402969 -1.11775 -1.5116 -2.29052 -0.111557 -0.26238 -3.08117 0.0967663 -0.468415 -0.484955 -0.112612 0.287843 1.03832 -0.238611 -0.084244 -0.406446 -0.724419 -1.13648 0.000398085 0.19041 0.132266 0.0789316 0.151162 0.106983 0.06076 0.344994 -0.226064 -1.0945 -0.101378 -0.222239 -0.878666 0.119764 0.303161 -0.00141274 -0.366862 -1.27182 -1.79015 0.244996 0.365568 0.49671 -1.05122 0.203394 -0.0514096 -1.36878 -1.00246 0.519175 0.106913 -0.0639148 -0.0809119 -0.286172 -0.373526 -0.299188 -0.768801 -0.161903 0.454399 0.895043 -0.445896 -0.273895 0.133449 0.275181 0.506186 -0.0406991 -0.331208 -0.000386722 -0.167354 -1.28108 0.00132093 0.0797339 0.564598
internal_weight=119807 3462 624 145 116345 397 69 328 264 64 479 2838 55 65 242 2773 2728 122 216 95 71 424 2690 1100 1590 1080 80 60 115948 6119 54 109829 298 278 63 215 182 155 41 114 42 72 6065 252 167 51 116 85 45 1510 180 44 94 109531 634 85 63 549 159 131 75 390 358 53 246 56 44 210 114 47 67 5813 345 182 109 108897 1028 1003 983 926 906 882 443 439 57 402 362 124 238 210 107869 302 101 59 420 359 310 112 92 163 85 63 72 52 5468 5207 853 763 725 164 561 90 65 286 241 275 261 189 4354 72 107567 1089 44 106478 5108 221
internal_count=119807 3462 624 145 116345 397 69 328 264 64 479 2838 55 65 242 2773 2728 122 216 95 71 424 2690 1100 1590 1080 80 60 115948 6119 54 109829 298 278 63 215 182 155 41 114 42 72 6065 252 167 51 116 85 45 1510 180 44 94 109531 634 85 63 549 159 131 75 390 358 53 246 56 44 210 114 47 67 5813 345 182 109 108897 1028 1003 983 926 906 882 443 439 57 402 362 124 238 210 107869 302 101 59 420 359 310 112 92 163 85 63 72 52 5468 5207 853 763 725 164 561 90 65 286 241 275 261 189 4354 72 107567 1089 44 106478 5108 221
is_linear=0
shrinkage=0.01


Tree=3
num_leaves=127
num_cat=0
split_feature=138 155 73 145 125 43 111 62 55 111 30 43 117 116 85 64 143 117 43 128 26 30 115 31 75 26 128 92 132 150 62 150 80 143 30 27 111 103 92 31 117 73 147 160 64 26 111 145 109 132 147 132 30 73 145 147 150 31 116 132 138 138 43 138 145 125 80 92 124 115 31 55 155 143 73 109 125 27 116 75 85 103 26 155 103 160 103 26 55 150 92 30 125 64 67 138 160 92 82 55 92 26 117 125 71 103 115 80 143 82 43 26 27 31 26 125 115 160 138 71 43 160 143 31 67 109
split_gain=1.61171e+06 1.9376e+06 3.94649e+06 2.46124e+06 1.68683e+06 1.60348e+06 1.46697e+06 1.83711e+06 1.82286e+06 2.15548e+06 1.19417e+06 838655 797301 750939 622931 1.13453e+06 778221 681250 1.83075e+06 1.56247e+06 1.79924e+06 3.00473e+06 1.66276e+06 704531 643539 595394 1.75879e+06 1.36749e+06 1.31129e+06 1.18911e+06 1.0499e+06 903852 828870 724982 689294 2.00386e+06 1.35033e+06 1.51937e+06 1.55085e+06 1.20471e+06 779205 780549 733149 784871 718336 736504 708762 603408 610346 600160 591028 573682 563215 802403 821068 1.00088e+06 552131 951660 516104 514403 505322 504777 490173 477395 465310 507275 455333 447094 410995 412407 407487 401765 398013 371817 363860 385641 359756 449745 344322 576356 534998 860864 678704 431347 610353 411758 563140 384105 383142 5.02146e+06 401587 343612 441890 340868 338285 335066 331202 328723 742625 516529 644192 393295 385249 322577 321797 553375 464741 485937 524620 319401 315770 458882 1.33064e+06 514430 337260 316515 373495 319285 312872 379212 303100 368375 293129 292555 468776 524711
threshold=4.280436458661268 4.6633391741504395 3.4145373575159028 -0.12178954704887228 -153.77005044724885 0.34466441334431897 0.67526464140310571 3.3222909196990149 1.832231487935678 -0.1224233020459896 5461.3485680031781 0.19944650936377448 106.30695337642494 4.2975274901664378 2.5291016318952528 3.7343373952686014 -551.85485574813822 235.49271603651724 1.8680827184473217 -1.1975610078025694 3183.2639545079751 2508.5371989522578 -1.1529803087498933 1.5914773952737102 -439.50486173884582 4903.2101031114753 1.1433948029730685 -48.354527500875086 0.42481036516883325 0.034431237384098028 1.2628384519881062 0.095729447427855593 -68.137394173803372 429.87800582757535 3561.6340934544637 0.2927086472504869 -0.056603580294950127 1.3512873095553637 101.39879649581076 3.8453472115346852 52.844778428038374 -1.1859634178199854 0.37245458741436227 0.36064088022352159 -0.19593499685443524 3793.828946420113 0.23381954448292067 -0.090975118921100842 0.00058944500000000018 0.94509647337853886 0.63092904382768611 0.17843870076558438 3162.7738445694872 -0.90576200760612224 -0.33520679771954381 1.7406547938280457 0.078138218530458284 2.9251153062227315 2.995530786129549 1.0191840225412674 2.3836822044764685 1.4153271934468579 0.27850154797268706 2.994183078928002 0.22485592054127165 -12.462463098148467 493.11161820655656 124.37159324012016 -2.5801922348364985 0.30068721134144311 0.029458376006039028 0.47606843766111079 3.5704795632142994 192.06800233305344 -1.3616232121945193 -0.0030378699999999994 -96.385114831156741 0.56153995309579274 2.995530786129549 -1060.2744591181122 -2.1507584413171443 1.1868324784176163 1216.7240966021443 4.6633391741504395 1.5316564008543001 0.19003688176390002 0.52996611158295703 1010.5398504106812 3.1491924411376537 0.098016766574334183 -141.42678476759204 65.751132395535109 15.595858052550595 1.5755062876135542 0.26318881467540084 2.2648691681797981 0.21486492540327612 147.1296157141955 0.71582364497652307 2.0298933769253273 310.64343103329958 1010.5398504106812 41.071995498700453 22.095730567646136 1.4684040354419079 2.1803770819401547 -1.773707866686933 576.33261425907983 82.628540964816438 0.95632069112329987 0.59547041856590399 874.36783365523308 0.46096659009243407 3.565559525142004 1042.7215139186976 -125.51346213332647 -1.0789602708921413 0.29453948362043769 2.994183078928002 2.2102807887562155 -0.31696065032652887 -0.44990732654367632 162.65811139137614 1.6636183914164311 -4.1309575338651472 0.00047365000000000005
decision_type=2 2 2 2 2 2 2 2 2 2 2 2 2 2 2 2 2 2 2 2 2 2 2 2 2 2 2 2 2 2 2 2 2 2 2 2 2 2 2 2 2 2 2 2 2 2 2 2 2 2 2 2 2 2 2 2 2 2 2 2 2 2 2 2 2 2 2 2 2 2 2 2 2 2 2 2 2 2 2 2 2 2 2 2 2 2 2 2 2 2 2 2 2 2 2 2 2 2 2 2 2 2 2 2 2 2 2 2 2 2 2 2 2 2 2 2 2 2 2 2 2 2 2 2 2 2
left_child=14 4 5 -4 -2 -3 7 12 9 13 -7 -8 -6 -9 17 16 62 25 19 22 21 23 -19 61 -17 34 28 -28 30 59 -27 32 -31 -33 78 -36 40 42 46 -40 41 -37 43 64 -45 -46 -39 48 -42 -34 122 -13 74 -54 -55 -56 57 67 -53 -30 -29 66 -16 70 65 -38 -21 -26 -44 93 -63 -48 -60 -67 -18 -76 77 -77 83 -80 81 85 -83 88 94 86 87 -81 123 90 -90 92 -82 -70 109 -87 120 102 -99 100 -100 -101 -78 -84 105 110 118 108 -108 -85 111 -93 -113 114 -114 -112 -117 -118 119 -106 -43 -122 -49 -1 125 -125
right_child=1 2 3 -5 6 10 11 8 -10 -11 -12 51 -14 -15 15 24 52 18 -20 20 -22 -23 -24 -25 56 26 27 60 29 31 -32 33 49 -35 35 36 37 38 39 -41 47 96 68 44 45 -47 71 50 -50 -51 -52 58 53 54 55 -57 -58 -59 72 -61 -62 63 -64 -65 -66 73 -68 -69 69 -71 -72 -73 -74 -75 75 76 97 -79 79 80 91 82 103 84 -86 95 -88 -89 89 -91 -92 104 -94 -95 -96 -97 -98 98 99 101 -102 -103 -104 -105 106 -107 107 -109 -110 -111 115 112 113 -115 -116 116 117 -119 -120 -121 121 -123 -124 124 -126 -127
leaf_value=0.00045550903585061658 2.1766272312555559 -1.4346650461996757 6.5481096658252538 1.761919798417525 0.054165155506134037 -0.45589776289463046 0.87207418571818962 1.7673111237798418 -0.88939125696818044 3.9471865317556594 2.6782759146536552 -0.154477233271445 -1.9233515647479467 -0.76973780059814456 0.067868388071656224 0.40621775769761637 0.47238877063760393 -0.17576967224478721 3.175434379577637 -0.22178567303655047 -2.2654267241060735 3.8713984507606143 3.6926756666183476 1.5179644246896109 -0.46148014929559494 -0.49082076114156969 2.9532484543841822 1.0171011962890626 2.2114356412887575 0.10022008115595038 -3.2259978183110554 1.6507210464477537 -2.9924597151620049 -1.0418274555206299 3.4189891045540572 2.0262221050262452 -1.2724019183832058 2.0008213522036873 1.6094641107128513 4.7574353771209719 -2.1718209977041592 -0.61014393703213765 -1.7015404083615258 -0.10015863382154042 3.0582346996239256 0.88230612209865034 0.65944860180219012 0.71330825805664066 -0.064956345081329345 -0.85408461196081975 -1.2826407628310355 -0.484622727348691 -2.0602489799923367 1.436367961338588 -2.0044747140828303 0.54863082579204014 0.02599375601168032 -2.9920192030704387 -3.1672856012980146 -0.056610001802444458 -1.2308363647460938 -0.6452742502906107 1.7922459518208222 0.17019439199696418 1.1753812003135682 0.78646858902204597 1.3181901689494648 -2.1018584537506104 -0.23704165427189952 -1.4282613630294798 -2.5699626710198142 -1.1439877946036203 -1.331686103571029 -0.84320568947565 -1.3725543117046357 0.15344508968866788 0.022312771447400421 -1.5627466261064684 1.7569913604042748 0.53633841477907629 0.20303297248753635 3.0359264500935872 1.7291962659926643 -0.20627014225179496 -1.8095632278124492 0.39660481952485582 -0.2540215885639191 2.3796641027927401 0.68004026096362569 4.8424964266238009 -0.12660083702235361 -0.068103157217438162 1.9957255342006683 1.2683915451594761 0.7250989104961526 -1.2619945488304927 -0.83747905179073945 1.6276502456665041 0.043707236647605896 -0.20361786342584171 -1.9976103817332875 1.4641258064393075 -0.37096552246344194 -0.0035304454239931979 0.20509452781506948 1.5856041367848714 0.54393472349321526 1.3602954223632813 -1.2045874913036823 -1.5975871476672945 -1.3786577608097685 2.1319978974505167 0.82889722907024876 1.6574289191852916 -0.1239513267476324 0.09280255241010657 -1.1637300492250002 0.29723244281042194 -1.5563684526251422 -1.2398696835432201 -0.15459416879341006 1.3200035354826185 -0.70779324724560699 0.2334898179944824 -0.083143002186651563 2.0760941934585571
leaf_weight=108084 39 31 21 22 75 20 22 28 27 36 31 31 28 20 32 28 104 20 23 96 32 21 25 24 54 23 23 20 20 22 36 20 35 20 20 21 34 24 31 20 44 28 21 27 28 35 30 47 20 21 38 21 36 21 34 28 27 33 27 20 20 22 34 23 28 42 24 24 53 20 22 21 21 21 25 26 581 37 22 26 44 21 21 77 30 21 43 20 77 23 311 370 20 21 29 29 38 35 52 26 22 31 436 22 42 24 37 25 32 21 22 41 46 22 193 199 52 21 36 32 32 36 21 68 5771 20
leaf_count=108084 39 31 21 22 75 20 22 28 27 36 31 31 28 20 32 28 104 20 23 96 32 21 25 24 54 23 23 20 20 22 36 20 35 20 20 21 34 24 31 20 44 28 21 27 28 35 30 47 20 21 38 21 36 21 34 28 27 33 27 20 20 22 34 23 28 42 24 24 53 20 22 21 21 21 25 26 581 37 22 26 44 21 21 77 30 21 43 20 77 23 311 370 20 21 29 29 38 35 52 26 22 31 436 22 42 24 37 25 32 21 22 41 46 22 193 199 52 21 36 32 32 36 21 68 5771 20
internal_value=0.000868387 0.567433 1.64565 4.09936 0.208026 0.358951 -0.0204723 0.478428 1.37095 2.09748 1.44919 -0.895593 -0.483412 0.710207 -0.00150948 -0.190105 -0.106471 0.00126306 0.453608 0.251012 -0.042571 0.26403 1.97337 -0.0949974 -0.976056 -1.96937e-05 -0.460598 1.01032 -0.887638 -0.412612 -2.15974 -0.917705 -1.54445 0.304447 0.00108448 0.293427 0.213387 0.564424 1.49858 2.84396 -0.279145 0.233649 0.207745 0.552467 1.26452 1.84939 0.583726 -0.746693 -1.51343 -2.19057 -0.28376 -1.28448 -0.153416 -0.813409 -0.272611 -0.851459 -1.25652 -1.56848 -1.79216 1.07741 -0.106868 -0.302009 0.956184 -0.997324 0.039787 -0.288013 0.0862095 -0.966212 -0.436735 -0.154172 -1.60762 -0.0831429 -2.36421 0.243244 -0.0962966 -0.142829 -0.118156 -0.854477 -0.000934299 0.150463 0.126271 0.60264 1.56234 -0.002895 -0.526695 0.160763 0.56871 1.33778 -0.00217586 0.302598 0.03348 0.049401 0.763249 0.190176 -0.223656 -0.565383 -0.047277 -0.0789436 0.333656 -0.0120673 -0.563171 0.703401 -0.14629 0.842685 0.0111378 0.0856601 -0.350514 0.16581 -0.266974 -0.50441 0.0483944 0.167982 0.457225 0.194138 0.0594421 -0.224948 -0.131634 -0.743453 -0.791737 -0.419755 0.265511 0.626075 0.274439 -0.0032752 -0.0720975 0.652264
internal_weight=119633 500 125 43 375 82 336 214 111 84 51 122 103 48 119133 1726 1560 117407 332 309 264 232 45 211 166 117075 280 63 217 158 59 118 78 40 116795 801 781 456 126 51 325 155 330 215 90 63 75 170 64 56 106 100 1494 119 83 62 138 111 69 40 40 187 66 67 125 97 120 78 115 94 44 51 48 63 1375 1271 1246 63 115994 1483 1461 203 64 114511 157 139 89 46 114354 411 388 1258 64 74 127 50 134 1183 166 131 74 57 1017 43 1194 990 204 94 69 98 966 672 302 261 239 294 272 73 110 74 96 68 68 113943 5859 88
internal_count=119633 500 125 43 375 82 336 214 111 84 51 122 103 48 119133 1726 1560 117407 332 309 264 232 45 211 166 117075 280 63 217 158 59 118 78 40 116795 801 781 456 126 51 325 155 330 215 90 63 75 170 64 56 106 100 1494 119 83 62 138 111 69 40 40 187 66 67 125 97 120 78 115 94 44 51 48 63 1375 1271 1246 63 115994 1483 1461 203 64 114511 157 139 89 46 114354 411 388 1258 64 74 127 50 134 1183 166 131 74 57 1017 43 1194 990 204 94 69 98 966 672 302 261 239 294 272 73 110 74 96 68 68 113943 5859 88
is_linear=0
shrinkage=0.01


Tree=4
num_leaves=127
num_cat=0
split_feature=7 74 154 108 5 98 111 111 5 133 39 32 27 150 139 39 5 154 111 40 13 116 6 26 7 133 150 39 30 150 133 40 15 141 6 73 111 74 27 150 39 51 161 154 53 111 139 74 7 32 5 67 141 54 150 139 40 54 150 27 31 116 27 32 13 2 98 32 98 73 84 161 73 6 73 108 154 2 108 40 55 54 150 40 84 154 31 74 53 39 16 154 93 141 13 51 16 30 55 32 67 6 93 111 15 51 98 116 27 154 32 6 13 150 108 74 133 2 150 26 108 74 133 98 108 93
split_gain=1.23298e+06 4.22054e+06 1.73511e+06 2.52732e+06 2.45369e+06 1.69364e+06 2.64053e+06 2.65977e+06 2.89602e+06 1.95916e+06 1.22067e+06 1.71754e+06 1.36605e+06 1.96906e+06 1.10216e+06 857455 1.10809e+06 1.05194e+06 970136 1.14171e+06 1.187e+06 1.00086e+06 685804 1.64147e+06 2.18797e+06 1.48548e+06 992137 758848 688880 2.30587e+06 1.47023e+06 2.398e+06 943073 728975 704256 870792 685737 961699 683225 662083 948624 606567 604834 977858 963127 828310 582286 576336 544801 541876 640113 519140 517604 622382 507462 507248 490106 646942 491435 464269 1.02124e+06 450603 430045 2.46369e+06 2.79134e+06 1.06699e+06 1.0101e+06 1.59908e+06 629415 1.14803e+07 3.57256e+06 602473 575906 577958 853242 653253 920724 486587 474799 858755 466883 451035 444134 442839 421254 408060 393606 371938 354759 354523 354271 351574 1.05187e+06 754324 684183 407252 370770 344434 333974 335852 399198 400999 353956 323670 397260 413351 437288 313021 310629 694376 649783 989929 829445 556621 718726 936199 581655 485609 685233 474024 1.07699e+06 1.36362e+06 1.28499e+06 998713 791734 586567
threshold=970.48384821113461 2.3034158827387032 3449.9333439174634 1411.1150941416997 -3.7107441422340326 2.2715748169451873 1.124318155999972 0.15276834829441413 -0.78074136738272248 -0.0024016129999999687 0.00078245913194444452 -270.50394155604113 0.78623194125284968 0.045244704448890526 905.6532277091801 -0.0002028956111111111 0.80198492905345042 2394.9814393825191 -0.5776932648622799 0.00056353000000000013 0.63636411603721277 1.3158851681069008 1138.7497486044197 4903.2101031114753 335.05766622602079 -0.060934439000000055 0.075148611563828946 -0.0017636987708333333 5461.3485680031781 0.098016766574334183 -0.045937796000000024 -0.0013421999999999998 -1.7739880826871477 -213.22886313290766 729.83390043929967 -0.66208815890839301 0.95495320698647224 0.9121693694871752 2.2864340787131883 0.022875816993464016 0.0010547922604166669 -0.74860445880141857 -0.57070952991535284 494.84987550762031 3.0882302170613141 0.67526464140310571 49.859843386780291 0.55712909675680777 357.5614376435077 -1984.6984089374607 -0.57682534268016739 -2.2340806499881758 -76.818365650891948 3.719999999999986e-06 0.067721493470455904 905.6532277091801 0.00048097000000000011 -0.00058209499999999992 0.039090752104244376 2.2864340787131883 2.4615430854492417 3.2172895501757104 3.5775486454405421 -1384.7326410222365 -0.76733734373934503 -2.8135898919025917 3.4247420913493545 -499.74189263875309 2.2715748169451873 -1.7458282897739805 -0.0018235299999999996 -3.8905723176946472 3.0339337459364102 796.50467729254785 1.1206609560699432 1242.1060781396343 1517.0461223040745 2.8522354584512337 3760.7243244104366 0.00045410500000000006 2.7836999521566632 -0.0016654799999999998 0.076102052687663208 0.0011759050000000003 -0.00022955499999999997 333.37387560925862 1.2496126479640255 1.1889160348013819 1.1598828996104624 0.00059421921527777791 0.00081079000000000014 1811.5157816177577 1.4311096127759193 -366.07840691096345 0.1598744423998528 -2.145391037108157 0.0022072450000000005 1117.9276768601201 -0.040151363161300212 -45.333209489100128 -2.0330948276210306 481.20049933045755 -1.4165910876487386 -0.097099602542910529 -1.5462909863054464 -0.47016719019183323 0.89231665603860355 2.995530786129549 1.9237303519881461 1445.1409501987546 -1713.9358438921884 988.87648394855216 -1.6088447339344494 0.032397408207343416 10.273690131394899 0.71062420458033282 0.031225262999999896 0.11335363964360826 0.010132893730456284 2819.979165596957 -170.32822137329759 1.5885180371562424 0.12662257800000012 0.7075145562645978 1321.8085468461784 -1.5942962358710953
decision_type=2 2 2 2 2 2 2 2 2 2 2 2 2 2 2 2 2 2 2 2 2 2 2 2 2 2 2 2 2 2 2 2 2 2 2 2 2 2 2 2 2 2 2 2 2 2 2 2 2 2 2 2 2 2 2 2 2 2 2 2 2 2 2 2 2 2 2 2 2 2 2 2 2 2 2 2 2 2 2 2 2 2 2 2 2 2 2 2 2 2 2 2 2 2 2 2 2 2 2 2 2 2 2 2 2 2 2 2 2 2 2 2 2 2 2 2 2 2 2 2 2 2 2 2 2 2
left_child=22 2 5 -4 -5 10 7 8 -7 -9 15 12 -12 -14 -10 16 18 42 21 20 52 -2 28 27 -25 -26 -27 -24 62 30 48 -32 -33 34 -34 -36 37 -6 -8 46 56 -21 43 -17 45 49 47 -29 -30 85 -51 -48 53 -20 -47 -45 59 -58 -59 61 -61 90 68 64 -64 -65 71 -68 78 -70 -71 -67 73 77 75 76 -75 83 108 -80 81 -72 -77 98 -76 -44 -53 -85 -79 -35 -41 96 93 -93 -94 -95 -83 -82 99 100 101 -73 -102 -60 -105 106 -106 -104 109 -1 111 112 -110 114 116 -116 117 118 -111 -112 122 123 -121 125 -125 -122
right_child=1 -3 3 4 36 6 38 9 14 -11 11 -13 13 -15 -16 17 -18 -19 19 41 -22 -23 23 24 25 26 -28 39 29 -31 31 32 33 89 35 -37 -38 -39 -40 40 -42 -43 44 55 -46 54 51 -49 -50 50 -52 86 -54 -55 -56 -57 57 58 103 60 -62 -63 63 65 -66 66 67 -69 69 70 80 72 -74 74 84 82 -78 88 79 -81 97 91 -84 87 -86 -87 -88 -89 -90 -91 -92 92 94 95 -96 -97 -98 -99 -100 -101 102 -103 107 104 105 -107 -108 -109 110 113 119 -113 -114 -115 115 -117 -118 -119 -120 120 121 -123 -124 124 -126 -127
leaf_value=-0.0059774308862759629 0.35923604488372801 4.4067315630793571 2.1578871627287435 1.5086577506065368 -2.9501586028507778 3.715271439552307 0.99498260307312014 1.8509053325653078 0.8172069557872601 5.7716045712507684 4.1641302472069155 -1.2267336046128046 -1.2729388608932497 2.9006229708744931 -2.3197904768444242 0.2136851463953654 2.2675525545676551 -1.8822809646213674 2.3525474548339846 -2.0255857461392877 3.0783462365150451 -2.4726768962542214 1.4100759703113186 1.2701089234974072 -4.1943947293208197 -0.067590719540913904 -2.7649362195372582 -0.7430075242122014 -2.6214176350548155 3.6015755383534866 3.2371128368377686 1.5443565648794175 0.3296599949323214 1.370256944525021 -3.2812224369049074 -0.42815135727757991 -3.7461110232426571 -0.11922984077816917 -1.2990702376494536 0.092673695697822675 2.0008243851228191 0.31088731575012207 -0.44681370315551761 -0.74164887638979182 2.3039963009243922 2.0635376125335694 -2.1590718572370471 1.5554885377883911 -0.34357145672752742 1.511978280203683 -0.85627260551452633 -0.28187579738466367 -0.30806855685181089 -0.014188852787017823 -0.045096517630985808 -2.4711701651981897 -2.1519082260131834 -1.4062100839614868 -0.78169401624868085 2.5287529223898182 0.056029422947617827 -1.3300934067478887 3.8734993027102567 1.074464339592627 -0.61757144393920893 -1.698035803745533 -3.831444384256999 -0.30152371262059069 7.3458124063231729 3.3100822868241981 -1.1945816252912793 -0.49834256720921355 1.063302087205829 1.8485914286860714 2.4982877597354709 -2.0040763123830159 -0.84333003342151647 -0.30591387525200847 1.8317992684647844 -0.59700827101866405 -0.043506906120865434 0.03750062698914803 -0.059448782879373302 -1.3868995933090487 0.53933191714079487 -2.3376814960298082 -1.5176542991246933 0.10206718818001126 -1.6709882484598362 -0.056825910660685326 -0.97348707199096685 1.7781717987060546 0.71261221210161851 -1.5882048420679002 3.2169436311721804 0.0022404437047847804 1.3421067016774959 -1.6130247609368686 -0.022291162874633237 0.43236261510849 0.51982226671174514 -1.7045237986044008 -0.32284380536869256 1.5161809473037722 -0.44026179881322952 -0.92849381402134901 1.6004842631022136 -1.5043536769426786 2.3119286327362061 1.1138234213124152 0.017341634434312254 -1.3553788593837195 0.55899884371434228 -0.10566445240954755 -0.76302837273749435 -3.0671938437507267 0.14946990796191964 -1.8546530752182009 -0.83678011615592318 -2.1018858541141858 1.4478241920471191 3.0616800043799661 1.062427158355713 2.6260987906620419 0.66912525198525852 -0.32184928376405014
leaf_weight=108240 26 25 22 20 28 23 20 25 24 26 21 21 20 26 21 75 30 38 25 20 25 24 31 23 26 30 25 24 21 22 29 38 26 27 20 23 26 21 37 374 22 25 25 43 21 25 31 20 21 21 25 76 36 20 21 28 22 34 43 23 61 27 31 56 25 29 21 33 22 34 28 63 33 27 21 24 24 32 37 24 27 2223 23 62 23 21 39 23 47 49 34 20 24 21 20 69 22 29 401 40 43 49 163 20 21 32 21 26 35 23 3183 21 118 1462 110 21 167 30 83 33 22 22 21 29 72 126
leaf_count=108240 26 25 22 20 28 23 20 25 24 26 21 21 20 26 21 75 30 38 25 20 25 24 31 23 26 30 25 24 21 22 29 38 26 27 20 23 26 21 37 374 22 25 25 43 21 25 31 20 21 21 25 76 36 20 21 28 22 34 43 23 61 27 31 56 25 29 21 33 22 34 28 63 33 27 21 24 24 32 37 24 27 2223 23 62 23 21 39 23 47 49 34 20 24 21 20 69 22 29 401 40 43 49 163 20 21 32 21 26 35 23 3183 21 118 1462 110 21 167 30 83 33 22 22 21 29 72 126
internal_value=-0.00256597 0.350687 0.244508 -0.896243 -1.60352 0.403777 1.27566 2.12339 0.828656 3.84969 0.171976 1.26867 2.05081 1.08603 -0.646725 0.00384231 0.47481 -0.31334 0.207236 0.60701 1.17357 -1.00008 -0.00547335 -0.258818 -1.45185 -2.22476 -1.29366 -0.128896 -0.00319994 0.495809 0.226806 0.565441 0.142061 -0.225437 -0.969576 -1.75516 -2.43343 -1.7369 -0.494139 -0.180528 -0.044337 -0.727545 -0.117865 -0.582584 0.308858 0.00524991 -0.706656 0.301763 -1.48249 -0.542575 0.224885 -1.01056 0.585672 1.30066 1.1009 -1.42371 -0.10753 -0.537769 -0.330102 0.0524624 0.733085 -0.0789681 -0.00436972 -0.183921 1.86856 -0.274926 -0.337532 -1.67427 -0.00233543 0.153386 0.0905203 -0.274927 -0.238209 -0.277577 0.317434 -0.20197 0.581805 -0.366609 -0.00580734 0.876203 0.0464345 0.0672638 -1.05245 -0.298375 1.47429 -1.31004 -0.700966 -0.984003 -1.11805 0.450164 0.00382697 0.0819915 0.544203 0.0215066 1.85094 -0.368863 0.0502852 -0.856293 -0.224135 -0.434914 -0.535761 -1.02605 -0.299071 -0.0630391 0.265707 -0.0722585 0.580111 -0.48538 -0.00628004 -0.00930064 0.0840721 0.680554 0.959996 -0.199018 -0.513496 -1.1324 -0.245917 -0.731429 -0.413536 0.0544861 0.418273 0.67524 -0.87132 0.46439 1.23103 -0.0587897
internal_weight=120052 980 955 117 95 838 176 119 68 51 662 88 67 46 45 574 231 343 201 151 106 50 119072 1059 104 81 55 955 118013 276 254 212 183 145 69 43 75 49 57 924 734 45 305 146 159 138 190 44 42 92 46 146 81 45 46 71 712 193 171 519 84 435 117737 1319 56 1263 1207 54 116418 2539 2517 1153 1124 1091 142 98 51 949 113879 61 2483 2427 47 870 44 46 115 85 79 76 408 2399 154 110 44 90 2245 56 785 384 344 112 232 137 94 74 42 189 113818 110136 3682 174 153 1896 434 131 303 136 106 3508 325 271 54 249 101 148
internal_count=120052 980 955 117 95 838 176 119 68 51 662 88 67 46 45 574 231 343 201 151 106 50 119072 1059 104 81 55 955 118013 276 254 212 183 145 69 43 75 49 57 924 734 45 305 146 159 138 190 44 42 92 46 146 81 45 46 71 712 193 171 519 84 435 117737 1319 56 1263 1207 54 116418 2539 2517 1153 1124 1091 142 98 51 949 113879 61 2483 2427 47 870 44 46 115 85 79 76 408 2399 154 110 44 90 2245 56 785 384 344 112 232 137 94 74 42 189 113818 110136 3682 174 153 1896 434 131 303 136 106 3508 325 271 54 249 101 148
is_linear=0
shrinkage=0.01


Tree=5
num_leaves=127
num_cat=0
split_feature=87 9 153 145 76 67 19 153 81 76 87 29 30 30 9 161 97 113 97 113 19 19 31 76 161 67 110 91 134 38 117 117 159 91 153 30 97 76 87 17 91 160 159 76 160 161 145 145 15 161 30 159 56 84 44 97 161 161 19 52 161 117 81 19 134 97 31 30 149 38 113 44 137 56 87 145 9 87 29 19 44 134 160 31 97 52 137 30 134 91 162 161 117 91 87 160 149 159 117 67 162 30 38 110 9 117 161 19 17 137 158 30 161 19 153 158 19 117 162 38 17 44 153 162 67 153
split_gain=1.04478e+06 4.8442e+06 1.98662e+06 3.38089e+06 1.95602e+06 1.70661e+06 1.6415e+06 1.10088e+06 2.50078e+06 935119 835112 1.0275e+06 1.8929e+06 1.28627e+06 1.02025e+06 1.54208e+06 834896 833510 828186 775468 444854 460245 419608 873170 570134 607964 570083 599700 522044 1.04167e+06 757993 578834 1.7137e+06 1.22349e+06 547424 2.15744e+06 2.95854e+06 1.51979e+06 2.28515e+06 1.17454e+06 777293 560311 527895 514907 505511 654580 505119 489963 455851 481615 689814 565633 680010 676098 899334 562238 506734 460027 594357 566864 527810 469110 456026 455783 535568 453538 458392 451132 898420 1.65282e+06 758926 700894 1.26807e+06 733179 678885 712533 566642 639370 532496 660010 522238 438174 901602 432787 622359 509866 422382 662362 1.00767e+06 419957 414263 403487 396011 392840 388873 936660 525979 388769 898386 800530 761955 1.40547e+06 504134 1.07369e+06 512035 481897 460798 631906 445486 389900 530959 376825 369653 367380 363646 363007 354818 353805 534974 527335 470946 445411 343185 460677 617419 342530
threshold=487.57402474600036 2.0791209400436967 3.2891060322585406 -0.074155659589649522 1994.3868214420647 0.85029897894734741 -1.1492004485070875 2.0176170442352621 2.5617449045209306 1316.5208091664751 -405.35113278025995 -1.5138666600541621 677.86418878292523 3162.7738445694872 -0.35231200197991402 0.038231165421418599 0.11345457688900852 2.3815933219943464 0.081289577286853806 -0.54403130746437733 -0.8377362192396044 0.21894668878860826 0.99037575522137378 558.01219297170212 -7.3029037063823923 -3.7551234399447426 3.8680294677752491 0.596527702852098 0.068904944464300746 2.5472392248441205 117.66764226231243 235.49271603651724 -0.074051451930436954 -0.94659389288694251 4.1673328743574389 5461.3485680031781 0.072960539887795176 1994.3868214420647 240.81543830429158 -1.2650665853276333 -2.8346504534177139 -0.27881637734702475 -0.04360400037993694 759.8507302186332 0.59412671202363787 0.24983583529743744 -0.0044368068254559672 -0.074155659589649522 3.6653049054821811 2.1271151165751925 2508.5371989522578 -0.057282769787388915 -0.68647325663427849 -0.00025805499999999998 -89.081896636177802 0.051102868027796948 3.307481466910644 -2.5674440884408178 2.1096007780077941 34.55337615644428 3.798922814505604 86.378349744266075 0.64504428835925409 2.8169840772287937 0.020466047176119554 0.037003273770775634 2.9251153062227315 1509.1913536687653 2.5550838727277481 1.8200494913014882 2.576669479416096 -98.505873808135675 -128.23795993275931 1.5389020201488275 82.311601884823574 0.1394779169559153 0.38318800002266723 -23.990840734355309 1.1086519335815641 0.63697322278548651 -357.07560630379879 -0.055829927636259762 -0.070974665653907226 2.0998438517622646 0.082971748022838618 -37.39969646059604 -461.04414012817 4198.0098845961411 -0.0288434488795789 -0.91708736507790556 -1.5704763792718099 2.8827285407073213 29.609662011924613 -1.0748916103136406 -220.88147096389005 0.81772212912979014 2.0066023271304481 0.058718636134634128 133.69262810676634 -0.97266444036087785 1.7788915305919166 2373.1006942859062 1.0823907088634799 -2.1382189333888646 -0.47922776978081966 38.363171355498828 -3.8905723176946472 2.1096007780077941 3.1848258676241357 -366.06166680924974 1.3330105263480494 2258.945447701964 1.6741917671288433 -1.2678172844737774 0.31065166360208024 4.5528232718194941 0.1183127096612151 117.66764226231243 0.40167618123213222 0.95987713496885274 0.78835997970761851 -15.206987528671442 -2.5645282215534517 -2.1117580351291223 0.027881184979434554 2.7680748775720088
decision_type=2 2 2 2 2 2 2 2 2 2 2 2 2 2 2 2 2 2 2 2 2 2 2 2 2 2 2 2 2 2 2 2 2 2 2 2 2 2 2 2 2 2 2 2 2 2 2 2 2 2 2 2 2 2 2 2 2 2 2 2 2 2 2 2 2 2 2 2 2 2 2 2 2 2 2 2 2 2 2 2 2 2 2 2 2 2 2 2 2 2 2 2 2 2 2 2 2 2 2 2 2 2 2 2 2 2 2 2 2 2 2 2 2 2 2 2 2 2 2 2 2 2 2 2 2 2
left_child=10 2 5 -4 -5 6 -2 8 16 112 11 12 18 20 -15 -16 17 -8 -1 -17 -13 91 23 -12 -24 26 27 44 31 30 -30 34 -33 -34 37 41 -37 48 39 -39 -41 42 -36 -29 -26 -46 -47 -42 49 81 -51 53 56 -52 -55 -54 62 58 -50 63 61 -61 -53 64 -59 -43 115 80 70 -70 71 72 73 74 76 -76 77 -69 -73 -80 -25 82 -27 84 -57 125 87 89 -89 -83 -88 93 -91 -22 95 96 116 100 102 -100 109 106 108 -104 105 -105 -102 -108 -99 110 -96 -23 -9 -87 -78 -67 -92 -111 119 -119 -120 -121 -82 124 -124 -85
right_child=1 -3 3 4 -6 -7 7 9 -10 -11 22 13 -14 14 15 19 -18 -19 -20 -21 21 111 24 67 25 28 -28 43 29 -31 -32 32 33 -35 35 36 -38 38 -40 40 47 65 -44 -45 45 46 -48 -49 57 50 51 52 55 54 -56 83 -58 59 -60 60 -62 -63 -64 -65 -66 66 -68 68 69 -71 -72 78 -74 -75 75 -77 114 -79 79 -81 122 86 -84 85 -86 113 90 88 -90 92 94 -93 -94 -95 97 -97 -98 98 99 -101 101 -103 103 104 -106 -107 107 -109 -110 117 -112 -113 -114 -115 -116 -117 -118 118 120 121 -122 -123 123 -125 -126 -127
leaf_value=-0.72800614455650592 2.4177029061317445 4.8469571761290231 3.8789742768777384 1.4311479529823574 -2.4292922719319665 2.6528869245165869 0.11253991134406985 0.42638162636756899 2.367451641138862 -2.8284143266826867 -0.0044581529546474565 0.94020120053677947 3.7997116019328434 3.2699709157943726 -1.5458054478963217 3.0198517688460971 -1.9930464987193839 -1.5557932134775017 1.7298673668274511 0.39374157450415875 -1.7001378821549207 -0.10669599637985229 1.2018575366338093 1.238095004100066 -0.028252042404848254 2.2673866518338524 -1.5695248670835753 -0.57263361443864536 -0.55562446580614366 0.63519607543945311 -2.763069238960743 -1.5783646080710672 3.1564810088585165 0.27599319521586102 -0.137225645894096 -0.90065618681907655 3.9207242535182405 1.4644909460648248 -4.1446701703752789 -2.525271092928373 0.48470389135952652 -1.5257274595896402 2.0557136013196864 -2.4262874116138979 -2.4055147307259697 0.60512365332965201 -1.17952881867545 -1.2846455927456126 1.8206453354358672 0.011903457464754748 -0.052968474790967744 0.83070333600044255 -0.45935509228071225 3.52264759683609 0.85023883367286002 2.130528437693914 0.16229863577875597 -0.14497124338150025 -0.49219201469421386 -1.0533378840874934 -0.36690470644222795 -2.7927104174494741 2.9661802668571471 -1.1456095130626971 1.5971209631443024 -0.18408582395977444 0.26912326581776141 0.43016359205047289 -3.1870270442962649 0.57688370943069456 2.1322730262756351 -0.029920950115351154 3.0878686804998488 -1.058707868869488 2.6220610199552596 0.29870620164004241 0.21175889428456626 -1.1791961947083474 2.0859357242924825 -0.22863243276422676 -0.95585981875658033 0.05420754075050354 -0.39643449977592182 0.19192200303077697 0.14043680017644708 0.80185261219739912 0.16334864714094866 -0.21904514153798421 -3.2582787628173828 -2.1106140743494035 -0.96300300728843879 0.39895115396250852 -0.26822863136019026 -0.25735376536846161 0.036948140353867502 -2.2443580268268231 0.73336509545644124 -0.064448013757228195 2.6056214241027833 0.28921958949114823 0.30179426757912886 -2.5157714787651511 2.2298702383041382 0.33352404730073337 0.044687385967185904 1.8946704160769781 -0.39996096837452089 -2.1001930244445801 -1.3142782527002794 -0.084659794259650076 1.3902198660082934 1.2193952211380006 -1.4962539743781091 -0.74801932070805477 1.5804551095962525 -1.8145405387878419 0.046380535721778866 -0.54835162071266563 -1.7555096552323324 1.5806759462643551 -0.1957600173354149 -0.33616076870398087 2.3975705506801606 0.074198080345619505 -0.030091405890204689 1.9053886194229126
leaf_weight=29 21 24 37 35 21 21 129 20 34 32 98370 37 24 20 21 23 34 39 26 22 46 150 36 39 422 24 37 47 35 34 28 22 29 30 21 20 35 23 21 26 29 24 23 22 21 29 35 34 20 2496 29 20 122 20 34 30 29 60 25 69 93 20 20 26 25 36 128 108 20 28 25 382 21 26 33 22 30 32 28 22 32 134 27 28 33 20 751 24 20 20 83 23 28 32 99 27 42 1719 25 37 76 34 26 58 555 30 174 25 29 5398 41 25 20 65 55 22 60 99 49 27 32 22 20 4950 22 20
leaf_count=29 21 24 37 35 21 21 129 20 34 32 98370 37 24 20 21 23 34 39 26 22 46 150 36 39 422 24 37 47 35 34 28 22 29 30 21 20 35 23 21 26 29 24 23 22 21 29 35 34 20 2496 29 20 122 20 34 30 29 60 25 69 93 20 20 26 25 36 128 108 20 28 25 382 21 26 33 22 30 32 28 22 32 134 27 28 33 20 751 24 20 20 83 23 28 32 99 27 42 1719 25 37 76 34 26 58 555 30 174 25 29 5398 41 25 20 65 55 22 60 99 49 27 32 22 20 4950 22 20
internal_value=-0.000823832 0.471245 0.234186 1.5333 -0.0165171 -0.111008 -0.287427 -0.471868 -0.141646 -1.55426 -0.00267468 0.414469 1.45642 0.208167 1.29135 0.691773 -0.56397 -0.274752 0.433898 1.73598 -0.08945 -0.227483 -0.00435544 0.00262605 -0.0550184 -0.0581755 -0.366293 -0.289002 -0.044408 -0.775424 -1.53671 -0.0392026 0.803626 1.69183 -0.0442442 0.371829 2.1675 -0.0539606 -1.11754 -0.549958 -1.07055 -0.016996 1.00908 -1.16365 -0.169967 -0.873538 -0.370858 -0.470183 -0.0431615 -0.0335607 0.0780805 0.429523 0.268865 1.17861 1.84002 0.0736048 1.16876 -0.405635 0.535736 -0.550214 -0.893718 -1.44421 1.89844 0.0130081 0.367409 -0.231984 -0.0650495 0.12084 0.336641 -0.991412 0.41795 0.361484 0.710763 0.547629 0.696788 1.69272 0.453339 0.0623099 0.0970983 1.06753 0.0853779 -0.0673665 0.857128 0.405345 1.0881 0.0819352 -0.0722053 -0.499476 -1.60051 -0.233291 -0.06206 -0.765008 -1.03589 -1.10823 -0.081369 -0.504447 -0.250514 -0.0708847 0.0346527 1.22325 -0.113944 -0.597728 0.00416319 0.237612 0.157054 0.865733 -0.360588 -0.613558 -0.0851832 -0.0880224 0.433263 0.0827456 -0.534936 -0.383344 1.09739 -0.802534 -0.539485 -0.100992 -0.485976 -0.128406 -1.13931 0.720055 0.0764296 0.0830469 1.12594 0.905866
internal_weight=119578 467 443 93 56 350 329 308 236 72 119111 478 79 399 86 66 202 168 55 45 313 276 118633 104265 14368 14332 613 576 13719 97 63 13622 81 59 13541 309 55 13232 133 112 89 254 44 69 507 85 64 63 13099 12761 2966 470 387 83 54 318 69 338 45 293 182 89 40 111 85 210 186 5895 832 48 784 759 327 306 280 55 225 140 432 50 5063 9795 51 196 63 133 9744 226 44 182 9518 101 48 78 8767 212 185 8555 2479 62 6076 309 2417 669 643 88 275 199 1748 5767 140 175 40 85 85 58 143 5627 229 148 81 49 5024 4992 42 48
internal_count=119578 467 443 93 56 350 329 308 236 72 119111 478 79 399 86 66 202 168 55 45 313 276 118633 104265 14368 14332 613 576 13719 97 63 13622 81 59 13541 309 55 13232 133 112 89 254 44 69 507 85 64 63 13099 12761 2966 470 387 83 54 318 69 338 45 293 182 89 40 111 85 210 186 5895 832 48 784 759 327 306 280 55 225 140 432 50 5063 9795 51 196 63 133 9744 226 44 182 9518 101 48 78 8767 212 185 8555 2479 62 6076 309 2417 669 643 88 275 199 1748 5767 140 175 40 85 85 58 143 5627 229 148 81 49 5024 4992 42 48
is_linear=0
shrinkage=0.01


end of trees

feature_importances:
x_1440m_RatioSkewDiff_neut=21
x_1440m_L2C_neut=20
x_480m_RatioSkewDiff_neut=19
x_5m_L2C=19
x_720m_EffRatio=18
x_720m_OI_XSkew=17
x_1440m_O2H=15
x_1440m_O2H_neut=15
x_1440m_O2L=14
x_240m_O2H=13
x_1m_H2L_Vol=11
x_240m_NetTaker_neut=11
x_5m_O2H_neut=11
x_120m_H2C_neut=10
x_1440m_L2C=10
x_720m_OI_Price_Ratio_neut=10
x_120m_H2L_Vol=9
x_120m_VolDiff_neut=9
x_1440m_EffRatio_neut=9
x_1440m_PremiumDiff=9
x_15m_PremiumDiff_neut=9
x_5m_WhaleGap=9
x_720m_Close_Diff_Rate_neut=9
x_720m_O2L_neut=9
x_120m_NetTaker_neut=8
x_15m_H2C=8
x_1m_O2L_neut=8
x_240m_EffRatio_neut=8
x_240m_OI_P_Corr=8
x_480m_H2L_Vol=8
x_480m_NetTaker_neut=8
x_5m_H2L_Vol_neut=8
x_5m_O2L=8
x_60m_H2L_Vol_neut=8
x_60m_OI_Price_Ratio=8
x_60m_PremiumDiff_neut=8
x_120m_Close_Diff_Rate_neut=7
x_1440m_Close_Diff_Rate_neut=7
x_1440m_O2C_neut=7
x_1440m_RVol=7
x_15m_O2H_neut=7
x_15m_OI_Chg=7
x_240m_O2C=7
x_30m_PremiumDiff_neut=7
x_480m_OI_Chg=7
x_5m_PremiumDiff_neut=7
x_60m_Close_Diff_Rate=7
x_60m_O2H=7
x_720m_O2H=7
x_120m_L2C=6
x_120m_OI_Chg_neut=6
x_1440m_H2C=6
x_1m_L2C_neut=6
x_240m_PremiumDiff=6
x_30m_L2C_neut=6
x_30m_O2C=6
x_30m_OI_Chg=6
x_480m_EffRatio=6
x_5m_OI_Chg=6
x_720m_H2L_Vol=6
x_720m_O2C_neut=6
x_120m_L2C_neut=5
x_120m_PremiumDiff_neut=5
x_1440m_NetTaker_neut=5
x_1440m_Premium=5
x_240m_C2VWAP_neut=5
x_30m_O2L_neut=5
x_480m_EffRatio_neut=5
x_480m_PremiumDiff_neut=5
x_60m_EffRatio=5
x_60m_OI_Chg=5
x_60m_Vol_neut=5
x_120m_O2L_neut=4
x_120m_Vol=4
x_1440m_PctB_neut=4
x_480m_L2C=4
x_480m_O2H_neut=4
x_5m_H2C=4
x_5m_H2C_neut=4
x_5m_O2C=4
x_5m_O2C_neut=4
x_5m_PctB_neut=4
x_5m_RatioSkew_neut=4
x_720m_OI_Price_Ratio=4
x_720m_OI_Z=4
x_120m_CrowdingPressure_neut=3
x_120m_O2H_neut=3
x_120m_O2L=3
x_1440m_H2C_neut=3
x_15m_O2L=3
x_15m_O2L_neut=3
x_15m_PremiumDiff=3
x_1m_O2H_neut=3
x_240m_OI_Chg=3
x_30m_OI_Chg_neut=3
x_30m_PremiumDiff=3
x_480m_Close_Diff_Rate=3
x_480m_PremiumDiff=3
x_5m_C2VWAP_neut=3
x_5m_O2L_neut=3
x_60m_H2C=3
x_60m_O2L=3
x_60m_PremiumDiff=3
x_720m_O2H_neut=3
x_120m_PremiumDiff=2
x_1440m_EffRatio=2
x_15m_OI_Chg_neut=2
x_15m_RatioSkewDiff_neut=2
x_1m_H2L_Vol_neut=2
x_1m_Premium_neut=2
x_240m_OI_Chg_neut=2
x_240m_PctB_neut=2
x_240m_PremiumDiff_neut=2
x_30m_O2L=2
x_5m_PremiumDiff=2
x_720m_OI_Chg_neut=2
x_1m_H2C_neut=1
x_30m_O2H_neut=1
x_60m_O2H_neut=1

parameters:
[boosting: gbdt]
[objective: regression]
[metric: rmse]
[tree_learner: serial]
[device_type: cpu]
[data_sample_strategy: bagging]
[data: ]
[valid: ]
[num_iterations: 4000]
[learning_rate: 0.01]
[num_leaves: 127]
[num_threads: 0]
[seed: 42]
[deterministic: 0]
[force_col_wise: 0]
[force_row_wise: 0]
[histogram_pool_size: -1]
[max_depth: -1]
[min_data_in_leaf: 20]
[min_sum_hessian_in_leaf: 0.001]
[bagging_fraction: 0.2]
[pos_bagging_fraction: 1]
[neg_bagging_fraction: 1]
[bagging_freq: 1]
[bagging_seed: 400]
[bagging_by_query: 0]
[feature_fraction: 0.2]
[feature_fraction_bynode: 1]
[feature_fraction_seed: 30056]
[extra_trees: 0]
[extra_seed: 12879]
[early_stopping_round: 0]
[early_stopping_min_delta: 0]
[first_metric_only: 0]
[max_delta_step: 0]
[lambda_l1: 0]
[lambda_l2: 0]
[linear_lambda: 0]
[min_gain_to_split: 0]
[drop_rate: 0.1]
[max_drop: 50]
[skip_drop: 0.5]
[xgboost_dart_mode: 0]
[uniform_drop: 0]
[drop_seed: 17869]
[top_rate: 0.2]
[other_rate: 0.1]
[min_data_per_group: 100]
[max_cat_threshold: 32]
[cat_l2: 10]
[cat_smooth: 10]
[max_cat_to_onehot: 4]
[top_k: 20]
[monotone_constraints: ]
[monotone_constraints_method: basic]
[monotone_penalty: 0]
[feature_contri: ]
[forcedsplits_filename: ]
[refit_decay_rate: 0.9]
[cegb_tradeoff: 1]
[cegb_penalty_split: 0]
[cegb_penalty_feature_lazy: ]
[cegb_penalty_feature_coupled: ]
[path_smooth: 0]
[interaction_constraints: ]
[verbosity: -1]
[saved_feature_importance_type: 0]
[use_quantized_grad: 0]
[num_grad_quant_bins: 4]
[quant_train_renew_leaf: 0]
[stochastic_rounding: 1]
[linear_tree: 0]
[max_bin: 255]
[max_bin_by_feature: ]
[min_data_in_bin: 3]
[bin_construct_sample_cnt: 200000]
[data_random_seed: 175]
[is_enable_sparse: 1]
[enable_bundle: 1]
[use_missing: 1]
[zero_as_missing: 0]
[feature_pre_filter: 0]
[pre_partition: 0]
[two_round: 0]
[header: 0]
[label_column: ]
[weight_column: ]
[group_column: ]
[ignore_column: ]
[categorical_feature: ]
[forcedbins_filename: ]
[precise_float_parser: 0]
[parser_config_file: ]
[objective_seed: 16083]
[num_class: 1]
[is_unbalance: 0]
[scale_pos_weight: 1]
[sigmoid: 1]
[boost_from_average: 1]
[reg_sqrt: 0]
[alpha: 0.9]
[fair_c: 1]
[poisson_max_delta_step: 0.7]
[tweedie_variance_power: 1.5]
[lambdarank_truncation_level: 30]
[lambdarank_norm: 1]
[label_gain: ]
[lambdarank_position_bias_regularization: 0]
[eval_at: ]
[multi_error_top_k: 1]
[auc_mu_weights: ]
[num_machines: 1]
[local_listen_port: 12400]
[time_out: 120]
[machine_list_filename: ]
[machines: ]
[gpu_platform_id: -1]
[gpu_device_id: -1]
[gpu_use_dp: 0]
[num_gpu: 1]

end of parameters

pandas_categorical:[]
