tree
version=v4
num_class=1
num_tree_per_iteration=1
label_index=0
max_feature_idx=165
objective=regression
feature_names=x_120m_C2VWAP_neut x_120m_Close_Diff_Rate x_120m_Close_Diff_Rate_neut x_120m_CrowdingPressure_neut x_120m_H2C x_120m_H2C_neut x_120m_H2L_Vol x_120m_L2C x_120m_L2C_neut x_120m_NetTaker_neut x_120m_O2H x_120m_O2H_neut x_120m_O2L x_120m_O2L_neut x_120m_OI_Chg x_120m_OI_Chg_neut x_120m_PremiumDiff x_120m_PremiumDiff_neut x_120m_Vol x_120m_VolDiff_neut x_120m_Vol_neut x_1440m_Close_Diff_Rate_neut x_1440m_EffRatio x_1440m_EffRatio_neut x_1440m_H2C x_1440m_H2C_neut x_1440m_L2C x_1440m_L2C_neut x_1440m_NetTaker_neut x_1440m_O2C_neut x_1440m_O2H x_1440m_O2H_neut x_1440m_O2L x_1440m_O2L_neut x_1440m_OI_Chg x_1440m_OI_Chg_neut x_1440m_OI_Price_Ratio_neut x_1440m_PctB x_1440m_PctB_neut x_1440m_Premium x_1440m_PremiumDiff x_1440m_PremiumDiff_neut x_1440m_RVol x_1440m_RatioSkewDiff_neut x_15m_H2C x_15m_H2C_neut x_15m_H2L_Vol x_15m_L2C x_15m_O2H x_15m_O2H_neut x_15m_O2L x_15m_O2L_neut x_15m_OI_Chg x_15m_OI_Chg_neut x_15m_PremiumDiff x_15m_PremiumDiff_neut x_15m_RatioSkewDiff_neut x_1m_C2VWAP x_1m_C2VWAP_neut x_1m_H2C x_1m_H2C_neut x_1m_H2L_Vol x_1m_H2L_Vol_neut x_1m_L2C x_1m_L2C_neut x_1m_O2H_neut x_1m_O2L x_1m_O2L_neut x_1m_Premium x_1m_PremiumDiff x_1m_PremiumDiff_neut x_1m_Premium_neut x_240m_C2VWAP_neut x_240m_EffRatio_neut x_240m_NetTaker_neut x_240m_O2C x_240m_O2H x_240m_O2H_neut x_240m_O2L x_240m_O2L_neut x_240m_OI_Chg x_240m_OI_Chg_neut x_240m_OI_P_Corr x_240m_PctB_neut x_240m_PremiumDiff x_240m_PremiumDiff_neut x_30m_L2C_neut x_30m_O2C x_30m_O2H x_30m_O2H_neut x_30m_O2L x_30m_O2L_neut x_30m_OI_Chg x_30m_OI_Chg_neut x_30m_PremiumDiff x_30m_PremiumDiff_neut x_480m_Close_Diff_Rate x_480m_EffRatio x_480m_EffRatio_neut x_480m_H2C_neut x_480m_H2L_Vol x_480m_L2C x_480m_L2C_neut x_480m_NetTaker_neut x_480m_O2C_neut x_480m_O2H_neut x_480m_O2L x_480m_O2L_neut x_480m_OI_Chg x_480m_PremiumDiff x_480m_PremiumDiff_neut x_480m_RatioSkewDiff_neut x_5m_C2VWAP x_5m_C2VWAP_neut x_5m_H2C x_5m_H2C_neut x_5m_H2L_Vol_neut x_5m_L2C x_5m_L2C_neut x_5m_O2C x_5m_O2C_neut x_5m_O2H x_5m_O2H_neut x_5m_O2L x_5m_O2L_neut x_5m_OI_Chg x_5m_PctB_neut x_5m_PremiumDiff x_5m_PremiumDiff_neut x_5m_Premium_neut x_5m_RVol x_5m_RVol_neut x_5m_RatioSkew_neut x_5m_WhaleGap x_60m_Close_Diff_Rate x_60m_EffRatio x_60m_EffRatio_neut x_60m_H2C x_60m_H2L_Vol_neut x_60m_O2H x_60m_O2H_neut x_60m_O2L x_60m_O2L_neut x_60m_OI_Chg x_60m_OI_Chg_neut x_60m_OI_Price_Ratio x_60m_PremiumDiff x_60m_PremiumDiff_neut x_60m_Vol_neut x_720m_Close_Diff_Rate_neut x_720m_EffRatio x_720m_H2C_neut x_720m_H2L_Vol x_720m_O2C_neut x_720m_O2H x_720m_O2H_neut x_720m_O2L x_720m_O2L_neut x_720m_OI_Chg_neut x_720m_OI_Price_Ratio x_720m_OI_Price_Ratio_neut x_720m_OI_XSkew x_720m_OI_Z x_720m_OI_Z_neut x_720m_PremiumDiff x_720m_PremiumDiff_neut
feature_infos=[-5.3495323200422646:5.2950845960410842] [-0.18951870802686277:0.87223665715381005] [-5.2231750834362884:5.3661867800553988] [-5.1247904526445094:4.9641534875682618] [-2762.9166949555297:0] [-5.325179285653495:2.7767417460715995] [10.200548261434239:11592.505854800938] [0:10587.587822014051] [-3.9861010213412498:5.381279156490451] [-4.134986954060512:4.3753337640776193] [0:9726.1446298673527] [-2.769440594713021:5.3845059019657393] [-2268.5053741634565:0] [-5.3570553127754339:3.7402533891308063] [-3412.7547003618574:13800.781354335184] [-5.2295006041243424:5.3576011576632965] [-0.10901545000000001:0.10964072] [-5.3843975925636425:5.3841130240469974] [-3.075077251808318:14.716515653818] [-5.1333570874167469:5.2573827380450151] [-4.6557322684276476:5.266907756991432] [-5.040674573802729:5.3600884103962887] [0:0.23253478697460947] [-2.9212089783950739:4.8589180558972647] [-4708.2494969818908:0] [-5.230580102841297:2.6030768660959125] [0:46564.40281030444] [-4.1351363525859606:5.3691206431853633] [-4.0755246799139533:3.6363282692670302] [-5.0483141561631815:5.3616179809359075] [0:44509.587020648971] [-2.4512570798498898:5.3559018067518078] [-4821.6862502576787:0] [-5.2919326795592712:3.1184997374284249] [-5525.0702642733195:102929.83300033865] [-4.6170234443707932:5.3810866423886816] [-5.3842865277373768:5.3843095867615993] [-2.3535577720124463:3.5368049306451659] [-4.3534006184837475:5.2049979796258352] [-0.052623290666666676:0.0013800820069444445] [-0.1295095:0.13164745999999999] [-5.3847375469607393:5.3840890708859055] [1.8528245714349909:140.26151709908149] [-4.3696846669935692:4.704656398219262] [-1586.8192580899765:0] [-5.3657261989261276:3.3929646158905964] [1.7265360523310846:3049.6967502489379] [0:1970.1818455630437] [0:2990.8984410200956] [-3.3383872567386788:5.3732841197269376] [-1792.6227321237998:0] [-5.3681806642949708:3.321810220264283] [-1928.2589193447009:3028.0074536692391] [-5.3505425565607103:5.356945294840755] [-0.031830659999999997:0.040759789999999997] [-5.3727512980414289:5.3761527566107548] [-5.3361557109265449:5.3664842690171888] [-139.4893516525797:153.73653185930536] [-5.251628880898175:5.2818564319242576] [-433.40105726363265:0] [-5.3689723522673232:3.465131139401195] [0:845.62563580874883] [-3.1129230220669637:5.3742089102806636] [0:531.44316044074321] [-3.4164973652509132:5.3806660978801348] [-3.0730288253328961:5.3802213140618411] [-779.69281275647836:0] [-5.3751856226191626:3.4339547494790752] [-0.14881435000000001:0.012073179999999999] [-0.036136520000000005:0.021005070000000001] [-5.3741810011180666:5.3680933519678362] [-5.3846765007309108:5.2425196335998088] [-5.2234267691627689:5.3294937673892644] [-3.8242510365518894:5.1177402643134693] [-4.3017551694665741:4.5892484463797709] [-2533.6083892040574:11229.383632056495] [0:12285.752875762555] [-2.7927463122206162:5.3848640510663222] [-2756.7474643286914:0] [-5.3678453256629073:3.5099072401492291] [-3805.2704187094687:25573.389712881166] [-4.9180149311929746:5.3697653745962839] [-0.96800140934956835:0.99455791463620513] [-4.6784627971279793:5.2871813620492683] [-0.14458483000000003:0.15723668000000002] [-5.3847927654310546:5.3848215053879072] [-3.9861010213412498:5.3698386462374454] [-1738.4227862817281:3268.4556243935203] [0:4614.8391430917354] [-2.8342410811629493:5.3847530542508126] [-2236.447834377554:0] [-5.3657923615098913:3.4041384024181998] [-2967.8658152450789:5109.1036352406081] [-5.3501466835197986:5.3599582303441045] [-0.056925550000000005:0.053965630000000007] [-5.3810019578759603:5.3810954837530502] [-0.3079086791003468:1.7134312675544061] [0:0.35167286245353352] [-3.5603061936461882:4.9909164205557328] [-5.3149984096979059:2.9451350038247277] [28.716630812988253:21046.135762562444] [0:18186.264220645651] [-3.9861010213412498:5.3829705193869319] [-4.3767058413018267:4.2794323422480094] [-5.0803915735140865:5.3662653786516428] [-2.6457478800579524:5.3830044424816688] [-3317.122159283248:0] [-5.2997532547882074:3.4527601829273769] [-4286.9854438709635:41976.595796854956] [-0.14430969000000002:0.14562652999999998] [-5.3845152657669386:5.3843266941970285] [-4.8938242037202118:4.942317812025002] [-369.12140693079022:461.73797871382317] [-5.2592547296099568:5.2882137768525173] [-1275.6659267480586:0] [-5.3678414158243832:3.3938532200119034] [-3.7633135492978913:5.3529649200835605] [0:1154.7671840354767] [-3.9861010213412498:5.3714043903375055] [-881.00827875942196:1108.4614025790484] [-5.2642963305142061:5.346120881955601] [0:2732.7327327327343] [-3.0653570214953487:5.3851019026313702] [-1411.5999638630406:0] [-5.3822605437018058:3.4200293785248035] [-1281.5043270223525:1485.5432134152059] [-5.2632209816573443:5.1698635132009381] [-0.021852220000000002:0.035360300000000004] [-5.3451050146310894:5.381767054792947] [-5.3848759554115979:5.3617221214679844] [0:539.12654549782008] [-3.8391868326839051:5.3392313196665508] [-3.2871203845469266:3.2491603137572174] [-1.901811092:1.3471515580000002] [-0.22754447624913943:0.58765211566372666] [0:0.71478200451624241] [-3.9083855583229341:4.7223058178314377] [-2338.4604326888516:0] [-3.321746057413268:5.3458992298248793] [0:7517.2784003220831] [-2.4714720475458103:5.3849038809800289] [-2543.2320690275033:0] [-5.3592782896706925:3.5365318328121687] [-3264.4053559345521:9639.4047212144724] [-5.3077639253832842:5.3618728355830365] [-737893805.56701791:1036035239.0243896] [-0.069203690000000012:0.079161630000000011] [-5.3832244738968784:5.3843062134383075] [-4.3618315702548518:5.288492788142598] [-4.9092375625002891:5.3629364172569991] [0:0.27295652650622293] [-5.239398036002525:2.7277300118840353] [40.515777617133878:32085.948477751761] [-4.9000451222361807:5.3642972532440885] [0:31819.556920785628] [-2.938526051168354:5.3799295328195225] [-3411.8653993423131:0] [-5.289876255618104:3.3901387894438155] [-4.7779149403008416:5.3777968114372809] [-1872218877.469408:502239234.42645121] [-5.3851648071345029:5.3851648071345037] [-25.518381996781841:38.206757435679009] [-11.094698991913347:10.605389252991554] [-4.4923881414497489:5.0027761305234941] [-0.14635555:0.14865937000000001] [-5.3846618992979076:5.3846989426962901]
tree_sizes=11060 11071

Tree=0
num_leaves=127
num_cat=0
split_feature=21 32 28 18 0 161 82 35 17 42 116 27 162 37 39 27 22 138 1 96 100 113 20 71 42 3 42 37 28 113 43 32 74 76 131 116 162 43 32 74 8 17 90 110 102 73 7 102 52 90 73 25 162 1 160 39 35 37 28 138 161 43 18 25 74 27 76 7 84 134 145 95 27 27 42 162 28 33 100 39 35 43 73 100 123 113 18 145 27 18 22 25 162 32 32 126 78 22 33 33 95 112 33 18 138 82 78 74 37 40 102 20 37 96 101 42 108 28 119 127 27 42 160 160 96 3
split_gain=4.58669e+06 1.2618e+07 2.51069e+06 2.81199e+06 4.2939e+06 2.91056e+06 2.26205e+06 5.1165e+06 2.1715e+06 1.82669e+06 1.77149e+07 4.15357e+06 5.79019e+06 3.8049e+06 4.80727e+06 2.54607e+06 2.14415e+06 2.09279e+06 1.85745e+06 1.68449e+06 2.15808e+06 2.01552e+06 1.60946e+06 1.56493e+06 1.50159e+06 1.39418e+06 1.36318e+06 1.97513e+06 1.88801e+06 2.89549e+06 1.78299e+06 1.59947e+06 1.34583e+06 1.3205e+06 1.27357e+06 1.26823e+06 1.23238e+06 1.18611e+06 1.18517e+06 1.17308e+06 2.35734e+06 1.20314e+06 1.42085e+06 1.11741e+06 1.10952e+06 1.07372e+06 1.02099e+06 1.17779e+06 1.39894e+06 1.33016e+06 1.17484e+06 1.16561e+06 1.57037e+06 1.89601e+06 2.44516e+06 1.81025e+06 1.58639e+06 1.40526e+06 1.30284e+06 1.2643e+06 1.08549e+06 986897 1.78015e+06 1.0343e+06 979340 934089 905805 905054 902771 895291 853792 829834 1.00184e+06 1.13883e+06 821676 1.2612e+06 1.1734e+06 1.01828e+06 935287 1.78534e+06 887389 1.00778e+06 1.59297e+06 1.02197e+06 925767 864259 814475 983131 805964 792284 786864 776734 809746 902309 776328 771486 890172 770147 759286 781034 747103 1.25389e+06 733743 728119 739532 724953 724836 708733 881964 696725 696307 695938 681469 754825 676544 1.98439e+06 1.0102e+06 3.45607e+06 675478 664580 657705 654662 653358 649458 772894 648780
threshold=4.3132488075502531 -1530.7858947348855 2.7159352095222764 0.71353564457571494 -1.4063537867602312 0.94490461965072303 0.64066004542222177 4.3068021972234378 -3.607995612157596 63.929625778581908 4.254933970012087 0.18683517813266512 0.26286916709273328 0.46363292494183023 0.0007626136180555555 1.3237641053928753 0.065840116769973936 1.7362043356030685 0.0029290932185598311 0.12399699891686679 2395.9271535974431 2.5618529751037191 -0.31007070072314397 -0.55074582468178146 63.929625778581908 -0.46240920514020839 41.246658087634707 1.0760446848581959 2.7159352095222764 -0.53681477280096701 -2.103950369556121 -1327.1501037975522 -0.50030732307381898 800.96455416649121 3.4878400878681641 0.49636208569377965 1.0810490075172121 0.63260601497424596 -493.24922921135493 -2.0330239366382368 0.018350554674528421 -3.0204922430883188 -56.143843671000994 -0.82468836572777982 0.40607129572842016 0.34970997773939466 427.8837801541469 3.1677750622437659 -235.6367104310369 -255.76903784251311 2.0764517070408552 1.7678750915423618 3.5183006851739207 0.088995355419239544 -0.19288131730738947 0.00055708669791666677 0.080235977334926836 1.4521899997847831 0.36343589994649583 0.90107455765767086 0.94490461965072303 0.33545225757354041 2.0561497347344502 0.029245197835628355 1.0489100198659058 2.1092315326898148 389.56327087345204 458.66580270523821 -0.0019502649999999999 0.04052075873006112 0.18745212095583261 -1.7507510289333115 4.2413863095535449 2.2342814082612814 48.465921004050273 1.9267732183563619 1.2287416947866496 1.1229566554377486 813.17881021385938 0.00046609234375000007 1.4038266580049543 -0.77441289738432639 1.1992010716479931 961.00839464576154 -100.60096386615756 -1.9386396881550578 0.013153729256751987 -0.15352617573978714 0.10703187892980005 5.0756759331743364 0.04704384776108244 -2.9304199984141097 3.9732339640636982 -425.42234632390591 -156.3395916974641 0.54392655467265916 -176.87247189088149 0.089872990442826289 -1.5315236525388707 1.1564162541766494 0.10000823258355031 64.866063013960812 -0.60390200341919531 1.3313754019823822 3.4618647038465151 0.86883821367809488 -1017.3781428361043 0.23100558015014086 0.76533352977329427 -0.00041277999999999991 0.20174519597589685 -0.78513216564020338 1.0916545982839001 0.061490616177515174 2223.934874759922 40.00212761963099 3738.6182569404132 2.0165429023007602 74.179414847543882 0.0006628850000000001 -0.0266482494848236 37.096865664034745 -0.11151381124111455 -0.16127905394649475 0.074953614132908811 -0.62856397848486611
decision_type=2 2 2 2 2 2 2 2 2 2 2 2 2 2 2 2 2 2 2 2 2 2 2 2 2 2 2 2 2 2 2 2 2 2 2 2 2 2 2 2 2 2 2 2 2 2 2 2 2 2 2 2 2 2 2 2 2 2 2 2 2 2 2 2 2 2 2 2 2 2 2 2 2 2 2 2 2 2 2 2 2 2 2 2 2 2 2 2 2 2 2 2 2 2 2 2 2 2 2 2 2 2 2 2 2 2 2 2 2 2 2 2 2 2 2 2 2 2 2 2 2 2 2 2 2 2
left_child=9 -2 3 6 5 -5 7 -3 -6 26 11 12 32 14 15 33 18 -17 43 20 25 38 24 36 -9 90 46 28 30 -30 44 -29 -11 -13 -22 -33 -20 -24 -21 40 -32 42 107 -15 -28 67 114 68 50 60 -49 52 53 59 -55 58 -56 69 -54 66 -50 62 -10 -63 74 -31 -51 -25 95 -58 -45 -37 73 -73 76 77 78 80 79 -43 85 -82 83 -83 -85 -76 98 118 -87 -60 -8 -70 -93 109 105 -48 -97 -7 -66 -100 101 123 -77 104 -80 -27 -105 -41 -109 -94 -95 -79 113 -65 116 -116 -1 -118 -88 125 -106 -102 -69 124 -61 -112
right_child=1 2 -4 4 8 97 19 22 61 10 -12 13 -14 16 -16 17 -18 -19 23 21 34 -23 37 45 -26 94 27 31 29 65 39 35 -34 -35 -36 71 -38 -39 -40 41 -42 64 -44 70 -46 -47 47 48 49 51 -52 -53 55 54 56 -57 57 -59 89 100 -62 63 -64 112 86 -67 -68 122 91 -71 -72 72 -74 -75 75 102 -78 111 103 -81 81 82 -84 84 -86 88 87 -89 -90 -91 -92 92 93 110 -96 96 -98 -99 99 -101 121 -103 -104 106 120 -107 -108 108 -110 -111 119 -113 -114 -115 115 -117 117 -119 -120 -121 -122 -123 -124 -125 -126 -127
leaf_value=0.23819094369758098 4.4152054868483699 2.7733517284394598 -0.92623914403561969 3.4272379377400459 1.8578638916378796 0.62977333810475566 -1.146696099371378 0.45645071429500111 -0.030802236386579362 -0.23891042752763975 4.3953286155122955 0.24404874819246156 3.6466196909462987 0.76089539823885555 3.0395940441235054 2.4582809829769965 1.3096531435763419 0.49149455375522905 -0.72416626891607527 -1.8517863511527004 2.1609687702951232 0.76029899366425702 -1.0949534651720942 0.23871292944801198 2.1651789303338114 0.35647123891159577 -0.052197740375141022 0.50786176509993886 -1.9606975237994431 0.90807687839452789 0.16268574802608088 0.48152113546089126 1.0886415873880764 -1.3169228963339745 0.58797316983945569 0.16598094468470209 -2.240680375774573 0.32027288956284528 -0.45201595276351275 -0.038105197225490994 2.3036476160203994 0.27744587271874577 1.5771627467879981 -0.37575296840202937 -0.92335072177552213 0.78912487690802213 0.40999457330930755 1.9441471754868849 0.50501029166787714 0.29556930979673429 0.57242297977981382 1.2034619783277889 0.84348315126000495 2.1863904943978372 1.861426572493273 -1.511428403803152 0.40073978925762443 1.112628444578353 0.081405378286641267 0.13503017520065896 1.7848577491954545 0.68755922190802066 1.9082183855174322 -0.53475706273637669 -0.16025430398882773 -0.58323828560384894 1.4807604918741135 -1.4353774028412614 -0.1578177886929733 -0.8904201631033839 0.59960473214741339 -1.3031022029205583 -1.923267238474899 -0.1643271432447333 0.75973360614842811 0.11613822922626565 -0.13850860502088186 0.47864901460441667 0.10408196704056646 1.5784148250138341 -0.13920076265415121 1.6139405004189895 2.1400180221544534 1.3564760840668044 0.21352424512996532 0.40230816336812786 1.1398551485253543 0.34034054646050727 0.07779056148234928 -0.77680996564712435 -0.041993179270070846 0.27770918976412212 0.26567515040592149 0.92229510831739292 0.059336176453646777 0.61969324854351693 1.9565133216148196 1.9713398657357273 0.40342132507387946 -0.11990224255038473 0.13498800183537693 1.4808307755028782 -0.8135409578183348 -0.060744889446538775 0.27421910965979507 1.3157761764730911 0.76710856992390308 1.236532055767475 0.0058275402501801188 -0.47584746035880859 -0.5385257790768565 -0.4914136221716226 -0.66830828553711608 0.54108552353948436 0.15914468416124317 -1.5330368012415645 0.37261267935945641 2.450668221351517 0.11623204903956051 0.87880145578737845 -0.68808381128830498 -0.7590065358256628 -0.395209041312445 0.18339802706394007 0.93339526950087337 0.18128190769880764
leaf_weight=222712 21 28 30 24 32 23 27 36 20 28 28 42 20 50 21 21 24 38 37 20 22 28 20 29 20 54 129 44 26 21 36 24 60 20 31 20 21 57 62 53 20 218 32 89 51 20 132 27 37 28 37 39 42 31 20 20 29 33 92 50 30 103 29 23 105 21 38 26 109 25 30 42 21 46 83 44 437 26 1574 30 33 22 20 22 91 346 83 201 428 38 40 8111 45 32 102 33 20 20 395 87 296 25 41 40 26 31 78 37 24 107 40 64 29 56 99 21 221 22 20 26 56 22 36 262 77 144
leaf_count=222712 21 28 30 24 32 23 27 36 20 28 28 42 20 50 21 21 24 38 37 20 22 28 20 29 20 54 129 44 26 21 36 24 60 20 31 20 21 57 62 53 20 218 32 89 51 20 132 27 37 28 37 39 42 31 20 20 29 33 92 50 30 103 29 23 105 21 38 26 109 25 30 42 21 46 83 44 437 26 1574 30 33 22 20 22 91 346 83 201 428 38 40 8111 45 32 102 33 20 20 395 87 296 25 41 40 26 31 78 37 24 107 40 64 29 56 99 21 221 22 20 26 56 22 36 262 77 144
internal_value=0.240899 0.580873 0.497605 0.543192 0.890747 2.03232 0.327323 0.830721 0.628812 0.239494 0.50626 0.328329 1.21816 0.13765 0.831294 0.448035 -0.134442 1.19154 -0.236981 0.132965 0.323188 -0.39793 0.421747 -0.607637 1.06671 0.131694 0.238778 0.158844 0.178117 -0.649361 0.189479 -0.332263 0.666239 -0.25949 1.24091 -0.573868 -1.27325 -0.0473184 -0.793423 0.207906 0.927315 0.199363 0.646172 0.133674 -0.299024 -0.259839 0.240566 0.289744 0.430345 0.392963 1.15112 0.353629 0.324246 0.408741 0.949886 -0.0876654 0.591647 0.299744 0.0778884 0.315159 1.07808 0.477544 1.11678 0.329095 0.185089 0.162419 0.977952 -0.490381 0.269004 -0.197019 -0.129864 -0.77022 -0.942 -0.707833 0.149068 0.255153 0.0964352 0.299147 0.147212 0.434821 0.343098 0.654184 0.823098 0.627999 0.436046 0.274855 0.333821 0.543885 0.222859 -0.169458 -0.487172 0.261581 0.266956 0.0455978 0.353427 0.614591 1.12415 1.25376 0.225031 0.308963 0.255399 0.395396 -0.332295 0.107005 0.079965 0.706335 0.48648 0.384842 0.75232 -0.256318 0.235231 -0.211173 -0.0127737 0.227866 0.23834 -0.136987 0.238543 0.560749 0.941093 0.130535 -0.382963 0.0731393 -0.831409 0.325638 0.619078 0.024802
internal_weight=240017 988 967 937 359 67 578 161 292 239029 640 612 108 504 142 121 362 59 338 417 307 110 133 169 56 254 238389 5217 5020 68 4952 197 88 62 53 153 58 77 82 4772 56 4716 146 169 180 111 233172 10097 1298 1234 64 1167 1128 936 138 192 107 87 172 798 67 260 49 211 4570 42 66 91 8799 54 119 129 109 88 3679 1220 2459 1135 2022 248 1045 188 155 135 113 857 891 304 774 130 67 8614 8505 394 187 185 53 43 587 482 732 414 85 1774 1656 85 118 114 61 152 242 90 108 79 223075 120 222955 243 103 210 82 318 62 389 127 184
internal_count=240017 988 967 937 359 67 578 161 292 239029 640 612 108 504 142 121 362 59 338 417 307 110 133 169 56 254 238389 5217 5020 68 4952 197 88 62 53 153 58 77 82 4772 56 4716 146 169 180 111 233172 10097 1298 1234 64 1167 1128 936 138 192 107 87 172 798 67 260 49 211 4570 42 66 91 8799 54 119 129 109 88 3679 1220 2459 1135 2022 248 1045 188 155 135 113 857 891 304 774 130 67 8614 8505 394 187 185 53 43 587 482 732 414 85 1774 1656 85 118 114 61 152 242 90 108 79 223075 120 222955 243 103 210 82 318 62 389 127 184
is_linear=0
shrinkage=1


Tree=1
num_leaves=127
num_cat=0
split_feature=42 19 82 111 161 23 77 55 43 133 133 5 80 98 111 161 23 24 111 42 38 163 74 43 24 20 23 74 131 74 100 38 82 38 75 23 163 135 82 94 134 82 150 101 161 68 103 2 60 19 138 19 25 81 150 81 150 27 110 79 100 108 25 163 82 24 20 150 111 43 23 98 19 131 95 19 123 38 103 101 38 133 82 103 5 122 147 94 108 98 80 133 163 161 138 101 13 27 100 100 104 38 74 74 138 133 82 133 19 134 110 13 19 43 103 76 6 82 68 135 61 50 65 5 2 161
split_gain=3.14401e+06 6.73132e+06 1.57979e+07 3.94461e+06 3.25724e+06 2.90586e+06 5.86028e+06 3.03959e+06 2.89538e+06 2.65698e+06 2.60403e+06 2.71606e+06 2.42668e+06 2.38582e+06 4.32293e+06 2.9062e+06 2.58854e+06 1.90349e+06 1.73853e+06 1.70483e+06 2.17598e+06 2.05119e+06 2.0326e+06 2.05869e+06 2.23314e+06 1.77779e+06 1.63264e+06 1.5832e+06 1.59616e+06 1.58372e+06 1.44888e+06 2.63528e+06 1.33383e+06 1.32115e+06 1.29428e+06 1.2936e+06 1.36765e+06 1.19927e+06 1.10215e+06 1.03636e+06 930795 1.01386e+06 923836 1.03049e+06 921834 909898 1.08664e+06 1.57103e+06 1.13307e+06 957563 889838 879376 856398 843024 767506 744074 725454 1.22617e+06 717512 686582 678067 1.04159e+06 1.05879e+06 868728 1.08527e+06 859855 809911 913437 803587 675473 726883 739256 672915 667612 701260 662080 649024 648396 641568 641255 838407 3.22758e+06 1.03873e+06 761822 657261 634956 748119 624144 620931 615872 1.1906e+06 1.15951e+06 614690 614105 691404 708740 604361 618882 591922 588569 586150 575863 567916 558291 890741 711913 1.16876e+06 1.01021e+06 1.25201e+06 849328 671612 628690 622538 600291 894415 585852 678968 594351 850282 571625 543092 535300 516386 577064 515217 511294
threshold=63.929625778581908 2.0056580811606977 0.95481051252027871 2.1102673060794861 -3.3490444210511252 3.380387658771475 4.1841271969992091 -3.036759206153961 0.81939570250330485 -0.0092928580000001242 -0.135403001 -0.22550433785161142 314.12973271796602 -0.11584811004903516 1.1161728305669769 -1.9121273060496746 2.3609654513610465 -1912.1483949778947 1.011098875049359 42.516589047092914 2.2516179950058635 2.2432218587307173 -2.0330239366382368 1.669116648195238 -372.29932866620953 0.44625989477578565 0.47187631790456946 0.019120885649134545 4.2784901376722368 -0.50030732307381898 2395.9271535974431 2.3699159355354058 0.62274931480347651 1.4463618902526469 -23.718379144057053 3.0165285751316433 2.3625665416029267 0.093922651933704152 0.83791845367474471 -0.00066155499999999976 0.0067409878293924761 0.88095317815125662 0.04721549204402975 908.49384664518868 -0.21652472578335177 0.0014358900000000002 1.6836451607243483 3.0491806978051099 0.56442863309018576 -1.6767915802638942 2.9623845115981466 -0.4987127509828358 -0.71472840740943488 3.745568598538016 0.12031645536514488 -1.353692780923645 0.022522522522522497 3.2963385939949776 -0.67778292947241703 -0.86427286893307798 1467.3708413301513 919.74879884855545 -0.92022549699478384 -1.3264852833413234 0.93942595647036353 -1641.8463071706853 0.75356181245668774 0.058430415255546507 1.6614046204625272 -1.8151262034092521 -1.595039169162449 -0.67806475601042149 0.17054895044823351 2.8320541819276643 2.7155456192627279 -1.4223869192647955 -116.82900774606429 0.59262478846566036 1.2095738615860157 1188.6738744981233 3.309949687078237 -0.055317243000000065 0.96665676178662874 1.2095738615860157 -3.4107537103589975 -0.83840403993693535 -1.512978695940741 -3.8235000000000009e-05 -75.945765691299286 0.32602548266950043 -40.034113759762057 -0.011852076999999904 2.5194679763526104 -0.055448801612926667 1.8769073266939162 175.75833934659673 -1.729826372289496 1.8955227179022993 1929.907044085727 868.82230089023312 0.78034787743900946 1.3160323605842736 0.44068568242256262 0.38820887985129815 2.7601190315996713 0.27659794400000043 0.84773378096880958 -0.091297517999999842 -1.8120334720206894 0.061159033006224502 0.90595352692252362 1.0947863546936623 -1.3123687697432402 -0.56062393989264758 0.75197339501525862 1790.4290840508322 1159.3829285341908 0.97406541823816195 0.00041837500000000007 0.27589299116524263 61.456873999117263 -120.91994884522059 0.12477513905870698 -1.1072223500123783 1.8898077436861505 -5.5685891607941773
decision_type=2 2 2 2 2 2 2 2 2 2 2 2 2 2 2 2 2 2 2 2 2 2 2 2 2 2 2 2 2 2 2 2 2 2 2 2 2 2 2 2 2 2 2 2 2 2 2 2 2 2 2 2 2 2 2 2 2 2 2 2 2 2 2 2 2 2 2 2 2 2 2 2 2 2 2 2 2 2 2 2 2 2 2 2 2 2 2 2 2 2 2 2 2 2 2 2 2 2 2 2 2 2 2 2 2 2 2 2 2 2 2 2 2 2 2 2 2 2 2 2 2 2 2 2 2 2
left_child=5 3 -3 4 -2 19 30 -8 9 54 12 13 38 14 16 -15 17 37 27 58 22 88 -21 35 56 -26 -23 29 39 -17 93 34 -19 -10 -32 36 45 -12 -6 -29 -13 -42 43 51 -28 46 53 48 49 -48 -37 -34 55 60 -9 -47 57 -25 73 -54 61 66 -63 64 -62 75 69 -68 85 -24 -71 77 -36 -1 125 -65 -41 -72 -79 -60 84 83 -83 -82 -81 120 96 -44 -22 90 -51 -92 103 99 -95 -96 -87 -98 -94 -7 -97 -91 -70 104 112 107 -107 108 -105 -109 -106 113 -86 114 -110 116 -114 118 -118 -111 -67 -108 -57 -124 -58 -75
right_child=1 2 -4 -5 10 6 7 8 33 -11 11 40 -14 15 -16 18 -18 32 -20 20 21 26 23 24 25 -27 44 28 -30 -31 31 -33 42 -35 72 50 -38 -39 -40 76 41 -43 87 -45 -46 52 47 -49 -50 89 -52 -53 59 -55 -56 122 124 -59 79 -61 63 62 -64 65 -66 68 67 -69 102 70 71 -73 -74 74 -76 -77 -78 78 -80 80 81 82 -84 -85 92 86 -88 -89 -90 101 91 -93 98 94 95 100 97 -99 -100 -101 -102 -103 -104 105 110 106 121 109 111 119 -112 -113 115 -115 -116 -117 117 -119 -120 -121 -122 -123 123 -125 -126 -127
leaf_value=0.015135493024091321 -1.8519084286689758 5.5052511177062993 -0.35777250360559537 2.3885452871322634 0.34681797068169778 -0.014527946988808388 2.4383172544837 1.5443099179475204 1.4287224684804678 3.0595480637323291 1.968769086074829 0.56307966518402097 -1.8242680745465416 1.5756408704560381 2.4545076328516009 0.26867106949289637 1.7819008440441557 1.1184383389045451 -1.165776434956175 1.0788039700961427 0.35026233582883265 -0.29757014811038973 -0.59237358543231633 -0.13121432846990125 2.302883239829022 0.33698101852251133 -2.425679522705078 -0.69347604364156723 1.4240504660429778 -1.4676994981436895 1.2517698874473573 2.24781463098526 1.0340076222419738 0.0080079100661807588 0.23819219146456039 -0.33029804058613316 0.85279858266985087 0.55116965274553043 -1.0545875816941261 0.95569259572029108 -0.99785198684661625 0.098003010451793673 -0.029012386322021487 -0.75831385706152232 -1.1047331166267396 -0.6429509165989501 1.1359915113687515 1.3540182802412244 -0.77878161238901544 -0.066853535749826082 -1.6283064263799916 -0.17662336594363054 -0.070179880549830778 -0.93709244051287255 0.23801278765905987 -0.37418424927670024 0.079971185192009631 1.2882879612967373 -0.0048122070581235535 -0.93677567136698758 -0.27091012628927624 1.3260868662374992 0.1171090030670166 -0.56228385956449944 -1.352418685099658 -0.07206677905583786 0.11718272868659078 1.2254645021065422 -0.036530405282974243 0.59846493100508669 -0.32808509058420504 0.0092093433208005043 -0.96262465524673457 0.61500343451174821 -0.70227300839424134 0.080275694635384892 0.078547777390815837 -0.094478649173874454 0.84923761450726054 0.50922808887122517 0.81854943213053044 0.15104790115356445 -1.2773658263683318 1.983451183319092 -0.26874901416811808 -0.20546954808831216 -0.23882567880088984 1.1914115671678023 -0.40393261492825472 0.022391149416565895 0.041276409966605046 1.6078010276511865 -0.6332577847665356 0.003717089055215611 0.31978772184848786 -1.3025123973687491 -0.63838629699522453 -1.5987235931728196 0.29154654522736867 0.78005931191328104 -0.40476206120649977 -0.98034292581535531 1.0375177104473114 1.2291461340820089 0.10000662887406846 1.5898182949920496 0.95937685155868535 0.043075832895626588 1.0314663151706138 -1.2391399669079552 0.93028207127640883 0.92069724255594709 0.025276304302763855 0.0040943837253058831 -0.019430378779768945 0.55734188857285871 -0.28685081129074097 0.24755805587768556 -1.4664142907749522 -0.22881357317879086 0.8813423649072647 0.0064349177053996502 0.78534939064699061 -0.06978876210273581 -0.71106280536755284 0.12270886448008309
leaf_weight=43473 20 20 27 20 47 54 32 23 20 21 25 20 28 29 32 24 36 29 33 38 37 32 66 29 23 23 25 32 27 29 20 20 20 90 28 31 37 37 20 30 62 32 20 56 28 56 25 27 33 83 23 60 31 31 22 46 196 32 186379 87 73 27 55 44 34 59 97 23 32 39 413 717 20 55 25 451 71 83 23 77 32 35 20 25 260 50 788 22 104 45 21 27 62 340 25 24 62 23 24 41 75 21 20 34 60 21 20 635 41 21 41 29 836 205 40 46 50 25 22 42 20 56 34 47 23 1285
leaf_count=43473 20 20 27 20 47 54 32 23 20 21 25 20 28 29 32 24 36 29 33 38 37 32 66 29 23 23 25 32 27 29 20 20 20 90 28 31 37 37 20 30 62 32 20 56 28 56 25 27 33 83 23 60 31 31 22 46 196 32 186379 87 73 27 55 44 34 59 97 23 32 39 413 717 20 55 25 451 71 83 23 77 32 35 20 25 260 50 788 22 104 45 21 27 62 340 25 24 62 23 24 41 75 21 20 34 60 21 20 635 41 21 41 29 836 205 40 46 50 25 22 42 20 56 34 47 23 1285
internal_value=0.000875704 0.294537 2.13713 0.193954 0.141764 -0.000238447 0.290731 1.0208 0.763074 1.591 0.190331 0.292193 -0.588114 0.424185 0.706195 0.0785948 0.522766 0.354257 -0.0978862 -0.00128168 -0.097745 -0.575867 -0.0724274 -0.0827694 0.298947 1.31993 -1.18937 0.0675616 0.315661 -0.681418 0.056024 0.65237 0.124071 0.26632 0.183122 -0.114644 -0.103865 1.12278 -0.071512 0.0906499 -0.416396 -0.624795 -0.0379327 -0.238109 -1.72782 -0.113148 -0.0905364 0.207119 0.0856823 0.214184 -0.883153 0.126034 -0.37698 -0.116524 0.905676 -0.162819 0.131214 0.613443 0.000571105 -0.709111 -0.108572 -0.0331588 0.515187 -0.178839 -0.614567 -0.14874 -0.0639353 0.329603 -0.229471 -0.0991513 -0.0736197 -0.0948263 -0.262148 0.0185542 0.127435 0.0231593 0.339086 -0.238552 0.11029 -0.00369206 0.0719771 0.495707 -0.368375 1.32947 0.0540482 -0.260922 -0.297745 0.610257 -0.206023 0.097203 0.295638 0.922447 0.0404105 -0.0378551 -0.112843 -0.432442 -0.64166 -0.898242 -0.375173 0.328399 -0.622399 -0.296661 0.376565 0.0547986 -0.0144618 0.135925 0.545712 0.0979603 0.317603 -0.011861 0.437049 0.219214 -0.0512677 0.148085 0.512505 0.00649031 -0.0206685 -0.416646 -0.647273 -0.565589 0.169303 0.257209 0.0488924 0.289158 -0.00310544 0.142915
internal_weight=240233 908 47 861 841 239325 855 208 176 66 821 726 95 612 337 275 305 269 246 238470 4494 226 4268 4230 326 46 85 213 160 53 647 88 207 110 68 3904 3850 62 67 133 114 94 178 136 53 3813 3512 282 255 222 54 80 301 3230 45 183 280 61 233976 118 3199 1543 82 1656 107 1549 1461 120 1054 1341 1275 1236 48 44838 1365 495 101 519 106 189138 2759 112 55 57 2647 1002 923 42 141 197 131 48 2570 559 464 124 135 85 86 95 99 66 52 2484 1340 1144 97 1047 349 698 101 315 1239 286 81 979 933 97 72 63 79 76 127 81 219 1340
internal_count=240233 908 47 861 841 239325 855 208 176 66 821 726 95 612 337 275 305 269 246 238470 4494 226 4268 4230 326 46 85 213 160 53 647 88 207 110 68 3904 3850 62 67 133 114 94 178 136 53 3813 3512 282 255 222 54 80 301 3230 45 183 280 61 233976 118 3199 1543 82 1656 107 1549 1461 120 1054 1341 1275 1236 48 44838 1365 495 101 519 106 189138 2759 112 55 57 2647 1002 923 42 141 197 131 48 2570 559 464 124 135 85 86 95 99 66 52 2484 1340 1144 97 1047 349 698 101 315 1239 286 81 979 933 97 72 63 79 76 127 81 219 1340
is_linear=0
shrinkage=0.005


end of trees

feature_importances:
x_240m_OI_P_Corr=10
x_1440m_L2C_neut=9
x_240m_NetTaker_neut=9
x_1440m_RVol=8
x_1440m_RatioSkewDiff_neut=8
x_120m_VolDiff_neut=7
x_480m_H2L_Vol=7
x_720m_OI_XSkew=7
x_1440m_PctB_neut=6
x_5m_WhaleGap=6
x_60m_H2L_Vol_neut=6
x_120m_Vol=5
x_1440m_EffRatio_neut=5
x_1440m_H2C_neut=5
x_1440m_NetTaker_neut=5
x_1440m_O2L=5
x_1440m_PctB=5
x_720m_OI_Z=5
x_120m_Vol_neut=4
x_1440m_O2L_neut=4
x_480m_L2C=4
x_480m_NetTaker_neut=4
x_480m_RatioSkewDiff_neut=4
x_720m_EffRatio=4
x_720m_OI_Z_neut=4
x_120m_H2C_neut=3
x_1440m_EffRatio=3
x_1440m_H2C=3
x_1440m_OI_Chg_neut=3
x_1440m_Premium=3
x_240m_EffRatio_neut=3
x_240m_O2H=3
x_30m_PremiumDiff_neut=3
x_480m_Close_Diff_Rate=3
x_480m_EffRatio_neut=3
x_480m_L2C_neut=3
x_480m_OI_Chg=3
x_480m_PremiumDiff_neut=3
x_5m_C2VWAP_neut=3
x_5m_RVol_neut=3
x_60m_Close_Diff_Rate=3
x_720m_OI_Price_Ratio_neut=3
x_120m_Close_Diff_Rate=2
x_120m_Close_Diff_Rate_neut=2
x_120m_CrowdingPressure_neut=2
x_120m_L2C=2
x_120m_O2L_neut=2
x_120m_PremiumDiff_neut=2
x_1m_Premium=2
x_240m_O2L=2
x_240m_OI_Chg=2
x_240m_OI_Chg_neut=2
x_30m_O2L=2
x_30m_PremiumDiff=2
x_5m_H2L_Vol_neut=2
x_5m_O2L=2
x_60m_EffRatio=2
x_60m_OI_Price_Ratio=2
x_120m_C2VWAP_neut=1
x_120m_H2L_Vol=1
x_120m_L2C_neut=1
x_1440m_Close_Diff_Rate_neut=1
x_1440m_PremiumDiff=1
x_15m_O2L=1
x_15m_OI_Chg=1
x_15m_PremiumDiff_neut=1
x_1m_H2C_neut=1
x_1m_H2L_Vol=1
x_1m_O2H_neut=1
x_1m_Premium_neut=1
x_240m_O2C=1
x_240m_O2H_neut=1
x_240m_O2L_neut=1
x_240m_PremiumDiff=1
x_480m_O2C_neut=1
x_5m_C2VWAP=1
x_5m_O2C=1
x_5m_O2H_neut=1
x_5m_PctB_neut=1
x_5m_PremiumDiff=1
x_60m_PremiumDiff_neut=1

parameters:
[boosting: gbdt]
[objective: regression]
[metric: rmse]
[tree_learner: serial]
[device_type: cpu]
[data_sample_strategy: bagging]
[data: ]
[valid: ]
[num_iterations: 4000]
[learning_rate: 0.005]
[num_leaves: 127]
[num_threads: 0]
[seed: 42]
[deterministic: 0]
[force_col_wise: 0]
[force_row_wise: 0]
[histogram_pool_size: -1]
[max_depth: -1]
[min_data_in_leaf: 20]
[min_sum_hessian_in_leaf: 0.001]
[bagging_fraction: 0.4]
[pos_bagging_fraction: 1]
[neg_bagging_fraction: 1]
[bagging_freq: 1]
[bagging_seed: 400]
[bagging_by_query: 0]
[feature_fraction: 0.4]
[feature_fraction_bynode: 1]
[feature_fraction_seed: 30056]
[extra_trees: 0]
[extra_seed: 12879]
[early_stopping_round: 0]
[early_stopping_min_delta: 0]
[first_metric_only: 0]
[max_delta_step: 0]
[lambda_l1: 0]
[lambda_l2: 0]
[linear_lambda: 0]
[min_gain_to_split: 0]
[drop_rate: 0.1]
[max_drop: 50]
[skip_drop: 0.5]
[xgboost_dart_mode: 0]
[uniform_drop: 0]
[drop_seed: 17869]
[top_rate: 0.2]
[other_rate: 0.1]
[min_data_per_group: 100]
[max_cat_threshold: 32]
[cat_l2: 10]
[cat_smooth: 10]
[max_cat_to_onehot: 4]
[top_k: 20]
[monotone_constraints: ]
[monotone_constraints_method: basic]
[monotone_penalty: 0]
[feature_contri: ]
[forcedsplits_filename: ]
[refit_decay_rate: 0.9]
[cegb_tradeoff: 1]
[cegb_penalty_split: 0]
[cegb_penalty_feature_lazy: ]
[cegb_penalty_feature_coupled: ]
[path_smooth: 0]
[interaction_constraints: ]
[verbosity: -1]
[saved_feature_importance_type: 0]
[use_quantized_grad: 0]
[num_grad_quant_bins: 4]
[quant_train_renew_leaf: 0]
[stochastic_rounding: 1]
[linear_tree: 0]
[max_bin: 255]
[max_bin_by_feature: ]
[min_data_in_bin: 3]
[bin_construct_sample_cnt: 200000]
[data_random_seed: 175]
[is_enable_sparse: 1]
[enable_bundle: 1]
[use_missing: 1]
[zero_as_missing: 0]
[feature_pre_filter: 0]
[pre_partition: 0]
[two_round: 0]
[header: 0]
[label_column: ]
[weight_column: ]
[group_column: ]
[ignore_column: ]
[categorical_feature: ]
[forcedbins_filename: ]
[precise_float_parser: 0]
[parser_config_file: ]
[objective_seed: 16083]
[num_class: 1]
[is_unbalance: 0]
[scale_pos_weight: 1]
[sigmoid: 1]
[boost_from_average: 1]
[reg_sqrt: 0]
[alpha: 0.9]
[fair_c: 1]
[poisson_max_delta_step: 0.7]
[tweedie_variance_power: 1.5]
[lambdarank_truncation_level: 30]
[lambdarank_norm: 1]
[label_gain: ]
[lambdarank_position_bias_regularization: 0]
[eval_at: ]
[multi_error_top_k: 1]
[auc_mu_weights: ]
[num_machines: 1]
[local_listen_port: 12400]
[time_out: 120]
[machine_list_filename: ]
[machines: ]
[gpu_platform_id: -1]
[gpu_device_id: -1]
[gpu_use_dp: 0]
[num_gpu: 1]

end of parameters

pandas_categorical:[]
