tree
version=v4
num_class=1
num_tree_per_iteration=1
label_index=0
max_feature_idx=165
objective=regression
feature_names=x_120m_C2VWAP_neut x_120m_Close_Diff_Rate x_120m_Close_Diff_Rate_neut x_120m_CrowdingPressure_neut x_120m_H2C x_120m_H2C_neut x_120m_H2L_Vol x_120m_L2C x_120m_L2C_neut x_120m_NetTaker_neut x_120m_O2H x_120m_O2H_neut x_120m_O2L x_120m_O2L_neut x_120m_OI_Chg x_120m_OI_Chg_neut x_120m_PremiumDiff x_120m_PremiumDiff_neut x_120m_Vol x_120m_VolDiff_neut x_120m_Vol_neut x_1440m_Close_Diff_Rate_neut x_1440m_EffRatio x_1440m_EffRatio_neut x_1440m_H2C x_1440m_H2C_neut x_1440m_L2C x_1440m_L2C_neut x_1440m_NetTaker_neut x_1440m_O2C_neut x_1440m_O2H x_1440m_O2H_neut x_1440m_O2L x_1440m_O2L_neut x_1440m_OI_Chg x_1440m_OI_Chg_neut x_1440m_OI_Price_Ratio_neut x_1440m_PctB x_1440m_PctB_neut x_1440m_Premium x_1440m_PremiumDiff x_1440m_PremiumDiff_neut x_1440m_RVol x_1440m_RatioSkewDiff_neut x_15m_H2C x_15m_H2C_neut x_15m_H2L_Vol x_15m_L2C x_15m_O2H x_15m_O2H_neut x_15m_O2L x_15m_O2L_neut x_15m_OI_Chg x_15m_OI_Chg_neut x_15m_PremiumDiff x_15m_PremiumDiff_neut x_15m_RatioSkewDiff_neut x_1m_C2VWAP x_1m_C2VWAP_neut x_1m_H2C x_1m_H2C_neut x_1m_H2L_Vol x_1m_H2L_Vol_neut x_1m_L2C x_1m_L2C_neut x_1m_O2H_neut x_1m_O2L x_1m_O2L_neut x_1m_Premium x_1m_PremiumDiff x_1m_PremiumDiff_neut x_1m_Premium_neut x_240m_C2VWAP_neut x_240m_EffRatio_neut x_240m_NetTaker_neut x_240m_O2C x_240m_O2H x_240m_O2H_neut x_240m_O2L x_240m_O2L_neut x_240m_OI_Chg x_240m_OI_Chg_neut x_240m_OI_P_Corr x_240m_PctB_neut x_240m_PremiumDiff x_240m_PremiumDiff_neut x_30m_L2C_neut x_30m_O2C x_30m_O2H x_30m_O2H_neut x_30m_O2L x_30m_O2L_neut x_30m_OI_Chg x_30m_OI_Chg_neut x_30m_PremiumDiff x_30m_PremiumDiff_neut x_480m_Close_Diff_Rate x_480m_EffRatio x_480m_EffRatio_neut x_480m_H2C_neut x_480m_H2L_Vol x_480m_L2C x_480m_L2C_neut x_480m_NetTaker_neut x_480m_O2C_neut x_480m_O2H_neut x_480m_O2L x_480m_O2L_neut x_480m_OI_Chg x_480m_PremiumDiff x_480m_PremiumDiff_neut x_480m_RatioSkewDiff_neut x_5m_C2VWAP x_5m_C2VWAP_neut x_5m_H2C x_5m_H2C_neut x_5m_H2L_Vol_neut x_5m_L2C x_5m_L2C_neut x_5m_O2C x_5m_O2C_neut x_5m_O2H x_5m_O2H_neut x_5m_O2L x_5m_O2L_neut x_5m_OI_Chg x_5m_PctB_neut x_5m_PremiumDiff x_5m_PremiumDiff_neut x_5m_Premium_neut x_5m_RVol x_5m_RVol_neut x_5m_RatioSkew_neut x_5m_WhaleGap x_60m_Close_Diff_Rate x_60m_EffRatio x_60m_EffRatio_neut x_60m_H2C x_60m_H2L_Vol_neut x_60m_O2H x_60m_O2H_neut x_60m_O2L x_60m_O2L_neut x_60m_OI_Chg x_60m_OI_Chg_neut x_60m_OI_Price_Ratio x_60m_PremiumDiff x_60m_PremiumDiff_neut x_60m_Vol_neut x_720m_Close_Diff_Rate_neut x_720m_EffRatio x_720m_H2C_neut x_720m_H2L_Vol x_720m_O2C_neut x_720m_O2H x_720m_O2H_neut x_720m_O2L x_720m_O2L_neut x_720m_OI_Chg_neut x_720m_OI_Price_Ratio x_720m_OI_Price_Ratio_neut x_720m_OI_XSkew x_720m_OI_Z x_720m_OI_Z_neut x_720m_PremiumDiff x_720m_PremiumDiff_neut
feature_infos=[-5.278132129656032:5.3074849848250167] [-0.28717691148630375:1.0570054717293984] [-5.3070828932310432:5.3698854756024001] [-4.6176485185175693:5.1199865198209418] [-2897.1530865623372:0] [-5.356587908069212:3.1384790366105904] [11.89465983906457:11734.387138176782] [0:10950.788664842772] [-3.2948454427408755:5.3787518727408994] [-4.3980697561564561:4.8599139727278056] [0:11608.126259234383] [-2.8578909888294288:5.3842752395470788] [-3128.0174427659244:0] [-5.3787197962922777:3.7402533891308063] [-2965.4033534596392:20194.405099872954] [-5.202177228966562:5.3731306130670049] [-0.11614755000000002:0.10735568000000001] [-5.3844896359168848:5.3844198749219947] [-3.0451080505986723:13.970326420447298] [-5.0837830432688227:5.2234429369019955] [-4.6488589767574302:5.2759797386506744] [-4.6258056616003973:5.3564733706974978] [0:0.20636256522471003] [-3.9579833586812523:4.7519467865696043] [-5112.5180465966432:0] [-5.3262601992461649:3.0939666642073105] [0:44937.002341920379] [-3.2765283601020996:5.3717431159593101] [-4.1040890584648295:4.1058651412602938] [-4.5909181802700694:5.3562597432490833] [0:45557.392643594852] [-2.9573632511768948:5.3537965981317504] [-5146.4320087996703:0] [-5.3451846447501001:3.2530938810236512] [-5120.9636566665531:107335.45863608173] [-4.3918454399243121:5.3815087329423292] [-5.3791254639467887:5.3847492888410926] [-2.1047570713590327:3.8856532520352784] [-5.1011892464960873:5.2261185625358708] [-0.052603552944444437:0.0016908716250000001] [-0.13849446000000001:0.15659154] [-5.3845970043408862:5.3841355614891127] [2.0193546456001275:173.55029648120444] [-4.6584532386859347:4.7160167831618196] [-1932.3101141282962:0] [-5.3466889370373964:3.8297794839007868] [1.1967653143218904:2979.214350843893] [0:2338.3390089134527] [0:2681.371524148024] [-3.3383872567386788:5.3772731390469817] [-2281.8734111766994:0] [-5.3748309913171957:3.781279196479824] [-1527.0158277078017:3940.1844621719006] [-5.3505425565607103:5.356945294840755] [-0.054113170000000002:0.039715739999999999] [-5.3833233891735128:5.3760278596579223] [-5.3489325462002482:5.3234712864936355] [-140.82288450633308:568.96268447554462] [-5.3045630976204565:5.3755108007035881] [-556.01351908334038:0] [-5.3726330811080532:3.2701345747712218] [0:2513.8576275741589] [-3.2653003664650933:5.375349875541553] [0:2245.7755232304244] [-3.1531331661535669:5.3807755208349395] [-3.3661914818398384:5.3779459848799558] [-801.24516061525594:0] [-5.3718191391605554:3.0887848197470014] [-0.16376476000000001:0.020769180000000002] [-0.017107560000000001:0.023352919999999999] [-5.3527988873367462:5.3713541654687713] [-5.3849037621506941:5.3273595623811554] [-5.299059649991487:5.2995640364844858] [-3.8218726311562619:5.0230511516638572] [-4.2520058361924038:4.6932687012240599] [-3398.2401598845281:10510.200707601762] [0:11592.899567128621] [-3.0778376257338809:5.3826174012950192] [-4785.5715316715705:0] [-5.3815440599697864:3.4511676433511966] [-3858.1641048547376:21265.159773976422] [-5.075676963835809:5.3555601878322774] [-0.95813338613807164:0.99471900917511791] [-4.6389260094807749:5.1129269203913443] [-0.13855336000000001:0.16661252999999998] [-5.3848503316559357:5.3843628010210347] [-3.0884512716639692:5.3839306492861301] [-2001.9074041962904:2706.925754276248] [0:2730.0053976585327] [-2.9278513812738955:5.3735531198707411] [-2468.4661957618569:0] [-5.3692281016590471:3.9178992933450152] [-2516.9798670172695:4928.1019267438287] [-5.3430994128828804:5.3568683992671868] [-0.067092349999999995:0.054603430000000008] [-5.3834024293486653:5.3819374033672034] [-0.37673459908262197:2.2345744804096483] [0:0.30218135158254955] [-4.0055051761285476:4.9119285273215345] [-5.2761034180803295:3.0647960446694973] [31.33850614201128:24639.344262295086] [0:22614.008036632091] [-3.2948454427408755:5.3817073937431674] [-4.3342334520599497:4.1559058584181363] [-4.9138096366268904:5.3719669228689977] [-2.6335421477959717:5.3847192830508543] [-4731.6833765687452:0] [-5.2760972993349817:3.484734425349818] [-4330.9332163672252:51254.152986145855] [-0.15344265000000001:0.12756050999999999] [-5.384733834613221:5.384371890229227] [-4.8938242037202118:4.9542435351351619] [-624.85949598053537:641.84833790688072] [-5.3069761900330867:5.3333694419018602] [-1220.9580265799791:0] [-5.3646717924750362:3.3477213225056164] [-3.197552210427165:5.3605968704867548] [0:2311.9532542979714] [-3.2469587078589304:5.3725592548452248] [-1206.6653897720746:2183.1550802139031] [-5.2911636956698054:5.3701484197545684] [0:2580.7622504537208] [-3.1131856297457614:5.3780460970763189] [-1435.2866676408983:0] [-5.3650437316575115:3.6260555101861969] [-1463.0028673727368:4138.5157006948893] [-5.2115451036382918:5.2560922539697454] [-0.032938110000000007:0.033387729999999997] [-5.3660248160061412:5.3784089586640338] [-5.3849924591477087:5.327632068327846] [0:808.83327116703424] [-3.8391868326839051:5.3709733340084993] [-4.3313531137316863:3.3844422419765401] [-1.9054462379999997:2.4633130679999988] [-0.28756226589952505:0.44981842893244717] [0:0.86177311725452599] [-4.1258903857540767:4.9859661679379226] [-2895.6488255679637:0] [-3.3905889697243907:5.3471907489366357] [0:7451.5227944566486] [-3.2882876467027558:5.3782198277618152] [-3120.2494640420973:0] [-5.364197967919786:3.5829739581816846] [-2743.6244200173742:12472.275647645236] [-5.2919944673739492:5.3549849592447574] [-645616845.48910034:478957749.48452473] [-0.10138917:0.06261926000000001] [-5.3842294357286802:5.3841201770829397] [-4.6721727900899159:5.2772121360513751] [-4.8966013877382455:5.3662077534738852] [0:0.25319614147909952] [-5.2151223858062172:3.0645857065252806] [53.73895618908886:32085.948477751761] [-4.9164696696626038:5.3660962449576806] [0:29285.370759006644] [-2.8434955449679378:5.3795392050091602] [-4843.8229078033655:0] [-5.3403520381375218:3.3259527084719722] [-4.8074678779512752:5.3791287878981446] [-2422334175.9390712:26.814175355557424] [-5.385164807134502:5.3839024703154585] [-24.042328364816974:23.289016366374128] [-11.438647765340434:11.210664495814749] [-4.6929156101106582:5.0069857933422304] [-0.14179854:0.17549065999999999] [-5.3847825491919536:5.3848145394391453]
tree_sizes=10976 11036 11038 11002 11087 11091 11030 10973 11053 10979 11064 11143 11129 11050 11149 11094 10972 11023 11045 11072 11097 11076 11037 11044 11109 11079 11087 11099 11126 11182 11075 11113 11048 11042 11062 10992 11033 11112 11058 10978 10961 10949 10996 11091 11042 11024

Tree=0
num_leaves=127
num_cat=0
split_feature=49 160 28 161 84 8 43 28 50 123 17 161 7 50 42 161 7 28 42 8 42 59 119 96 7 116 114 28 119 42 27 161 43 18 17 32 82 160 42 116 18 101 17 3 7 7 43 28 40 114 44 160 160 28 96 21 28 59 61 82 52 42 7 160 42 8 101 28 161 7 160 21 84 96 96 84 32 7 84 127 116 123 43 116 52 84 3 18 8 101 18 84 96 32 28 27 32 17 114 84 160 84 126 42 18 7 32 8 96 42 49 42 28 18 42 161 17 96 18 27 28 101 160 43 160 127
split_gain=2.10875e+06 3.31591e+06 1.87843e+06 2.24542e+06 2.91428e+06 2.76835e+06 2.20732e+06 2.11137e+06 1.63016e+06 1.42555e+06 1.2966e+06 1.72412e+06 1.66252e+06 1.59927e+06 1.29352e+06 1.15343e+06 1.01295e+06 930818 854589 698157 1.34463e+06 1.46908e+06 1.29105e+06 2.35282e+06 1.26272e+06 1.25755e+06 1.50596e+06 1.12471e+06 1.10653e+06 1.01278e+06 1.00313e+06 6.94976e+06 1.56133e+06 4.08908e+06 2.15658e+06 2.21333e+06 2.03393e+06 1.56964e+06 3.57917e+06 3.70545e+06 2.1663e+06 3.45045e+06 1.61918e+06 1.4968e+06 1.35464e+06 1.00669e+06 792509 2.11064e+06 763038 741802 669984 2.06183e+06 3.82984e+06 1.67829e+06 1.87828e+06 1.54738e+06 772651 1.09787e+06 764301 1.91864e+06 2.15482e+06 1.99023e+06 1.8374e+06 996878 847727 782036 753070 667592 665046 694014 657198 643691 631060 677658 608062 588564 550964 548846 541674 819639 697321 543973 675412 521928 515628 535718 511896 510000 508072 482873 468859 458787 708796 639299 637889 815498 701064 486049 442411 434285 867757 431194 412527 567812 449849 402789 396680 1.45656e+06 1.25186e+06 3.30612e+06 987694 2.49338e+06 661082 1.8124e+06 607377 1.188e+06 1.26897e+06 1.18914e+06 2.94929e+06 2.106e+06 2.91051e+06 1.75669e+06 1.49878e+06 1.15184e+06 1.13107e+06 1.42748e+06
threshold=4.6290642438652112 -3.3651064353656892 2.77495651521807 -3.3191759072793108 -0.0030571799999999996 4.6112140451996444 -0.20971848467044726 1.2783603701403861 -226.69530188366977 -227.27533136435548 2.2948928218417817 8.4630800156175816 749.74937231005913 -131.76728675962977 72.330445267502967 -5.5993023542083771 466.76849263115224 1.9760128347048369 72.330445267502967 4.6112140451996444 72.330445267502967 -96.235113418082207 -86.216365674807165 0.16280259135703992 1230.745061105745 4.2975274901664378 -86.914898770834 1.4057805804297898 113.70968782246639 46.974911773200354 4.7696120132599367 4.3831577363790428 0.36388529448334855 -1.0670940165503937 -2.0199880275060225 -1203.2120811467064 0.86613347177893651 0.0042945300619315072 59.084002042752793 3.2172895501757104 0.55455394695349425 1972.3823410005605 1.5977129185324312 -0.93076624843418421 304.66934006583631 837.27724731083151 0.46319807561407694 1.9760128347048369 -0.00075166999999999986 -98.554699700946756 -357.07560630379879 -2.3205094200641043 -1.1074667071296849 -0.39994489486709861 -0.14343855306616823 -1.3691058392553439 1.8589081294376597 -36.873230193018571 147.99435578584209 0.89182887314220571 450.14514427230932 49.007986354852321 749.74937231005913 0.55042467827340358 59.084002042752793 3.0029897746175584 1325.7514166050757 -0.54033715768149493 1.9016237300151928 522.31738112616733 -0.024968272540643235 2.0371067088612418 0.00083027500000000011 0.057912641357649404 0.12166707950649237 -0.00012687000000000001 -533.91653464824424 685.78510078536226 0.00080870500000000006 0.00067214000000000011 4.2975274901664378 -227.27533136435548 -0.55795448401420666 1.984237036600087 -2.9093921984063571 -0.00096259999999999987 0.53156880311989629 2.799161623178168 1.4487314781408167 921.08835760321256 0.11216745206420758 -0.00072059999999999995 0.16280259135703992 -129.7318514576595 -0.18186591506840957 1.7429483572735036 -99.544109197239308 -1.0758187799170045 -26.149911272887454 -0.00022376499999999996 -0.070974665653907226 -0.00072059999999999995 -0.26198249357108033 59.084002042752793 2.6927604609383833 685.78510078536226 -2107.8802658114059 4.1159766832897224 0.13832990875561271 59.084002042752793 3.2380704281445465 59.084002042752793 1.9139845600660537 -0.8700722939815817 42.301816252349852 -0.62109850812824041 1.8153668637359255 0.082400061732649479 2.2168798676589634 1.9237303519881461 2.77495651521807 1553.1680316737609 0.59412671202363787 1.7459169297503507 -0.3308325008095549 -0.0019045149999999996
decision_type=2 2 2 2 2 2 2 2 2 2 2 2 2 2 2 2 2 2 2 2 2 2 2 2 2 2 2 2 2 2 2 2 2 2 2 2 2 2 2 2 2 2 2 2 2 2 2 2 2 2 2 2 2 2 2 2 2 2 2 2 2 2 2 2 2 2 2 2 2 2 2 2 2 2 2 2 2 2 2 2 2 2 2 2 2 2 2 2 2 2 2 2 2 2 2 2 2 2 2 2 2 2 2 2 2 2 2 2 2 2 2 2 2 2 2 2 2 2 2 2 2 2 2 2 2 2
left_child=19 -2 3 5 7 15 -7 14 -6 -10 11 13 16 -11 -5 -3 -12 -9 91 30 22 -22 23 105 -23 26 29 -27 46 101 50 32 43 -34 36 -36 48 40 49 -40 41 89 -42 -32 88 -38 47 68 -35 -39 51 -1 -53 77 55 -55 78 -58 106 60 64 63 -63 67 65 -60 -66 -61 69 -28 -17 76 73 -69 -46 -71 -48 90 80 83 81 82 -56 -80 85 -84 -75 98 -45 -37 -54 93 94 97 95 -93 99 -15 -73 100 -96 -24 103 104 -83 -21 107 108 110 -110 112 -112 -52 -114 -108 124 117 118 119 -117 121 -121 -119 -118 -116 -126
right_child=1 2 -4 4 8 6 -8 17 9 10 12 -13 -14 18 -16 70 -18 -19 -20 20 21 24 25 -25 -26 27 28 -29 -30 -31 31 -33 33 34 35 37 45 38 39 -41 42 -43 -44 44 74 -47 71 -49 -50 -51 58 52 53 54 56 -57 57 -59 59 61 -62 62 -64 -65 66 -67 -68 72 -70 75 -72 87 -74 86 -76 -77 -78 -79 79 -81 -82 102 84 -85 -86 -87 -88 -89 -90 -91 -92 92 -94 -95 96 -97 -98 -99 -100 -101 -102 -103 -104 -105 -106 -107 114 -109 109 -111 111 -113 113 -115 115 116 123 122 -120 120 -122 -123 -124 -125 125 -127
leaf_value=-1.2327232793184884 2.4596578857091305 -0.43288416804767527 1.6109194545015351 0.9658991444211722 1.3298417380411092 3.176002017950879 0.90971122631755363 -0.42720478851581412 -0.86931017096964169 -0.95876968065476353 -0.482659198444363 1.4558190669716917 -1.2946394728326474 0.41583724798722321 2.6651088489045436 0.29558238195110847 0.89548466666412707 1.0007077590611808 1.2625486955207821 0.51013701656885846 0.591591550204425 -0.15785911996517044 -0.72774424066465304 2.0359108696765933 -1.5345253405583663 -0.0079824613901739727 0.49595218504517097 1.4510957683368897 -0.6714810750695831 -1.4800167460772164 0.96592378645724686 2.6782652069267865 2.6251222354558346 -0.44812834557024295 2.1067037727025384 -0.093097743480727413 0.97219961326966808 1.0494609217313164 3.5698793698933953 0.56271142716508027 0.19847309661667778 -2.1112751458271535 2.0754955646184321 0.48140132486409576 -0.56765112050501165 -0.50782521232096012 -0.26926037295786193 1.919353780297254 -1.7834883294809281 0.066996566447556333 0.25719954699109726 1.9855899867468976 -0.60381286161867431 2.2562665448811883 1.2483003254046352 0.51406932958451645 0.31266563103690315 1.8582686075356838 0.15702701574464015 0.77317302385017039 1.5905815319125329 -0.15429484828440004 -1.9896614331417046 -1.0055383691055342 0.18799788390895641 1.1131322854665155 -1.1357364408287172 0.11914619455478501 0.87081495586904234 0.1436430437949533 1.5620244027760859 0.34269535705372667 0.53734979254585524 -1.3363298348995811 -1.7858305401360615 -1.0548458019223861 0.76077751654850378 -0.71557417996851269 0.56193338126952641 0.20460627732490155 -0.49784008946148217 0.34089558801705244 0.98117315700192265 1.6521880329299079 -0.35264647556613393 0.16285289568244429 -0.20507337888208682 -0.72188703686857714 -0.51000071640936195 0.66739783273865272 0.14386666542011994 0.16405980265319386 1.1101787637379998 -0.83242055699446371 1.185417865268158 1.472048762695894 1.0110773801336777 -0.31948603516421059 -0.56159465942055498 -0.077316780982965849 -0.013022171383016201 0.082028712494183753 0.38923211501794019 -0.74844509862390818 -0.4226761989123673 -0.42604637165991122 0.20690082271101809 1.3749394905951853 0.38186875910602169 -1.7180352733284927 0.24971612551420119 1.9322677725361377 -1.3240200999383203 0.73401146350177471 0.011666384182441175 0.073464842583329248 -0.2371773799518111 0.037460538583870717 2.0984780449059839 0.40523847959596776 -1.2875951141687993 1.8725413552453212 -0.68883850162863591 0.68675607358101165 1.1948430766884455 0.31919387577270297
leaf_weight=20 20 26 31 21 28 21 22 21 36 29 30 28 33 55 24 21 24 25 20 27 22 31 31 24 36 25 34 28 40 25 21 32 20 20 20 82 27 25 20 21 27 21 20 28 20 20 20 22 23 83 3292 36 25 25 26 26 27 20 148 29 29 25 30 24 21 25 22 46 28 20 20 38 31 20 21 21 37 30 21 52 32 62 36 23 21 45 20 38 24 28 130 26 25 22 23 22 21 38 21 169 44 35 78 25 28 20 228250 29 53 29 76 31 23 20 299 1711 382 531 20 712 25 21 82 37 49 928
leaf_count=20 20 26 31 21 28 21 22 21 36 29 30 28 33 55 24 21 24 25 20 27 22 31 31 24 36 25 34 28 40 25 21 32 20 20 20 82 27 25 20 21 27 21 20 28 20 20 20 22 23 83 3292 36 25 25 26 26 27 20 148 29 29 25 30 24 21 25 22 46 28 20 20 38 31 20 21 21 37 30 21 52 32 62 36 23 21 45 20 38 24 28 130 26 25 22 23 22 21 38 21 169 44 35 78 25 28 20 228250 29 53 29 76 31 23 20 299 1711 382 531 20 712 25 21 82 37 49 928
internal_value=0.207615 0.445887 0.401384 0.358483 0.262319 1.02639 2.0165 1.10212 0.148765 0.0974935 0.154644 0.248831 -0.410474 0.180419 1.87214 0.390936 0.129849 0.348835 0.251465 0.206693 0.0395319 -0.529455 0.134363 0.762178 -0.89756 0.0380891 -0.0555997 0.762851 0.10625 -0.622961 0.20713 0.410806 0.283733 0.414318 0.313137 0.49202 -0.376555 0.393262 0.771891 2.02962 0.0763204 -0.254074 0.997206 -0.239753 -0.512003 0.342402 0.217752 0.513537 -1.16239 0.294419 0.206614 0.352166 0.393439 0.315136 0.454369 1.36809 0.360418 0.970369 0.20613 0.00470066 0.310845 -0.328656 -1.1554 -0.0611788 0.139028 0.295193 -0.489262 0.0940584 0.213265 -0.0322204 0.913359 -0.0223325 -0.0742692 -0.294737 -1.1916 -0.470217 0.399361 -0.0965399 0.29657 0.629588 0.206004 0.27617 0.528913 1.13184 0.34554 0.526551 -0.770702 -0.270132 0.0238312 0.100483 0.0232732 0.206023 0.300796 -0.0659363 0.234454 0.763555 0.135633 0.115383 0.0208294 0.0577335 0.398383 -0.298319 0.108547 -0.0818307 0.10334 0.111761 0.20653 0.258963 0.24978 -0.36078 0.264325 0.737184 0.249154 -0.366796 0.205731 0.150051 0.102683 0.137569 0.186152 0.170661 0.390057 0.447276 -0.0596953 -0.155589 0.280758 0.363111
internal_weight=240009 925 905 874 764 110 43 91 673 645 609 522 87 494 45 67 54 46 465 239084 623 89 534 71 67 463 410 53 319 91 238461 603 571 457 437 347 90 327 149 41 178 131 47 114 93 47 279 125 43 108 237858 788 768 732 547 51 496 47 237070 470 245 225 55 170 216 173 43 146 103 75 41 154 117 86 41 41 57 185 449 96 353 321 128 44 102 81 40 97 52 110 155 445 330 115 305 48 257 93 59 236 67 66 193 115 90 47 236600 3553 3524 82 3442 107 3335 43 233047 4797 3521 3102 2489 2469 758 733 613 419 1276 977
internal_count=240009 925 905 874 764 110 43 91 673 645 609 522 87 494 45 67 54 46 465 239084 623 89 534 71 67 463 410 53 319 91 238461 603 571 457 437 347 90 327 149 41 178 131 47 114 93 47 279 125 43 108 237858 788 768 732 547 51 496 47 237070 470 245 225 55 170 216 173 43 146 103 75 41 154 117 86 41 41 57 185 449 96 353 321 128 44 102 81 40 97 52 110 155 445 330 115 305 48 257 93 59 236 67 66 193 115 90 47 236600 3553 3524 82 3442 107 3335 43 233047 4797 3521 3102 2489 2469 758 733 613 419 1276 977
is_linear=0
shrinkage=1


Tree=1
num_leaves=127
num_cat=0
split_feature=134 74 157 5 135 135 101 27 108 157 43 23 122 150 43 61 133 135 86 157 119 123 60 24 135 122 100 100 128 128 150 100 94 74 128 23 65 12 86 111 150 60 100 111 61 95 150 150 61 123 94 117 100 27 27 65 2 65 12 90 65 100 90 117 95 2 23 100 157 43 23 61 111 119 100 24 123 135 43 75 111 128 64 122 117 108 150 128 76 76 128 12 23 101 5 75 127 108 12 150 135 76 157 5 122 157 123 150 157 135 60 2 157 133 12 119 108 60 24 27 75 133 134 119 101 157
split_gain=3.40677e+06 4.46243e+06 1.62046e+07 2.64412e+06 2.04855e+06 1.63042e+06 1.84676e+06 1.62847e+06 3.38266e+06 5.78516e+06 3.31235e+06 2.86987e+06 2.11133e+06 1.6839e+06 2.56728e+06 1.70559e+06 1.61201e+06 1.54824e+06 1.90796e+06 1.47571e+06 1.42515e+06 1.35748e+06 3.22137e+06 5.4241e+06 1.71343e+06 1.5971e+06 1.19389e+06 1.11804e+06 1.42844e+06 1.27589e+06 1.11111e+06 1.01695e+06 930902 1.73646e+06 1.11033e+06 928082 1.89245e+06 891229 857846 798666 780135 1.20615e+06 748408 741947 779901 732114 940080 680320 787053 1.10467e+06 864956 824916 676880 674483 668296 757660 714563 1.17023e+06 663830 797358 646305 615161 605069 1.01687e+06 547667 1.11792e+06 1.81272e+06 890744 930324 1.09892e+06 1.18022e+06 827126 756651 625680 612613 551630 529508 794760 524826 520973 755007 625824 507712 503283 475398 2.63168e+06 2.51461e+06 4.31001e+06 1.21447e+06 1.05273e+06 1.01476e+06 944343 1.22577e+06 906676 777548 714398 618027 808639 525650 517525 529500 780979 1.12549e+06 713629 588618 536697 479173 463009 457793 448428 436373 425932 416114 413586 401885 575058 573639 732730 400346 775783 2.53806e+06 1.86397e+06 1.43473e+06 840100 795877 812581
threshold=0.053440073346816004 2.3034158827387032 -0.47451257844385469 -4.1846381662798153 0.13198847262247979 0.44509292895590752 1972.3823410005605 3.33379095740329 1112.5897286162781 0.39308191441550805 -0.42141231225451664 -0.44755833646911686 1.6962207522207511 0.091737223169388607 0.85200213862244534 104.69037760990732 1.0000000180025095e-35 0.23662139304315424 3.7123057889334121 -1.1601205897532296 -118.40872749698526 -227.27533136435548 -4.4876873783435949 -1818.1109317375865 0.009646302250804404 0.49284162556026101 1583.9640085329745 2618.0331535746532 1.9267241372253954 0.84427885801540314 0.050376227521999661 2394.0346520542125 -0.00086080999999999994 -0.45963704555482426 -2.3187622131931822 1.5578514906306378 2.8600302920053369 -20.838540048045413 4.5495442245029203 -0.18877237206772665 0.079196725946885912 -0.14361112099242032 2394.0346520542125 -0.30914758169089546 50.443968076558939 0.34951116722831277 0.12253564011151503 0.026687068451338645 119.42608959390812 -33.331114289574238 -0.00041914999999999992 39.682539682540657 2934.4307128100595 3.8994989193908451 0.14965049873872119 0.37648744076008911 3.1316014828506948 2.5357823773857548 -70.297862531444295 -69.857159348286061 4.2276914419407339 3566.0413014748351 -17.556054314724619 185.88288156305978 2.7954079971895749 1.5285760955488352 3.3369076239102387 935.88351329355953 -2.8141561554163559 0.63292540974889022 2.2621015682877998 147.99435578584209 0.023434734793660459 127.02622969952061 843.7347728913893 -1130.9587286389403 -22.516535586323268 0.15514018691588649 0.45269782424717891 1145.4445432044406 1.100987264689232 1.009979723663917 2.0282413286226224 2.8198194320143739 160.30593026356237 1061.1708510343722 0.049118812812614106 -0.72819078302853579 704.73268168002267 1994.3868214420647 -2.772923289606692 -56.779596470482581 3.0355154423968318 2455.4617058940589 0.35999200434865619 -181.02517152040306 0.0024883550000000007 -569.9916459633879 -289.76419473371089 0.0013229289739302198 0.10489510489510594 323.75934801947341 -1.1285079152588751 -1.1869784318272922 2.8198194320143739 -3.5681979894066562 -47.09639875813631 0.050376227521999661 -0.18870020225343828 0.40869565217391418 -0.7802679086167561 2.6298943846624847 0.34025124171242888 -0.13468619099999987 -692.4211570568516 -118.40872749698526 -557.40256450587037 -1.1620966827124783 -814.16936892566116 4.7696120132599367 -881.39297292577783 -0.060934439000000055 0.0021928493688595512 -70.816176631226512 1972.3823410005605 -2.1756166561425467
decision_type=2 2 2 2 2 2 2 2 2 2 2 2 2 2 2 2 2 2 2 2 2 2 2 2 2 2 2 2 2 2 2 2 2 2 2 2 2 2 2 2 2 2 2 2 2 2 2 2 2 2 2 2 2 2 2 2 2 2 2 2 2 2 2 2 2 2 2 2 2 2 2 2 2 2 2 2 2 2 2 2 2 2 2 2 2 2 2 2 2 2 2 2 2 2 2 2 2 2 2 2 2 2 2 2 2 2 2 2 2 2 2 2 2 2 2 2 2 2 2 2 2 2 2 2 2 2
left_child=21 3 -3 -2 -5 7 62 17 9 11 -10 -9 16 31 15 -15 -12 18 19 30 26 22 23 -1 -24 -25 -19 37 29 35 -6 -14 33 -22 -34 36 61 53 -16 -13 47 45 78 -43 -45 -42 -47 58 50 -50 108 -52 -33 60 -35 113 107 -58 59 110 114 -29 83 -64 84 66 71 74 72 70 75 73 -69 -66 -67 -70 -75 -78 -21 80 -71 -82 -61 -7 118 89 87 -87 -89 90 95 92 93 98 -93 -86 99 -98 -88 -92 101 -101 106 -104 -105 -102 -103 -57 -49 -53 -36 -46 -100 -56 116 -116 -26 -118 119 124 -121 -122 123 -123 -23 -126
right_child=1 2 -4 4 5 6 -8 8 10 -11 12 39 13 14 38 -17 -18 20 -20 42 32 64 24 25 27 -27 -28 28 -30 -31 -32 52 34 54 40 -37 -38 -39 -40 -41 41 43 -44 44 111 46 -48 48 49 -51 51 109 -54 -55 55 56 57 -59 -60 82 -62 -63 63 -65 65 67 -68 68 69 79 -72 -73 -74 76 -76 -77 77 -79 -80 -81 81 -83 -84 -85 85 86 91 88 -90 -91 96 94 -94 -95 -96 -97 97 -99 112 100 105 102 103 104 -106 -107 -108 -109 -110 -111 -112 -113 -114 -115 115 -117 117 -119 -120 120 121 122 -124 -125 125 -127
leaf_value=3.1242714548110961 1.6932742545434409 5.230031050086021 -0.28209522706270218 -1.4077127025240943 0.080985431420175655 -0.054139471166538743 -1.3619220816005362 2.2738657207489013 1.8801486299656056 3.7223134620189668 0.0028446867959252722 -0.7097814693905059 -0.28607921542190923 -0.57348321394486856 -0.60090837524050755 -2.5208078056833019 1.656027018547058 0.21588729946701615 -1.3832011152803898 -0.38097782833235605 1.8689132270812987 -0.01543356603779597 1.5328856172561647 -0.32239188300935845 -0.08398364335410298 1.2068924410496988 1.6651480287710825 0.099640707837210768 -0.65940021761532497 1.4076639251148 1.5140762338184175 1.4849150323867799 -0.78490450913565502 1.1064163917043934 1.4763469712734223 1.0865297902014948 -1.282368622660637 0.88869949009107507 0.79683485715285585 0.57056897673113594 -0.29887181417265934 0.12042192847640426 -0.93247610944509507 0.39619495034217833 1.020344851255417 0.93105898930476261 -0.32666320085525513 1.0577457878112793 -1.2318090499849881 0.20609463518316096 0.77722290924617232 -0.37582776181649841 0.18406964588165284 0.7179570869777514 0.26731335246562959 0.50518306016921999 1.7977236042022704 0.26497095339226001 -0.49406101460640245 -0.029540099877378215 -0.97636868777482411 0.97450719229876992 -0.12790132030844689 1.2529036407470704 -0.070551892110690476 -0.094605656829795673 1.1585342554189264 0.61322345601187811 -1.3979924370646477 -0.39719356113246512 -1.8539814763177527 0.77005937176366002 -0.59973426342010494 -0.1828037633214678 0.78589372759279996 -0.51143953369213979 0.1992677839231842 1.4553853886127472 0.4574083539417812 -0.78529421276516387 1.1042411107108707 -0.056268003995601952 0.75024746117768459 -0.90344693140341692 1.3857604322108354 3.2590537339448931 0.63567443277085978 1.2974053345304546 -0.049090034807210463 -1.1197017544791812 0.64867949699914007 1.3257444270451866 1.0520921760559083 -0.82120039290270286 0.052994506359100343 0.16153083617870626 -0.12599854943427174 1.2148456855960514 -0.49271163353553188 -0.031006383879728233 0.71832763230359109 -1.6251376988058506 0.50014790126255582 -0.15151821273745913 -1.0166850385495594 0.0016766711863141423 -0.62513157615661619 -0.50941947657129039 0.090967029333114624 0.34782138805389401 0.5019157211868851 2.0522510281801223 0.2701632771347508 -0.64925399810075757 -0.086912288654624956 0.60550138754003191 -1.3350190684428582 -0.22690044873101373 0.00087240874532043154 1.9919614582061769 -0.99779897943619755 0.77034068483572737 1.1680178989508214 -0.30042442275631814 -0.91515011543697788 -0.16311266670066321
leaf_weight=24 28 20 40 21 38 53 33 20 27 20 29 21 41 22 21 23 30 27 32 56 20 45450 20 38 100 31 30 54 29 34 21 20 35 23 20 31 20 23 23 29 67 27 40 24 20 39 24 25 34 22 21 149 20 23 20 22 20 33 26 92 23 32 40 20 1976 140 32 36 20 56 22 31 20 28 23 143 34 20 28 27 21 26 27 26 22 20 31 33 34 21 27 30 25 37 20 26 22 23 39 298 27 23 28 66 28 806 25 23 24 25 27 20 33 32 254 34 26 35 187299 20 31 26 39 62 45 178
leaf_count=24 28 20 40 21 38 53 33 20 27 20 29 21 41 22 21 23 30 27 32 56 20 45450 20 38 100 31 30 54 29 34 21 20 35 23 20 31 20 23 23 29 67 27 40 24 20 39 24 25 34 22 21 149 20 23 20 22 20 33 26 92 23 32 40 20 1976 140 32 36 20 56 22 31 20 28 23 143 34 20 28 27 21 26 27 26 22 20 31 33 34 21 27 30 25 37 20 26 22 23 39 298 27 23 28 66 28 806 25 23 24 25 27 20 33 32 254 34 26 35 187299 20 31 26 39 62 45 178
internal_value=-0.000201262 0.214119 1.55528 0.168911 0.144549 0.163381 -0.298607 0.214351 0.516923 1.35072 0.223792 0.67312 0.0285007 -0.254333 -0.729068 -1.56878 0.843446 0.128044 -0.256817 -0.0598542 0.210955 -0.00185555 0.199878 1.07683 0.0893674 0.364678 0.978656 0.049158 0.366689 0.540704 0.591069 0.267289 0.164452 0.474051 0.0845691 0.325547 0.102995 -0.073441 0.12973 0.0328218 0.12725 0.374022 -0.369567 0.815516 1.10876 0.0649767 0.451927 0.0164032 -0.132339 -0.666918 -0.00964864 -0.158878 0.834492 -0.118146 0.312795 0.191107 0.449958 0.843368 0.248813 0.365167 -0.158889 0.425172 -0.0461654 0.332367 -0.00256126 -0.0739707 -0.02249 -0.278447 -0.413805 -0.519375 -0.766937 -0.0405813 0.180024 -0.0527921 0.0296366 -0.620219 0.375174 0.664497 -0.101516 -0.167075 -0.00501693 0.462257 0.147386 -0.333658 -0.00175412 0.0804904 0.504907 1.22214 0.614109 -0.00839579 0.00802745 0.214677 0.0322632 -0.149849 0.816644 0.722636 -0.0169552 0.559322 0.0913159 -0.0364827 -0.050702 -0.185277 -0.455704 -0.200518 -0.409227 0.0249055 -1.1043 -0.0133916 0.584221 -0.271855 0.916567 1.5363 -0.143061 -0.296728 -0.117013 -0.00516901 -0.317083 -0.699213 -0.00236932 -0.0156116 0.313835 0.101414 0.369726 0.015938 -0.0168956 -0.314869
internal_weight=240220 1840 60 1780 1752 1731 172 1559 346 90 256 70 229 170 89 45 59 1213 215 183 998 238380 831 93 738 69 57 718 200 171 59 81 941 193 748 137 106 518 44 50 713 221 124 91 64 130 63 492 300 56 244 195 40 495 173 150 98 53 192 166 472 86 139 60 237549 2655 2121 534 371 315 185 2089 56 2058 163 163 82 54 84 130 103 47 119 79 234894 1744 302 87 67 1442 1421 215 165 140 50 48 1373 45 103 1328 1301 468 170 122 94 833 48 45 49 174 47 40 72 52 449 288 161 61 233150 45851 178 158 127 88 45673 223
internal_count=240220 1840 60 1780 1752 1731 172 1559 346 90 256 70 229 170 89 45 59 1213 215 183 998 238380 831 93 738 69 57 718 200 171 59 81 941 193 748 137 106 518 44 50 713 221 124 91 64 130 63 492 300 56 244 195 40 495 173 150 98 53 192 166 472 86 139 60 237549 2655 2121 534 371 315 185 2089 56 2058 163 163 82 54 84 130 103 47 119 79 234894 1744 302 87 67 1442 1421 215 165 140 50 48 1373 45 103 1328 1301 468 170 122 94 833 48 45 49 174 47 40 72 52 449 288 161 61 233150 45851 178 158 127 88 45673 223
is_linear=0
shrinkage=0.005


Tree=2
num_leaves=127
num_cat=0
split_feature=122 111 9 72 32 139 75 138 148 139 11 6 25 89 138 25 117 135 22 147 95 22 72 111 95 146 22 23 139 11 31 32 75 23 75 22 22 139 15 111 6 25 86 105 146 25 103 138 9 105 75 147 32 148 140 152 15 25 9 146 139 100 23 105 148 25 25 138 152 22 23 139 95 9 147 55 117 139 25 83 103 29 32 149 100 6 139 111 9 138 138 111 147 152 152 89 100 152 86 23 122 105 32 25 75 105 149 9 95 76 31 72 32 6 25 23 148 15 152 15 149 111 148 100 86 55
split_gain=2.08895e+06 4.30956e+06 3.59943e+06 5.42329e+06 1.72443e+06 3.80457e+06 2.22938e+06 2.01315e+06 1.80169e+06 1.40364e+06 1.31239e+06 1.71744e+06 4.83813e+06 4.66391e+06 4.05507e+06 1.57932e+06 1.74844e+06 1.29974e+06 2.15411e+06 1.2861e+06 1.29556e+06 1.2503e+06 1.97006e+06 1.19106e+06 1.14028e+06 1.13946e+06 1.23626e+06 1.4078e+06 1.35158e+06 1.20257e+06 1.13561e+06 6.996e+06 2.25364e+06 1.41777e+06 2.66326e+06 2.19139e+06 1.10052e+06 1.06441e+06 1.16244e+06 1.31459e+06 1.31194e+06 1.06847e+06 1.02252e+06 3.13491e+06 1.12484e+06 999539 976516 951189 936634 1.0626e+06 919212 913400 909016 889774 853570 828503 1.45807e+06 790591 1.05301e+06 788952 788709 786694 783372 759413 742490 692217 1.04902e+06 783823 687322 678946 667249 807286 614334 612182 597289 629250 596144 592427 592269 2.93993e+06 1.82221e+07 3.016e+07 2.70579e+06 810762 1.39342e+06 918510 806457 1.59587e+06 661551 2.94999e+06 652111 769750 2.25124e+06 851039 1.37166e+06 744874 1.04786e+06 648398 1.11083e+06 665559 598298 591878 582018 559520 757368 913172 556064 554981 553042 548995 783587 1.0741e+06 773460 776697 605246 548725 520370 494902 494738 626531 508037 492506 543561 475306 452896 451015
threshold=4.6167679555743391 3.2130497604711183 2.1726042495407412 3.7639004027804748 -671.22353248986065 613.68330040404987 958.24526502196102 3.2183618771024345 3.9858294775989509 613.68330040404987 4.6337116745183957 1822.2788180134464 -2.0855035720642401 2.1667692063455348 4.280436458661268 -2.0101783225503893 185.88288156305978 0.15264702210608541 0.095528931278016108 2.3278504199543462 2.5316695409341765 0.02742753933539091 0.84534376439777648 0.38160734750225755 0.082687206589575374 0.00084248500000000013 0.031109232783442391 1.0721590092682063 364.88372546776731 3.2864424820161786 4.6383157312752576 -1225.0422041594991 -1060.2744591181122 3.3369076239102387 545.13939435742793 0.088279065472951654 0.0085151439832388438 417.42010353599818 -1.0784374824844549 1.4188065680537358 771.70495854706269 -2.901135735500509 2.1273637894410058 1.5976776639192514 -0.00032240499999999995 -2.2595446151006868 1.8195145373668862 3.2183618771024345 0.6388762956411268 0.66981150845109194 -705.26789446942507 -3.7727857774765812 -407.72470755348621 1.2171075838368455 0.44066175948190994 3211.7840049507413 4.2930154054562779 -0.56644072202622675 0.7656467370136294 -0.0012115049999999997 269.56801307707065 1899.3581639177307 2.6266162214768589 2.5607790736180864 2.4714316981224127 0.72144911534828837 -0.75907719709839794 2.6530934382541944 2257.3993873604527 0.059326222797166435 1.6775912878664008 549.44495667689114 0.020240150240595767 0.9674622875619846 -2.5032051071814068 0.20319796911514545 81.767668348841099 165.35631935245212 -2.4744998603955226 -2.2687839228610689 -1.4055752153983467 -1.3323936535063889 -2478.9426310742865 -1.0825769754655226 1583.9640085329745 896.10220849073005 708.18114390814105 0.062868595783300729 -1.8313360205815428 -0.22399939620655826 1.9064053297708836 0.65115251806371843 -1.9022579922747471 4386.4232956729602 3610.5178956251575 3.5176664542033769 2095.9048763271744 2257.3993873604527 1.0000000180025095e-35 -1.6729802754453966 2.6534139833241208 4.6677093697647498 -343.6185864598184 -1.6544799991755124 958.24526502196102 0.88156334922276602 -0.3461227777328883 0.6388762956411268 -1.0005646392724548 520.95133577273475 0.45825958359060953 -0.020852319080090338 -1125.5593541024302 771.70495854706269 -3.3717478022743568 -0.78496217272497526 1.3239202420680491 0.01335079619766689 1167.5126903553294 -0.21497974824322688 2.5550838727277481 0.65115251806371843 3.5237711430171701 1464.1994100875013 0.20128900846273368 3.7180993348644997
decision_type=2 2 2 2 2 2 2 2 2 2 2 2 2 2 2 2 2 2 2 2 2 2 2 2 2 2 2 2 2 2 2 2 2 2 2 2 2 2 2 2 2 2 2 2 2 2 2 2 2 2 2 2 2 2 2 2 2 2 2 2 2 2 2 2 2 2 2 2 2 2 2 2 2 2 2 2 2 2 2 2 2 2 2 2 2 2 2 2 2 2 2 2 2 2 2 2 2 2 2 2 2 2 2 2 2 2 2 2 2 2 2 2 2 2 2 2 2 2 2 2 2 2 2 2 2 2
left_child=10 2 4 -4 5 6 48 -7 25 -10 11 30 13 23 -15 70 17 51 36 20 21 22 115 54 -18 26 -6 28 -28 -27 78 -32 -33 35 -35 37 -19 38 39 41 45 -34 62 -44 -45 -40 -11 61 50 -50 -2 -17 -42 69 -13 59 -57 58 -38 -55 -51 123 102 -39 65 66 -29 -67 -52 76 71 -12 -65 -9 -59 -76 77 -53 79 80 81 -1 -82 85 -85 -84 88 -88 89 -81 109 93 -93 94 95 97 -97 99 -99 -92 108 121 -23 104 106 -106 -80 -21 -100 125 112 114 113 -111 -112 -14 -68 -113 -108 120 -120 -61 -123 -43 -116 -90
right_child=1 -3 3 -5 8 7 -8 73 9 46 15 12 19 14 -16 16 24 18 -20 107 -22 42 -24 -25 -26 29 27 64 -30 -31 31 32 33 34 -36 -37 57 63 40 -41 52 47 43 44 -46 -47 -48 -49 49 60 68 53 -54 55 -56 56 -58 74 -60 101 -62 -63 -64 72 -66 67 116 -69 -70 -71 -72 -73 -74 -75 75 -77 -78 -79 103 86 82 -83 83 84 -86 -87 87 -89 90 -91 91 92 -94 -95 -96 96 -98 98 100 -101 -102 -103 -104 -105 105 -107 118 -109 -110 110 111 117 -114 -115 124 -117 -118 -119 119 -121 -122 122 -124 -125 -126 -127
leaf_value=-0.0014927051748548235 0.71021964368366053 2.4771439888363793 0.1143689587983218 3.277190101043038 -0.02527288809875769 0.2860759521666027 1.7428927106857299 -1.1193849016371227 0.063825748010792521 0.87632124582926441 0.079868433361961727 1.4240485107898713 -0.28726930215954782 0.90796038722991934 4.0537997445606049 -1.2015495045979818 -0.42798259328051308 1.0489874588526211 1.7742167320251465 1.4221858856894753 -1.2532982499258858 -0.0072653497148103324 -1.390604352822175 -0.39836259788937045 -1.8189252658512283 0.24296478785001316 0.41468202482570299 1.0731897455872967 2.1139374504089354 -1.0068535440140649 3.044186687242417 1.6506469379559807 0.80811034541863669 0.055129796680191474 1.9561655285623341 -1.1933250102243926 -0.20360245764255525 -0.0029644755659432248 -0.84824804094102646 1.2811461855747082 -0.38754369403307254 0.13713735767254015 2.2567943386598066 -0.68252326284136089 0.66201466550145827 0.066139507341113957 2.4200713098272679 -0.83846638795307704 -0.17454122553931342 0.24549810218811036 -0.21982058512908156 0.12278516874756924 -1.7861916024344309 0.67586478369576597 0.22865397844995772 -1.9114249541542747 -0.09104236526922746 -0.84392899308885849 1.3798012547265917 -0.48742302282055222 1.4893157685720004 -0.60774662742614749 -0.8816665466972019 1.6537437012082055 -0.37691655071576435 0.27010215950012206 -0.61703138573964444 1.6103490805625915 -1.126006368354515 0.81010702544245217 -1.7229417340755464 -1.3065335982186455 0.44432211519706821 -2.1076039505004882 0.25823097149591623 -0.35395055815230969 0.66606933897191822 -0.76041467764798332 -0.023142111938103622 2.0816863662855964 1.8781483359336852 8.0376925811171525 -0.055196305378144531 0.037759682363774409 1.3642325041844294 -0.99769351383735405 0.098855021981631999 -1.6294187317111275 0.010351100351774006 0.090619695955441767 0.87762245004827322 1.6901194052860655 0.18840567301105521 -0.89004776773245442 1.0839432969237819 -0.098521748029301512 -1.3487498138064431 1.2959332786287581 -0.72944879622686476 -0.0097758473161510314 0.8064501441758255 -1.1164700954610651 0.76171856880187994 -0.0007627639960277882 1.3381855034260521 0.1318172094129747 -0.02913066611641129 0.271365930557251 0.20387420569933379 0.05504621986179583 -0.67134190351535117 -0.41807653285562996 0.71970674492418762 -0.96436637119813395 -0.23956394996494054 0.76847563943266861 0.40918963080360776 -1.1970426887815648 -0.14193205165730313 -0.32810627660392661 0.24910349066633927 -0.2583571329340339 0.79240877974033352 1.0773256974220276 0.37912334439971235 -0.48216624533876462
leaf_weight=28 21 21 33 23 163 21 20 42 22 21 21 32 32 20 21 24 41 26 20 22 21 203 37 27 23 39 22 24 25 38 21 23 39 58 27 38 21 29 36 27 26 41 22 28 35 176 20 35 45 25 93 43 21 21 28 22 22 28 21 75 26 25 23 21 30 20 30 24 27 29 20 21 21 25 82 86 22 34 7947 21 20 20 238 83 26 29 34 22 4220 163 22 29 179 23 33 83 21 28 21 534 29 22 28 219920 21 62 968 20 65 124 39 38 36 22 64 20 21 44 661 452 95 32 20 20 55 47
leaf_count=28 21 21 33 23 163 21 20 42 22 21 21 32 32 20 21 24 41 26 20 22 21 203 37 27 23 39 22 24 25 38 21 23 39 58 27 38 21 29 36 27 26 41 22 28 35 176 20 35 45 25 93 43 21 21 28 22 22 28 21 75 26 25 23 21 30 20 30 24 27 29 20 21 21 25 82 86 22 34 7947 21 20 20 238 83 26 29 34 22 4220 163 22 29 179 23 33 83 21 28 21 534 29 22 28 219920 21 62 968 20 65 124 39 38 36 22 64 20 21 44 661 452 95 32 20 20 55 47
internal_value=0.000403142 0.23807 0.185825 1.41338 0.104375 -0.167433 0.139814 -1.06473 0.292299 1.08267 -0.000514082 0.000155629 0.263183 1.12895 2.51924 -0.205802 -0.139333 -0.0616938 0.192125 0.0374846 -0.0407806 0.0187121 -0.508713 0.473748 -0.927853 0.178093 0.296472 0.564046 1.31854 -0.373829 -0.000530625 0.202906 0.112911 0.0576483 0.658988 -0.0344488 0.072269 0.0507298 -0.0397895 0.260622 -0.256689 0.0884091 0.157181 0.631875 0.0644423 -0.0891338 1.62937 -0.143561 0.00453347 0.385472 -0.254829 -0.258646 -1.01247 -0.192477 0.866198 -0.389717 -1.00123 -0.0344313 0.588099 -0.231442 0.879601 0.13925 -0.00167353 0.619344 0.32605 0.503269 0.211181 1.00115 -0.423712 0.137284 -0.971271 -0.613333 1.04903 -1.48812 -0.167831 -0.0551477 -0.0598062 -0.267199 -0.00111884 0.0461738 0.43876 3.34817 0.0861041 -0.00921738 0.354166 -0.157565 0.017103 -0.58011 0.0227333 0.317861 0.0132991 0.124864 0.397779 0.0587799 0.084884 0.0438268 -0.350972 0.102566 0.402843 0.025337 0.185395 -0.359318 0.0859448 -0.0024423 -0.0386332 0.437043 -0.0425334 0.874176 -0.0240302 -0.012088 -0.184124 -0.371748 0.0632918 -0.0985639 -0.130776 0.118786 -0.19447 -0.836058 -0.113352 -0.180841 -0.092794 -0.228157 0.145784 0.445396 0.046384 0.00492614
internal_weight=239566 921 900 56 844 345 257 88 499 63 238645 237869 619 128 41 776 714 650 284 491 449 428 89 87 64 436 359 196 47 77 237250 684 663 640 85 555 264 517 446 187 259 160 339 85 63 212 41 121 237 96 141 366 47 342 60 214 44 238 42 170 51 86 254 71 149 119 75 44 120 128 62 42 42 67 196 168 99 77 236566 6440 444 48 396 376 109 267 5996 56 5940 184 5756 1067 208 859 836 803 104 699 143 556 115 149 231 230126 10206 83 10123 42 86 4689 422 240 182 146 158 52 51 82 2176 1208 756 127 52 61 119 4267
internal_count=239566 921 900 56 844 345 257 88 499 63 238645 237869 619 128 41 776 714 650 284 491 449 428 89 87 64 436 359 196 47 77 237250 684 663 640 85 555 264 517 446 187 259 160 339 85 63 212 41 121 237 96 141 366 47 342 60 214 44 238 42 170 51 86 254 71 149 119 75 44 120 128 62 42 42 67 196 168 99 77 236566 6440 444 48 396 376 109 267 5996 56 5940 184 5756 1067 208 859 836 803 104 699 143 556 115 149 231 230126 10206 83 10123 42 86 4689 422 240 182 146 158 52 51 82 2176 1208 756 127 52 61 119 4267
is_linear=0
shrinkage=0.005


Tree=3
num_leaves=127
num_cat=0
split_feature=138 31 155 62 155 82 128 145 145 115 150 82 160 82 80 117 43 128 111 75 27 26 115 30 103 75 26 103 132 85 125 150 71 43 30 31 43 111 31 115 155 138 117 111 80 82 103 85 31 103 111 43 143 111 143 145 150 82 132 145 125 150 71 138 117 124 80 75 85 75 150 103 62 115 26 30 147 132 128 64 80 55 64 43 115 143 116 30 117 143 92 155 155 92 43 31 103 128 27 125 145 150 31 103 145 145 43 67 43 31 145 55 150 92 75 27 71 115 62 71 31 103 82 26 111 62
split_gain=2.47659e+06 4.52394e+06 7.61527e+06 6.76993e+06 4.16031e+06 4.68201e+06 5.10387e+06 2.90683e+06 3.02965e+06 2.51441e+06 1.86032e+06 1.62792e+06 1.57025e+06 1.76291e+06 1.75797e+06 1.50594e+06 2.77671e+06 1.78426e+06 1.96758e+06 2.52884e+06 4.03288e+06 1.7894e+06 1.41391e+06 1.40551e+06 1.37086e+06 1.35037e+06 1.18213e+06 1.15681e+06 1.12508e+06 875902 1.02952e+06 1.49481e+06 835156 842217 833281 5.21515e+06 3.56199e+06 2.11687e+06 2.83523e+06 5.53703e+06 2.09032e+06 1.99246e+06 1.81433e+06 1.40518e+06 1.68776e+06 1.40122e+06 1.67076e+06 1.29151e+06 1.25962e+06 1.22043e+06 2.19752e+06 2.03098e+06 1.76078e+06 2.03472e+06 1.65218e+06 1.04978e+06 1.04126e+06 1.02725e+06 912528 877005 1.05373e+06 820193 818368 802511 1.17632e+06 782699 798199 1.96426e+06 765869 1.00135e+06 758958 754567 830627 1.00161e+06 858940 2.1273e+06 1.10245e+06 1.08542e+06 1.13141e+06 906979 823906 729619 839020 815774 970020 727138 715662 715556 708950 1.18024e+06 693048 690683 690101 889699 672338 668760 668230 661668 657784 635807 632142 627733 625472 625000 614099 594474 913472 716369 575177 546796 540918 548388 540869 534843 530940 522107 598708 543648 513731 517668 511578 821412 1.39503e+06 1.21588e+06 1.13681e+06 827744
threshold=4.280436458661268 0.14045647417223969 1.2612399633511469 3.5908181421304386 4.6633391741504395 0.82141355293590379 -2.0259507867745259 -0.13018926194534819 -0.61891390435228666 -4.4028632483254961 0.042390529060295258 0.98157816495677597 -0.4851166076836757 0.93923098477568234 767.82561494866843 235.49271603651724 2.0972921639083464 -0.95897514994832012 -0.15520643866070252 575.88051239219737 1.8288883565629865 3183.2639545079751 -1.6368376117500485 2508.5371989522578 1.2541068585697965 1475.4662411833253 1440.0436753151694 0.46533397501426432 0.52790290554554686 -2.3064182507824671 -91.349286757800272 0.067039174321525494 2.0503915077047483 0.19944650936377448 3561.6340934544637 0.3389313602809973 -0.31696065032652887 1.0566339102280389 4.6383157312752576 -1.6368376117500485 4.6633391741504395 2.0699114652618831 75.839776574947464 -0.29142712581687674 461.63218421379946 0.97914683313922346 1.3512873095553637 3.8577207408834826 3.1116146907670568 2.1803770819401547 -0.41044294945802862 0.44257266950351376 512.81088605811385 0.20066209491231854 -497.84560902422112 2.4173070272127113 0.079196725946885912 0.92706639856653428 0.95984195276998341 -0.22396501801034266 -125.51346213332647 0.063713720879269756 -0.52455237576952307 2.8032765860670823 124.92287487124722 -0.49258958489045374 406.39086545439471 958.24526502196102 1.4799288635612624 654.20667548946392 0.019699309715312915 1.2541068585697965 3.5908181421304386 -2.3214109468925446 3183.2639545079751 5461.3485680031781 0.24563353229695609 0.90418799161384966 1.6048536946191108 0.72869115912959959 341.59232508913402 0.13441068631998757 4.1042678733675215 0.72316270656737214 -1.5228166188367525 429.87800582757535 3.2172895501757104 3162.7738445694872 55.283547901427987 124.45726344886501 6.4758614560878067 2.1045773423849297 2.4329753238918115 -109.59471811488929 1.008134876347633 0.23882949886445995 -0.13351601470970612 1.2723724446381988 1.2847230517722155 5.8336028743288812 0.13018785856587903 0.022615752593271327 -0.54100957225481006 0.98151526590544547 -0.31452472631744527 -0.15794357869204836 0.35426860462279747 -2.9818997738174886 0.26892011562913171 2.0998438517622646 -0.26280520161145837 0.52899932716473008 0.038777218912549011 180.8069035509952 252.20583400436871 4.7696120132599367 -3.4013064804128619 -3.9278342417040433 3.5908181421304386 -0.61884403965079848 1.5914773952737102 1.7234245869991713 0.96733543083921025 2586.3424419865537 0.61576211277021586 3.086380622403083
decision_type=2 2 2 2 2 2 2 2 2 2 2 2 2 2 2 2 2 2 2 2 2 2 2 2 2 2 2 2 2 2 2 2 2 2 2 2 2 2 2 2 2 2 2 2 2 2 2 2 2 2 2 2 2 2 2 2 2 2 2 2 2 2 2 2 2 2 2 2 2 2 2 2 2 2 2 2 2 2 2 2 2 2 2 2 2 2 2 2 2 2 2 2 2 2 2 2 2 2 2 2 2 2 2 2 2 2 2 2 2 2 2 2 2 2 2 2 2 2 2 2 2 2 2 2 2 2
left_child=15 2 102 -4 11 10 9 8 -8 -7 -6 12 13 14 100 34 17 18 26 62 -21 23 -23 65 -25 -9 -17 -24 -29 105 31 114 81 -34 87 -36 41 45 59 40 -40 58 48 -44 -45 46 47 55 -43 50 61 56 54 -54 -52 71 -51 88 70 -39 -61 -48 -20 64 68 97 110 96 69 -62 -37 72 74 -74 75 76 80 78 79 -76 98 83 118 84 109 -69 -85 120 -56 -90 -50 -59 103 -94 112 -89 -68 -19 -38 -73 -3 -97 -2 -79 -72 -14 -107 -108 -98 -32 111 -67 -81 -114 -31 116 -103 -118 119 -83 -1 -122 123 125 -125 -123
right_child=1 4 3 -5 5 6 7 25 -10 -11 -12 -13 29 -15 -16 16 -18 21 19 20 -22 22 27 24 -26 -27 -28 28 -30 30 32 -33 33 -35 35 36 37 38 39 -41 -42 42 43 44 -46 -47 49 -49 90 51 52 -53 53 -55 57 -57 -58 91 -60 60 63 -63 -64 -65 -66 66 67 85 -70 -71 104 99 73 -75 77 -77 -78 92 -80 94 -82 82 -84 86 -86 -87 -88 95 89 -91 -92 -93 93 -95 -96 101 108 -99 -100 -101 -102 115 -104 -105 -106 106 107 -109 -110 -111 -112 -113 113 -115 -116 -117 117 -119 -120 -121 121 122 -124 124 -126 -127
leaf_value=0.00092632687384005727 -0.44738514534632368 -0.17857992947101595 1.0471980674178512 4.8324192794164018 0.66344038486480716 3.6909945826096973 0.14225598314534063 0.53789641925692555 2.6117336082458498 1.4807839219224068 -1.2384777614805433 1.0197382834553719 -1.238585293451945 -0.52549591087525893 2.1563342590332031 0.59412847757339482 1.6410101092945446 -0.033418872732560612 -0.45828280127048493 3.638521323680878 0.53627662095156581 0.51415951034054164 -1.9356575211611662 1.5745773196220398 -0.09412410783767701 -0.81742798412547391 -1.0517925605773926 -1.3467822942733765 0.33032907772064207 0.44187423852086072 -0.1217227510043553 1.4655253696959951 -0.072059933234144141 -1.2208475675338355 2.4116500765085207 -0.43477669846777822 0.7915943588529315 -0.14614628788638623 1.6292569756507873 3.0552615275054142 -0.40787204475963817 -0.96182727113366129 -0.61202218005531717 -0.98333782022649585 -2.9902309875488284 -0.90665961384773253 -0.67482407302298442 -0.90156150627136233 -0.25398890827641341 0.90429956182455395 1.5634152964389685 -1.0656484514877602 2.7938130455017092 0.5384175647497178 0.22626339903244608 0.8654330521992275 -0.49892657852172856 0.26206382627487185 -0.6567375336441339 1.4888477618353708 0.2591564522500624 0.46123932947715129 0.97207335114479065 -0.20009585342909161 1.4643995487231476 -0.0075475094629370645 1.8764914755821229 0.50460584084192905 -0.36169848962263629 1.248195152427211 -0.36855282817284268 -1.074952333609263 0.11042950865295198 1.5059836517572405 -0.17562022884262771 1.4442878876193876 -0.37469659761242247 -0.2984027847584258 0.5077264742593508 -1.0644130838358843 1.081218308770451 0.81236443201700848 0.90962414979934691 -0.23473659727308488 -0.80135109884398315 -0.7170666701218178 -1.3481983925065686 -1.0059836010499434 0.44156713602983433 1.7912632987976074 0.89169507178393281 -0.96794658842540926 1.1615514941561607 0.1153723423763857 -1.2562535588585195 0.11838761182319299 0.25237781619032224 -0.79810537784551383 -0.098834956593811502 -0.017337272476266933 1.0250219774246216 0.67992984801530842 0.53015351414680478 0.54124951658577758 0.43125147992372515 -0.96118875682353977 -0.60349788689613337 0.6903813295779021 1.4004694690704347 0.9067666325966518 -0.10986673576389244 1.1245123777389525 0.16458928889698451 -0.83947048732212615 -0.7102327098846436 -0.894344363946181 -0.93676366647084552 -0.16838993616111522 -0.65892748232241038 -0.10595951611535592 -0.040209392979587158 0.069101922368934879 -0.47991019492563991 1.5195368006921584 0.086499865400791173 0.59135409940211547
leaf_weight=220209 30 24 27 21 20 22 23 40 27 31 36 32 30 31 20 24 33 103 20 20 22 20 22 32 20 34 20 20 20 20 28 23 27 39 24 51 28 94 20 29 34 40 38 22 20 36 47 40 33 39 33 37 20 20 78 35 20 25 51 21 114 24 20 57 26 23 20 21 33 33 30 30 36 20 164 31 92 94 37 27 29 21 28 27 28 29 31 22 46 25 22 21 31 59 42 204 24 39 80 27 20 20 36 29 120 40 20 23 20 24 167 20 36 21 20 26 24 564 27 57 13401 784 92 31 25 84
leaf_count=220209 30 24 27 21 20 22 23 40 27 31 36 32 30 31 20 24 33 103 20 20 22 20 22 32 20 34 20 20 20 20 28 23 27 39 24 51 28 94 20 29 34 40 38 22 20 36 47 40 33 39 33 37 20 20 78 35 20 25 51 21 114 24 20 57 26 23 20 21 33 33 30 30 36 20 164 31 92 94 37 27 29 21 28 27 28 29 31 22 46 25 22 21 31 59 42 204 24 39 80 27 20 20 36 29 120 40 20 23 20 24 167 20 36 21 20 26 24 564 27 57 13401 784 92 31 25 84
internal_value=0.001192 0.251136 1.18789 2.70323 0.128811 0.700866 1.09954 0.544452 1.47577 2.39823 -0.559221 -0.079453 -0.137305 0.453167 0.927206 0.000158147 0.222521 0.158044 0.698949 1.15664 2.01354 0.044454 -0.641833 0.153094 0.932769 -0.0848202 -0.154017 -1.01473 -0.508227 -0.246652 -0.13684 0.44984 -0.246516 -0.750889 -0.00055141 0.0927148 0.0690018 0.160861 0.456215 1.29301 0.34662 -0.344042 -0.753899 -1.30869 -1.939 0.067538 0.0921839 -0.0214977 -0.28671 0.350385 0.491319 -0.14729 0.698523 1.66612 0.52877 0.0156358 0.42863 0.353677 -0.0594192 0.272474 0.411032 -0.290803 0.256895 0.32497 0.470255 0.0660917 0.20175 0.53858 0.326657 0.481186 0.0921392 -0.0169413 0.020151 0.608842 -0.0210573 0.215054 0.048651 -0.13474 -0.315661 -0.420714 0.332943 -0.12368 0.140589 -0.378375 -0.0510459 -0.203964 -0.829863 -0.00149047 0.555317 0.916812 0.204285 -0.299463 0.143011 0.475723 -0.739726 -0.145453 1.11869 -0.243438 0.132017 -0.573977 0.368512 -0.122861 0.0858178 -0.100436 0.271291 -0.635365 -0.417334 0.088577 0.774238 0.352965 0.0188996 0.518992 -0.481462 -0.205327 -0.134179 -0.200487 -0.170815 -0.199752 -0.0644865 0.141282 -0.000962785 -0.0298176 0.10725 0.165712 0.879788 0.119642
internal_weight=239603 987 114 48 873 233 177 124 50 53 56 640 608 95 64 238616 759 726 126 82 42 600 82 518 52 74 44 62 40 513 400 63 337 66 237857 2371 2347 1920 461 83 54 427 175 80 42 1459 1423 988 95 435 339 96 268 40 228 948 59 195 252 378 284 71 40 263 206 466 324 114 180 147 201 913 856 56 800 260 229 540 327 290 137 271 133 138 80 50 58 235486 149 71 55 46 213 90 126 860 64 142 108 57 44 838 66 123 150 113 83 43 44 52 210 43 84 57 40 634 608 588 105 78 234626 14417 1016 924 56 868
internal_count=239603 987 114 48 873 233 177 124 50 53 56 640 608 95 64 238616 759 726 126 82 42 600 82 518 52 74 44 62 40 513 400 63 337 66 237857 2371 2347 1920 461 83 54 427 175 80 42 1459 1423 988 95 435 339 96 268 40 228 948 59 195 252 378 284 71 40 263 206 466 324 114 180 147 201 913 856 56 800 260 229 540 327 290 137 271 133 138 80 50 58 235486 149 71 55 46 213 90 126 860 64 142 108 57 44 838 66 123 150 113 83 43 44 52 210 43 84 57 40 634 608 588 105 78 234626 14417 1016 924 56 868
is_linear=0
shrinkage=0.005


Tree=4
num_leaves=127
num_cat=0
split_feature=98 73 32 7 74 111 7 141 6 111 150 32 55 5 133 13 108 133 150 51 2 93 32 133 27 26 30 27 108 111 150 73 16 161 26 133 116 141 133 108 2 111 27 74 15 5 154 74 116 2 40 139 150 133 27 141 15 32 32 154 133 26 98 39 27 7 55 30 13 139 5 108 84 74 74 74 84 13 139 51 98 2 26 161 73 74 133 5 150 98 150 55 139 111 139 73 13 73 7 5 6 39 32 39 111 111 111 133 54 150 15 108 116 98 31 73 6 13 16 108 154 39 6 74 15 54
split_gain=1.38388e+06 8.81874e+06 4.67694e+07 2.92344e+06 9.74897e+06 3.97735e+06 5.00044e+06 2.81634e+06 3.52915e+06 3.15595e+06 3.06315e+06 3.27885e+06 2.83903e+06 2.46105e+06 1.9819e+06 1.74156e+06 1.74049e+06 1.50947e+06 1.42862e+06 1.19828e+06 1.13662e+06 1.04276e+06 983769 966893 905987 884418 3.61813e+06 3.52498e+06 2.59933e+06 2.92528e+06 2.41254e+06 3.68038e+06 2.25588e+06 2.71261e+06 2.24397e+06 2.20413e+06 1.70182e+06 1.65566e+06 2.50502e+06 1.59114e+06 1.43784e+06 1.18418e+06 1.36253e+06 2.48556e+06 1.23415e+06 866555 842384 999672 883373 1.38174e+06 939791 806702 800370 766274 757249 1.49301e+06 974868 1.1371e+06 1.9391e+06 971010 833885 1.16892e+06 757190 748376 735860 731192 1.54698e+06 1.11045e+06 875682 676586 667208 649605 634587 708138 632041 645370 610738 1.14252e+06 2.74715e+06 936812 668165 610104 1.03174e+06 818588 1.03781e+06 583141 575452 548926 542944 527696 523840 522957 522904 500769 496121 761593 643744 546862 491564 483578 1.16071e+06 2.33187e+06 1.74366e+06 2.1104e+06 1.57939e+06 2.06143e+06 1.52093e+06 1.14904e+06 1.21991e+06 853771 507633 505168 1.35011e+06 1.00797e+07 1.52858e+06 972402 1.03869e+06 1.38808e+06 931965 923327 834445 959686 1.16078e+06 713436 924090 832872
threshold=2.3715939371100494 -1.4404464903144583 -1225.0422041594991 837.27724731083151 2.4700833239347113 0.91729880335061853 1230.745061105745 -351.25302727248112 1822.2788180134464 0.12033171177912211 0.070032402849061717 -611.79969348013708 -1.672625698013362 -2.7520747824067961 0.055711224000000205 0.054529280889163097 1523.3039858839982 -0.10408718999999998 0.076102052687663208 -4.4031975715834051 2.8522354584512337 2.4054734035173273 -96.829806690668079 0.1052802999999999 2.4228348993537243 4903.2101031114753 5461.3485680031781 4.7696120132599367 2357.8621842967832 0.39066337071587082 0.10673764341549295 0.27291420784837611 0.0022072450000000005 3.5672680358154492 2819.979165596957 -0.058329407999999965 2.6505341519715619 -548.29790131880372 -0.081920701000000248 706.78036460921646 1.2374273195799155 0.25096314126127511 4.2945187132002349 0.68545524435297867 0.44417518468272904 -1.9015664665506502 3449.9333439174634 0.74771014981454842 3.8348181826703702 -1.7077170135273667 0.00108372 298.59365321359911 0.070770655435547239 0.02613735199999984 4.2945187132002349 -780.0655036342074 -1.6907482642327853 -2107.8802658114059 -1299.7673081119794 1600.385298492303 0.1052802999999999 2819.979165596957 -0.61336584058868227 -2.762277430555555e-05 1.6685299316718545 522.31738112616733 -2.03175139737156 5461.3485680031781 -0.34340360023192024 613.68330040404987 0.19551207734379614 -197.27342465726659 -0.0011359149999999997 0.17420233112537417 0.9121693694871752 1.4568753031958728 -0.0030571799999999996 0.71976711373431235 439.72415343964906 -3.8912221815963135 -1.4962002116668984 2.4381610760850738 963.64613487998975 -0.038875770351505044 0.57142807351688463 0.5912041024434006 0.096823838000000287 -0.55866552885421961 0.13270867737171357 0.60281898499172837 0.12253564011151503 -1.9246557481102982 81.223299508603759 -0.5550801370880043 504.63305819673513 1.7786978579590309 0.58007088517530714 1.4907834912914286 466.76849263115224 -3.7107441422340326 1050.002789611736 0.00018340127083333335 -1790.8561758699429 -0.0010191000173611108 1.200693766941116 0.55940738730711481 0.20066209491231854 -0.092817419999999914 0.0010460600000000003 0.049531040219355775 -0.69184744700033762 682.27084616579566 4.2975274901664378 -0.35624829482078085 1.6636183914164311 -1.5526796000461982 710.71265233427562 -0.53074180931507942 -0.00040330999999999993 1242.1060781396343 1040.6459176502472 -0.0042772514131944441 896.10220849073005 1.2740691089061098 2.5019062270588344 -0.0016654799999999998
decision_type=2 2 2 2 2 2 2 2 2 2 2 2 2 2 2 2 2 2 2 2 2 2 2 2 2 2 2 2 2 2 2 2 2 2 2 2 2 2 2 2 2 2 2 2 2 2 2 2 2 2 2 2 2 2 2 2 2 2 2 2 2 2 2 2 2 2 2 2 2 2 2 2 2 2 2 2 2 2 2 2 2 2 2 2 2 2 2 2 2 2 2 2 2 2 2 2 2 2 2 2 2 2 2 2 2 2 2 2 2 2 2 2 2 2 2 2 2 2 2 2 2 2 2 2 2 2
left_child=25 2 -2 19 5 7 13 -5 9 20 -10 -12 -11 -7 17 -13 -14 -8 -15 23 -9 -18 53 92 64 26 54 34 32 37 35 -32 33 41 -28 -31 45 -30 -39 -34 51 46 52 44 -44 62 48 -48 49 -27 72 -37 -43 93 76 -56 63 -58 -59 69 74 -62 -36 -57 -20 67 70 -21 -68 -60 -67 -65 -51 -74 85 -76 77 79 -79 -1 -81 82 -82 89 -85 -61 -47 -75 -19 91 -16 -84 -3 -22 95 96 -70 -96 -88 100 110 102 -102 -104 105 107 -105 -103 109 -109 -78 120 115 -114 118 116 -113 -118 -115 -116 -101 122 -122 -123 125 -125
right_child=1 3 -4 4 -6 6 14 8 10 12 11 15 16 18 90 -17 21 88 24 65 22 -23 -24 -25 -26 28 27 -29 29 30 31 -33 39 -35 36 40 -38 38 -40 -41 -42 42 43 -45 -46 86 47 -49 -50 50 -52 -53 -54 -55 55 56 57 58 59 60 61 -63 -64 71 -66 66 68 -69 94 -71 -72 -73 73 87 75 -77 99 78 -80 80 81 -83 83 84 -86 -87 98 -89 -90 -91 -92 -93 -94 -95 97 -97 -98 -99 -100 111 101 104 103 106 -106 -107 -108 108 -110 -111 -112 112 113 114 119 -117 117 -119 -120 -121 121 123 -124 124 -126 -127
leaf_value=-0.69334809883220772 8.3897011344432819 -0.41055022859573365 -0.14826068836965678 -0.95968605129807094 3.5613166619902077 1.9213400741056965 -0.46918756419962104 0.85667628331617873 3.1855197579520094 2.7031072683334352 -0.27482675170898441 2.8292737633249034 1.7790890525216643 1.1986462348937987 0.35154707122932782 1.0133739403755435 -0.61943359897136685 -2.680924101114273 -0.28263477854106739 0.014760179209751249 -1.6572924008823577 0.70981489234500461 0.59558127784729009 1.4361870151758194 -0.5333393670105544 1.3541072566168648 1.4508134360062448 2.0285101505872367 -0.14674005910754204 -1.9614439137776694 2.4052817342394874 -0.43404626665115359 -0.013698678558523006 -1.6431619163659903 -1.4420109891891479 -1.3524306755716151 1.0221617752160781 -3.0330448279380802 -1.0357570760544033 1.7445080181860155 0.79649697445057055 -1.6406887761592865 1.5986555312230035 -0.54845443365279212 0.042753954982757573 0.76174627340756929 0.29616295388643293 1.4465641862612504 -0.86677385807037355 0.38920391308850255 0.95327939891815194 -0.08272971889068341 -0.29873814308643343 -0.13802636831234663 1.1182063898832904 -0.055276732403858039 -1.4179214067459105 1.2882813792001633 -0.15870720201861729 -0.32888708505831971 -0.34062056716750649 -1.6830714727217151 -0.17740151684859704 0.029166215549815785 0.93441095449306344 -0.53202613680703303 -0.41446615181366603 1.1166406179511028 -0.11642052204378191 0.68613678932189948 -1.6593559623899916 1.1603273760477701 -1.2590842928205219 0.28084493217797113 0.20399451446859804 -0.6218360335486276 0.07425368523933519 0.096169993969110343 2.1714460659027099 0.91122585241611187 -0.052057963406652891 -0.41285629837601273 -0.11230471444852425 0.45373707200205604 1.6296349181731544 -1.0837345061302184 0.21635688032422745 -0.78061461039951863 -1.5851401871901292 -0.6626294592618942 -0.70633398265838621 0.88290796106511893 0.5547321756406034 -0.56536432924724767 1.0042344906216576 0.035736615258644071 -1.1724541805408619 0.13731313467902298 -0.76627867031097407 -0.0016192931411653222 1.0350362628215068 -1.4915813953166501 -1.4705889331377469 -0.21774224640341366 0.23459526090060961 -2.3361115480505901 1.1444612510999044 -0.34201086891194188 0.67646036624908445 -1.5136270946005115 -0.17099876319699817 0.13046521012724208 3.8015276402235032 -1.2232755924154211 1.4588538274765015 0.013959047762881151 1.4750566929417688 0.20292564887626496 -0.062099935213724776 0.17616490891639225 -0.22887674403190614 -0.061211024819485475 -1.6541364212036131 1.1347030169055576 -0.9359832532405854 0.11988247705242745
leaf_weight=37 20 20 81 27 23 22 22 22 21 20 30 23 23 25 22 31 25 20 23 3895 21 36 20 24 61 21 38 37 32 21 21 25 22 26 20 22 39 20 73 31 27 25 26 89 25 26 69 26 24 29 20 29 20 39 23 102 20 21 455 71 34 31 29 22 27 35 150 23 31 25 21 30 21 29 73 35 639 52 23 26 262 54 33 86 24 40 35 21 26 20 25 22 47 21 21 221 27 136 20 204038 37 34 26 85 34 23 27 48 20 23 315 352 20 27 20 17603 37 51 48 47 50 7512 20 21 20 543
leaf_count=37 20 20 81 27 23 22 22 22 21 20 30 23 23 25 22 31 25 20 23 3895 21 36 20 24 61 21 38 37 32 21 21 25 22 26 20 22 39 20 73 31 27 25 26 89 25 26 69 26 24 29 20 29 20 39 23 102 20 21 455 71 34 31 29 22 27 35 150 23 31 25 21 30 21 29 73 35 639 52 23 26 262 54 33 86 24 40 35 21 26 20 25 22 47 21 21 221 27 136 20 204038 37 34 26 85 34 23 27 48 20 23 315 352 20 27 20 17603 37 51 48 47 50 7512 20 21 20 543
internal_value=-0.000244574 0.0788395 1.54242 0.0509801 0.363722 0.247354 -0.207502 0.593247 0.71954 0.368936 1.47751 1.05051 1.01008 0.369813 -1.00068 1.78681 0.606983 -1.54639 0.118831 0.00693662 -0.173173 0.165041 -0.397497 0.575054 -0.124371 -0.002069 -0.00150273 0.607039 -0.16866 -0.567202 -0.0839847 0.862169 0.0366957 -0.0733542 0.35296 -0.523612 0.106105 -1.12773 -1.46528 1.01469 -0.136503 0.0183649 -0.287408 -0.0441325 0.835959 -0.168712 0.235934 0.61101 0.0199819 0.170919 -0.0361389 -0.630444 -1.04427 -0.642701 -0.00213907 -0.140693 -0.170885 -0.240611 -0.210616 -0.251816 -0.483554 -0.980866 -0.693569 0.193593 0.37457 -0.00440081 -0.160812 0.0212286 -0.0849384 -0.114705 -0.954775 0.681759 -0.234023 -0.48858 -0.33595 -0.0636358 -0.00155351 0.152812 0.732588 0.0757137 0.129709 0.0891508 0.149796 0.435665 0.710297 -0.600904 0.148794 -0.164968 -2.06157 0.0328711 -0.211156 0.28578 0.266588 -1.11133 0.0284312 -0.0980914 -0.608022 0.253271 -0.140965 -0.00197919 -0.097736 -0.34094 0.0711622 -0.187268 -0.737191 -0.96044 0.110646 -0.707316 -0.414294 -0.721549 -0.0067259 -0.00143435 0.0238423 0.47826 0.0101943 0.0197623 0.251932 0.737799 -0.480123 0.559057 -0.00360283 -0.0531642 -0.636094 -0.048124 0.120215 0.157668
internal_weight=239786 5407 101 5306 655 632 273 359 332 227 105 84 104 158 115 54 84 68 136 4651 123 61 101 91 111 234379 233585 244 794 270 145 46 524 471 207 99 169 125 93 53 78 445 185 140 51 130 260 95 165 141 120 51 45 81 233341 982 959 805 785 764 284 65 49 154 50 4560 642 3918 586 480 56 52 100 71 219 108 232359 639 75 564 527 501 447 185 110 111 81 50 46 75 47 55 67 42 436 279 58 157 55 231720 1311 357 175 138 182 148 112 125 91 71 954 230409 18205 162 142 18043 440 88 75 67 212204 8166 70 8096 584 564
internal_count=239786 5407 101 5306 655 632 273 359 332 227 105 84 104 158 115 54 84 68 136 4651 123 61 101 91 111 234379 233585 244 794 270 145 46 524 471 207 99 169 125 93 53 78 445 185 140 51 130 260 95 165 141 120 51 45 81 233341 982 959 805 785 764 284 65 49 154 50 4560 642 3918 586 480 56 52 100 71 219 108 232359 639 75 564 527 501 447 185 110 111 81 50 46 75 47 55 67 42 436 279 58 157 55 231720 1311 357 175 138 182 148 112 125 91 71 954 230409 18205 162 142 18043 440 88 75 67 212204 8166 70 8096 584 564
is_linear=0
shrinkage=0.005


Tree=5
num_leaves=127
num_cat=0
split_feature=134 9 110 113 137 117 160 97 160 113 159 30 160 159 113 160 84 145 9 91 91 117 52 30 117 81 38 137 158 31 44 17 158 145 145 110 97 110 159 113 67 19 149 91 30 81 162 153 56 76 56 117 97 17 134 52 137 159 87 159 158 31 81 160 81 134 113 87 38 76 87 161 29 30 158 19 160 158 97 76 120 81 81 30 87 44 162 9 145 162 38 110 15 159 160 56 134 38 38 110 113 162 110 162 30 76 84 44 17 67 15 113 38 84 159 31 160 160 84 117 162 140 120 52 19 76
split_gain=1.67564e+06 8.31134e+06 1.93773e+06 2.08992e+06 2.21894e+06 2.57551e+06 1.95198e+06 1.86937e+06 1.57482e+06 2.3459e+06 1.86005e+06 2.96863e+06 1.43831e+06 1.51945e+06 1.17704e+06 1.16406e+06 1.14028e+06 1.90876e+06 1.12055e+06 1.01769e+06 1.63058e+06 1.43673e+06 1.04612e+06 989691 929209 899770 806309 804509 779847 864659 679859 2.49905e+06 2.47344e+06 1.62207e+06 1.56122e+06 1.30797e+06 1.8694e+06 1.30017e+06 1.15406e+06 958161 845866 787638 692533 701934 682588 4.58417e+06 4.76212e+06 4.48192e+06 3.51375e+06 1.99579e+06 2.4192e+06 1.84129e+06 1.72827e+06 1.19252e+06 1.09473e+06 1.01004e+06 1.31085e+06 897999 984560 802846 674661 657109 1.20104e+06 1.4611e+06 869834 893874 755067 1.49302e+06 754202 1.53976e+06 1.4024e+06 1.44896e+06 949399 948780 1.45888e+06 1.53209e+06 1.08041e+06 923994 909616 888814 1.14236e+06 1.55007e+06 1.51237e+06 988007 1.0474e+06 1.0356e+06 838382 724019 716162 954888 702092 687506 684504 656144 697972 646868 640810 650591 867033 755182 691148 638574 992750 754498 1.33404e+06 794795 696642 696331 693347 628766 594101 593405 590083 758218 642718 914026 1.0211e+06 851505 589622 639657 588317 618466 1.14352e+06 584779 581882 577865
threshold=0.068904944464300746 2.1726042495407412 3.8680294677752491 -0.25894773665946141 -279.7701362236898 185.88288156305978 1.5452765623187381 0.013695374386097565 0.46901657385616896 -2.3187817553519978 0.014611664019104435 3561.6340934544637 -1.1074667071296849 0.075350466874779656 3.143109441854417 0.19003688176390002 -0.00064246999999999991 0.14683896168525515 -0.55808636144770918 -0.51915309825017475 0.08752332540590603 235.49271603651724 17.435942155672461 1545.5510599976876 52.083991765905509 2.2212287106377757 1.5795127157763809 -89.630309663621389 3.5748187640445281 2.603111029940012 -357.07560630379879 -3.1732756599098804 1.6458113623999926 0.1866279006440448 -0.21270396467270641 0.65316620419758664 0.062288554976879525 2.2950208202182849 -0.016954945449960814 -0.98109196938183996 -4.1309575338651472 -0.94567355001225406 1.6466117786803129 -2.15652904891328 5461.3485680031781 4.3750045055180928 0.95785076575131967 2.5685158186231902 0.52396592515029938 923.11235283994881 -0.17370374508300709 144.85122605701787 0.0083147434597444034 2.0117811692578971 0.002286964992562313 -30.227245902265107 -266.67159144074293 -0.45067880635441576 156.26120071684628 -0.026034481630516495 1.072218565424935 0.94978552341447819 4.3750045055180928 0.26394568155876158 3.8028537520962331 -0.035867574715341903 3.6295921371563176 135.10417497605957 0.9993913229518957 602.12248007586084 376.60349990198637 0.74533675767527729 3.6763927103313567 3561.6340934544637 1.3831199073461822 -0.18166969300535971 0.55042467827340358 3.2091472184525274 0.033330986126467545 830.41647040434611 3.2689278638835502 2.3798613397535573 1.610470304646944 4198.0098845961411 240.81543830429158 -184.93557462558925 2.2036159053055537 0.68854653234568775 -0.08651841928369898 0.77317256784583599 3.3848284665448589 1.3888488585730514 2.5019062270588344 -0.52312965734004524 0.093148855773025466 -0.24458475318667286 -0.032916762579710372 -0.62068055025672653 0.26140532435550473 -0.23129214206000251 -0.93899495780907827 2.0378636353550097 0.20086001531985681 2.6333484035043697 3162.7738445694872 460.56621771493172 -0.00048097499999999986 -204.73084987976284 -1.345445845146316 -3.1913382213648287 -0.5508538805578137 -2.0501300202770527 0.35977858063745155 -0.0018235299999999996 0.037280128514621723 1.4068451064521061 0.046294596920642979 0.25853127656245101 0.00016650500000000009 185.88288156305978 -1.5704763792718099 2.4257135724409351 0.61607596644934537 0.47718487558578998 -0.38681008965455016 558.01219297170212
decision_type=2 2 2 2 2 2 2 2 2 2 2 2 2 2 2 2 2 2 2 2 2 2 2 2 2 2 2 2 2 2 2 2 2 2 2 2 2 2 2 2 2 2 2 2 2 2 2 2 2 2 2 2 2 2 2 2 2 2 2 2 2 2 2 2 2 2 2 2 2 2 2 2 2 2 2 2 2 2 2 2 2 2 2 2 2 2 2 2 2 2 2 2 2 2 2 2 2 2 2 2 2 2 2 2 2 2 2 2 2 2 2 2 2 2 2 2 2 2 2 2 2 2 2 2 2 2
left_child=30 2 3 8 5 -5 7 -6 10 -10 16 15 -9 18 27 24 17 -2 -14 21 23 26 -22 -21 -12 -18 -20 -15 29 118 31 32 109 34 38 39 -37 40 42 111 60 -42 43 -33 61 46 47 53 -47 57 54 52 -49 -46 -51 -52 -57 -48 -59 -55 -36 62 125 -64 68 -66 101 -68 69 73 72 -72 92 120 91 88 87 95 -79 83 90 82 -82 -70 85 -85 -83 -77 -76 -90 -81 96 112 -54 -95 -74 -75 99 -99 -98 -100 102 108 105 107 -103 -104 -105 -67 -1 -38 -35 -71 -114 117 -116 123 -115 119 -24 121 -63 -123 -117 -93 -32
right_child=1 -3 -4 4 6 -7 -8 12 9 -11 11 -13 13 14 -16 -17 25 -19 19 20 22 -23 28 -25 -26 -27 -28 -29 -30 -31 44 33 -34 35 37 36 110 -39 -40 -41 41 -43 -44 -45 45 48 49 51 -50 50 55 -53 93 59 -56 56 -58 58 -60 -61 -62 64 63 -65 65 66 67 -69 79 70 71 -73 77 74 75 76 -78 78 -80 80 81 86 -84 84 -86 -87 -88 -89 89 -91 -92 124 -94 94 -96 -97 97 98 100 -101 -102 103 106 104 -106 -107 -108 -109 -110 -111 -112 -113 113 114 115 116 -118 -119 -120 -121 -122 122 -124 -125 -126 -127
leaf_value=-0.32257861323978587 1.7011049011018542 2.8465208814884058 1.2312299376412441 0.036782321368946748 1.3012390011921526 -1.895421915463039 1.4051928345362346 -1.1701095925607989 -1.4786103801727297 0.66651743682531206 0.40448052558031949 2.3771543835055442 1.1895235412771052 0.44419676477258857 -1.718076286315918 -0.11168662230173747 0.22718293040406468 -0.14628769751252799 -0.72920666837692272 0.2956457658708096 -0.94547586851120002 -1.1422253079292102 -0.073479101657867432 1.8324487928910689 1.893584707736969 -0.85294855640780542 0.50035814443230631 -0.75159829799945543 -0.71987496148972285 1.1303974273571602 -0.0017226962821614606 0.98376553304267644 2.0940008043473766 0.23201054581191119 -0.10661809371067929 2.2550165276300338 1.0372674913406372 -1.1756724750002225 -0.061102640177752528 -0.1985704659962956 0.39276717091861524 -0.37965295147373385 1.5245154485702515 -0.039902618352104638 -0.14800961691272785 0.32116162054879327 -0.74518454007804391 2.1153434937000277 2.6327620072518623 0.41358915651545808 -0.6031134041872892 2.2021128917973618 -0.070674901189226091 1.3821139659052311 -1.0178309207070957 -2.5544795793102635 -1.0156527046203614 -0.16115843007197747 1.0017766083989825 0.13120742337457064 1.0830759356238626 0.025106784068145531 0.22810656961940584 1.7792897114753723 0.50834003289540608 -0.71628324372803465 -0.65425712063199004 1.0511685492504728 0.004378735504363975 -0.18481523014637299 -1.7470251890591211 0.015052272617816925 -0.83224475893481031 0.80367772607931076 -0.30321896472802529 0.94071680068969732 0.51092841148376467 -1.9110995276769003 -0.45626955937255509 0.073328919983604579 0.30506807544014669 0.62441374602141209 2.071120949939445 -1.2051107539301333 -1.3993144154548645 -0.050651608772277833 -0.67464898482612934 2.2860971916317938 -0.03385976907683582 1.1290329542467672 0.74487930002063507 -1.1056733985741933 -0.55257249568385636 1.3401447463035583 0.23203235732184518 0.1212768900912741 0.97657291619216691 -0.36391783377102443 0.78457095484475836 -0.093598248660564431 -0.043504667357553414 0.37879490938037635 1.00897332481716 0.47344845072428388 0.91510954062143968 -0.56850984474578936 0.083062136491824839 -0.33154376882059566 -0.11414571044607932 0.88960924577713019 -0.16684609140668596 1.1866207914109583 0.73043988732730636 -0.11793543504839912 -0.27234193747108049 0.32555046413255773 0.12303985196578761 -1.1301300629702482 -0.31857486995783718 1.1068565594066273 -0.042284345381490854 -0.026102432922883466 1.0931875916780569 1.4104884896896506 -0.08882446294321733 0.034612624485433133
leaf_weight=23 27 29 38 34 24 35 24 31 25 26 22 31 22 22 20 36 51 29 20 20 25 39 24 22 20 31 40 39 21 26 196374 33 31 41 26 21 20 36 111 79 38 251 20 34 249 35 32 20 31 34 22 29 33 23 22 31 25 52 28 29 22 2482 63 20 48 68 21 33 7034 924 28 20 29 28 52 20 50 21 22 1442 22 27 27 23 22 125 23 20 41 31 40 24 87 30 27 46 34 140 37 32 79 24 23 30 27 286 174 257 161 20 21 27 34 374 111 23 230 22 44 22 13476 55 39 27 34 11588
leaf_count=23 27 29 38 34 24 35 24 31 25 26 22 31 22 22 20 36 51 29 20 20 25 39 24 22 20 31 40 39 21 26 196374 33 31 41 26 21 20 36 111 79 38 251 20 34 249 35 32 20 31 34 22 29 33 23 22 31 25 52 28 29 22 2482 63 20 48 68 21 33 7034 924 28 20 29 28 52 20 50 21 22 1442 22 27 27 23 22 125 23 20 41 31 40 24 87 30 27 46 34 140 37 32 79 24 23 30 27 286 174 257 161 20 21 27 34 374 111 23 230 22 44 22 13476 55 39 27 34 11588
internal_value=-0.000741233 0.21235 0.126518 0.0772465 -0.104375 -0.943321 0.0149799 -0.0573956 0.414892 -0.385016 0.580056 1.06827 -0.132012 -0.052748 -0.665451 0.548071 0.194438 0.744419 0.0999564 0.0208459 0.22271 -0.395117 -0.00490053 1.10064 1.11358 -0.181159 0.0905032 -0.320328 0.166737 0.327245 -0.00156315 0.139259 1.01739 0.055949 -0.081998 0.432828 1.04189 -0.272484 0.276846 0.175946 -0.176 -0.278089 0.708022 0.464292 -0.00206972 0.148331 0.0272434 0.338737 1.40691 -0.5299 -0.941634 1.08133 0.785853 -0.00418857 -0.148754 -1.51088 -1.8675 -0.0372893 0.245869 0.684493 0.438658 -0.00254764 0.000541973 0.601886 -0.0250154 -0.159613 -0.188654 0.387947 -0.0193681 -0.0373429 -0.168509 -1.01283 -0.147726 -0.0216255 0.169977 0.504332 1.00092 -0.582435 -1.16677 0.0188362 0.126192 0.646202 1.2782 -0.0047243 -0.381376 -0.230061 0.0268449 1.61341 0.143906 0.46683 0.0914544 -0.00539491 -0.119726 0.49041 0.815249 -0.247418 0.0781573 0.0150686 -0.0990478 0.457702 0.220623 -0.218308 -0.069074 -0.320189 -0.147437 -0.49517 0.191163 -0.247398 -0.292946 0.24123 0.420526 0.611047 -0.0981461 -0.000603772 -0.0321863 0.111611 0.263821 -0.174168 0.0952228 0.491029 -0.02905 0.0401839 0.438284 0.911417 -0.50959 0.00030197
internal_weight=239179 919 890 852 554 69 485 461 298 51 247 109 437 406 81 78 138 56 325 303 204 99 162 42 42 82 60 61 137 116 238260 854 74 780 571 209 62 373 198 147 337 289 87 67 237406 752 686 440 66 246 134 139 110 301 56 78 56 112 80 52 48 236654 208045 83 28609 1152 1104 54 27457 18672 1998 48 1950 16674 622 214 90 118 43 8785 1581 99 49 7204 170 148 50 40 124 72 1482 408 1832 90 57 75 350 322 256 66 116 1050 426 624 314 310 197 287 229 43 41 68 1745 821 787 391 280 396 90 46 16052 2576 94 50 58 207962
internal_count=239179 919 890 852 554 69 485 461 298 51 247 109 437 406 81 78 138 56 325 303 204 99 162 42 42 82 60 61 137 116 238260 854 74 780 571 209 62 373 198 147 337 289 87 67 237406 752 686 440 66 246 134 139 110 301 56 78 56 112 80 52 48 236654 208045 83 28609 1152 1104 54 27457 18672 1998 48 1950 16674 622 214 90 118 43 8785 1581 99 49 7204 170 148 50 40 124 72 1482 408 1832 90 57 75 350 322 256 66 116 1050 426 624 314 310 197 287 229 43 41 68 1745 821 787 391 280 396 90 46 16052 2576 94 50 58 207962
is_linear=0
shrinkage=0.005


Tree=6
num_leaves=127
num_cat=0
split_feature=122 79 36 54 87 54 4 88 154 0 51 79 87 87 7 28 81 159 155 28 0 43 87 159 88 119 155 43 131 79 36 81 4 84 131 79 87 105 36 60 17 159 105 159 159 28 0 138 158 111 84 4 111 113 54 0 76 43 105 70 43 154 70 138 119 84 113 88 159 17 119 54 79 159 110 155 28 79 122 159 131 154 105 154 155 84 79 60 60 77 113 154 84 77 54 87 28 63 51 84 17 88 70 0 138 4 110 70 7 36 87 138 54 84 124 28 60 28 113 105 76 155 43 154 76 63
split_gain=1.53942e+06 6.67035e+06 2.03393e+06 2.19182e+06 3.11727e+06 1.22724e+06 2.45599e+06 1.76069e+06 1.20566e+06 3.06035e+06 1.81707e+06 1.01901e+06 2.32492e+06 2.13393e+06 1.93554e+06 1.52156e+06 1.44971e+06 2.23407e+06 1.19229e+06 1.14128e+06 819110 2.32143e+06 2.22974e+06 1.30645e+06 964208 1.14766e+06 1.02738e+06 1.00568e+06 953909 813562 1.10207e+06 803594 801962 788917 771668 686579 673987 666291 641653 631602 895697 628293 619828 1.56878e+06 2.21426e+06 4.79079e+06 4.70397e+06 1.46473e+06 1.29676e+06 1.35207e+06 1.11227e+06 1.09909e+06 821827 819875 599594 596497 595609 1.18841e+06 841676 789926 723512 813917 686118 653245 619324 569431 663327 616178 552874 544167 724684 1.67675e+06 591395 579181 545123 946646 982341 582204 1.3188e+06 535200 522282 593829 519083 892503 792098 580558 600521 760830 639028 628698 552431 636814 523033 511348 628622 812088 709760 645642 901688 709226 667311 663368 531523 516683 501954 624401 659210 603816 753770 496421 679638 489156 483834 470504 586212 461747 731215 461601 3.14081e+06 3.21358e+06 1.80356e+06 982900 1.14625e+06 1.09884e+06 983296 830953
threshold=4.6167679555743391 1.6017007475484248 -0.50408757483955646 0.00091960000000000013 258.97700689492939 -0.0027179499999999994 -316.28438237565939 493.61949574095678 2747.0636499046591 2.1646597128267091 -0.72616975519391047 -4.2420287828668828 -207.41864618314506 487.57402474600036 685.78510078536226 0.45450356469136649 -0.97055758191175068 0.058718636134634128 0.82026719758598188 2.2446672938003402 3.7631980223297217 0.1401782277123895 21.553435614840581 -0.52312965734004524 630.69605756694739 -46.798480358444245 3.5704795632142994 1.2859886527401916 4.3219701938208948 -0.43791737105212519 -0.94646188364678918 -2.1987478559638127 -127.53378277909786 -0.00064246999999999991 2.0912104556654718 -4.2420287828668828 82.311601884823574 0.72598801121978973 -0.33032977518761247 -0.7802679086167561 0.11375836040543859 -0.016954945449960814 4.6677093697647498 0.62362076173362324 0.044292889792499471 1.5963695562419939 0.71062138179961598 3.2183618771024345 3.9879889699949844 0.16914064681253296 -0.00050958999999999987 -397.16991521420931 1.7401498367366 -1.9458667094583404 0.00080074500000000017 -2.9517947411116219 871.82595116213747 -0.37350096208295186 2.5607790736180864 -0.98641275590177269 -1.1233943496828407 1330.9369268957551 2.3068871799664348 2.8032765860670823 191.73556147484842 -0.00073901999999999985 3.6295921371563176 227.63227818409561 0.078292070815871015 1.8153668637359255 148.12191711291226 -2.944500000000001e-05 0.60361795966250054 -0.084084606056831879 3.1583041576790047 4.2144056117112152 1.9760128347048369 -1.4400074348657228 2.6534139833241208 1.1834786959508243 3.8450771477611276 2747.0636499046591 0.72598801121978973 2747.0636499046591 -0.99748629561250945 -0.0030571799999999996 -2.7578456446674515 -3.4011193053875561 -3.6894698377659121 3.8829411668421443 -0.22234412917931753 1696.4734039754205 0.0013617850000000003 3.8829411668421443 -9.7970000000000026e-05 187.83431443421765 2.5480759876311008 39.780229595519636 -1.4331807902985383 -0.0018235299999999996 1.1394061452467721 137.62387661595102 1.921347979631894 2.1646597128267091 1.2804498969462839 -943.56866814807643 -0.42295480222910092 -0.40529631771775826 201.23590536155316 0.82609380083882489 -96.220919732910019 0.99683040967870762 0.00013687500000000003 -0.00062908499999999982 -2.2045320385165055 2.1413612245276514 0.56508059855766768 1.9760128347048369 3.143109441854417 1.1078351584277644 1994.3868214420647 3.3112999575278326 3.1129679883571342 2747.0636499046591 56.434104173284098 52.919794949846114
decision_type=2 2 2 2 2 2 2 2 2 2 2 2 2 2 2 2 2 2 2 2 2 2 2 2 2 2 2 2 2 2 2 2 2 2 2 2 2 2 2 2 2 2 2 2 2 2 2 2 2 2 2 2 2 2 2 2 2 2 2 2 2 2 2 2 2 2 2 2 2 2 2 2 2 2 2 2 2 2 2 2 2 2 2 2 2 2 2 2 2 2 2 2 2 2 2 2 2 2 2 2 2 2 2 2 2 2 2 2 2 2 2 2 2 2 2 2 2 2 2 2 2 2 2 2 2 2
left_child=11 2 3 29 -5 6 -4 -8 35 -10 -11 12 16 14 19 -16 17 31 -17 34 42 22 -22 -23 25 -25 38 -28 32 30 -2 -1 41 -26 -14 -7 55 -34 -27 40 -39 -24 69 44 48 47 -47 50 54 -50 -46 52 -51 -45 80 -36 58 -58 60 -59 -37 64 -61 -60 -62 -31 67 -67 -52 74 82 -72 73 -73 93 77 -77 78 -76 -55 81 -44 83 104 -84 -86 87 -87 89 -88 -89 -92 -93 117 95 109 97 99 102 -96 113 -102 -99 -97 -71 -106 107 108 -107 -95 -111 -70 -65 114 -101 -90 -117 -13 120 -120 121 122 123 -119 -123 -126
right_child=1 -3 5 4 -6 8 7 -9 9 10 -12 20 13 -15 15 18 -18 -19 -20 -21 21 23 28 24 33 26 27 -29 -30 65 -32 -33 37 -35 36 56 -38 39 -40 -41 -42 -43 43 53 45 46 -48 -49 49 51 68 -53 -54 79 -56 -57 57 59 63 62 61 -63 -64 112 -66 66 -68 -69 111 70 71 72 -74 -75 75 76 -78 -79 -80 -81 -82 -83 84 -85 85 86 88 90 115 -91 91 92 -94 94 96 103 -98 98 -100 100 101 -103 -104 -105 105 106 -108 -109 -110 110 -112 -113 -114 -115 -116 116 -118 118 119 -121 -122 124 -124 -125 125 -127
leaf_value=0.25598132713087673 0.008397805279698866 2.6510666960146696 -0.77785401868820192 0.23021254378557207 3.021837265968323 0.83974124630292257 0.30740152813139415 2.331467274860902 0.87439444428398505 -0.49735838303963342 -2.5113023294721333 -0.0015186223910899162 -0.054404476845652625 1.4318770457197119 -1.9443120367527007 0.6014602505593073 -0.13502337197999698 2.1764651592075825 -0.9225588289174167 1.1807277987573459 1.773386887550354 0.77826161551475526 -1.3328717274665831 0.64747091035048177 -1.7902051719029746 0.30862086351101214 -1.5839147203990391 -0.48331310818008349 0.88388735721851219 -0.64262560739517216 1.3181251430511476 1.2874227251325334 -0.40432365171763368 -0.67601224747109923 0.79326092279874361 -0.65565765481246152 0.82779537258148195 0.10955458833111656 -0.45078080059326803 -0.1310245890520057 1.3142788569132486 -0.15410396080750685 0.10700829724470774 0.1987374683048414 1.5592741102264041 0.45767098432001863 3.6219988346099856 -0.62051568708921734 -1.4924925189926512 0.84425107595082882 0.86453382817181679 -0.5011919132584618 -0.37606939575888898 -1.5713611793518067 0.71772151751177649 -0.071004651285881223 1.3216076675328341 0.70634084357934845 -0.1285469652821378 -0.46137080032378436 -0.10565361997397903 0.92215890114124011 0.52995240251223241 -0.49102621782393685 0.59306377082257655 0.023209719998495922 -0.4713717864808582 1.2494919953346253 0.4306364140510559 -0.046760442935217236 1.3510773760477701 0.60056362543106079 0.84831700843572622 -0.25203919845272083 -0.1629365185402227 -0.25290671216871807 -1.6494149188995362 0.0067672445936329192 -1.3780694926023482 -0.47400117945671083 -0.55896883934736252 0.91013121498955629 0.81606714430062666 1.0073296879019056 0.56428224667426086 -1.1529709466298421 0.06402926040272558 0.076377478752817418 -0.10102615515444038 1.0319517212328704 -0.22098433952177726 -0.41803733999078924 -1.521221179053897 -0.1876965617015259 -1.0019135929289318 -1.2009589631536177 0.77030749497485573 0.13323441656572479 0.62772574511575108 0.93896700373717723 -0.13590814786798816 -1.0633536598567039 -0.78398429242047396 -0.39393945462673025 0.9217537990483371 0.24267131625896407 0.0054570025802122843 0.14218557262084855 1.5989739708900452 1.0366945060491564 -0.0422836795228499 -0.67520714336633691 -1.5776655960455537 -0.061867127356125672 0.017513656354612776 -0.73284295864959259 0.28427246928215028 0.029720315468843392 2.6111021724343302 0.073886999900524442 1.2557319431304932 0.68028382547523669 1.1302463022867839 0.98933446455001828 -0.2951946002514349 -1.3054304160242496
leaf_weight=58 29 27 20 20 20 24 21 22 21 24 21 220677 476 27 20 21 37 30 33 23 20 20 20 24 24 39 35 51 29 25 36 28 49 47 26 38 50 36 97 49 27 26 156 23 21 23 24 38 21 37 22 84 22 20 56 86 22 34 41 64 222 26 24 21 37 21 21 20 20 4288 30 25 20 98 209 34 20 529 25 25 24 27 23 21 31 27 62 77 2167 23 93 22 21 533 21 28 29 56 81 28 51 31 22 68 22 21 642 71 20 20 54 20 20 449 45 67 24 5327 24 26 30 23 24 30 177 23
leaf_count=58 29 27 20 20 20 24 21 22 21 24 21 220677 476 27 20 21 37 30 33 23 20 20 20 24 24 39 35 51 29 25 36 28 49 47 26 38 50 36 97 49 27 26 156 23 21 23 24 38 21 37 22 84 22 20 56 86 22 34 41 64 222 26 24 21 37 21 21 20 20 4288 30 25 20 98 209 34 20 529 25 25 24 27 23 21 31 27 62 77 2167 23 93 22 21 533 21 28 29 56 81 28 51 31 22 68 22 21 642 71 20 20 54 20 20 449 45 67 24 5327 24 26 30 23 24 30 177 23
internal_value=-0.00146519 0.20256 0.128612 0.584635 1.62602 0.00388739 0.669693 1.34297 -0.0617554 -0.701692 -1.4372 -0.0022522 0.164286 0.0513504 0.000637203 -0.766216 0.726751 1.00163 -0.329885 0.0864877 -0.00289288 -0.18849 0.170444 -0.461153 -0.539349 -0.391204 -0.503493 -0.931232 0.0346018 0.310584 0.733785 0.591799 -0.0843802 -1.05264 0.0470402 0.0119546 0.345112 0.0819716 -0.233011 0.294726 0.625865 -0.666612 -0.00242899 0.150237 0.232459 0.718737 2.0735 0.192508 0.0411365 -0.307797 0.564736 -0.133821 0.389216 -0.56921 0.258722 0.129628 -0.0242328 0.251959 -0.122434 0.0590714 -0.00758701 0.0788224 -0.19101 -0.574821 -0.00583685 -0.00560004 0.251265 0.621396 0.227876 -0.00285681 -0.043669 0.276375 0.0509132 -0.0787459 -0.00144789 -0.130371 -0.770132 -0.0850925 -0.292758 -0.961717 0.134549 0.225502 -0.0508391 -0.021318 -0.107766 -0.115894 -0.124057 -0.362263 -0.0996572 0.325938 -0.262033 -0.453632 -0.956802 -0.000985664 -0.0925085 -0.202001 0.0021692 -0.0262441 0.258234 -0.0986154 -0.0672093 -0.486528 -0.125468 -0.62932 -0.0255837 0.0914339 0.0672071 0.421167 0.904282 -0.134418 0.249332 -0.122285 -1.02109 -0.00133937 0.370948 -0.115678 -0.464593 -0.000372711 0.0441164 1.29175 0.0330441 0.0264986 0.0399788 0.0350943 -0.298779 -0.411372
internal_weight=239681 921 894 192 40 702 63 43 639 66 45 238760 915 762 735 74 153 116 54 661 237845 593 256 337 317 246 222 86 236 152 65 86 207 71 638 573 162 161 136 112 63 46 237252 663 595 168 47 121 427 164 83 143 59 68 263 112 549 144 405 122 323 285 88 82 259 87 62 41 62 236589 7895 173 143 123 228694 817 54 763 234 45 207 183 7722 5085 2637 2614 2583 240 2343 85 213 136 43 227877 1516 703 813 784 159 625 604 82 78 96 5064 776 754 112 41 607 74 40 41 522 73 2258 91 226361 5684 50 5634 5604 5381 5357 223 200
internal_count=239681 921 894 192 40 702 63 43 639 66 45 238760 915 762 735 74 153 116 54 661 237845 593 256 337 317 246 222 86 236 152 65 86 207 71 638 573 162 161 136 112 63 46 237252 663 595 168 47 121 427 164 83 143 59 68 263 112 549 144 405 122 323 285 88 82 259 87 62 41 62 236589 7895 173 143 123 228694 817 54 763 234 45 207 183 7722 5085 2637 2614 2583 240 2343 85 213 136 43 227877 1516 703 813 784 159 625 604 82 78 96 5064 776 754 112 41 607 74 40 41 522 73 2258 91 226361 5684 50 5634 5604 5381 5357 223 200
is_linear=0
shrinkage=0.005


Tree=7
num_leaves=127
num_cat=0
split_feature=130 91 156 45 130 36 150 88 55 57 24 150 27 124 88 65 161 45 128 102 55 128 100 161 27 156 150 45 65 69 110 92 40 85 102 100 36 23 156 105 36 124 156 23 156 50 69 23 100 17 91 27 88 23 100 69 45 156 110 32 45 92 100 156 161 161 23 21 100 59 21 23 27 17 150 88 23 40 130 94 102 40 124 55 161 94 105 161 150 88 161 36 67 91 91 55 36 32 24 92 67 100 57 65 24 57 57 65 94 124 21 32 55 91 150 32 85 57 102 92 55 161 47 67 100 45
split_gain=1.75305e+06 2.12153e+06 2.21623e+06 2.47977e+06 3.83058e+06 2.5864e+06 2.03302e+06 2.03901e+06 4.7188e+06 1.92216e+06 3.11608e+06 3.53135e+06 1.48119e+06 1.4555e+06 3.45331e+06 2.61619e+06 1.42594e+06 1.47395e+06 1.31084e+06 1.29886e+06 1.21733e+06 1.55789e+06 1.27284e+06 1.6516e+06 1.7443e+06 1.33868e+06 1.20515e+06 1.35258e+06 1.24072e+06 1.17701e+06 991510 937601 889511 899839 1.04026e+06 845299 3.41501e+06 2.92016e+06 2.79743e+06 1.40296e+06 1.49092e+06 1.74018e+06 1.31862e+06 1.08608e+06 999195 1.3252e+06 1.74639e+06 904505 1.8015e+06 1.08299e+06 841099 793610 829233 780510 1.80864e+06 771812 742889 1.38994e+06 849433 1.0718e+06 718510 1.04109e+06 994198 682388 665392 641657 641090 623218 621975 612042 603915 602286 599689 583435 570037 557223 2.59742e+06 2.11922e+06 2.47749e+06 2.17739e+06 1.58991e+06 1.8274e+06 991131 729925 556780 625649 601771 547777 763369 780808 496187 488755 488524 967462 1.14554e+06 487243 479796 657350 543625 482845 476172 472558 646568 1.26905e+06 484534 472019 461895 458261 673866 452736 451737 1.8952e+06 2.4314e+06 1.00769e+06 1.41674e+06 985690 1.12127e+06 982354 939344 944323 857012 842700 813594 963215 895441 752192
threshold=48.799629481480601 -1.3472804439826083 -248.91361548595998 -0.15421515316915829 65.421804712561908 -0.82234594893493063 0.13270867737171357 630.69605756694739 0.12759581276865026 1.0483792059534649 -1737.9944981385877 0.0087747395334401481 4.2945187132002349 1.0940543409741554 308.37381764061701 1.227315786658306 1.1594099030941611 -3.50406926761806 0.040185073096704493 4.6700058480004545 1.1416205343299406 3.7359363761663618 2095.9048763271744 -2.4512674211267211 1.8288883565629865 -675.76230874076975 0.079196725946885912 -4.3310467072059096 2.6906055468503345 0.00011222000000000003 1.079776690671941 -27.681613964485869 0.00071994000000000008 -0.80133818313537486 1.8385467428413533 3566.0413014748351 -0.56610140413102072 0.12587977846174611 -538.4227967983212 3.5458048885290205 -0.11450997690754795 -1.2079260125401596 -1000.4607411596282 1.7767384866293121 -658.19930681694382 -126.06894935466293 -0.0017150749999999997 1.6349042498395956 2618.0331535746532 -0.10287313176087047 -0.07844699623953437 3.5775486454405421 328.29095807312751 3.0355154423968318 2934.4307128100595 0.00039822500000000004 -1.5112667946409586 -934.8186578966671 0.15520415149480282 -297.83006436929492 -1.1596461940291125 -448.577264694831 2394.0346520542125 -218.79320865593351 2.1961297033212381 -2.7504477105588303 0.4829272333830501 0.69823306142827357 1253.9126588856755 -10.12648732871657 0.79045871539717572 2.4814442292115517 0.48046655042878006 0.85915418269709509 0.028278305513556919 630.69605756694739 3.0355154423968318 0.00037279500000000004 46.109074482715322 -3.8100000000000025e-06 2.3715683539367043 -0.00026097499999999993 -1.1668800585909231 0.67225358830668991 -0.855041445843012 0.00051703000000000014 1.4681959901166934 0.068607753683774822 0.042746085210770661 54.853290855065858 -1.5561272107040212 -0.067615868990339459 -1.3419130379830249 -0.04777566026247735 0.3155997254355839 0.71590869240671628 1.2583593844118723 -138.44018328169446 -560.47548875624068 -448.577264694831 -2.7919164009292134 1502.9607533168921 -4.6008868879271461 1.0596011281882072 -415.53814957760829 13.435384575548605 -4.4170800977944005 1.3244004913314882 -0.00055118499999999993 -2.3141823257082694 4.3144032150592198 -45.333209489100128 -0.75703303008828737 -1.4433930322624688 0.12253564011151503 -227.47132236569152 -0.39448654425460383 6.3175847468521793 1.6141079329596233 47.090493141019884 0.26974709658120238 0.39327473367919047 120.67336671093609 0.33425921364824945 2394.0346520542125 -1.5696144266110641
decision_type=2 2 2 2 2 2 2 2 2 2 2 2 2 2 2 2 2 2 2 2 2 2 2 2 2 2 2 2 2 2 2 2 2 2 2 2 2 2 2 2 2 2 2 2 2 2 2 2 2 2 2 2 2 2 2 2 2 2 2 2 2 2 2 2 2 2 2 2 2 2 2 2 2 2 2 2 2 2 2 2 2 2 2 2 2 2 2 2 2 2 2 2 2 2 2 2 2 2 2 2 2 2 2 2 2 2 2 2 2 2 2 2 2 2 2 2 2 2 2 2 2 2 2 2 2 2
left_child=75 2 6 5 29 -4 7 9 -9 10 11 -2 84 20 -15 -16 74 -18 -14 -8 21 35 51 -24 30 -26 27 66 105 -5 -25 60 33 -33 -35 39 -37 -38 42 44 43 -42 -39 -41 45 92 -47 48 101 71 -50 52 67 65 -55 -51 57 -48 59 -58 87 -62 95 -40 -53 -7 -11 -22 -69 70 -54 -49 -60 -72 -13 110 77 78 80 -79 107 82 -82 -81 90 106 -87 -29 91 -90 -12 -89 93 -3 -95 -63 97 99 -99 -67 -76 -46 103 -103 -104 -28 -86 108 -77 -19 -1 113 -113 114 115 116 120 -118 -117 -120 -112 125 123 -123 -124 -115
right_child=1 13 3 4 -6 53 19 8 -10 26 12 16 18 14 15 -17 17 109 -20 -21 22 -23 23 24 25 -27 28 31 -30 -31 -32 32 -34 34 -36 36 37 38 63 40 41 -43 -44 -45 47 46 56 49 50 55 -52 64 69 54 -56 -57 58 -59 72 -61 61 62 -64 -65 -66 96 -68 68 -70 -71 73 -73 -74 -75 100 76 -78 79 -80 83 81 -83 -84 -85 85 86 -88 88 89 -91 -92 -93 -94 94 -96 -97 -98 98 -100 -101 -102 102 104 -105 -106 -107 -108 -109 -110 -111 111 112 -114 121 -116 118 117 -119 119 -121 -122 122 124 -125 -126 -127
leaf_value=-0.0028980136928556388 2.8669313745498659 -0.16581062017702589 1.9110996013879777 -0.24983793627648127 3.1631528841365468 -0.6371874968901925 -0.06827703058719635 -0.051609411883998563 2.7951065301895142 -0.50946661919355396 -0.039173958216304497 -0.53217155543240635 0.12112060131170811 -0.1812322908568095 0.42792825354470149 2.4095021317370477 1.9549053843559758 0.027259639176455411 1.5113191585987806 -1.7310384311365044 -0.11393341602437432 1.2617508853398838 -1.6507015250982908 -0.28590057938187213 -1.4921896479580854 -0.30080804168261016 0.43783445509997282 -0.40095765576218112 1.0579535797584889 1.4449955928325653 1.0821050795912743 -0.21350528608668934 -0.27319550380110741 0.11666068720817567 1.5888032293319703 1.3542882903416953 0.66673038220831327 -1.2518904408954439 0.38104325026273728 0.46072846058087474 0.42922639369964599 2.0487969631618923 -3.0457869815826415 -0.97237890505790714 -0.027756165572636417 1.5734097000404641 0.15859268319808831 0.17234848621404833 -0.38862564301490787 0.25057744485139849 -1.7906286156695823 0.055557278564998085 -0.30341329480039664 -0.099704164663950601 1.8624154048380643 1.2835770834395379 0.21436249124327889 1.3751243401185063 0.047500913010703194 1.4300367426872254 0.27585697602342679 0.093407897612322932 -1.6184369894436426 -0.90944203853607175 1.249642394542694 0.7413752698898316 -1.6506124248504639 0.091114958541733876 1.1495699554422627 0.12622570910801492 -0.52879331588745115 -0.66122309338661933 -0.74286345945464238 -1.7087457282543181 1.0112212003980365 0.93075535480792715 -1.1826508719126383 -1.4127301290117462 2.1532079108556115 0.99189846819097338 1.2540868463516237 2.2712583628154936 -0.30117218062991191 -0.23501464596501107 -0.19691572861511167 -0.078448131322860729 -1.2140134441001076 0.041726825237274168 0.34283025532960892 -0.90781717538833617 0.74210651689960117 1.0228991400400798 -0.10326445220227642 1.7249986996650697 0.071616707471284 -0.8887586031641278 -0.38886233996461939 1.4399918265569778 0.34875534882545473 0.038156474401022641 0.048097572254412101 -0.30133420093386781 -0.27834358770780421 0.99883461019267206 -1.0102069761639549 -0.54879570501822006 0.62430622806958858 -0.42513762199517452 -0.072433497563321542 1.010726961517334 -0.13201884796222052 1.9305631978281081 0.22881136050591103 0.92032926302689777 1.2371159622669219 1.3284026150081467 -0.18674442910064351 -1.3512664939601111 -0.19590864755984011 0.82638878609683064 1.1796659119129183 -0.39678566780957314 -0.37743088020218746 0.73325390835603077 -1.6242609930038452 -0.30718642463286716
leaf_weight=233963 20 51 26 21 22 23 24 37 24 32 59 22 39 83 36 31 31 22 30 23 128 26 29 27 37 65 22 66 43 20 26 22 44 20 30 24 28 21 20 39 43 27 20 20 695 27 59 72 20 40 23 28 58 24 23 33 194 39 72 20 27 23 28 21 20 30 20 35 23 36 22 31 36 20 21 26 30 29 24 22 20 21 21 27 119 20 28 22 26 24 31 30 423 20 22 28 27 21 25 131 33 102 49 23 42 27 20 33 47 25 33 31 65 26 30 23 55 27 58 37 20 88 36 24 24 24
leaf_count=233963 20 51 26 21 22 23 24 37 24 32 59 22 39 83 36 31 31 22 30 23 128 26 29 27 37 65 22 66 43 20 26 22 44 20 30 24 28 21 20 39 43 27 20 20 695 27 59 72 20 40 23 28 58 24 23 33 194 39 72 20 27 23 28 21 20 30 20 35 23 36 22 31 36 20 21 26 30 29 24 22 20 21 21 27 119 20 28 22 26 24 31 30 423 20 22 28 27 21 25 131 33 102 49 23 42 27 20 33 47 25 33 31 65 26 30 23 55 27 58 37 20 88 36 24 24 24
internal_value=-0.00036936 0.095861 0.24646 0.571038 1.48004 0.3975 0.136684 0.179623 1.06841 0.128185 0.344563 0.890366 0.0700842 0.019976 0.500385 1.34478 0.633669 1.10859 0.725555 -0.881969 -0.00456805 0.0445318 -0.21568 -0.555535 -0.350633 -0.732976 -0.0825205 -0.190889 0.438118 0.57691 0.385197 -0.0898914 0.286893 0.629169 0.999946 0.031099 -0.354563 -0.727404 -1.20345 0.0543568 0.560427 1.05392 -2.12696 -0.0250706 0.0231656 0.141507 0.34079 -0.0776864 -0.138446 0.251661 -1.13853 -0.0466706 -0.136076 0.268048 0.860482 0.71755 0.26155 0.642723 0.14554 0.327977 -0.249406 -0.571745 -0.861432 -0.279937 0.553093 0.159704 -0.948369 0.0808906 0.510847 -0.43281 -0.634063 -0.0785323 -0.215954 -1.09068 0.146251 -0.00227091 0.21308 0.368161 0.650501 -0.326831 0.435829 1.07183 0.457491 0.315844 -0.0931919 -0.248707 -0.740861 -0.0460254 0.183637 -0.257481 0.229934 0.607788 -0.0311273 0.296981 0.858941 -0.445821 0.238031 0.319799 0.846929 0.169191 0.422646 -0.0912414 -0.295511 -0.0621031 -0.616127 -0.105819 -0.0787543 0.0638276 0.284867 0.550381 -0.00254634 0.134358 0.778335 0.0119391 0.20976 0.0879387 -0.20384 -0.570185 0.421754 0.202249 0.362957 -0.240238 -0.40633 -0.154634 -0.876163 0.331122
internal_weight=239505 4641 1555 393 63 330 1162 1115 61 1054 520 174 346 3086 150 67 154 78 69 47 2936 2382 554 184 155 102 534 442 92 41 53 390 116 72 50 2356 134 110 82 2222 129 70 41 59 2093 963 447 1130 954 176 43 370 322 304 47 73 420 98 322 214 274 106 79 41 48 257 52 186 58 136 100 103 108 42 76 234864 300 270 192 78 168 62 41 49 277 187 48 168 102 50 90 52 516 93 42 51 234 207 46 161 54 911 216 125 91 49 139 106 73 47 234564 601 96 505 283 253 135 82 118 95 53 222 172 112 60 50
internal_count=239505 4641 1555 393 63 330 1162 1115 61 1054 520 174 346 3086 150 67 154 78 69 47 2936 2382 554 184 155 102 534 442 92 41 53 390 116 72 50 2356 134 110 82 2222 129 70 41 59 2093 963 447 1130 954 176 43 370 322 304 47 73 420 98 322 214 274 106 79 41 48 257 52 186 58 136 100 103 108 42 76 234864 300 270 192 78 168 62 41 49 277 187 48 168 102 50 90 52 516 93 42 51 234 207 46 161 54 911 216 125 91 49 139 106 73 47 234564 601 96 505 283 253 135 82 118 95 53 222 172 112 60 50
is_linear=0
shrinkage=0.005


Tree=8
num_leaves=127
num_cat=0
split_feature=131 160 13 97 19 35 148 163 35 148 19 130 148 2 13 15 97 19 97 46 19 46 72 141 12 35 102 157 23 148 132 94 6 160 157 163 13 97 23 113 116 141 51 13 131 43 50 132 1 1 1 130 13 58 51 94 27 59 46 113 50 59 50 27 97 97 132 12 46 35 131 113 160 6 15 2 15 15 97 6 35 35 94 132 43 51 148 51 46 58 46 82 102 141 15 43 148 82 97 97 160 160 160 46 2 97 132 19 132 148 141 58 115 12 113 23 27 130 50 72 59 35 163 23 43 130
split_gain=2.04196e+06 7.05094e+06 5.74816e+06 2.08364e+06 1.56491e+06 2.51196e+06 1.47387e+06 1.99757e+06 1.18573e+06 3.59273e+06 5.09622e+06 5.24811e+06 2.90554e+06 2.11469e+06 2.0928e+06 3.06789e+06 2.85819e+06 2.05181e+06 1.99536e+06 1.6641e+06 2.69277e+06 1.52849e+06 1.40264e+06 2.27581e+06 1.97816e+06 2.04913e+06 1.81471e+06 2.37685e+06 1.42056e+06 1.38465e+06 1.11478e+06 2.08871e+06 1.77018e+06 2.7253e+06 2.16261e+06 2.95558e+06 1.27066e+06 1.02397e+06 1.53674e+06 1.53276e+06 1.20354e+06 1.05487e+06 955493 898678 898315 762182 752862 725566 1.28937e+06 848226 668099 620762 1.66219e+06 1.72758e+06 1.86653e+06 2.20669e+06 2.39181e+06 1.59571e+06 1.36122e+06 1.33312e+06 1.19869e+06 1.07393e+06 1.52424e+06 1.02424e+06 1.01778e+06 848493 786313 771730 766279 895260 763849 1.15648e+06 757343 725234 745229 693399 929288 942015 2.21152e+06 2.28564e+06 6.83001e+06 1.11634e+06 852485 1.2105e+06 1.04778e+06 845781 832125 817049 784390 763825 1.11989e+06 726379 690533 668016 656523 644286 632192 945283 1.04261e+06 626516 619140 597919 875596 596774 1.20568e+06 592932 753033 580281 584365 564239 560510 559205 781678 1.0055e+06 549720 532698 836774 648292 662988 528216 802379 521478 515843 515740 514357 509244
