tree
version=v4
num_class=1
num_tree_per_iteration=1
label_index=0
max_feature_idx=165
objective=regression
feature_names=x_120m_C2VWAP_neut x_120m_Close_Diff_Rate x_120m_Close_Diff_Rate_neut x_120m_CrowdingPressure_neut x_120m_H2C x_120m_H2C_neut x_120m_H2L_Vol x_120m_L2C x_120m_L2C_neut x_120m_NetTaker_neut x_120m_O2H x_120m_O2H_neut x_120m_O2L x_120m_O2L_neut x_120m_OI_Chg x_120m_OI_Chg_neut x_120m_PremiumDiff x_120m_PremiumDiff_neut x_120m_Vol x_120m_VolDiff_neut x_120m_Vol_neut x_1440m_Close_Diff_Rate_neut x_1440m_EffRatio x_1440m_EffRatio_neut x_1440m_H2C x_1440m_H2C_neut x_1440m_L2C x_1440m_L2C_neut x_1440m_NetTaker_neut x_1440m_O2C_neut x_1440m_O2H x_1440m_O2H_neut x_1440m_O2L x_1440m_O2L_neut x_1440m_OI_Chg x_1440m_OI_Chg_neut x_1440m_OI_Price_Ratio_neut x_1440m_PctB x_1440m_PctB_neut x_1440m_Premium x_1440m_PremiumDiff x_1440m_PremiumDiff_neut x_1440m_RVol x_1440m_RatioSkewDiff_neut x_15m_H2C x_15m_H2C_neut x_15m_H2L_Vol x_15m_L2C x_15m_O2H x_15m_O2H_neut x_15m_O2L x_15m_O2L_neut x_15m_OI_Chg x_15m_OI_Chg_neut x_15m_PremiumDiff x_15m_PremiumDiff_neut x_15m_RatioSkewDiff_neut x_1m_C2VWAP x_1m_C2VWAP_neut x_1m_H2C x_1m_H2C_neut x_1m_H2L_Vol x_1m_H2L_Vol_neut x_1m_L2C x_1m_L2C_neut x_1m_O2H_neut x_1m_O2L x_1m_O2L_neut x_1m_Premium x_1m_PremiumDiff x_1m_PremiumDiff_neut x_1m_Premium_neut x_240m_C2VWAP_neut x_240m_EffRatio_neut x_240m_NetTaker_neut x_240m_O2C x_240m_O2H x_240m_O2H_neut x_240m_O2L x_240m_O2L_neut x_240m_OI_Chg x_240m_OI_Chg_neut x_240m_OI_P_Corr x_240m_PctB_neut x_240m_PremiumDiff x_240m_PremiumDiff_neut x_30m_L2C_neut x_30m_O2C x_30m_O2H x_30m_O2H_neut x_30m_O2L x_30m_O2L_neut x_30m_OI_Chg x_30m_OI_Chg_neut x_30m_PremiumDiff x_30m_PremiumDiff_neut x_480m_Close_Diff_Rate x_480m_EffRatio x_480m_EffRatio_neut x_480m_H2C_neut x_480m_H2L_Vol x_480m_L2C x_480m_L2C_neut x_480m_NetTaker_neut x_480m_O2C_neut x_480m_O2H_neut x_480m_O2L x_480m_O2L_neut x_480m_OI_Chg x_480m_PremiumDiff x_480m_PremiumDiff_neut x_480m_RatioSkewDiff_neut x_5m_C2VWAP x_5m_C2VWAP_neut x_5m_H2C x_5m_H2C_neut x_5m_H2L_Vol_neut x_5m_L2C x_5m_L2C_neut x_5m_O2C x_5m_O2C_neut x_5m_O2H x_5m_O2H_neut x_5m_O2L x_5m_O2L_neut x_5m_OI_Chg x_5m_PctB_neut x_5m_PremiumDiff x_5m_PremiumDiff_neut x_5m_Premium_neut x_5m_RVol x_5m_RVol_neut x_5m_RatioSkew_neut x_5m_WhaleGap x_60m_Close_Diff_Rate x_60m_EffRatio x_60m_EffRatio_neut x_60m_H2C x_60m_H2L_Vol_neut x_60m_O2H x_60m_O2H_neut x_60m_O2L x_60m_O2L_neut x_60m_OI_Chg x_60m_OI_Chg_neut x_60m_OI_Price_Ratio x_60m_PremiumDiff x_60m_PremiumDiff_neut x_60m_Vol_neut x_720m_Close_Diff_Rate_neut x_720m_EffRatio x_720m_H2C_neut x_720m_H2L_Vol x_720m_O2C_neut x_720m_O2H x_720m_O2H_neut x_720m_O2L x_720m_O2L_neut x_720m_OI_Chg_neut x_720m_OI_Price_Ratio x_720m_OI_Price_Ratio_neut x_720m_OI_XSkew x_720m_OI_Z x_720m_OI_Z_neut x_720m_PremiumDiff x_720m_PremiumDiff_neut
feature_infos=[-5.3495323200422646:5.2950845960410842] [-0.18951870802686277:0.87223665715381005] [-5.2231750834362884:5.3661867800553988] [-5.1247904526445094:4.9641534875682618] [-2762.9166949555297:0] [-5.325179285653495:2.7767417460715995] [10.200548261434239:11592.505854800938] [0:10587.587822014051] [-3.9861010213412498:5.381279156490451] [-4.134986954060512:4.3753337640776193] [0:9726.1446298673527] [-2.769440594713021:5.3845059019657393] [-2268.5053741634565:0] [-5.3570553127754339:3.7402533891308063] [-3412.7547003618574:13800.781354335184] [-5.2295006041243424:5.3576011576632965] [-0.10901545000000001:0.10964072] [-5.3843975925636425:5.3841130240469974] [-3.075077251808318:14.716515653818] [-5.1333570874167469:5.2573827380450151] [-4.6557322684276476:5.266907756991432] [-5.040674573802729:5.3600884103962887] [0:0.23253478697460947] [-2.9212089783950739:4.8589180558972647] [-4708.2494969818908:0] [-5.230580102841297:2.6030768660959125] [0:46564.40281030444] [-4.1351363525859606:5.3691206431853633] [-4.0755246799139533:3.6363282692670302] [-5.0483141561631815:5.3616179809359075] [0:44509.587020648971] [-2.4512570798498898:5.3559018067518078] [-4821.6862502576787:0] [-5.2919326795592712:3.1184997374284249] [-5525.0702642733195:102929.83300033865] [-4.6170234443707932:5.3810866423886816] [-5.3842865277373768:5.3843095867615993] [-2.3535577720124463:3.5368049306451659] [-4.3534006184837475:5.2049979796258352] [-0.052623290666666676:0.0013800820069444445] [-0.1295095:0.13164745999999999] [-5.3847375469607393:5.3840890708859055] [1.8528245714349909:140.26151709908149] [-4.3696846669935692:4.704656398219262] [-1586.8192580899765:0] [-5.3657261989261276:3.3929646158905964] [1.7265360523310846:3049.6967502489379] [0:1970.1818455630437] [0:2990.8984410200956] [-3.3383872567386788:5.3732841197269376] [-1792.6227321237998:0] [-5.3681806642949708:3.321810220264283] [-1928.2589193447009:3028.0074536692391] [-5.3505425565607103:5.356945294840755] [-0.031830659999999997:0.040759789999999997] [-5.3727512980414289:5.3761527566107548] [-5.3361557109265449:5.3664842690171888] [-139.4893516525797:153.73653185930536] [-5.251628880898175:5.2818564319242576] [-433.40105726363265:0] [-5.3689723522673232:3.465131139401195] [0:845.62563580874883] [-3.1129230220669637:5.3742089102806636] [0:531.44316044074321] [-3.4164973652509132:5.3806660978801348] [-3.0730288253328961:5.3802213140618411] [-779.69281275647836:0] [-5.3751856226191626:3.4339547494790752] [-0.14881435000000001:0.012073179999999999] [-0.036136520000000005:0.021005070000000001] [-5.3741810011180666:5.3680933519678362] [-5.3846765007309108:5.2425196335998088] [-5.2234267691627689:5.3294937673892644] [-3.8242510365518894:5.1177402643134693] [-4.3017551694665741:4.5892484463797709] [-2533.6083892040574:11229.383632056495] [0:12285.752875762555] [-2.7927463122206162:5.3848640510663222] [-2756.7474643286914:0] [-5.3678453256629073:3.5099072401492291] [-3805.2704187094687:25573.389712881166] [-4.9180149311929746:5.3697653745962839] [-0.96800140934956835:0.99455791463620513] [-4.6784627971279793:5.2871813620492683] [-0.14458483000000003:0.15723668000000002] [-5.3847927654310546:5.3848215053879072] [-3.9861010213412498:5.3698386462374454] [-1738.4227862817281:3268.4556243935203] [0:4614.8391430917354] [-2.8342410811629493:5.3847530542508126] [-2236.447834377554:0] [-5.3657923615098913:3.4041384024181998] [-2967.8658152450789:5109.1036352406081] [-5.3501466835197986:5.3599582303441045] [-0.056925550000000005:0.053965630000000007] [-5.3810019578759603:5.3810954837530502] [-0.3079086791003468:1.7134312675544061] [0:0.35167286245353352] [-3.5603061936461882:4.9909164205557328] [-5.3149984096979059:2.9451350038247277] [28.716630812988253:21046.135762562444] [0:18186.264220645651] [-3.9861010213412498:5.3829705193869319] [-4.3767058413018267:4.2794323422480094] [-5.0803915735140865:5.3662653786516428] [-2.6457478800579524:5.3830044424816688] [-3317.122159283248:0] [-5.2997532547882074:3.4527601829273769] [-4286.9854438709635:41976.595796854956] [-0.14430969000000002:0.14562652999999998] [-5.3845152657669386:5.3843266941970285] [-4.8938242037202118:4.942317812025002] [-369.12140693079022:461.73797871382317] [-5.2592547296099568:5.2882137768525173] [-1275.6659267480586:0] [-5.3678414158243832:3.3938532200119034] [-3.7633135492978913:5.3529649200835605] [0:1154.7671840354767] [-3.9861010213412498:5.3714043903375055] [-881.00827875942196:1108.4614025790484] [-5.2642963305142061:5.346120881955601] [0:2732.7327327327343] [-3.0653570214953487:5.3851019026313702] [-1411.5999638630406:0] [-5.3822605437018058:3.4200293785248035] [-1281.5043270223525:1485.5432134152059] [-5.2632209816573443:5.1698635132009381] [-0.021852220000000002:0.035360300000000004] [-5.3451050146310894:5.381767054792947] [-5.3848759554115979:5.3617221214679844] [0:539.12654549782008] [-3.8391868326839051:5.3392313196665508] [-3.2871203845469266:3.2491603137572174] [-1.901811092:1.3471515580000002] [-0.22754447624913943:0.58765211566372666] [0:0.71478200451624241] [-3.9083855583229341:4.7223058178314377] [-2338.4604326888516:0] [-3.321746057413268:5.3458992298248793] [0:7517.2784003220831] [-2.4714720475458103:5.3849038809800289] [-2543.2320690275033:0] [-5.3592782896706925:3.5365318328121687] [-3264.4053559345521:9639.4047212144724] [-5.3077639253832842:5.3618728355830365] [-737893805.56701791:1036035239.0243896] [-0.069203690000000012:0.079161630000000011] [-5.3832244738968784:5.3843062134383075] [-4.3618315702548518:5.288492788142598] [-4.9092375625002891:5.3629364172569991] [0:0.27295652650622293] [-5.239398036002525:2.7277300118840353] [40.515777617133878:32085.948477751761] [-4.9000451222361807:5.3642972532440885] [0:31819.556920785628] [-2.938526051168354:5.3799295328195225] [-3411.8653993423131:0] [-5.289876255618104:3.3901387894438155] [-4.7779149403008416:5.3777968114372809] [-1872218877.469408:502239234.42645121] [-5.3851648071345029:5.3851648071345037] [-25.518381996781841:38.206757435679009] [-11.094698991913347:10.605389252991554] [-4.4923881414497489:5.0027761305234941] [-0.14635555:0.14865937000000001] [-5.3846618992979076:5.3846989426962901]
tree_sizes=10861 10867 10884 10909 10939

Tree=0
num_leaves=127
num_cat=0
split_feature=21 32 28 18 82 52 42 17 42 116 27 59 160 8 7 96 52 82 101 28 32 32 7 17 42 28 101 43 7 82 82 28 82 127 3 3 17 7 52 120 116 42 61 50 3 123 27 40 110 21 32 82 49 8 124 18 123 160 161 32 82 52 127 50 21 40 124 17 28 101 21 160 18 42 21 43 59 8 32 7 161 161 101 42 161 18 160 32 44 49 21 43 7 120 82 17 124 161 160 84 28 44 120 101 43 52 27 8 160 44 161 127 84 18 18 43 161 116 49 40 101 50 27 27 42 18
split_gain=4.58669e+06 1.2618e+07 2.51069e+06 2.81199e+06 2.26205e+06 1.83765e+06 2.23617e+06 2.04874e+06 1.82669e+06 1.77149e+07 4.15357e+06 4.80863e+06 2.30414e+06 1.76519e+06 3.44401e+06 1.68449e+06 1.61201e+06 1.60831e+06 2.98708e+06 2.03654e+06 2.96149e+06 1.40795e+06 1.39113e+06 1.57955e+06 1.36318e+06 1.80015e+06 2.79748e+06 1.49051e+06 1.3376e+06 1.30299e+06 1.27092e+06 1.72659e+06 1.19114e+06 1.13505e+06 1.13405e+06 1.11473e+06 1.07065e+06 1.02099e+06 1.01192e+06 1.31779e+06 1.14739e+06 976254 970859 1.10411e+06 926037 1.17312e+06 999341 920677 1.02605e+06 1.0742e+06 927114 919801 919309 900740 893416 861330 1.13018e+06 857198 1.31413e+06 836594 1.02289e+06 799890 797238 787584 761575 752758 745898 745851 1.08666e+06 1.41989e+06 1.0392e+06 731366 726201 692560 839854 703375 739005 690686 741992 712492 684542 775876 676544 1.98439e+06 672442 809706 956262 791391 688199 656459 642328 636319 632589 623348 1.22382e+06 741825 617285 1.44727e+06 905422 583803 581229 570660 558547 552543 552033 667496 823315 1.6989e+06 551219 552506 548234 545044 681983 831384 539673 908734 533942 529029 670885 533003 560462 527285 520125 517638 514680 512907
threshold=4.3132488075502531 -1530.7858947348855 2.7159352095222764 0.71353564457571494 0.64066004542222177 -128.08194721380946 53.329062232876318 -3.607995612157596 63.929625778581908 4.254933970012087 0.18683517813266512 -50.65289331097177 -2.5060002774898176 3.3798224981118907 477.42500974373382 0.12399699891686679 265.63967153269925 0.89623673935494119 851.1888769655086 0.58695810074224275 -629.36621715652052 -182.28188422410139 282.45360534832957 -0.21502599726477994 41.246658087634707 2.7159352095222764 335.0894773407054 -2.103950369556121 553.06606717085776 0.849318369812882 0.94379264541974994 1.8885330103363023 0.79507920949386335 0.00051258 0.95838047326529574 -0.46240920514020839 -3.0204922430883188 427.8837801541469 -235.6367104310369 1.4357111427948792 2.4737898569000047 53.329062232876318 108.75230527175206 -32.257870483324837 1.2610358059355216 -105.12055625624515 4.6723962578261036 0.0027976350000000006 -2.2664519334286988 1.8021316669467986 -725.99546153822064 0.96797948680473922 2.9711590619393848 3.1391288696137782 -3.3147385325851424 -0.92660614741398295 -35.345745153300676 -0.20754774665465817 1.2499266013237447 -153.39319393951163 0.86883821367809488 193.26432845333309 -0.0006389849999999999 -79.31850656383132 -0.034189938885902528 -0.00057690499999999984 -3.9448744286782111 -0.99091549997536277 1.7049630337151942 1123.9676469405938 2.5982858195020646 -0.071398183323861872 2.4590606129605326 48.465921004050273 0.303611693231222 0.76177577140678132 -58.357487072310803 0.63954713147601649 -718.4168127578688 192.90861302550869 3.1500011039606783 0.87095461879015112 2223.934874759922 40.00212761963099 6.208016271702232 1.3313754019823822 -0.11151381124111455 -2023.5985249118942 -136.83913167587323 2.7789283319453695 1.894174943663373 0.41288144595726534 315.83703641819176 3.7577451798610269 0.74521518667487674 0.59075082044576177 0.65106945897421997 5.5378856934079526 0.12665557755490717 0.00053005000000000012 1.1264300864943271 -95.147413834804055 -0.18793058294604167 1381.6037296085417 -1.175111975494995 -14.455469743447912 1.1010324188522624 1.1860448502222123 -0.3383724110032979 -332.80341938597297 -3.1593715678649326 0.00061473000000000007 0.000228345 -0.18081342337934111 -0.61454986461622318 1.0161667993780286 0.10106083248761669 1.8842510283332758 0.14804291383139861 0.0021459100000000004 979.55859868377308 -120.91994884522059 4.2413863095535449 0.066416083371374168 36.425421220816141 3.9542227099079992
decision_type=2 2 2 2 2 2 2 2 2 2 2 2 2 2 2 2 2 2 2 2 2 2 2 2 2 2 2 2 2 2 2 2 2 2 2 2 2 2 2 2 2 2 2 2 2 2 2 2 2 2 2 2 2 2 2 2 2 2 2 2 2 2 2 2 2 2 2 2 2 2 2 2 2 2 2 2 2 2 2 2 2 2 2 2 2 2 2 2 2 2 2 2 2 2 2 2 2 2 2 2 2 2 2 2 2 2 2 2 2 2 2 2 2 2 2 2 2 2 2 2 2 2 2 2 2 2
left_child=8 -2 3 4 13 6 -5 -7 24 10 11 -10 -12 14 57 16 35 18 33 20 -19 28 -20 29 37 27 -27 52 -17 -24 34 47 -28 65 36 62 41 82 39 103 -41 101 73 89 45 66 51 48 49 -32 -50 -47 -26 -23 -21 -25 -57 -3 -59 60 -37 -52 -6 92 -49 -14 -9 68 71 -70 -71 84 -48 75 104 -38 -77 79 -79 -56 81 123 122 -84 85 87 88 -40 -87 108 -86 -67 -13 117 95 -95 97 110 -98 -64 -78 -29 -61 -39 -75 106 107 -106 -44 -110 -96 112 -76 116 -102 -116 -114 -69 -119 -120 -121 -90 -1 -36 -124 -105
right_child=1 2 -4 5 15 7 -8 44 9 -11 12 63 17 -15 -16 21 -18 19 22 54 -22 53 23 55 25 26 32 30 -30 -31 31 -33 -34 -35 80 59 42 38 67 40 -42 -43 43 -45 -46 46 72 64 50 -51 61 -53 -54 -55 77 56 -58 58 -60 102 -62 -63 99 -65 -66 91 -68 93 69 70 -72 -73 -74 74 111 76 100 78 -80 -81 -82 -83 83 -85 90 86 -88 -89 121 -91 -92 -93 -94 94 96 -97 98 -99 -100 -101 114 -103 -104 125 105 -107 -108 -109 109 -111 -112 -113 113 -115 115 -117 -118 118 119 120 -122 -123 124 -125 -126 -127
leaf_value=0.23724741129242657 8.5897987538350353 -0.075595845443733323 -2.0930905079329434 1.4187500166245315 -2.5004339192485143 3.5484575502445423 5.1274744314179745 1.4183061561807664 6.6218511448418687 8.5500450111628865 3.1267488072534326 0.99900120284073113 1.2469024015879213 -0.64137023813732297 5.5530391944183677 -0.53560230002024967 2.4937757795152464 -0.48457774661255665 0.94684453254099488 -1.9673038143599451 4.4832251199144562 -1.2413269796023705 -2.0422469643783359 -2.63715140693051 -0.52197684523489096 -4.6815380525076806 1.6338278465783178 -0.019402214651887517 -3.7801931941261979 -5.1956376466238909 0.14882046609278315 -2.1987012654201039 -1.5614456132989689 2.1324758679731 0.23964328245906261 0.45402785210962887 0.0014926090133328129 0.36304941250290268 -1.2317499362292088 1.0723963740384161 3.7708262229111145 3.1625798632527067 2.189414815508949 2.9673328126386385 -1.0123331650138838 2.0879118282822846 0.46608118165171458 -0.1476084174597681 0.17672693213276158 3.1407581882988986 -0.35428306736382681 -0.36895544804726249 -2.6981735776042273 1.2302040373996477 0.74527791388558584 0.80866047332980884 -2.0837850943833467 3.8019719877755223 0.89484506862020297 0.76282178326919614 2.6459399457056536 -1.871752742716116 -1.1738891981838848 -0.23220067193949429 -2.8438238395698923 0.30205463823263212 3.7954345798137634 0.30221339816261056 0.58218473713076657 4.0653935830628454 1.3796385414551569 0.23678743167793334 -1.6318270142815077 0.044851679124408017 0.02631874603471665 1.9971455117770713 0.17451222305468839 1.955883136568511 -0.27421892752293958 -1.4088291233335941 -1.2000816535437526 0.40179851969008673 0.077677148460782303 -3.306685822344833 -1.4692319620165224 1.8496717925735275 2.7662559850958823 0.5438504853735735 2.0464539724862156 -0.66602776824279841 0.87718328966851833 -1.6653541162501646 3.0835843824262996 1.120357374976098 -1.0541126550888866 3.682056386045176 -1.0814285249197901 3.2559787977367503 1.1645667435464271 1.0029576253536197 -0.23319865793828376 1.6718845152614201 -0.68261248225043247 0.70623976453725867 1.0297922193846738 0.5003350752483795 -0.63696312911157005 3.5486359390171311 2.0075731665354009 0.20257417642553766 0.71445787438530162 -0.578711316466203 1.3503155312032082 2.2578679816253331 0.15601490190599338 2.8317804467395522 -0.42419608108582768 0.77081060054193062 0.068055532696377624 0.2302862544951238 -1.8863570787969959 0.51053822149412253 0.05004344164822469 -0.45521258337481357 -0.84894671951685141 2.6547896012038117
leaf_weight=222383 21 35 30 37 22 33 29 33 20 28 23 37 32 33 22 24 33 21 20 20 28 29 38 22 165 20 20 42 27 20 30 42 28 33 148 60 1523 240 27 40 26 22 29 24 23 64 77 20 405 20 264 20 22 30 28 35 22 23 48 47 33 40 28 27 22 35 22 6059 106 25 34 935 21 106 280 29 343 37 25 34 55 260 99 21 28 63 31 357 25 30 20 31 24 26 21 20 50 21 28 22 20 38 62 35 142 244 20 33 22 74 106 91 30 34 22 30 39 134 1356 22 29 211 499 389 73 22
leaf_count=222383 21 35 30 37 22 33 29 33 20 28 23 37 32 33 22 24 33 21 20 20 28 29 38 22 165 20 20 42 27 20 30 42 28 33 148 60 1523 240 27 40 26 22 29 24 23 64 77 20 405 20 264 20 22 30 28 35 22 23 48 47 33 40 28 27 22 35 22 6059 106 25 34 935 21 106 280 29 343 37 25 34 55 260 99 21 28 63 31 357 25 30 20 31 24 26 21 20 50 21 28 22 20 38 62 35 142 244 20 33 22 74 106 91 30 34 22 30 39 134 1356 22 29 211 499 389 73 22
internal_value=0.241187 0.921135 0.754597 0.845772 0.414033 1.54088 3.04834 1.20132 0.238376 0.771908 0.416045 2.19571 0.0346883 1.42083 1.95249 0.0253178 0.405764 -0.113165 -0.586529 0.593201 2.35417 -1.03647 -1.51681 -1.87646 0.236944 0.0770758 -1.53933 0.0984228 -2.25333 -3.12962 0.131452 -0.222311 -0.230082 0.528386 0.203854 0.154288 0.288589 0.240521 0.338877 0.857281 2.13541 1.29699 0.256091 0.971426 0.903412 1.08933 0.702567 -0.11868 -0.0389284 1.3456 -0.136568 1.50294 -0.778 0.0153837 -0.00601585 -0.956424 -0.307722 1.20521 1.83659 0.535091 1.2318 -0.55395 -0.914075 1.18977 -1.55991 -0.0117672 2.36916 0.319544 0.499528 1.27427 2.51767 0.4242 0.0165294 0.213209 0.424801 0.103594 0.453821 0.310321 1.05665 -0.436007 -0.121065 -0.0466034 0.236069 -0.514586 0.654161 0.731184 1.09445 0.419004 0.921118 0.662383 -0.491559 -0.622031 1.81917 0.276972 0.747348 2.23414 0.444726 0.824133 -0.275174 -0.216077 0.345975 0.783959 -0.0593518 0.573251 0.692536 0.848925 1.28511 1.50477 0.981201 0.61622 0.422017 0.116962 0.282252 0.977993 1.1628 1.69973 0.347331 0.260137 0.0947008 0.0303093 -0.973295 0.673241 0.236473 -0.263707 -0.0646878 1.45831
internal_weight=240017 988 967 937 578 359 66 293 239029 640 612 108 504 161 128 417 307 481 288 193 49 110 157 137 238389 5217 68 5149 51 58 4962 843 48 131 4119 274 3267 233172 10097 363 66 102 3165 179 260 237 182 801 759 50 709 84 187 59 144 79 57 106 71 202 93 304 72 88 42 98 55 9734 1862 165 59 1697 98 2986 1019 1967 444 124 62 62 852 797 223075 120 762 714 330 384 299 155 48 66 61 7872 272 46 226 148 78 50 415 80 109 297 545 439 195 175 125 96 127 474 383 103 72 52 69 7600 1541 1407 51 236 222955 537 572 57
internal_count=240017 988 967 937 578 359 66 293 239029 640 612 108 504 161 128 417 307 481 288 193 49 110 157 137 238389 5217 68 5149 51 58 4962 843 48 131 4119 274 3267 233172 10097 363 66 102 3165 179 260 237 182 801 759 50 709 84 187 59 144 79 57 106 71 202 93 304 72 88 42 98 55 9734 1862 165 59 1697 98 2986 1019 1967 444 124 62 62 852 797 223075 120 762 714 330 384 299 155 48 66 61 7872 272 46 226 148 78 50 415 80 109 297 545 439 195 175 125 96 127 474 383 103 72 52 69 7600 1541 1407 51 236 222955 537 572 57
is_linear=0
shrinkage=1


Tree=1
num_leaves=127
num_cat=0
split_feature=108 74 23 133 27 43 150 24 24 101 150 111 61 101 43 111 86 43 94 65 90 150 86 61 117 60 117 23 123 135 150 86 43 24 157 101 74 133 74 2 27 100 86 111 101 108 5 101 86 5 134 128 2 101 27 108 101 86 61 2 111 23 101 74 101 74 150 111 157 95 100 27 101 133 24 157 127 133 43 5 23 27 24 43 64 119 74 75 135 43 128 128 128 23 65 43 108 61 2 2 111 76 95 108 133 27 61 135 134 86 74 2 5 27 128 2 60 24 134 101 122 64 74 122 90 60
split_gain=2.78764e+06 5.3352e+06 2.42896e+06 5.04233e+06 2.13595e+06 3.6987e+06 2.00912e+06 1.96133e+06 1.54868e+06 1.19764e+06 1.28446e+06 1.22453e+06 1.145e+06 1.06736e+06 2.46399e+06 2.18763e+06 1.42201e+06 1.27731e+06 1.27379e+06 2.14972e+06 1.14146e+06 2.10323e+06 1.71644e+06 4.15241e+06 1.13872e+06 1.05233e+06 1.00583e+06 926781 917538 945153 907117 876214 804930 910415 786177 887742 767138 729620 656259 643300 612955 3.92864e+06 3.59551e+06 1.79724e+06 2.38458e+06 3.1425e+06 3.42798e+06 2.1277e+06 590989 535416 523455 512373 507690 659491 674879 505490 1.1434e+06 931972 1.28622e+06 503998 496027 482940 590588 478179 463953 1.40863e+06 987929 1.25236e+06 1.56956e+06 962510 871657 790350 1.38551e+06 1.1687e+06 985332 983000 890905 1.39717e+06 848929 679006 656834 585747 574274 543198 570387 520788 500459 1.15322e+06 844242 584550 488594 682950 703557 588845 486250 616023 495838 484704 459295 458776 452224 668982 437246 436188 431577 429066 434027 418873 665940 717373 625719 1.15047e+06 1.07497e+06 481385 414831 577857 682902 819564 613283 1.07314e+06 690860 614859 529588 461252 412205 406747
threshold=3738.6182569404132 2.1752450100476621 3.380387658771475 0.0090277629999999682 0.8906839190350534 0.62061700967399958 0.13094505886963007 -317.54823522674718 -690.40305687263196 1767.9815776677578 0.0892803582423735 0.27952503744137197 135.86451778886845 2223.934874759922 -0.94844751810469019 0.1767546138540714 2.6068278052183644 1.6165293268819285 -0.0023763599999999997 4.1896854268054007 -363.4175997936955 0.00072897589750321875 4.481921518542733 77.016215626102294 95.814022831638439 -0.87016043228269835 95.814022831638439 2.7867161640445777 -146.45292654963444 0.096605287183416891 0.044940864862353783 2.4619722670514665 0.7486426578406703 -375.82222724665434 1.6306041419714707 1767.9815776677578 0.91722153248636384 0.033550354999999817 1.0848190577575763 -0.98906717299055125 4.6723962578261036 2395.9271535974431 2.4619722670514665 0.2017797798499352 979.55859868377308 2769.8862819609453 -1.4023331672294745 1381.6037296085417 3.3654873718124869 -1.3191365787028511 -0.027439732491679022 1.6929506806508838 0.95704426181208435 1767.9815776677578 0.51092839013581159 2769.8862819609453 1188.6738744981233 0.088366346880003874 33.796511234112096 1.4714896769046757 -0.12793725243361673 2.6182384084275108 783.10450058162303 0.65284729120583795 1188.6738744981233 1.8679735494051888 0.02899995619652514 -0.7594898834387428 -3.0096022457987215 -1.0109948312031909 1929.907044085727 0.52939637113749405 1767.9815776677578 -0.093998250000000158 -18.017556710318015 -0.61736724576436675 -0.00093323499999999982 0.080144675999999984 -0.10030492785003341 0.22326420046985873 0.81892858066785623 2.3719688096515434 -44.857100117262618 -0.60620468051343257 0.12421481425144411 21.750496715567952 0.98043570369201472 688.3167674221836 0.19977989968167434 -0.11816185100488079 -1.5663690007720128 0.4119540250046354 2.0338308248663819 1.3170813212479322 0.068648790739482782 -0.98493501937418626 1492.3288381366285 55.214837437777 3.4534110331244379 3.0491806978051099 0.16868009651893809 1376.6362662847812 -0.072690220467421837 686.29693403002079 -0.032805947000000162 0.98850627621961096 56.603442674062485 0.20890492073483066 0.03060200117718637 1.717291677020744 0.93283640481556562 2.0997583533464175 -0.49425341871983991 1.809143892793214 -3.5739161248611908 -2.8207502824532287 -2.0909459827428933 -2369.4651332592034 -0.042788434353006603 404.9908015974857 2.6269793788064395 2.8117862836484009 1.2043388012661234 1.0302566754810107 -50.020842017506887 -2.5769889928532388
decision_type=2 2 2 2 2 2 2 2 2 2 2 2 2 2 2 2 2 2 2 2 2 2 2 2 2 2 2 2 2 2 2 2 2 2 2 2 2 2 2 2 2 2 2 2 2 2 2 2 2 2 2 2 2 2 2 2 2 2 2 2 2 2 2 2 2 2 2 2 2 2 2 2 2 2 2 2 2 2 2 2 2 2 2 2 2 2 2 2 2 2 2 2 2 2 2 2 2 2 2 2 2 2 2 2 2 2 2 2 2 2 2 2 2 2 2 2 2 2 2 2 2 2 2 2 2 2
left_child=13 2 4 8 5 -2 -5 -8 -4 49 25 26 63 20 16 18 -15 24 -16 28 21 -1 27 -24 31 36 -12 34 29 -20 -29 -17 33 -13 35 114 -11 -32 -19 -30 52 43 -43 47 50 46 -46 61 -34 51 -45 99 53 55 -55 -22 -57 58 -58 -44 105 62 -42 -10 -54 66 70 68 -68 79 81 72 83 74 82 90 77 125 85 -70 -67 -66 86 -69 -85 -78 89 -88 -89 100 -75 93 -93 -92 96 -96 -71 -83 -82 -6 101 -73 -87 104 -72 -41 -107 108 110 -110 113 -112 -113 -80 123 118 117 -117 119 121 -120 -116 -119 -23 -97 -77
right_child=1 -3 3 6 9 -7 7 -9 12 10 11 32 -14 14 15 17 -18 38 19 -21 40 22 23 -25 -26 -27 -28 30 39 -31 37 -33 48 -35 -36 -37 -38 -39 -40 60 41 42 59 44 45 -47 -48 -49 -50 -51 -52 -53 64 54 -56 56 57 -59 -60 -61 -62 -63 -64 -65 65 80 67 71 69 94 103 73 -74 75 -76 76 78 -79 107 -81 98 97 -84 84 -86 102 87 88 -90 -91 91 92 -94 -95 95 124 -98 -99 -100 -101 -102 -103 -104 -105 -106 106 -108 -109 109 -111 111 112 -114 -115 115 116 -118 122 120 -121 -122 -123 -124 -125 -126 -127
leaf_value=3.2869807620482012 -0.12949665127378521 4.3770039454868863 2.4963036181709986 1.3010805632008446 0.9470158887483987 5.1639399901303378 2.6463129828770957 6.4816702063878386 -0.85471246732132766 -1.4127263624527877 -0.17258773122515 -3.1404706702232366 -2.0774256540934246 0.15135551134745279 1.0638683836800713 -0.16084844068380502 3.7617652606964112 0.3928263203303019 -3.7699159881591799 -4.5596749114990232 -0.0077529467455878702 2.188511917114258 -0.51569233531753222 4.5217492131789525 -1.3883107657119877 -0.23054330587387084 2.8544307617519213 3.0847358069419863 0.77885545730590822 -0.92795110138979819 -0.90568173933029172 2.2327033138275145 0.41270448646762153 -0.51626217450851053 -1.527761782942147 1.6656694514364809 -3.8092410070245917 1.614317227292944 2.7566612873906671 -0.33260365009307863 -0.37064835116642864 6.1683412590026858 2.2557139987945556 1.2060711980749059 5.3739677556355803 -0.72866102361679086 0.46482200775146482 -3.8019970326423649 -1.3876004272958509 0.019206316107577021 -0.29465194093966912 2.2897632181076775 0.026050333783931193 0.22936024026437238 -0.76141852093140283 -0.08142971707971057 0.85388116282801474 0.33176080325554164 4.0154545324498958 0.12592899551391601 -0.12959173251421024 0.62139125868296019 -2.2278586406707763 0.755659950684618 -0.32054833173751834 0.10180957562995679 3.7153999123573307 1.4965925935904185 0.84903551852703085 0.7099471740722656 -0.75574713265895843 -0.92961946065227197 3.0759503089904787 -1.5785192381251942 2.5967842151807701 -1.0134978775751022 -1.493210126399994 2.7032379404703777 -0.939067937700372 3.4548103384301068 -0.90334634942988701 1.6576788885453169 -0.77485415232532162 0.96725836549486433 -0.74330035513097581 -1.1255990974903107 -0.19853678859770299 3.6378167793543441 1.0076637711891763 0.040510605731721744 -0.34361968347004485 -1.7077818546674468 0.12210346895105699 1.4324788786151581 1.9369149319967256 -0.26034882856875052 -1.4025264234066008 -0.030871561274808994 -2.6888559812545778 -0.57523991823196408 1.5940878792107105 1.3274279587844322 0.87642132798830674 -0.41591749157224384 -2.7447472558418911 -0.5767035210700262 -2.2507516941781769 -0.24733859768058314 2.7598667058077724 0.49081190611186776 -0.26095055492556823 0.22040544169289725 3.2370721266004772 0.16057826249888449 0.11834103251846743 2.4656023138219663 0.07068705795649774 0.24858797193765639 -0.30203046491085472 -2.6632836758173433 1.77431782505729 -1.6097220555667222 1.581967708178929 0.040833370208740234 1.297418828560756 0.84213198467951134
leaf_weight=22 33 35 22 36 83 22 30 24 28 34 21 20 30 24 21 65 20 24 25 21 207264 20 36 30 61 40 23 20 21 22 20 20 88 39 29 37 22 27 23 26 119 20 20 27 33 30 25 20 23 182 167 21 25685 99 225 181 31 58 22 25 39 39 20 54 138 33 20 36 20 20 20 24 25 44 23 21 55 33 57 20 34 34 34 35 44 20 32 23 26 181 56 55 34 28 32 49 25 34 25 26 56 29 24 42 24 21 59 165 22 38 49 21 27 132 71 22 1898 200 59 26 22 29 35 20 26 27
leaf_count=22 33 35 22 36 83 22 30 24 28 34 21 20 30 24 21 65 20 24 25 21 207264 20 36 30 61 40 23 20 21 22 20 20 88 39 29 37 22 27 23 26 119 20 20 27 33 30 25 20 23 182 167 21 25685 99 225 181 31 58 22 25 39 39 20 54 138 33 20 36 20 20 20 24 25 44 23 21 55 33 57 20 34 34 34 35 44 20 32 23 26 181 56 55 34 28 32 49 25 34 25 26 56 29 24 42 24 21 59 165 22 38 49 21 27 132 71 22 1898 200 59 26 22 29 35 20 26 27
internal_value=0.00174329 0.546413 0.397611 1.30026 0.0989503 1.98788 3.13098 4.35092 0.0706686 -0.0680771 -0.508292 -0.077163 -0.405795 -0.000387158 -0.465681 -0.687461 1.79245 0.115767 -1.29539 -1.50712 0.000571467 0.208031 0.181988 1.77405 -0.345808 -1.46935 1.40972 0.140538 -1.20617 -2.43963 1.30101 0.40234 -0.462003 -1.40582 0.109034 0.128495 -2.35421 0.541977 1.5496 -0.856933 -0.00173254 0.333244 2.64045 0.0208098 0.533542 1.89888 3.25796 -0.709444 0.0396683 0.369316 -0.0857884 0.85947 -0.0025073 -0.00787091 -0.458681 -0.00716719 0.408608 1.20768 2.16623 1.0725 -1.09384 -0.361967 -0.637873 0.205777 0.0376623 0.181607 0.237811 0.330715 1.04942 0.771718 -0.299252 0.227486 0.942321 0.152578 0.583371 -0.0504831 0.133901 1.11927 0.00305732 2.15192 -1.02799 0.0537659 0.469029 0.478488 0.0145421 -0.844489 0.583024 1.27797 2.24223 0.388917 -0.637625 -0.398322 -1.00872 0.248413 0.408506 0.7753 -0.463649 0.813404 -1.65992 0.583909 0.967463 0.305369 -0.033588 -1.14485 -1.84066 -1.44861 -1.81131 0.167259 0.364972 1.3228 0.164029 0.816937 1.91728 -0.171061 0.104817 0.0877154 0.136192 0.61996 -0.416956 -0.853374 0.261916 -0.382797 0.447176 1.11467 0.279677 0.0302939
internal_weight=240233 936 901 224 677 55 90 54 134 622 310 214 112 239297 492 448 44 193 255 234 238805 2623 2601 66 146 96 44 2535 213 47 67 85 170 59 2468 2439 56 47 47 166 236182 545 65 480 282 88 58 198 111 312 194 130 235637 207880 324 207556 292 111 53 45 145 178 139 82 27757 2072 1980 1688 212 192 292 1476 140 1336 428 908 691 81 610 40 92 206 405 115 79 99 371 81 49 290 217 173 89 84 152 107 45 68 59 109 109 53 44 86 44 106 80 511 346 60 286 97 48 189 2402 2362 2155 257 207 126 81 100 235 40 75 48
internal_count=240233 936 901 224 677 55 90 54 134 622 310 214 112 239297 492 448 44 193 255 234 238805 2623 2601 66 146 96 44 2535 213 47 67 85 170 59 2468 2439 56 47 47 166 236182 545 65 480 282 88 58 198 111 312 194 130 235637 207880 324 207556 292 111 53 45 145 178 139 82 27757 2072 1980 1688 212 192 292 1476 140 1336 428 908 691 81 610 40 92 206 405 115 79 99 371 81 49 290 217 173 89 84 152 107 45 68 59 109 109 53 44 86 44 106 80 511 346 60 286 97 48 189 2402 2362 2155 257 207 126 81 100 235 40 75 48
is_linear=0
shrinkage=0.01


Tree=2
num_leaves=127
num_cat=0
split_feature=29 111 32 148 152 135 135 135 103 83 89 23 72 135 111 6 83 122 105 72 29 29 9 15 23 72 148 89 147 9 152 139 9 31 122 117 15 23 25 83 11 83 22 32 55 111 31 29 149 55 140 122 25 25 29 29 83 86 11 147 139 149 15 105 111 11 9 138 147 139 147 139 148 89 55 117 25 75 72 122 103 31 117 75 135 75 83 105 11 29 105 89 55 122 146 138 111 6 146 152 83 140 148 75 152 111 83 31 138 148 25 111 140 23 25 111 152 9 105 105 111 29 111 105 138 100
split_gain=5.23171e+06 3.51167e+06 4.00769e+06 2.34475e+06 2.40966e+06 2.09061e+06 1.81924e+06 2.21694e+06 1.82379e+06 1.44606e+06 1.52997e+06 2.06388e+06 1.42569e+06 1.27267e+06 1.19906e+06 1.15982e+06 5.52559e+06 1.62962e+07 1.56953e+06 1.75678e+06 2.49784e+06 1.2663e+06 1.17803e+06 1.1729e+06 2.81641e+06 1.8899e+06 2.67607e+06 1.3442e+06 1.40534e+06 1.34853e+06 1.56969e+06 1.31467e+06 1.21536e+06 1.64965e+06 1.66077e+06 1.19248e+06 1.8393e+06 2.26815e+06 3.76172e+06 1.14639e+06 1.12731e+06 1.11409e+06 1.22231e+06 1.10806e+06 1.0574e+06 992354 1.03628e+06 929995 892424 846793 838533 833806 797381 779983 800432 799063 790558 756597 747168 733405 1.61794e+06 678482 664204 639859 637734 630388 614750 609614 591041 710992 587005 1.4681e+06 597331 577864 577702 722065 571399 826881 554663 640558 541159 530496 519031 512339 503871 477149 476437 463806 471343 456780 619256 445145 440506 434084 409623 396858 985627 382781 645552 1.34978e+06 1.51553e+06 3.28258e+06 888233 762454 729948 786907 717421 888399 1.14917e+06 653704 643473 1.04535e+06 735131 987754 826579 816899 528617 503978 487578 647561 1.0994e+06 994092 771386 839008 487237 718647
threshold=4.316820429033748 0.21902170624387848 -1038.3758098317644 -1.7298739372568286 3789.9640343586975 0.2303504511463437 0.06256046299767927 0.045992115637317484 1.6414595822846578 1.9715933850237637 2.8181477180529968 2.1579331357446399 1.1551092017823856 0.17397460546343196 -0.36720865670664732 1052.835698393432 3.1681804968430103 4.5431764406046105 4.5786465503228486 -3.4206776228080038 -1.5639063645413047 1.3501479894838189 0.98820033976531085 2.6956997866298447 -1.2049343811252131 2.8380682713918843 2.2238095025259956 4.5883242716700572 -0.12217565395255983 0.11558831938706184 3789.9640343586975 637.85330872680368 -0.18235474926948284 0.1016635451741467 2.1312209226536347 100.13173564520807 1.0954795533478945 -0.20927365340526793 -0.85143343641033442 -0.79563223253162119 3.2597342264799418 1.6303141886159163 0.026387535626242596 -100.14204920530953 -0.64622937958650162 0.11934338485423664 3.553690087127229 2.4177314659647835 1.8746858981185266 -2.0310083699947743 -0.14496188997783874 0.26175826246309136 -1.8945180134620738 0.97849092991496389 3.702440336922479 2.2574434239444776 1.3519485895425094 0.54992699441783111 1.8129396456440643 1.8372566391997387 268.0051805671946 -1.6987307284889659 0.54606203492051952 2.0047019302953495 0.040682787220694218 3.0428247447124126 0.25170566495482755 3.8066289943310108 0.09223914916371953 147.42545157665046 -3.0307096961724054 637.85330872680368 3.9600255510546294 0.059482071612040582 0.21622852825322694 110.23788975710326 -1.6667044472533203 1339.8427062854526 2.6017011786960729 1.2708491336080436 1.2761170336789027 2.5849006232011313 135.27076863174673 1003.0243738419388 0.083333333333334522 549.37561331331551 1.6303141886159163 0.92437061307876045 2.0669803200372283 -0.30935222738435025 1.9157778305588684 1.4697958138671718 -2.7169912707665183 2.6269793788064395 -0.00020009999999999998 2.1380643679445446 0.69314369481389804 833.57780915100727 -0.00047027499999999998 2901.2732471882759 0.22910783743228549 1.8101669251433534 -0.85915125199545839 93.821808889220662 2015.5406572881009 -0.31208742594113481 1.2978985790128841 0.46584838507841592 1.8045096446101774 -0.39532982506368947 0.92736707937832119 1.6098896067756978 2.5570707036785598 -0.53222503105515317 -0.54027159490179699 0.14354633639500294 1526.0943097827032 2.0028160800509842 0.26646140264557489 2.5763137642370819 1.6614046204625272 2.4177314659647835 1.0496876950757528 1.745250973756755 1.4085702950942196 1694.4992307489363
decision_type=2 2 2 2 2 2 2 2 2 2 2 2 2 2 2 2 2 2 2 2 2 2 2 2 2 2 2 2 2 2 2 2 2 2 2 2 2 2 2 2 2 2 2 2 2 2 2 2 2 2 2 2 2 2 2 2 2 2 2 2 2 2 2 2 2 2 2 2 2 2 2 2 2 2 2 2 2 2 2 2 2 2 2 2 2 2 2 2 2 2 2 2 2 2 2 2 2 2 2 2 2 2 2 2 2 2 2 2 2 2 2 2 2 2 2 2 2 2 2 2 2 2 2 2 2 2
left_child=15 5 -3 -4 52 9 7 -6 13 10 12 -12 50 -8 -7 70 18 94 19 20 -17 -20 76 25 -25 32 44 29 47 31 53 -26 33 34 49 36 61 38 -38 45 -14 51 -43 -13 -27 46 -22 -29 -33 -21 -2 81 -5 54 56 -55 67 -52 62 74 -61 64 83 -58 -34 87 89 78 -68 -70 71 72 80 -60 75 -54 -23 -78 -31 -80 -1 -37 -46 -35 -40 -51 -28 -39 -89 -53 -91 -90 -63 -65 -18 -76 -97 -72 99 106 109 -102 103 -100 -105 -106 124 -108 -109 -101 112 -112 117 114 -114 -115 -110 118 -104 121 -121 122 -120 -124 -99 -126
right_child=1 2 3 4 6 14 8 -9 -10 -11 11 43 40 -15 -16 16 17 -19 21 23 39 22 -24 24 27 26 86 28 -30 30 -32 48 35 58 -36 41 37 65 84 -41 -42 42 -44 -45 82 -47 -48 -49 -50 85 57 66 59 55 -56 -57 63 -59 73 60 -62 92 -64 93 -66 -67 68 -69 69 -71 97 -73 -74 -75 95 -77 77 -79 79 -81 -82 -83 -84 -85 -86 -87 -88 88 91 90 -92 -93 -94 -95 -96 96 -98 98 102 100 101 -103 110 104 105 -107 107 108 116 -111 111 -113 113 115 -116 -117 -118 -119 119 120 -122 -123 123 -125 125 -127
leaf_value=0.060643777970556728 -1.6336917209625244 5.4066652978550307 4.2577451315793127 1.961424219403948 1.8808499122632518 0.20236307024955749 1.2112467312812805 5.8894300035996867 2.9979303097002434 -2.1854868509061633 -0.96331734229356814 2.9073522674469725 -3.1942809855937959 -1.841633644104004 3.3368566436033986 1.1347904889848497 -1.5395177070617674 8.9196998889105661 3.1055992748119214 1.6784648426117437 -0.088493386586507156 2.70143328666687 -0.96551774301836579 2.9986990291595461 -0.49095553765425815 -1.1797823916162764 2.4647371137709846 -4.392680440062569 -0.27127700536679 -1.0175680088996888 -2.5000463093348912 0.49577730723789765 0.29266640733789517 -0.45837768327720058 2.6136264155529165 -0.21370407247743686 6.3275924491882325 0.23480983815356798 2.6076061902727399 0.011252062248461174 -0.53991188141051683 -2.5553993917212767 -0.097829716920852655 0.13699334491382945 2.045652901530266 -3.6580196679433188 -2.5895021309723725 -1.3796222763061525 3.2674255415109488 0.0951090797111558 -0.6060893840789795 1.0027830799102784 0.8190374584806045 2.0839634357278163 -2.4211253385543823 -0.29320735120004221 -0.64114825628899241 1.4837314526627703 -0.7186937372612231 0.26841256585232048 3.7111324386596682 1.5153937169909477 1.2015222202647815 1.7918256470651337 2.4869324860206019 -0.46520708524263826 0.36404911420455111 -1.8423784770965577 2.8839643187999724 0.80425199662645652 -0.00081779285053691078 2.6402775923411053 1.8251548898787726 -2.5901122746323098 0.31774134082794192 -0.8814007388750712 -0.62038178404172262 1.7759130390485129 1.5138529810905457 -0.72800268004720026 0.61682548011667171 -1.9738949685096743 0.1985654357383991 -2.0331610422549038 0.65849677417013386 -0.80375652958365051 4.6213397145271307 2.2840557575225833 -0.16551944355169934 -1.1682952251153835 0.83894776734438814 1.8545044116973879 0.13238190952570814 0.024316833466291429 0.2894863510131836 0.74327168273925781 -1.733175781077809 0.045998568911786358 -0.38140833903647758 -1.0562251175774469 5.4557718678883145 0.22558447318417685 0.0017124101837584812 -0.49933219136418522 -3.6323357311884563 -0.98168446994963154 -0.24238262951010611 2.7245166248083117 1.4489154019849053 1.0279491989752827 -0.34259418151954907 -2.2086458369663782 0.28979144802093504 -0.57162627007812261 2.1269625538587569 0.48343012898467308 -0.333847916554182 1.4131506576538087 -0.2654579457602243 -0.18309171629857413 1.8765872906100365 -2.2904622324307762 -0.72431264428531417 -2.9709789221937006 -0.16039980335042656 -1.3065725823640824
leaf_weight=1447 22 22 22 35 37 23 36 22 33 38 39 42 32 22 26 45 25 28 27 31 30 22 31 25 37 28 21 21 39 66 35 21 27 203 27 119 21 51 21 33 32 34 50 22 32 30 37 20 26 449 30 25 149 26 20 31 37 41 33 43 20 24 22 33 26 39 114 40 25 48 230204 24 21 33 50 30 24 36 25 26 199 20 29 23 36 68 20 37 24 51 22 20 570 24 24 25 45 372 185 27 21 28 731 37 24 21 82 32 29 34 211 35 50 128 48 172 39 20 485 158 31 30 68 22 173 80
leaf_count=1447 22 22 22 35 37 23 36 22 33 38 39 42 32 22 26 45 25 28 27 31 30 22 31 25 37 28 21 21 39 66 35 21 27 203 27 119 21 51 21 33 32 34 50 22 32 30 37 20 26 449 30 25 149 26 20 31 37 41 33 43 20 24 22 33 26 39 114 40 25 48 230204 24 21 33 50 30 24 36 25 26 199 20 29 23 36 68 20 37 24 51 22 20 570 24 24 25 45 372 185 27 21 28 731 37 24 21 82 32 29 34 211 35 50 128 48 172 39 20 485 158 31 30 68 22 173 80
internal_value=0.00454377 0.749908 1.21875 1.05683 0.928088 -0.04861 2.00786 3.37557 1.12111 -0.363357 -0.0970454 0.850032 -0.718376 0.0532576 1.86556 0.00161397 0.185898 2.83391 0.123923 0.0778766 -0.895829 1.15997 0.695081 0.135153 -0.280847 0.229925 1.40286 -0.436423 -1.63023 -0.222766 -0.486985 0.919036 0.163427 -0.125896 0.192433 0.346623 0.566065 1.29641 2.70955 -1.59874 -1.8671 -0.0404244 -1.09256 1.95504 0.429049 -2.14646 -1.46965 -2.9229 2.02903 0.0731404 0.0721408 0.168018 0.520113 -0.272177 -0.495821 0.791116 -0.34241 0.600709 -0.708823 0.380759 1.36134 0.284991 -0.457177 0.382887 1.3691 0.651812 0.477713 -0.776665 0.813929 1.51648 -0.00102338 0.184621 0.149267 -1.6544 0.174149 0.534048 1.32287 0.817395 -0.412318 0.370946 0.127886 -0.466969 1.16753 -0.618643 1.37659 -0.023117 3.51674 0.981841 1.45219 -0.163843 -0.563373 0.752673 0.188261 1.04761 -0.643679 -0.3627 -0.84873 -0.00236737 -0.108124 0.118281 1.15745 2.46709 -0.192658 -0.737181 -1.53984 -2.39537 -0.0233654 0.529163 1.16183 0.105446 -0.12624 -0.608089 -0.065234 0.318004 1.18963 0.0332727 0.426448 -0.163958 -0.184641 -0.356209 0.154739 -0.515828 -0.423238 -1.2735 -0.184262 -0.522826
internal_weight=239573 938 591 569 547 347 150 59 91 298 260 103 157 58 49 238635 3367 77 3290 3150 175 140 113 2975 552 2423 130 527 80 447 363 84 2293 889 575 1404 896 249 78 130 64 508 84 64 89 97 67 41 47 548 93 424 397 328 271 57 251 71 314 362 63 647 248 94 53 171 285 157 187 73 235268 1691 1667 66 299 179 82 60 117 51 1646 139 61 226 57 517 41 132 81 98 73 44 594 57 49 120 70 233577 3373 917 110 49 2456 267 82 45 807 182 100 61 2189 246 1943 398 98 300 68 1545 1525 794 189 605 575 90 625 253
internal_count=239573 938 591 569 547 347 150 59 91 298 260 103 157 58 49 238635 3367 77 3290 3150 175 140 113 2975 552 2423 130 527 80 447 363 84 2293 889 575 1404 896 249 78 130 64 508 84 64 89 97 67 41 47 548 93 424 397 328 271 57 251 71 314 362 63 647 248 94 53 171 285 157 187 73 235268 1691 1667 66 299 179 82 60 117 51 1646 139 61 226 57 517 41 132 81 98 73 44 594 57 49 120 70 233577 3373 917 110 49 2456 267 82 45 807 182 100 61 2189 246 1943 398 98 300 68 1545 1525 794 189 605 575 90 625 253
is_linear=0
shrinkage=0.01


Tree=3
num_leaves=127
num_cat=0
split_feature=30 27 111 160 160 143 155 132 82 82 82 92 111 128 82 71 150 75 31 73 125 155 132 73 155 109 103 117 75 43 31 67 128 143 147 64 109 125 73 160 92 64 30 150 80 103 26 27 125 160 103 111 64 125 26 103 160 31 143 155 143 75 111 128 30 31 27 27 82 138 150 143 143 145 55 75 43 26 138 111 75 43 155 80 132 150 143 85 103 80 103 143 75 73 111 155 155 160 75 160 117 43 145 85 92 143 73 82 138 124 138 117 103 31 143 27 82 80 160 67 43 111 80 132 150 92
split_gain=3.35456e+06 3.14901e+06 3.88791e+06 3.36829e+06 2.7741e+06 2.51646e+06 2.17785e+06 1.99916e+06 2.5385e+06 1.97731e+06 2.51969e+06 1.98005e+06 3.10087e+06 1.96522e+06 1.90015e+06 1.85508e+06 1.58121e+06 3.9972e+06 4.13226e+06 1.50671e+06 1.47059e+06 1.3288e+06 1.3266e+06 960292 1.38107e+06 1.06211e+06 1.05571e+06 1.04489e+06 967318 947316 806546 791057 727560 696269 683972 1.50851e+06 3.22588e+06 926763 1.03253e+06 1.55005e+06 711215 1.85912e+06 1.25581e+06 813737 681605 668033 661688 1.43872e+06 648158 584649 650282 961926 654068 793999 641501 636707 612304 660599 568341 564420 549212 546421 539775 533866 507456 2.86408e+06 696908 1.00079e+06 1.07801e+06 1.01039e+06 1.00862e+06 928921 881670 881370 1.06195e+06 845608 663325 656154 1.1164e+06 755222 761322 726270 771046 766457 638700 1.42063e+06 1.07031e+06 693707 617158 713573 622790 573661 712898 569164 551889 695136 1.06801e+06 1.67593e+06 1.58885e+06 624730 624215 644545 551067 529930 509399 646602 497930 495586 489188 488668 478401 906668 600032 469723 455573 585768 477783 577747 450199 450029 422635 420671 419248 586943 464011 415619
threshold=5055.9143200838726 4.6723962578261036 -0.3849290484875581 2.2960432918353537 1.469013617978417 619.55376854342842 3.5404393814838997 0.47680880712690943 0.91382207149129002 0.56919563172174559 0.85561836291015936 11.306839668766557 0.91731529748028851 1.3859381049643302 0.87694539627329016 -0.79330062849374938 0.13094505886963007 1339.8427062854526 3.8272772701498425 2.1536897792904655 120.85672043219533 4.5905921703889492 0.70779875830884686 0.7334494904086053 0.40975179339707918 0.00051961500000000007 0.72615362430858632 170.1917342910198 1339.8427062854526 1.4163340040762942 2.5849006232011313 -1.9295258065346033 -0.40663738334306537 -542.69836208500112 -2.0030444804025755 4.5285316044689656 -0.00043562999999999995 176.01813275339276 1.0391372083307713 -0.071398183323861872 650.67767858529203 4.5285316044689656 3243.6385603581825 0.066873016162595181 267.46939691240652 1.0548784306268326 3434.353585528142 4.2413863095535449 -66.564298888186471 -0.70089817491025697 0.39069335334606342 -0.65396043853766017 0.78982480699539737 133.43938647012445 1416.9903680438981 0.77800283506764434 0.078812372758500435 1.1237132366349545 443.46914569534334 3.0719940947754725 994.04056398455748 1003.0243738419388 -0.90169456815426219 1.4731442871506184 2679.8576117557418 0.077364318077906946 2.8658865076816928 0.33790935043564774 0.80141483924001256 -0.0083637577940116718 0.075778407302486625 740.23394424914693 -625.31595566215231 0.25275356855864278 -0.54976663919985558 153.25484917736557 -0.58325045320050761 1452.9889431516253 2.0424755354482338 0.36174247644312346 585.00254102629162 0.9449125874310188 1.9895896642757893 195.5445596554828 0.90651432207567473 0.052590266875981138 -202.15468997928807 0.20193668266305104 0.260374403040458 467.53464869728765 0.70105690082523908 355.67647950759732 585.00254102629162 0.92241322626801459 0.14354633639500294 0.81306726045579836 2.8802411337625906 -0.063067022563407821 180.83893243963539 0.10507219614178127 116.93128900625129 0.15546831332690311 -0.20475032345868646 -0.23044751663155133 -379.90672436736645 -365.70724168377473 0.83090184469577244 0.61793310282054159 2.4755242755219418 0.24816845908479898 4.2847357541357836 28.378722899463643 -0.71825447617115812 1.7387023071183909 -106.45045408734397 4.6723962578261036 0.49971483029821617 281.84662209559735 0.4191007136544051 -0.98400957451897242 0.23374924561536559 0.6190924500498235 -115.23604055850011 -0.72240171378730589 0.027391640030070216 -310.15875489476815
decision_type=2 2 2 2 2 2 2 2 2 2 2 2 2 2 2 2 2 2 2 2 2 2 2 2 2 2 2 2 2 2 2 2 2 2 2 2 2 2 2 2 2 2 2 2 2 2 2 2 2 2 2 2 2 2 2 2 2 2 2 2 2 2 2 2 2 2 2 2 2 2 2 2 2 2 2 2 2 2 2 2 2 2 2 2 2 2 2 2 2 2 2 2 2 2 2 2 2 2 2 2 2 2 2 2 2 2 2 2 2 2 2 2 2 2 2 2 2 2 2 2 2 2 2 2 2 2
left_child=16 5 7 4 9 23 22 8 -3 -4 13 12 -12 58 -9 20 21 46 19 -19 -13 34 -7 24 29 62 -25 48 32 -2 31 -21 -28 44 35 37 -37 -1 -39 -40 64 42 49 -44 -23 -32 60 -48 -27 -42 51 54 55 56 -51 106 57 -54 -11 121 63 -53 -26 -18 103 -66 67 68 69 -67 77 73 -68 76 -75 -71 -72 78 -69 81 -81 84 83 -83 122 86 -86 -88 89 -70 -90 92 -78 -82 100 -96 97 98 -97 -99 104 -102 -101 -36 -74 -106 -52 -98 -33 -35 -105 -112 -113 -93 -107 116 -116 120 -57 -55 -118 -50 124 -124 -79 -64
right_child=1 2 3 -5 -6 6 -8 14 -10 10 11 15 -14 -15 -16 -17 17 18 -20 30 -22 33 -24 26 25 27 28 -29 -30 -31 45 108 -34 109 40 36 -38 38 39 -41 41 -43 43 -45 -46 -47 47 -49 59 50 52 61 53 119 -56 118 -58 -59 -60 -61 -62 -63 125 -65 65 66 72 70 88 75 71 -73 94 74 -76 -77 91 79 -80 80 93 82 -84 -85 85 -87 87 -89 90 -91 -92 113 -94 -95 95 96 107 99 -100 102 101 -103 -104 110 105 114 -108 -109 -110 -111 111 112 -114 -115 115 -117 117 -119 -120 -121 -122 -123 123 -125 -126 -127
leaf_value=0.073706777851930014 2.495830207937642 0.26297127897089179 4.3935056767096885 -1.1565012612213961 5.3009211015701299 -4.4062580497448263 0.4685797736500249 -0.70614638552946207 -4.5409143985401501 -0.039641069162975662 1.8689764837785199 1.3542034210302891 6.6521372803397796 2.2778239174021615 3.1783695201873781 -0.36776646290506632 0.20367383731535746 3.3386170637607577 5.2138755645751953 1.433669175326824 4.5876611822301694 -0.50862381260970546 -1.1459143129984539 2.8527835444746348 -1.2417453312873841 1.1797498416900636 0.21792939808057704 -2.9339635848999026 -1.1471729651364413 -0.15067020915803456 2.9393757733106614 0.10378963458538057 2.8258221101760865 -0.69642801113536257 0.017765635343355481 -0.13768884705774712 4.9519870443344116 0.17220871415054589 4.1596663720267166 0.31747818606240408 1.103045997375097 -2.7601311567624411 -0.60230932760238642 -3.1023981724614682 1.6413484065532686 0.41416783853010702 -3.0688011903762815 0.49871055364608768 -2.2169335608482363 0.16384666724638508 -0.027795968055725099 0.34622961477799846 1.5080252494663 -0.83327444105437309 -2.2796509874434698 0.063465819983806432 -1.0655840794856732 -0.77921070751936539 -2.0081558408737186 0.30551924647956058 -0.79653447573001568 1.7810490877488081 1.6348118965714067 1.5315769128501415 3.7261533056605947 0.013543798327445985 1.9255441881309856 -0.490304959036032 0.18356277327452386 1.3025404879511622 -1.4728727195376441 -1.4314671061589166 1.6963209128379821 3.1558990936279301 0.63993562707714002 3.700964172056743 0.57190362690176277 -0.50875728466177494 -2.7869486236572265 -0.35119304622379122 -2.7439047710418705 -0.46278120365142827 2.36922638297081 1.435749248040689 2.5108706757681709 -0.97979246110332252 -0.43038894036481545 1.5509316574732464 -1.562703917219832 2.1923152523949034 0.19759403098713268 2.4388210608742455 -0.89920279761155442 -0.48061676621437072 -0.65990606775089189 1.0028024597351368 0.92638003934370849 -0.94025968898426404 4.5335766761779785 2.2820347518506261 -2.2274089105923971 -0.087005400482346021 0.53941650306069577 -0.013370487166192614 -1.3475884204506874 0.90613398522570521 -2.0905714045871391 -0.006062849273807124 -2.1079706523418427 0.027400173406148781 1.0196442157991472 0.65861489946191965 -1.133398637617788 0.34791654155367896 -1.0169297969725823 -1.654505663871765 2.1154477297741434 -0.14895724170251723 1.5141526190219103 -2.4395188570022586 0.50540214531123639 -0.46053865509033204 0.6531466310753905 -0.89160292441278333 0.46789531132754159 0.29757397817280479
leaf_weight=6272 38 22 26 37 24 26 33 34 22 55 33 39 23 36 20 35 562 24 30 20 22 29 24 29 20 20 23 20 22 21 20 20 20 476 82350 33 20 57 21 21 39 30 30 23 30 22 20 26 30 22 25 121 28 33 21 103 52 23 20 29 52 34 27 32 22 39 33 138 112 49 21 26 20 25 51 21 105 93 25 329 25 50 24 37 35 49 43 30 37 21 44 22 48 20 49 26 76 22 25 23 24 34 86 144633 30 69 22 228 20 116 31 22 124 21 31 20 23 109 27 37 56 25 29 162 102 167
leaf_count=6272 38 22 26 37 24 26 33 34 22 55 33 39 23 36 20 35 562 24 30 20 22 29 24 29 20 20 23 20 22 21 20 20 20 476 82350 33 20 57 21 21 39 30 30 23 30 22 20 26 30 22 25 121 28 33 21 103 52 23 20 29 52 34 27 32 22 39 33 138 112 49 21 26 20 25 51 21 105 93 25 329 25 50 24 37 35 49 43 30 37 21 44 22 48 20 49 26 76 22 25 23 24 34 86 144633 30 69 22 228 20 116 31 22 124 21 31 20 23 109 27 37 56 25 29 162 102 167
internal_value=0.00380642 0.575502 1.20382 1.69676 2.03405 0.0851078 -1.52532 -0.556697 -2.13897 1.76275 1.50268 2.33912 3.83349 0.357282 0.732563 1.4674 0.00135758 0.432403 1.87841 1.08425 2.52037 -0.000179898 -2.84129 0.357339 0.142145 -0.104278 1.26619 -0.840691 0.558323 1.55386 0.553813 -0.190171 1.4309 -0.451353 0.00105891 0.102836 1.78294 0.0888597 1.04885 2.23857 -0.00177553 -0.327111 -0.213063 -1.68725 0.584582 1.61665 0.106425 -1.05238 -0.438139 -0.079959 -0.164151 0.293845 -0.423246 -0.860507 -1.02949 0.0041335 -0.302015 0.476527 -0.564578 -0.82335 0.18894 0.660964 0.322429 0.275211 -0.000827809 0.13204 0.103971 -0.0112711 0.493946 1.30342 -0.119341 0.380044 0.318644 0.540793 1.46756 2.02207 0.216213 -0.253097 -0.842551 -0.159633 -0.518055 0.0453355 0.782388 0.34464 -0.105333 0.432432 1.07316 0.383852 0.0816437 0.500734 -0.606493 0.397186 0.11038 -1.738 0.262884 0.475309 0.589765 1.19562 2.73357 0.596877 -0.0103064 -0.97269 0.907125 -0.00248836 0.14561 0.0538525 -0.99335 0.227048 -1.00209 -0.554597 -0.0140063 -0.533576 -0.863369 1.41768 0.190356 -0.0162906 0.133318 0.322987 0.364762 -1.68229 0.97415 -1.41857 -0.324061 -0.65706 0.00210715 0.483684
internal_weight=239614 1022 448 350 313 574 83 98 44 289 263 152 56 111 54 96 238592 848 156 126 61 237744 50 491 397 338 94 124 65 59 102 60 43 651 237093 6424 53 6371 99 42 230669 670 640 53 59 42 692 46 104 587 548 198 350 173 43 177 103 51 75 84 646 155 214 594 229999 2839 2817 1833 323 109 1510 319 984 293 76 70 217 1191 163 1028 374 654 111 87 543 157 108 73 214 133 81 196 153 45 951 535 486 182 51 131 416 58 109 227160 358 338 47 304 40 592 144810 177 146 43 308 239 219 188 130 70 79 55 386 191 195 194
internal_count=239614 1022 448 350 313 574 83 98 44 289 263 152 56 111 54 96 238592 848 156 126 61 237744 50 491 397 338 94 124 65 59 102 60 43 651 237093 6424 53 6371 99 42 230669 670 640 53 59 42 692 46 104 587 548 198 350 173 43 177 103 51 75 84 646 155 214 594 229999 2839 2817 1833 323 109 1510 319 984 293 76 70 217 1191 163 1028 374 654 111 87 543 157 108 73 214 133 81 196 153 45 951 535 486 182 51 131 416 58 109 227160 358 338 47 304 40 592 144810 177 146 43 308 239 219 188 130 70 79 55 386 191 195 194
is_linear=0
shrinkage=0.01


Tree=4
num_leaves=127
num_cat=0
split_feature=30 111 98 16 108 39 2 98 51 73 39 13 133 13 150 154 15 27 74 111 133 98 6 6 74 150 31 31 53 98 26 150 39 74 73 13 6 74 39 74 73 5 2 26 98 98 39 31 93 154 32 98 74 98 133 98 30 150 27 30 2 55 139 108 67 111 150 139 67 98 5 74 26 133 161 84 139 93 111 26 2 40 84 27 30 27 39 93 39 111 26 32 26 51 98 39 111 133 84 93 40 98 39 31 30 93 31 141 150 133 53 2 150 30 133 74 67 154 32 154 98 31 74 139 73 111
split_gain=5.75973e+06 6.09153e+06 9.1901e+06 4.4984e+06 4.26225e+06 4.90073e+06 2.52669e+06 3.1071e+06 2.38573e+06 3.45775e+06 2.60931e+06 2.05842e+06 2.77829e+06 1.66867e+06 1.59806e+06 1.64465e+06 1.69072e+06 1.34361e+06 1.88879e+06 1.25609e+06 1.25218e+06 1.53761e+06 1.11566e+06 950756 2.23422e+06 2.23923e+06 3.68321e+06 1.48411e+06 2.92442e+06 2.89821e+06 2.98016e+06 2.31213e+06 1.61557e+06 1.72502e+06 1.23738e+06 1.35289e+06 1.70605e+06 1.13342e+06 1.49977e+06 2.18635e+06 998954 978747 952422 1.35748e+06 944513 927104 910503 886994 1.02602e+06 876010 845560 1.19035e+06 1.12251e+06 1.11312e+06 905548 823041 819266 1.50846e+06 816492 834702 804502 734261 719256 718038 691142 688667 674093 655992 624072 659815 620769 620240 560178 538919 761844 616058 928062 574213 554685 532274 524305 495661 487578 486961 961134 1.42953e+06 1.01346e+06 926939 933363 951414 1.16876e+06 1.00034e+06 1.68327e+06 1.77701e+06 1.10864e+06 974496 1.9247e+06 928846 777396 810193 715187 703021 662960 655005 635923 586158 567637 540626 644862 628034 530164 763360 641380 513737 497075 823303 481049 478217 1.00904e+06 2.32778e+06 572832 697066 813719 680416 578497 556465
threshold=5055.9143200838726 1.6614046204625272 1.777353150800085 0.00050512500000000015 1803.9473802979135 0.0008621697326388891 2.5557077380249251 -1.7129352858094891 -0.37556246984310748 1.9366656912384086 -0.00054327340972222212 -4.3201588467406777 1.0000000180025095e-35 -0.018304411660520697 0.070573060496732246 955.51162526100643 1.1660669249219275 4.6723962578261036 0.77588210025272575 0.24468077826068677 0.20560046399999979 0.37342356456937914 1159.3829285341908 1052.835698393432 -2.2105987478978109 0.13094505886963007 3.553690087127229 1.3643638301339232 -3.6110207544038211 2.8119282766774707 3434.353585528142 0.035415926445004721 -0.00085566598958333327 1.1636760546847238 2.5874415039651124 0.49661574145421777 1325.2101879327395 0.34789518848402257 0.00078847860763888919 1.1234696382812588 3.34038873703064 0.1281538306765819 3.978150753163169 1693.5326135322118 -1.0097594954654923 3.0366042061525396 0.00063984821527777785 1.1668860717822815 4.1582634031765346 3175.2251412855044 -315.07524260839131 1.6022886023058234 1.3717001252584728 1.8879778648579466 -0.0024118750000000628 -0.17677381979390752 3243.6385603581825 0.043841248170562362 2.2342814082612814 1387.3596868804318 3.4534110331244379 0.18625227415616569 806.36419485099384 2013.3102996839393 -1.6907933025940907 1.0000000180025095e-35 0.10206772960116696 381.48866892025796 0.1740347641674666 2.634003808788993 -0.61872544841799504 0.27827663638411132 1637.7979086133944 0.48006188299999991 5.8432700497871215 -0.0013824199999999999 501.47383738544335 1.6101777892357929 0.85005967840638286 995.87773683096464 -1.5380642771035575 -0.0014627399999999997 -0.0010495299999999997 1.8955227179022993 3243.6385603581825 0.32254809986140992 -0.00056104759722222215 -0.81681318268744085 0.00039359861111111115 0.18514149809807387 3434.353585528142 -421.45465356889503 2897.3296293006028 -1.2851758514907172 -0.3851572463484092 0.00046609234375000007 0.91731529748028851 0.58147387900000014 -8.542999999999996e-05 -0.59618094844586522 -0.0010363099999999997 1.2787577438197144 0.00057895972916666681 4.6073871819621006 1021.6483892504338 0.21275430407042031 2.894417917559386 -10.507546339379447 0.051703801296741771 0.20044649000000006 0.71416939648620503 1.5803654188793235 0.025573590086049477 3888.2666606905595 0.10340817199999998 0.605269228556232 -0.71891857559702699 1066.3255466568778 -2316.0163167442074 1932.5202818669288 2.49077245102777 0.48691921188477322 0.39872850328203829 184.23673096209407 2.5874415039651124 2.5515015215766934
decision_type=2 2 2 2 2 2 2 2 2 2 2 2 2 2 2 2 2 2 2 2 2 2 2 2 2 2 2 2 2 2 2 2 2 2 2 2 2 2 2 2 2 2 2 2 2 2 2 2 2 2 2 2 2 2 2 2 2 2 2 2 2 2 2 2 2 2 2 2 2 2 2 2 2 2 2 2 2 2 2 2 2 2 2 2 2 2 2 2 2 2 2 2 2 2 2 2 2 2 2 2 2 2 2 2 2 2 2 2 2 2 2 2 2 2 2 2 2 2 2 2 2 2 2 2 2 2
left_child=23 4 116 -4 6 8 7 -2 9 10 22 12 -9 -11 15 20 44 -12 -19 64 21 -13 -6 60 -25 27 47 28 31 30 42 -26 33 -29 37 36 70 46 50 -40 -38 -31 49 -44 -17 66 63 72 68 71 51 56 53 -52 -54 67 58 -58 -39 -60 83 80 -45 79 -10 -56 -37 -8 69 -49 -36 -30 -27 74 75 76 -62 -76 -79 -34 -46 -77 -73 84 117 105 -87 -85 103 90 98 107 95 -94 -95 96 -93 104 -90 -100 -88 -96 -92 -89 -97 -86 113 108 114 -110 -101 112 -112 -102 -91 -116 -3 -1 119 -119 125 122 -122 -124 -125 -120
right_child=1 2 3 -5 5 -7 55 11 19 13 17 14 -14 -15 -16 16 -18 18 -20 -21 -22 -23 -24 24 25 26 -28 32 29 41 -32 -33 34 -35 35 45 40 38 39 -41 -42 -43 43 62 61 -47 -48 48 -50 -51 52 -53 54 -55 65 -57 57 -59 59 -61 73 -63 -64 -65 -66 -67 -68 -69 -70 -71 -72 82 -74 -75 77 81 -78 78 -80 -81 -82 -83 -84 87 85 86 100 88 89 91 102 92 93 94 101 97 -98 -99 99 110 106 -103 -104 -105 -106 -107 -108 -109 109 -111 111 -113 -114 -115 115 -117 -118 118 120 -121 121 -123 123 124 -126 -127
leaf_value=-8.15390644652478e-06 5.0136764352971861 -0.35252429206030711 3.3660273581284743 9.4372545325237773 -3.6660808967302247 -5.2020638504028316 0.10038075923919677 1.0655905110495432 -1.4359284369150798 4.9757041967482794 -0.18065939488865079 3.7406576122381749 5.0899259975038733 1.1158028586705526 2.7757103739286726 1.432834537744522 2.5692758922576906 4.2558561305999758 0.16825023883810411 -0.25527787896303034 0.03288269873460134 0.52362043301264438 -0.70286294477957267 2.8861967010498044 5.2492531366348274 0.35785838809278275 4.5831897354125974 -0.22252667591489594 -0.075434983414159856 1.4304577106881786 -2.9698518353123822 0.8881572615715766 0.12352950748009019 -3.7697884222177356 -1.1077390211820604 -1.704300994873047 -1.4051768765910979 -0.16820032004471663 4.1967861233586845 0.39220249696211384 -3.9438500276207926 4.1761816940307623 -0.26751288563013076 1.123567680835724 1.1794390748341879 1.3036897607751794 -1.8084389088948567 3.810578395298549 -0.64471343390288804 1.6769160272734507 -0.50826987654855937 -1.5181016482512157 3.379554531097412 1.5191721426474081 1.9371602387263858 0.7382408025187831 -3.0590305564517064 0.57648634262084963 -0.31506872994559154 2.1266842534428552 -0.1347973563397924 -1.2601223145068532 3.7733421688988096 1.2512128858055387 -3.9722071487253361 -0.32765312938690189 0.61614367303394135 -2.2082846045494082 0.39328757876441595 1.5431091437917765 1.1049390075320289 0.91764181976382808 -1.4983578000749862 1.3593949425816536 -0.031852029339939941 -1.1888605880737304 2.2110356719677267 -2.1003869035720824 -0.70853277900325728 -0.99837996069546597 -0.43967377181847889 -0.1996761496978969 0.19482492752335076 -0.096964624690909218 0.24795647719810748 -2.5613621410956751 -1.8854463975088935 0.081527591958120968 -0.21348396503855746 0.14598912837758529 0.1952015245402301 3.6528002682753971 3.7863946807384492 -0.77277346320774243 3.323525856494904 1.64193430519104 0.13526551374367304 2.3583636968786066 2.4800390527248384 -0.058000911003840507 -0.26408354820197366 0.80813566665649417 -1.7181178536848589 -0.51308363228178155 0.12471491208884405 2.4732701463699338 1.1686487726731734 1.6336340554555258 -0.144194055580702 -1.8560052438882682 2.7511918219236224 0.0022674287369188208 0.85062172387327462 -1.1766775943011774 -0.14176325184958322 2.1445706600613064 1.4240142327767831 0.044768507742300269 -0.12731801126193801 2.9055044184504331 -0.29548859098861957 0.003780999311836817 0.23863490004092455 3.7002411394119266 1.2950451569557191 0.40616257328447419
leaf_weight=215489 22 35 26 23 24 20 20 42 21 21 84 39 29 24 38 30 25 20 26 39 30 24 27 30 20 72 27 29 1042 37 31 31 79 26 32 31 31 91 23 44 31 20 32 20 30 37 45 21 21 35 101 60 20 37 29 31 21 25 21 42 48 71 21 28 22 25 21 32 21 33 21 111 21 20 51 54 26 50 67 91 60 818 586 2644 29 26 35 6163 257 226 27 28 35 23 20 30 35 22 20 134 249 25 55 191 349 20 22 24 122 26 26 65 56 82 28 36 27 123 7177 37 29 186 20 20 20 201
leaf_count=215489 22 35 26 23 24 20 20 42 21 21 84 39 29 24 38 30 25 20 26 39 30 24 27 30 20 72 27 29 1042 37 31 31 79 26 32 31 31 91 23 44 31 20 32 20 30 37 45 21 21 35 101 60 20 37 29 31 21 25 21 42 48 71 21 28 22 25 21 32 21 33 21 111 21 20 51 54 26 50 67 91 60 818 586 2644 29 26 35 6163 257 226 27 28 35 23 20 30 35 22 20 134 249 25 55 191 349 20 22 24 122 26 26 65 56 82 28 36 27 123 7177 37 29 186 20 20 20 201
internal_value=0.00358522 0.775805 2.97913 6.21579 0.488414 -0.405238 1.04887 1.35075 -0.093756 0.436381 -0.18037 1.15797 2.70933 2.91709 0.840539 0.602557 0.123847 0.571663 1.94547 -1.55486 1.7144 2.51512 -2.09732 0.000474856 0.169739 0.14461 1.12829 0.0744165 0.234727 0.172429 0.105005 2.59839 -0.231422 -1.89941 -0.138379 -0.831968 -1.54838 0.0425569 0.29818 1.69825 -2.67451 2.39387 0.156614 1.27604 -0.196235 0.0937327 -0.524443 0.634736 1.30901 0.110549 0.0994407 -0.282752 0.568168 0.0353197 1.56186 -0.55147 0.0878529 -1.08321 0.43765 1.31277 -0.00187693 -0.499788 2.48077 -0.232625 -2.73356 0.888636 -0.767198 -1.32034 1.85605 2.4249 -0.231018 0.0790238 -0.0612872 -0.267588 -0.296797 -0.186593 0.689414 -0.917354 -1.30334 -0.477022 0.100031 -0.260933 0.309936 -0.000591631 -0.00373839 -0.458886 -0.650049 0.0654189 0.118933 0.329384 0.0266413 0.51768 0.799126 1.95557 1.01324 0.542414 1.69861 0.360767 0.19046 0.535355 -0.521971 1.92609 -1.08812 0.0636537 0.244811 1.15625 -0.386782 0.172269 0.0921938 -0.444918 0.396943 0.811654 1.45324 -0.490164 0.366306 1.1443 0.42113 -0.00279468 -0.0796493 0.706314 -0.0960813 0.352046 1.07988 1.74464 2.49764 -0.112784
internal_weight=239801 962 111 49 851 328 523 440 308 226 181 418 71 45 347 309 216 130 46 82 93 63 51 238839 3273 3243 216 3027 1986 1935 1878 51 1041 55 986 204 115 782 539 67 62 57 1847 73 191 89 243 189 96 1774 472 260 212 138 74 83 200 46 154 63 235566 161 41 198 43 54 52 52 75 54 53 1739 93 1134 1114 946 74 168 117 170 90 872 697 234432 223765 463 414 10667 8023 1669 640 1029 567 103 68 464 63 401 558 301 388 45 82 6354 379 49 353 462 438 148 281 147 82 331 290 64 62 223302 7813 160 7653 275 89 60 40 7378
internal_count=239801 962 111 49 851 328 523 440 308 226 181 418 71 45 347 309 216 130 46 82 93 63 51 238839 3273 3243 216 3027 1986 1935 1878 51 1041 55 986 204 115 782 539 67 62 57 1847 73 191 89 243 189 96 1774 472 260 212 138 74 83 200 46 154 63 235566 161 41 198 43 54 52 52 75 54 53 1739 93 1134 1114 946 74 168 117 170 90 872 697 234432 223765 463 414 10667 8023 1669 640 1029 567 103 68 464 63 401 558 301 388 45 82 6354 379 49 353 462 438 148 281 147 82 331 290 64 62 223302 7813 160 7653 275 89 60 40 7378
is_linear=0
shrinkage=0.01


end of trees

feature_importances:
x_480m_RatioSkewDiff_neut=30
x_1440m_L2C_neut=21
x_1440m_RatioSkewDiff_neut=18
x_240m_NetTaker_neut=17
x_480m_L2C=17
x_720m_EffRatio=17
x_1440m_O2H_neut=15
x_240m_OI_P_Corr=15
x_720m_OI_Price_Ratio_neut=14
x_480m_EffRatio_neut=13
x_120m_Close_Diff_Rate_neut=12
x_1440m_O2L=12
x_240m_O2C=12
x_5m_WhaleGap=12
x_60m_OI_Chg=10
x_1440m_EffRatio_neut=9
x_1440m_L2C=9
x_1440m_O2H=9
x_1440m_Premium=9
x_240m_EffRatio_neut=9
x_480m_NetTaker_neut=9
x_1440m_O2C_neut=8
x_240m_PctB_neut=8
x_30m_L2C_neut=8
x_5m_L2C=8
x_5m_PremiumDiff_neut=8
x_60m_EffRatio=8
x_60m_H2L_Vol_neut=8
x_60m_O2H=8
x_720m_OI_XSkew=8
x_120m_Vol=7
x_1440m_RVol=7
x_480m_O2H_neut=7
x_480m_OI_Chg=7
x_5m_O2H_neut=7
x_720m_O2H_neut=7
x_120m_H2C_neut=6
x_120m_L2C=6
x_1440m_Close_Diff_Rate_neut=6
x_1440m_H2C=6
x_1440m_H2C_neut=6
x_1440m_NetTaker_neut=6
x_15m_PremiumDiff_neut=6
x_1m_H2L_Vol=6
x_120m_H2L_Vol=5
x_120m_NetTaker_neut=5
x_120m_PremiumDiff_neut=5
x_1440m_PremiumDiff=5
x_15m_OI_Chg=5
x_1m_L2C_neut=5
x_1m_O2L_neut=5
x_240m_OI_Chg=5
x_240m_PremiumDiff=5
x_30m_OI_Chg_neut=5
x_60m_PremiumDiff_neut=5
x_60m_Vol_neut=5
x_720m_H2L_Vol=5
x_120m_L2C_neut=4
x_120m_O2H_neut=4
x_120m_OI_Chg_neut=4
x_240m_C2VWAP_neut=4
x_30m_O2H_neut=4
x_30m_OI_Chg=4
x_5m_O2L_neut=4
x_5m_OI_Chg=4
x_5m_PremiumDiff=4
x_5m_RatioSkew_neut=4
x_720m_O2H=4
x_120m_CrowdingPressure_neut=3
x_120m_O2L_neut=3
x_15m_H2C=3
x_15m_O2H_neut=3
x_15m_O2L=3
x_1m_H2C_neut=3
x_480m_H2L_Vol=3
x_5m_H2L_Vol_neut=3
x_5m_O2C_neut=3
x_5m_O2L=3
x_60m_Close_Diff_Rate=3
x_60m_O2H_neut=3
x_720m_O2L_neut=3
x_15m_O2L_neut=2
x_15m_OI_Chg_neut=2
x_1m_H2C=2
x_1m_O2H_neut=2
x_240m_PremiumDiff_neut=2
x_30m_O2L=2
x_30m_PremiumDiff_neut=2
x_480m_PremiumDiff=2
x_60m_OI_Price_Ratio=2
x_60m_PremiumDiff=2
x_720m_Close_Diff_Rate_neut=2
x_120m_PremiumDiff=1
x_1440m_EffRatio=1
x_1m_Premium_neut=1
x_240m_O2H=1
x_30m_PremiumDiff=1
x_480m_Close_Diff_Rate=1
x_480m_PremiumDiff_neut=1
x_5m_O2C=1
x_60m_O2L=1

parameters:
[boosting: gbdt]
[objective: regression]
[metric: rmse]
[tree_learner: serial]
[device_type: cpu]
[data_sample_strategy: bagging]
[data: ]
[valid: ]
[num_iterations: 4000]
[learning_rate: 0.01]
[num_leaves: 127]
[num_threads: 0]
[seed: 42]
[deterministic: 0]
[force_col_wise: 0]
[force_row_wise: 0]
[histogram_pool_size: -1]
[max_depth: -1]
[min_data_in_leaf: 20]
[min_sum_hessian_in_leaf: 0.001]
[bagging_fraction: 0.4]
[pos_bagging_fraction: 1]
[neg_bagging_fraction: 1]
[bagging_freq: 1]
[bagging_seed: 400]
[bagging_by_query: 0]
[feature_fraction: 0.2]
[feature_fraction_bynode: 1]
[feature_fraction_seed: 30056]
[extra_trees: 0]
[extra_seed: 12879]
[early_stopping_round: 0]
[early_stopping_min_delta: 0]
[first_metric_only: 0]
[max_delta_step: 0]
[lambda_l1: 0]
[lambda_l2: 0]
[linear_lambda: 0]
[min_gain_to_split: 0]
[drop_rate: 0.1]
[max_drop: 50]
[skip_drop: 0.5]
[xgboost_dart_mode: 0]
[uniform_drop: 0]
[drop_seed: 17869]
[top_rate: 0.2]
[other_rate: 0.1]
[min_data_per_group: 100]
[max_cat_threshold: 32]
[cat_l2: 10]
[cat_smooth: 10]
[max_cat_to_onehot: 4]
[top_k: 20]
[monotone_constraints: ]
[monotone_constraints_method: basic]
[monotone_penalty: 0]
[feature_contri: ]
[forcedsplits_filename: ]
[refit_decay_rate: 0.9]
[cegb_tradeoff: 1]
[cegb_penalty_split: 0]
[cegb_penalty_feature_lazy: ]
[cegb_penalty_feature_coupled: ]
[path_smooth: 0]
[interaction_constraints: ]
[verbosity: -1]
[saved_feature_importance_type: 0]
[use_quantized_grad: 0]
[num_grad_quant_bins: 4]
[quant_train_renew_leaf: 0]
[stochastic_rounding: 1]
[linear_tree: 0]
[max_bin: 255]
[max_bin_by_feature: ]
[min_data_in_bin: 3]
[bin_construct_sample_cnt: 200000]
[data_random_seed: 175]
[is_enable_sparse: 1]
[enable_bundle: 1]
[use_missing: 1]
[zero_as_missing: 0]
[feature_pre_filter: 0]
[pre_partition: 0]
[two_round: 0]
[header: 0]
[label_column: ]
[weight_column: ]
[group_column: ]
[ignore_column: ]
[categorical_feature: ]
[forcedbins_filename: ]
[precise_float_parser: 0]
[parser_config_file: ]
[objective_seed: 16083]
[num_class: 1]
[is_unbalance: 0]
[scale_pos_weight: 1]
[sigmoid: 1]
[boost_from_average: 1]
[reg_sqrt: 0]
[alpha: 0.9]
[fair_c: 1]
[poisson_max_delta_step: 0.7]
[tweedie_variance_power: 1.5]
[lambdarank_truncation_level: 30]
[lambdarank_norm: 1]
[label_gain: ]
[lambdarank_position_bias_regularization: 0]
[eval_at: ]
[multi_error_top_k: 1]
[auc_mu_weights: ]
[num_machines: 1]
[local_listen_port: 12400]
[time_out: 120]
[machine_list_filename: ]
[machines: ]
[gpu_platform_id: -1]
[gpu_device_id: -1]
[gpu_use_dp: 0]
[num_gpu: 1]

end of parameters

pandas_categorical:[]
