tree
version=v4
num_class=1
num_tree_per_iteration=1
label_index=0
max_feature_idx=165
objective=regression
feature_names=x_120m_C2VWAP_neut x_120m_Close_Diff_Rate x_120m_Close_Diff_Rate_neut x_120m_CrowdingPressure_neut x_120m_H2C x_120m_H2C_neut x_120m_H2L_Vol x_120m_L2C x_120m_L2C_neut x_120m_NetTaker_neut x_120m_O2H x_120m_O2H_neut x_120m_O2L x_120m_O2L_neut x_120m_OI_Chg x_120m_OI_Chg_neut x_120m_PremiumDiff x_120m_PremiumDiff_neut x_120m_Vol x_120m_VolDiff_neut x_120m_Vol_neut x_1440m_Close_Diff_Rate_neut x_1440m_EffRatio x_1440m_EffRatio_neut x_1440m_H2C x_1440m_H2C_neut x_1440m_L2C x_1440m_L2C_neut x_1440m_NetTaker_neut x_1440m_O2C_neut x_1440m_O2H x_1440m_O2H_neut x_1440m_O2L x_1440m_O2L_neut x_1440m_OI_Chg x_1440m_OI_Chg_neut x_1440m_OI_Price_Ratio_neut x_1440m_PctB x_1440m_PctB_neut x_1440m_Premium x_1440m_PremiumDiff x_1440m_PremiumDiff_neut x_1440m_RVol x_1440m_RatioSkewDiff_neut x_15m_H2C x_15m_H2C_neut x_15m_H2L_Vol x_15m_L2C x_15m_O2H x_15m_O2H_neut x_15m_O2L x_15m_O2L_neut x_15m_OI_Chg x_15m_OI_Chg_neut x_15m_PremiumDiff x_15m_PremiumDiff_neut x_15m_RatioSkewDiff_neut x_1m_C2VWAP x_1m_C2VWAP_neut x_1m_H2C x_1m_H2C_neut x_1m_H2L_Vol x_1m_H2L_Vol_neut x_1m_L2C x_1m_L2C_neut x_1m_O2H_neut x_1m_O2L x_1m_O2L_neut x_1m_Premium x_1m_PremiumDiff x_1m_PremiumDiff_neut x_1m_Premium_neut x_240m_C2VWAP_neut x_240m_EffRatio_neut x_240m_NetTaker_neut x_240m_O2C x_240m_O2H x_240m_O2H_neut x_240m_O2L x_240m_O2L_neut x_240m_OI_Chg x_240m_OI_Chg_neut x_240m_OI_P_Corr x_240m_PctB_neut x_240m_PremiumDiff x_240m_PremiumDiff_neut x_30m_L2C_neut x_30m_O2C x_30m_O2H x_30m_O2H_neut x_30m_O2L x_30m_O2L_neut x_30m_OI_Chg x_30m_OI_Chg_neut x_30m_PremiumDiff x_30m_PremiumDiff_neut x_480m_Close_Diff_Rate x_480m_EffRatio x_480m_EffRatio_neut x_480m_H2C_neut x_480m_H2L_Vol x_480m_L2C x_480m_L2C_neut x_480m_NetTaker_neut x_480m_O2C_neut x_480m_O2H_neut x_480m_O2L x_480m_O2L_neut x_480m_OI_Chg x_480m_PremiumDiff x_480m_PremiumDiff_neut x_480m_RatioSkewDiff_neut x_5m_C2VWAP x_5m_C2VWAP_neut x_5m_H2C x_5m_H2C_neut x_5m_H2L_Vol_neut x_5m_L2C x_5m_L2C_neut x_5m_O2C x_5m_O2C_neut x_5m_O2H x_5m_O2H_neut x_5m_O2L x_5m_O2L_neut x_5m_OI_Chg x_5m_PctB_neut x_5m_PremiumDiff x_5m_PremiumDiff_neut x_5m_Premium_neut x_5m_RVol x_5m_RVol_neut x_5m_RatioSkew_neut x_5m_WhaleGap x_60m_Close_Diff_Rate x_60m_EffRatio x_60m_EffRatio_neut x_60m_H2C x_60m_H2L_Vol_neut x_60m_O2H x_60m_O2H_neut x_60m_O2L x_60m_O2L_neut x_60m_OI_Chg x_60m_OI_Chg_neut x_60m_OI_Price_Ratio x_60m_PremiumDiff x_60m_PremiumDiff_neut x_60m_Vol_neut x_720m_Close_Diff_Rate_neut x_720m_EffRatio x_720m_H2C_neut x_720m_H2L_Vol x_720m_O2C_neut x_720m_O2H x_720m_O2H_neut x_720m_O2L x_720m_O2L_neut x_720m_OI_Chg_neut x_720m_OI_Price_Ratio x_720m_OI_Price_Ratio_neut x_720m_OI_XSkew x_720m_OI_Z x_720m_OI_Z_neut x_720m_PremiumDiff x_720m_PremiumDiff_neut
feature_infos=[-5.278132129656032:5.3074849848250167] [-0.28717691148630375:1.0570054717293984] [-5.3070828932310432:5.3698854756024001] [-4.6176485185175693:5.1199865198209418] [-2897.1530865623372:0] [-5.356587908069212:3.1384790366105904] [11.89465983906457:11734.387138176782] [0:10950.788664842772] [-3.2948454427408755:5.3787518727408994] [-4.3980697561564561:4.8599139727278056] [0:11608.126259234383] [-2.8578909888294288:5.3842752395470788] [-3128.0174427659244:0] [-5.3787197962922777:3.7402533891308063] [-2965.4033534596392:20194.405099872954] [-5.202177228966562:5.3731306130670049] [-0.11614755000000002:0.10735568000000001] [-5.3844896359168848:5.3844198749219947] [-3.0451080505986723:13.970326420447298] [-5.0837830432688227:5.2234429369019955] [-4.6488589767574302:5.2759797386506744] [-4.6258056616003973:5.3564733706974978] [0:0.20636256522471003] [-3.9579833586812523:4.7519467865696043] [-5112.5180465966432:0] [-5.3262601992461649:3.0939666642073105] [0:44937.002341920379] [-3.2765283601020996:5.3717431159593101] [-4.1040890584648295:4.1058651412602938] [-4.5909181802700694:5.3562597432490833] [0:45557.392643594852] [-2.9573632511768948:5.3537965981317504] [-5146.4320087996703:0] [-5.3451846447501001:3.2530938810236512] [-5120.9636566665531:107335.45863608173] [-4.3918454399243121:5.3815087329423292] [-5.3791254639467887:5.3847492888410926] [-2.1047570713590327:3.8856532520352784] [-5.1011892464960873:5.2261185625358708] [-0.052603552944444437:0.0016908716250000001] [-0.13849446000000001:0.15659154] [-5.3845970043408862:5.3841355614891127] [2.0193546456001275:173.55029648120444] [-4.6584532386859347:4.7160167831618196] [-1932.3101141282962:0] [-5.3466889370373964:3.8297794839007868] [1.1967653143218904:2979.214350843893] [0:2338.3390089134527] [0:2681.371524148024] [-3.3383872567386788:5.3772731390469817] [-2281.8734111766994:0] [-5.3748309913171957:3.781279196479824] [-1527.0158277078017:3940.1844621719006] [-5.3505425565607103:5.356945294840755] [-0.054113170000000002:0.039715739999999999] [-5.3833233891735128:5.3760278596579223] [-5.3489325462002482:5.3234712864936355] [-140.82288450633308:568.96268447554462] [-5.3045630976204565:5.3755108007035881] [-556.01351908334038:0] [-5.3726330811080532:3.2701345747712218] [0:2513.8576275741589] [-3.2653003664650933:5.375349875541553] [0:2245.7755232304244] [-3.1531331661535669:5.3807755208349395] [-3.3661914818398384:5.3779459848799558] [-801.24516061525594:0] [-5.3718191391605554:3.0887848197470014] [-0.16376476000000001:0.020769180000000002] [-0.017107560000000001:0.023352919999999999] [-5.3527988873367462:5.3713541654687713] [-5.3849037621506941:5.3273595623811554] [-5.299059649991487:5.2995640364844858] [-3.8218726311562619:5.0230511516638572] [-4.2520058361924038:4.6932687012240599] [-3398.2401598845281:10510.200707601762] [0:11592.899567128621] [-3.0778376257338809:5.3826174012950192] [-4785.5715316715705:0] [-5.3815440599697864:3.4511676433511966] [-3858.1641048547376:21265.159773976422] [-5.075676963835809:5.3555601878322774] [-0.95813338613807164:0.99471900917511791] [-4.6389260094807749:5.1129269203913443] [-0.13855336000000001:0.16661252999999998] [-5.3848503316559357:5.3843628010210347] [-3.0884512716639692:5.3839306492861301] [-2001.9074041962904:2706.925754276248] [0:2730.0053976585327] [-2.9278513812738955:5.3735531198707411] [-2468.4661957618569:0] [-5.3692281016590471:3.9178992933450152] [-2516.9798670172695:4928.1019267438287] [-5.3430994128828804:5.3568683992671868] [-0.067092349999999995:0.054603430000000008] [-5.3834024293486653:5.3819374033672034] [-0.37673459908262197:2.2345744804096483] [0:0.30218135158254955] [-4.0055051761285476:4.9119285273215345] [-5.2761034180803295:3.0647960446694973] [31.33850614201128:24639.344262295086] [0:22614.008036632091] [-3.2948454427408755:5.3817073937431674] [-4.3342334520599497:4.1559058584181363] [-4.9138096366268904:5.3719669228689977] [-2.6335421477959717:5.3847192830508543] [-4731.6833765687452:0] [-5.2760972993349817:3.484734425349818] [-4330.9332163672252:51254.152986145855] [-0.15344265000000001:0.12756050999999999] [-5.384733834613221:5.384371890229227] [-4.8938242037202118:4.9542435351351619] [-624.85949598053537:641.84833790688072] [-5.3069761900330867:5.3333694419018602] [-1220.9580265799791:0] [-5.3646717924750362:3.3477213225056164] [-3.197552210427165:5.3605968704867548] [0:2311.9532542979714] [-3.2469587078589304:5.3725592548452248] [-1206.6653897720746:2183.1550802139031] [-5.2911636956698054:5.3701484197545684] [0:2580.7622504537208] [-3.1131856297457614:5.3780460970763189] [-1435.2866676408983:0] [-5.3650437316575115:3.6260555101861969] [-1463.0028673727368:4138.5157006948893] [-5.2115451036382918:5.2560922539697454] [-0.032938110000000007:0.033387729999999997] [-5.3660248160061412:5.3784089586640338] [-5.3849924591477087:5.327632068327846] [0:808.83327116703424] [-3.8391868326839051:5.3709733340084993] [-4.3313531137316863:3.3844422419765401] [-1.9054462379999997:2.4633130679999988] [-0.28756226589952505:0.44981842893244717] [0:0.86177311725452599] [-4.1258903857540767:4.9859661679379226] [-2895.6488255679637:0] [-3.3905889697243907:5.3471907489366357] [0:7451.5227944566486] [-3.2882876467027558:5.3782198277618152] [-3120.2494640420973:0] [-5.364197967919786:3.5829739581816846] [-2743.6244200173742:12472.275647645236] [-5.2919944673739492:5.3549849592447574] [-645616845.48910034:478957749.48452473] [-0.10138917:0.06261926000000001] [-5.3842294357286802:5.3841201770829397] [-4.6721727900899159:5.2772121360513751] [-4.8966013877382455:5.3662077534738852] [0:0.25319614147909952] [-5.2151223858062172:3.0645857065252806] [53.73895618908886:32085.948477751761] [-4.9164696696626038:5.3660962449576806] [0:29285.370759006644] [-2.8434955449679378:5.3795392050091602] [-4843.8229078033655:0] [-5.3403520381375218:3.3259527084719722] [-4.8074678779512752:5.3791287878981446] [-2422334175.9390712:26.814175355557424] [-5.385164807134502:5.3839024703154585] [-24.042328364816974:23.289016366374128] [-11.438647765340434:11.210664495814749] [-4.6929156101106582:5.0069857933422304] [-0.14179854:0.17549065999999999] [-5.3847825491919536:5.3848145394391453]
tree_sizes=2815 2834 2863 2849

Tree=0
num_leaves=31
num_cat=0
split_feature=35 32 73 18 39 25 78 145 138 82 95 42 15 22 52 18 15 22 37 32 101 44 49 3 15 32 73 134 131 60
split_gain=2.92709e+06 7.98037e+06 4.43704e+06 2.63173e+06 4.30723e+06 5.25685e+06 2.73998e+06 2.44999e+06 2.33494e+06 2.27598e+06 2.25612e+06 2.25024e+06 1.88294e+06 3.04966e+06 2.97198e+06 2.22005e+06 2.23966e+06 1.32609e+06 1.86847e+06 1.84719e+06 1.50625e+06 1.20426e+06 2.71816e+06 4.55137e+06 2.15898e+06 2.12986e+06 1.56744e+06 1.9906e+06 1.69762e+06 1.31916e+06
threshold=4.7116172461346295 -1589.3241365603515 3.4145373575159028 -1.098408315238153 0.00085291626041666675 -0.95991273925644804 -1053.5678730177976 -0.15794357869204836 4.280436458661268 0.81238658957940757 -3.8127163590783479 46.974911773200354 3.2529647703725884 0.095528931278016108 106.74770543484426 0.98041173015907024 0.63217038084424637 0.052918559869242626 0.78744808228957586 -458.0973919835829 1972.3823410005605 -357.07560630379879 4.134727408775726 0.86307741858501463 -3.2657285800242044 -1225.0422041594991 2.8032030805118899 0.068904944464300746 3.0420873787300753 -3.6894698377659121
decision_type=2 2 2 2 2 2 2 2 2 2 2 2 2 2 2 2 2 2 2 2 2 2 2 2 2 2 2 2 2 2
left_child=21 -2 3 11 6 -6 8 -4 -5 17 -11 -3 15 -14 -15 -12 -17 18 -8 -19 -21 22 24 29 25 -1 27 -26 -28 -24
right_child=1 2 7 4 5 -7 9 -9 -10 10 12 -13 13 14 -16 16 -18 19 -20 20 -22 -23 23 -25 26 -27 28 -29 -30 -31
leaf_value=4.9583714653638236 5.3780598866661951 0.42733177927086025 5.9401592198128013 4.3901699236420031 -0.18777040389505678 -5.8813840009384126 -0.50441786902564734 1.5767262477548027 0.21301772606073252 3.3988356472792303 0.49991666371736149 4.5128329593327869 -1.2490839810284737 -0.66777454105114342 3.6767011379090184 4.635099325144016 0.99913697518115918 2.2071159200842647 -3.8417001395514627 0.012213890120153725 -2.8546024244639043 0.20406748759630119 -1.1031379331399132 6.0749604495837479 0.26797318743930237 0.53981124742699005 4.1582933574164285 -2.3632626191787685 0.22575846186110246 1.9593183673576977
leaf_weight=20 36 26 22 32 50 24 62 31 23 31 137 28 104 31 32 32 36 34 23 144 21 238157 22 23 691 24 21 30 23 39
leaf_count=20 36 26 22 32 50 24 62 31 23 31 137 28 104 31 32 32 36 34 23 144 21 238157 22 23 691 24 21 30 23 39
internal_value=0.207654 0.759019 0.578862 0.407733 0.266247 -2.03435 0.495686 3.38796 2.64336 0.323747 0.806931 2.54574 0.590939 -0.197313 1.53894 1.23308 2.71018 -0.361898 -1.40745 0.0846939 -0.352654 0.205442 0.571982 2.28415 0.394204 2.54825 0.270311 0.15849 2.10265 0.854826
internal_weight=240009 959 923 870 816 74 742 53 55 687 403 54 372 167 63 205 68 284 85 199 165 239050 893 84 809 44 765 721 44 61
internal_count=240009 959 923 870 816 74 742 53 55 687 403 54 372 167 63 205 68 284 85 199 165 239050 893 84 809 44 765 721 44 61
is_linear=0
shrinkage=1


Tree=1
num_leaves=31
num_cat=0
split_feature=138 13 75 27 75 157 20 60 133 100 103 43 76 98 100 135 27 65 5 110 163 134 98 100 10 23 161 61 94 2
split_gain=4.77614e+06 7.32431e+06 3.33992e+06 6.24277e+06 3.0192e+06 5.6845e+06 7.84934e+06 6.14447e+06 2.87247e+06 2.87993e+06 2.5986e+06 2.18826e+06 1.97679e+06 1.8839e+06 2.1069e+06 1.8216e+06 1.68655e+06 1.63222e+06 1.35381e+06 1.34704e+06 1.16919e+06 1.13593e+06 2.75159e+06 4.98275e+06 4.20194e+06 4.01433e+06 4.17394e+06 3.63726e+06 1.17978e+06 1.17818e+06
threshold=4.280436458661268 1.6754193457505251 -881.39297292577783 3.8994989193908451 958.24526502196102 -1.2263045611486707 4.1184342248074453 -4.4876873783435949 0.0094854300000000186 2934.4307128100595 0.77350025000288658 0.26017584857037385 294.4849161476904 -0.70800823633987109 3566.0413014748351 0.10489510489510594 3.5775486454405421 1.9481055870197748 -0.37837476395768133 -3.7673001355500371 2.2543669943434756 0.053440073346816004 2.6374055378690073 3566.0413014748351 1033.6175392172722 2.8056356537476632 2.5127877865373209 119.42608959390812 -0.0011736299999999999 4.0540542840993279
decision_type=2 2 2 2 2 2 2 2 2 2 2 2 2 2 2 2 2 2 2 2 2 2 2 2 2 2 2 2 2 2
left_child=21 2 3 12 13 6 7 -6 9 18 -9 -10 -2 15 19 -4 -17 -11 -7 -15 -19 29 23 25 -25 -23 -27 28 -24 -1
right_child=1 -3 4 -5 5 8 -8 10 11 17 -12 -13 -14 14 -16 16 -18 20 -20 -21 -22 22 27 24 -26 26 -28 -29 -30 -31
leaf_value=-0.004041110142648123 -0.64648562403286203 6.042082171058655 -1.2844745555131332 7.3675916900634766 5.8278320357913058 1.5249473131539528 6.6909327159056797 2.2351422077676526 3.7945845570102814 -0.037481502532958982 -2.002936752025898 0.48300899360861094 3.2557386680727918 1.7434387050975455 -2.7186031569374935 0.39057586451939175 3.4733628133932752 -1.8136656585106483 -1.0995193265279135 -0.3719009509031001 -5.029686975955963 0.13756927594466606 2.8829438345772878 -0.46488498323794569 -5.9640856536229458 6.4343914213634674 0.051166511535644527 4.1274604934301129 0.32133739221572877 -0.55202662796919588
leaf_weight=237395 34 25 23 20 21 57 37 23 31 25 39 56 21 33 36 35 36 26 30 343 20 1178 21 33 24 21 20 39 125 393
leaf_count=237395 34 25 23 20 21 57 37 23 31 25 39 56 21 33 36 35 36 26 30 343 20 1178 21 33 24 21 20 39 125 393
internal_value=-0.000398157 0.699524 0.558336 2.58322 0.383977 1.07719 2.86036 1.15275 0.2038 -0.599681 -0.430746 1.663 0.843455 -0.116067 -0.40752 1.16136 1.95368 -2.09417 0.619959 -0.186246 -3.21194 -0.00323881 0.274745 0.109501 -2.78034 0.244629 3.32062 1.41449 0.689788 -0.00494678
internal_weight=240220 971 946 75 871 365 120 83 245 158 62 87 55 506 412 94 71 71 87 376 46 239249 1461 1276 57 1219 41 185 146 237788
internal_count=240220 971 946 75 871 365 120 83 245 158 62 87 55 506 412 94 71 71 87 376 46 239249 1461 1276 57 1219 41 185 146 237788
is_linear=0
shrinkage=0.01


Tree=2
num_leaves=31
num_cat=0
split_feature=122 111 9 157 8 95 6 18 140 15 39 83 32 139 8 75 148 44 127 72 120 22 23 111 100 161 103 152 127 105
split_gain=2.06835e+06 4.30412e+06 3.61568e+06 5.4898e+06 2.26057e+06 2.05882e+06 1.79568e+06 6.72463e+06 8.24386e+06 3.45637e+06 2.52289e+06 2.38909e+06 1.7176e+06 3.83213e+06 2.67383e+06 2.23451e+06 1.78652e+06 1.80177e+06 1.51085e+06 1.52327e+06 1.41873e+06 1.34488e+06 1.68685e+06 1.25861e+06 1.52961e+06 1.19829e+06 1.18223e+06 1.55443e+06 3.39491e+06 1.64785e+06
threshold=4.6167679555743391 3.2130497604711183 2.1726042495407412 -0.52108888181905766 4.6112140451996444 1.6702902039791454 1822.2788180134464 0.61895332550120197 3.5160347669542187 -0.050556099337662364 0.00072615665277777784 -1.2855100089328062 -671.22353248986065 613.68330040404987 4.1159766832897224 958.24526502196102 3.9858294775989509 -90.336689350340436 0.00040223500000000008 3.7639004027804748 2.1383828071346467 0.033532566145404598 1.0721590092682063 0.53796410759303381 3566.0413014748351 -3.0458291896254122 2.2958701984421919 3211.7840049507413 0.0010057800000000002 4.2138945640047281
decision_type=2 2 2 2 2 2 2 2 2 2 2 2 2 2 2 2 2 2 2 2 2 2 2 2 2 2 2 2 2 2
left_child=4 2 12 -4 6 26 -1 8 9 10 -8 -9 13 15 -15 25 18 -18 21 -20 -13 -14 -23 -7 -25 -2 27 -6 29 -29
right_child=1 -3 3 -5 5 23 7 11 -10 -11 -12 20 16 14 -16 -17 17 -19 19 -21 -22 22 -24 24 -26 -27 -28 28 -30 -31
leaf_value=-0.00077149162084733406 2.2322768081318247 4.9491102055140903 7.0307086868286142 0.49630607644716895 -0.080493583065853275 -0.72136399340629587 0.86918967026930594 2.5267092300716203 8.7192248239517216 -1.7366345413871436 5.4703935293717816 0.093118364571413981 0.058784778470525878 -0.042568990389506026 -3.5878871996586139 3.4901212062835691 4.1080426265575269 0.69071382070063725 0.15606723999464384 -2.198449900089166 -1.7680272216796875 3.4775970452831637 0.87165252490997325 -1.6258100914055447 -4.8148426310221355 -0.21805250821002695 1.525000315694248 -3.2646828963820425 2.314476042247954 -0.76702511825561537
leaf_weight=237321 22 21 20 36 379 80 26 38 20 23 22 456 148 36 52 20 27 36 93 39 45 31 125 53 21 215 34 56 21 50
leaf_count=237321 22 21 20 36 379 80 26 38 20 23 22 456 148 36 52 20 27 36 93 39 45 31 125 53 21 215 34 56 21 50
internal_value=0.000807125 0.47379 0.369366 2.83002 -0.00101825 -0.570915 0.000643889 0.533818 3.04824 1.45077 2.97807 0.109306 0.2061 -0.336439 -2.13753 0.280277 0.581202 2.15528 0.353754 -0.539586 -0.0740504 0.741652 1.3895 -1.59084 -2.53081 0.00940422 -0.280049 -0.401337 -1.35881 -2.08654
internal_weight=239566 921 900 56 238645 694 237951 630 91 71 48 539 844 345 88 257 499 63 436 132 501 304 156 154 74 237 540 506 127 106
internal_count=239566 921 900 56 238645 694 237951 630 91 71 48 539 844 345 88 257 499 63 436 132 501 304 156 154 74 237 540 506 127 106
is_linear=0
shrinkage=0.01


Tree=3
num_leaves=31
num_cat=0
split_feature=48 160 106 107 147 133 64 73 145 26 133 36 8 128 85 85 145 124 55 107 30 101 158 30 132 73 143 133 111 75
split_gain=4.47308e+06 7.44143e+06 3.2032e+06 2.83102e+06 3.08361e+06 4.67181e+06 3.29779e+06 2.91141e+06 2.21551e+06 2.06884e+06 1.83216e+06 1.80644e+06 1.77826e+06 1.56701e+06 1.6914e+06 1.75964e+06 1.81098e+06 2.24118e+06 1.6691e+06 1.42859e+06 3.87876e+06 2.07808e+06 1.42043e+06 1.28145e+06 2.88246e+06 4.55872e+06 3.40184e+06 3.06485e+06 4.46866e+06 3.47626e+06
threshold=437.572300243494 -2.9183930775040321 -292.65875041210637 0.85620038518476804 -0.35121084715509154 -0.048278927000000131 2.0282413286226224 1.6464609035941158 -0.16596919988951073 1440.0436753151694 -0.12211781199999981 -0.89180050980648295 1.8548482743290207 1.8336584592875085 0.64391662130479477 -2.7592332678944684 -0.12532314306610995 -0.16886513231873351 0.77894242819163528 -1.5220324657444955 2508.5371989522578 2455.4617058940589 0.86835947434550931 3561.6340934544637 1.0989228651023875 3.4145373575159028 -642.73891524184046 0.031225262999999896 1.200693766941116 -705.26789446942507
decision_type=2 2 2 2 2 2 2 2 2 2 2 2 2 2 2 2 2 2 2 2 2 2 2 2 2 2 2 2 2 2
left_child=23 -2 3 4 5 6 10 -8 22 -10 -3 -6 -4 14 15 -14 17 -17 -16 21 -21 -13 -7 -1 27 26 -26 29 -29 -25
right_child=1 2 12 -5 11 8 7 -9 9 -11 -12 19 13 -15 18 16 -18 -19 -20 20 -22 -23 -24 24 25 -27 -28 28 -30 -31
leaf_value=-0.002703365432095638 5.9747231681530302 0.2271796290576458 -1.4458383459191431 4.6162638686952135 2.2769429926872253 0.71793370056152339 8.2618553657531741 2.9901616269891913 1.6152662264733086 -1.1921003215270383 3.8822467255592348 -0.3155768021984377 2.426016872547291 -1.6567267906038385 4.2430105504122642 -0.79974324438307021 -1.2289430999213999 3.4481930863338968 0.3015781923702785 -0.43996632139221958 3.3062045605977377 -3.9082563849857879 4.4867913665771484 1.7307646585955763 2.9329713781126618 5.1389813821212105 0.40362220268166027 0.086909268815522689 1.8901455444023934 -0.66825545552406429
leaf_weight=236126 26 32 88 21 35 20 20 22 42 70 24 69 27 38 22 27 88 23 21 119 36 21 20 66 58 23 639 906 162 712
leaf_count=236126 26 32 88 21 35 20 20 22 42 70 24 69 27 38 22 27 88 23 21 119 36 21 20 66 58 23 639 906 162 712
internal_value=0.00238133 0.701768 0.546856 1.01526 0.872576 1.67981 3.38229 5.50049 0.582162 -0.139338 1.79364 0.151829 -0.225866 0.210547 0.551684 0.0913384 -0.365447 1.15431 2.31812 -0.151758 0.430112 -1.15387 2.60236 -0.000287967 0.22198 0.758644 0.614099 0.012663 0.360434 -0.46474
internal_weight=239603 911 885 551 530 250 98 42 152 112 56 280 334 246 208 165 138 50 43 245 155 90 40 238692 2566 720 697 1846 1068 778
internal_count=239603 911 885 551 530 250 98 42 152 112 56 280 334 246 208 165 138 50 43 245 155 90 40 238692 2566 720 697 1846 1068 778
is_linear=0
shrinkage=0.01


end of trees

feature_importances:
x_120m_OI_Chg_neut=4
x_1440m_O2L=4
x_240m_EffRatio_neut=4
x_240m_O2C=4
x_480m_H2L_Vol=4
x_5m_WhaleGap=4
x_120m_L2C_neut=3
x_120m_Vol=3
x_1440m_EffRatio=3
x_480m_RatioSkewDiff_neut=3
x_60m_OI_Price_Ratio=3
x_1440m_EffRatio_neut=2
x_1440m_L2C_neut=2
x_1440m_O2H=2
x_1440m_Premium=2
x_15m_H2C=2
x_1m_H2C_neut=2
x_240m_PremiumDiff_neut=2
x_30m_PremiumDiff_neut=2
x_480m_EffRatio_neut=2
x_480m_L2C=2
x_480m_NetTaker_neut=2
x_480m_O2L_neut=2
x_5m_PremiumDiff=2
x_60m_Close_Diff_Rate=2
x_60m_H2L_Vol_neut=2
x_720m_O2L_neut=2
x_720m_OI_XSkew=2
x_120m_Close_Diff_Rate_neut=1
x_120m_CrowdingPressure_neut=1
x_120m_H2C_neut=1
x_120m_H2L_Vol=1
x_120m_NetTaker_neut=1
x_120m_O2H=1
x_120m_O2L_neut=1
x_120m_Vol_neut=1
x_1440m_H2C_neut=1
x_1440m_L2C=1
x_1440m_OI_Chg_neut=1
x_1440m_OI_Price_Ratio_neut=1
x_1440m_PctB=1
x_1440m_RVol=1
x_1440m_RatioSkewDiff_neut=1
x_15m_O2H=1
x_15m_O2H_neut=1
x_15m_OI_Chg=1
x_15m_PremiumDiff_neut=1
x_1m_H2L_Vol=1
x_1m_L2C_neut=1
x_1m_O2H_neut=1
x_240m_C2VWAP_neut=1
x_240m_O2H=1
x_240m_O2L=1
x_240m_OI_P_Corr=1
x_240m_PctB_neut=1
x_30m_PremiumDiff=1
x_480m_O2H_neut=1
x_480m_O2L=1
x_480m_PremiumDiff_neut=1
x_5m_O2C_neut=1
x_5m_O2H_neut=1
x_5m_O2L_neut=1
x_5m_PremiumDiff_neut=1
x_5m_RVol_neut=1
x_5m_RatioSkew_neut=1
x_60m_EffRatio=1
x_60m_O2H=1
x_60m_O2H_neut=1
x_60m_OI_Chg=1
x_60m_PremiumDiff_neut=1
x_60m_Vol_neut=1
x_720m_H2L_Vol=1
x_720m_OI_Chg_neut=1
x_720m_OI_Price_Ratio_neut=1
x_720m_OI_Z_neut=1

parameters:
[boosting: gbdt]
[objective: regression]
[metric: rmse]
[tree_learner: serial]
[device_type: cpu]
[data_sample_strategy: bagging]
[data: ]
[valid: ]
[num_iterations: 4000]
[learning_rate: 0.01]
[num_leaves: 31]
[num_threads: 0]
[seed: 42]
[deterministic: 0]
[force_col_wise: 0]
[force_row_wise: 0]
[histogram_pool_size: -1]
[max_depth: -1]
[min_data_in_leaf: 20]
[min_sum_hessian_in_leaf: 0.001]
[bagging_fraction: 0.4]
[pos_bagging_fraction: 1]
[neg_bagging_fraction: 1]
[bagging_freq: 1]
[bagging_seed: 400]
[bagging_by_query: 0]
[feature_fraction: 0.4]
[feature_fraction_bynode: 1]
[feature_fraction_seed: 30056]
[extra_trees: 0]
[extra_seed: 12879]
[early_stopping_round: 0]
[early_stopping_min_delta: 0]
[first_metric_only: 0]
[max_delta_step: 0]
[lambda_l1: 0]
[lambda_l2: 0]
[linear_lambda: 0]
[min_gain_to_split: 0]
[drop_rate: 0.1]
[max_drop: 50]
[skip_drop: 0.5]
[xgboost_dart_mode: 0]
[uniform_drop: 0]
[drop_seed: 17869]
[top_rate: 0.2]
[other_rate: 0.1]
[min_data_per_group: 100]
[max_cat_threshold: 32]
[cat_l2: 10]
[cat_smooth: 10]
[max_cat_to_onehot: 4]
[top_k: 20]
[monotone_constraints: ]
[monotone_constraints_method: basic]
[monotone_penalty: 0]
[feature_contri: ]
[forcedsplits_filename: ]
[refit_decay_rate: 0.9]
[cegb_tradeoff: 1]
[cegb_penalty_split: 0]
[cegb_penalty_feature_lazy: ]
[cegb_penalty_feature_coupled: ]
[path_smooth: 0]
[interaction_constraints: ]
[verbosity: -1]
[saved_feature_importance_type: 0]
[use_quantized_grad: 0]
[num_grad_quant_bins: 4]
[quant_train_renew_leaf: 0]
[stochastic_rounding: 1]
[linear_tree: 0]
[max_bin: 255]
[max_bin_by_feature: ]
[min_data_in_bin: 3]
[bin_construct_sample_cnt: 200000]
[data_random_seed: 175]
[is_enable_sparse: 1]
[enable_bundle: 1]
[use_missing: 1]
[zero_as_missing: 0]
[feature_pre_filter: 0]
[pre_partition: 0]
[two_round: 0]
[header: 0]
[label_column: ]
[weight_column: ]
[group_column: ]
[ignore_column: ]
[categorical_feature: ]
[forcedbins_filename: ]
[precise_float_parser: 0]
[parser_config_file: ]
[objective_seed: 16083]
[num_class: 1]
[is_unbalance: 0]
[scale_pos_weight: 1]
[sigmoid: 1]
[boost_from_average: 1]
[reg_sqrt: 0]
[alpha: 0.9]
[fair_c: 1]
[poisson_max_delta_step: 0.7]
[tweedie_variance_power: 1.5]
[lambdarank_truncation_level: 30]
[lambdarank_norm: 1]
[label_gain: ]
[lambdarank_position_bias_regularization: 0]
[eval_at: ]
[multi_error_top_k: 1]
[auc_mu_weights: ]
[num_machines: 1]
[local_listen_port: 12400]
[time_out: 120]
[machine_list_filename: ]
[machines: ]
[gpu_platform_id: -1]
[gpu_device_id: -1]
[gpu_use_dp: 0]
[num_gpu: 1]

end of parameters

pandas_categorical:[]
