tree
version=v4
num_class=1
num_tree_per_iteration=1
label_index=0
max_feature_idx=165
objective=regression
feature_names=x_120m_C2VWAP_neut x_120m_Close_Diff_Rate x_120m_Close_Diff_Rate_neut x_120m_CrowdingPressure_neut x_120m_H2C x_120m_H2C_neut x_120m_H2L_Vol x_120m_L2C x_120m_L2C_neut x_120m_NetTaker_neut x_120m_O2H x_120m_O2H_neut x_120m_O2L x_120m_O2L_neut x_120m_OI_Chg x_120m_OI_Chg_neut x_120m_PremiumDiff x_120m_PremiumDiff_neut x_120m_Vol x_120m_VolDiff_neut x_120m_Vol_neut x_1440m_Close_Diff_Rate_neut x_1440m_EffRatio x_1440m_EffRatio_neut x_1440m_H2C x_1440m_H2C_neut x_1440m_L2C x_1440m_L2C_neut x_1440m_NetTaker_neut x_1440m_O2C_neut x_1440m_O2H x_1440m_O2H_neut x_1440m_O2L x_1440m_O2L_neut x_1440m_OI_Chg x_1440m_OI_Chg_neut x_1440m_OI_Price_Ratio_neut x_1440m_PctB x_1440m_PctB_neut x_1440m_Premium x_1440m_PremiumDiff x_1440m_PremiumDiff_neut x_1440m_RVol x_1440m_RatioSkewDiff_neut x_15m_H2C x_15m_H2C_neut x_15m_H2L_Vol x_15m_L2C x_15m_O2H x_15m_O2H_neut x_15m_O2L x_15m_O2L_neut x_15m_OI_Chg x_15m_OI_Chg_neut x_15m_PremiumDiff x_15m_PremiumDiff_neut x_15m_RatioSkewDiff_neut x_1m_C2VWAP x_1m_C2VWAP_neut x_1m_H2C x_1m_H2C_neut x_1m_H2L_Vol x_1m_H2L_Vol_neut x_1m_L2C x_1m_L2C_neut x_1m_O2H_neut x_1m_O2L x_1m_O2L_neut x_1m_Premium x_1m_PremiumDiff x_1m_PremiumDiff_neut x_1m_Premium_neut x_240m_C2VWAP_neut x_240m_EffRatio_neut x_240m_NetTaker_neut x_240m_O2C x_240m_O2H x_240m_O2H_neut x_240m_O2L x_240m_O2L_neut x_240m_OI_Chg x_240m_OI_Chg_neut x_240m_OI_P_Corr x_240m_PctB_neut x_240m_PremiumDiff x_240m_PremiumDiff_neut x_30m_L2C_neut x_30m_O2C x_30m_O2H x_30m_O2H_neut x_30m_O2L x_30m_O2L_neut x_30m_OI_Chg x_30m_OI_Chg_neut x_30m_PremiumDiff x_30m_PremiumDiff_neut x_480m_Close_Diff_Rate x_480m_EffRatio x_480m_EffRatio_neut x_480m_H2C_neut x_480m_H2L_Vol x_480m_L2C x_480m_L2C_neut x_480m_NetTaker_neut x_480m_O2C_neut x_480m_O2H_neut x_480m_O2L x_480m_O2L_neut x_480m_OI_Chg x_480m_PremiumDiff x_480m_PremiumDiff_neut x_480m_RatioSkewDiff_neut x_5m_C2VWAP x_5m_C2VWAP_neut x_5m_H2C x_5m_H2C_neut x_5m_H2L_Vol_neut x_5m_L2C x_5m_L2C_neut x_5m_O2C x_5m_O2C_neut x_5m_O2H x_5m_O2H_neut x_5m_O2L x_5m_O2L_neut x_5m_OI_Chg x_5m_PctB_neut x_5m_PremiumDiff x_5m_PremiumDiff_neut x_5m_Premium_neut x_5m_RVol x_5m_RVol_neut x_5m_RatioSkew_neut x_5m_WhaleGap x_60m_Close_Diff_Rate x_60m_EffRatio x_60m_EffRatio_neut x_60m_H2C x_60m_H2L_Vol_neut x_60m_O2H x_60m_O2H_neut x_60m_O2L x_60m_O2L_neut x_60m_OI_Chg x_60m_OI_Chg_neut x_60m_OI_Price_Ratio x_60m_PremiumDiff x_60m_PremiumDiff_neut x_60m_Vol_neut x_720m_Close_Diff_Rate_neut x_720m_EffRatio x_720m_H2C_neut x_720m_H2L_Vol x_720m_O2C_neut x_720m_O2H x_720m_O2H_neut x_720m_O2L x_720m_O2L_neut x_720m_OI_Chg_neut x_720m_OI_Price_Ratio x_720m_OI_Price_Ratio_neut x_720m_OI_XSkew x_720m_OI_Z x_720m_OI_Z_neut x_720m_PremiumDiff x_720m_PremiumDiff_neut
feature_infos=[-5.3495323200422646:5.2950845960410842] [-0.18951870802686277:0.87223665715381005] [-5.2231750834362884:5.3661867800553988] [-5.1247904526445094:4.9641534875682618] [-2762.9166949555297:0] [-5.325179285653495:2.7767417460715995] [10.200548261434239:11592.505854800938] [0:10587.587822014051] [-3.9861010213412498:5.381279156490451] [-4.134986954060512:4.3753337640776193] [0:9726.1446298673527] [-2.769440594713021:5.3845059019657393] [-2268.5053741634565:0] [-5.3570553127754339:3.7402533891308063] [-3412.7547003618574:13800.781354335184] [-5.2295006041243424:5.3576011576632965] [-0.10901545000000001:0.10964072] [-5.3843975925636425:5.3841130240469974] [-3.075077251808318:14.716515653818] [-5.1333570874167469:5.2573827380450151] [-4.6557322684276476:5.266907756991432] [-5.040674573802729:5.3600884103962887] [0:0.23253478697460947] [-2.9212089783950739:4.8589180558972647] [-4708.2494969818908:0] [-5.230580102841297:2.6030768660959125] [0:46564.40281030444] [-4.1351363525859606:5.3691206431853633] [-4.0755246799139533:3.6363282692670302] [-5.0483141561631815:5.3616179809359075] [0:44509.587020648971] [-2.4512570798498898:5.3559018067518078] [-4821.6862502576787:0] [-5.2919326795592712:3.1184997374284249] [-5525.0702642733195:102929.83300033865] [-4.6170234443707932:5.3810866423886816] [-5.3842865277373768:5.3843095867615993] [-2.3535577720124463:3.5368049306451659] [-4.3534006184837475:5.2049979796258352] [-0.052623290666666676:0.0013800820069444445] [-0.1295095:0.13164745999999999] [-5.3847375469607393:5.3840890708859055] [1.8528245714349909:140.26151709908149] [-4.3696846669935692:4.704656398219262] [-1586.8192580899765:0] [-5.3657261989261276:3.3929646158905964] [1.7265360523310846:3049.6967502489379] [0:1970.1818455630437] [0:2990.8984410200956] [-3.3383872567386788:5.3732841197269376] [-1792.6227321237998:0] [-5.3681806642949708:3.321810220264283] [-1928.2589193447009:3028.0074536692391] [-5.3505425565607103:5.356945294840755] [-0.031830659999999997:0.040759789999999997] [-5.3727512980414289:5.3761527566107548] [-5.3361557109265449:5.3664842690171888] [-139.4893516525797:153.73653185930536] [-5.251628880898175:5.2818564319242576] [-433.40105726363265:0] [-5.3689723522673232:3.465131139401195] [0:845.62563580874883] [-3.1129230220669637:5.3742089102806636] [0:531.44316044074321] [-3.4164973652509132:5.3806660978801348] [-3.0730288253328961:5.3802213140618411] [-779.69281275647836:0] [-5.3751856226191626:3.4339547494790752] [-0.14881435000000001:0.012073179999999999] [-0.036136520000000005:0.021005070000000001] [-5.3741810011180666:5.3680933519678362] [-5.3846765007309108:5.2425196335998088] [-5.2234267691627689:5.3294937673892644] [-3.8242510365518894:5.1177402643134693] [-4.3017551694665741:4.5892484463797709] [-2533.6083892040574:11229.383632056495] [0:12285.752875762555] [-2.7927463122206162:5.3848640510663222] [-2756.7474643286914:0] [-5.3678453256629073:3.5099072401492291] [-3805.2704187094687:25573.389712881166] [-4.9180149311929746:5.3697653745962839] [-0.96800140934956835:0.99455791463620513] [-4.6784627971279793:5.2871813620492683] [-0.14458483000000003:0.15723668000000002] [-5.3847927654310546:5.3848215053879072] [-3.9861010213412498:5.3698386462374454] [-1738.4227862817281:3268.4556243935203] [0:4614.8391430917354] [-2.8342410811629493:5.3847530542508126] [-2236.447834377554:0] [-5.3657923615098913:3.4041384024181998] [-2967.8658152450789:5109.1036352406081] [-5.3501466835197986:5.3599582303441045] [-0.056925550000000005:0.053965630000000007] [-5.3810019578759603:5.3810954837530502] [-0.3079086791003468:1.7134312675544061] [0:0.35167286245353352] [-3.5603061936461882:4.9909164205557328] [-5.3149984096979059:2.9451350038247277] [28.716630812988253:21046.135762562444] [0:18186.264220645651] [-3.9861010213412498:5.3829705193869319] [-4.3767058413018267:4.2794323422480094] [-5.0803915735140865:5.3662653786516428] [-2.6457478800579524:5.3830044424816688] [-3317.122159283248:0] [-5.2997532547882074:3.4527601829273769] [-4286.9854438709635:41976.595796854956] [-0.14430969000000002:0.14562652999999998] [-5.3845152657669386:5.3843266941970285] [-4.8938242037202118:4.942317812025002] [-369.12140693079022:461.73797871382317] [-5.2592547296099568:5.2882137768525173] [-1275.6659267480586:0] [-5.3678414158243832:3.3938532200119034] [-3.7633135492978913:5.3529649200835605] [0:1154.7671840354767] [-3.9861010213412498:5.3714043903375055] [-881.00827875942196:1108.4614025790484] [-5.2642963305142061:5.346120881955601] [0:2732.7327327327343] [-3.0653570214953487:5.3851019026313702] [-1411.5999638630406:0] [-5.3822605437018058:3.4200293785248035] [-1281.5043270223525:1485.5432134152059] [-5.2632209816573443:5.1698635132009381] [-0.021852220000000002:0.035360300000000004] [-5.3451050146310894:5.381767054792947] [-5.3848759554115979:5.3617221214679844] [0:539.12654549782008] [-3.8391868326839051:5.3392313196665508] [-3.2871203845469266:3.2491603137572174] [-1.901811092:1.3471515580000002] [-0.22754447624913943:0.58765211566372666] [0:0.71478200451624241] [-3.9083855583229341:4.7223058178314377] [-2338.4604326888516:0] [-3.321746057413268:5.3458992298248793] [0:7517.2784003220831] [-2.4714720475458103:5.3849038809800289] [-2543.2320690275033:0] [-5.3592782896706925:3.5365318328121687] [-3264.4053559345521:9639.4047212144724] [-5.3077639253832842:5.3618728355830365] [-737893805.56701791:1036035239.0243896] [-0.069203690000000012:0.079161630000000011] [-5.3832244738968784:5.3843062134383075] [-4.3618315702548518:5.288492788142598] [-4.9092375625002891:5.3629364172569991] [0:0.27295652650622293] [-5.239398036002525:2.7277300118840353] [40.515777617133878:32085.948477751761] [-4.9000451222361807:5.3642972532440885] [0:31819.556920785628] [-2.938526051168354:5.3799295328195225] [-3411.8653993423131:0] [-5.289876255618104:3.3901387894438155] [-4.7779149403008416:5.3777968114372809] [-1872218877.469408:502239234.42645121] [-5.3851648071345029:5.3851648071345037] [-25.518381996781841:38.206757435679009] [-11.094698991913347:10.605389252991554] [-4.4923881414497489:5.0027761305234941] [-0.14635555:0.14865937000000001] [-5.3846618992979076:5.3846989426962901]
tree_sizes=10750 10860 10800 10846

Tree=0
num_leaves=127
num_cat=0
split_feature=116 96 84 49 84 84 82 59 42 101 3 28 17 49 82 21 59 52 43 127 43 84 3 61 32 7 7 7 44 96 18 32 84 8 17 161 161 161 52 27 28 82 101 8 42 61 120 161 161 21 96 52 61 50 27 17 32 52 96 59 61 110 82 160 44 61 96 84 123 32 161 32 110 52 119 49 49 43 43 7 127 21 119 82 42 96 82 18 161 21 42 27 32 161 52 161 61 28 32 40 123 84 28 7 8 3 52 52 61 59 50 52 42 43 18 84 160 160 50 42 123 123 49 52 84 40
split_gain=1.31726e+06 2.72223e+06 5.07409e+06 1.06773e+06 1.08176e+06 871001 980803 860582 755313 1.43123e+06 2.9399e+06 2.59531e+06 1.84453e+06 1.81166e+06 1.03577e+06 1.03125e+06 1.00644e+06 943459 875206 864860 795139 784277 782940 1.11353e+06 1.70466e+06 1.87299e+06 849304 645880 1.26552e+06 1.52117e+06 1.10494e+06 2.10322e+06 592683 585593 595191 635876 575685 573076 568219 992627 1.00561e+06 642169 700866 634430 623071 548446 544570 531862 639607 1.13134e+06 707635 861368 518683 614917 654397 522453 556662 513098 545106 477794 745729 470469 469694 561317 457389 456714 449435 444235 434988 430655 510893 659685 581380 577535 465101 484279 752764 443273 487500 415148 410743 406783 406438 397408 688418 1.01587e+06 631059 596681 395722 395362 389962 388182 387846 374129 372332 369148 368602 448222 365667 343754 340897 317520 449551 317469 502172 345927 343522 399564 315807 304035 300987 292825 354042 291286 295876 290978 284217 277168 273314 270018 578433 269561 267399 267292 266358 396030
threshold=4.254933970012087 0.19318649846191641 -0.00015002499999999995 4.0937596652255985 0.0012084500000000002 -0.0025468099999999996 0.60792470970992019 -9.6122205102544527 40.00212761963099 2223.934874759922 -0.19702007571820684 2.0165429023007602 1.141586228592921 1.4002834872707457 0.91269866241397624 4.3132488075502531 -20.058292574782197 265.63967153269925 -2.103950369556121 -0.00010465499999999997 0.18115483062149293 0.00042672000000000006 0.67617937332776223 108.75230527175206 -821.84130360500581 684.98693176522704 588.79871162749635 498.24616586950037 -165.86719408668122 0.19318649846191641 -0.39810799501042859 -233.83184725815349 7.5805000000000024e-05 4.5344913755194396 -3.0204922430883188 0.49978737468032913 -1.0858260018168433 -3.3490444210511252 232.77855013410067 0.36821831039274738 0.77098760066390393 0.89377100801280041 1123.9676469405938 2.5934853125143484 35.134690711851171 135.86451778886845 3.7577451798610269 2.8150037488398829 2.2379624807361274 0.76103954693931752 -0.040385352058361627 94.168921218671386 87.590257279351889 -182.0695067257133 0.54906645294640843 -2.1143034668433986 -153.39319393951163 418.97424479879436 0.074953614132908811 -58.357487072310803 81.749521485028353 2.2793842199421452 0.92392371112160709 -0.83584633355421978 -239.02147808568915 70.329506787514276 -0.065483421321318833 -0.00049742999999999988 -134.05890682901153 -8.1954617845497726 -1.3992785408353972 -778.92650318324979 0.43718176267964098 210.81283428696199 105.67418734483637 -0.29018868988107388 -0.32324980184579416 -0.63035787633609541 0.58566379512927946 37.574852552978442 -0.00050486499999999985 -0.88579892548846895 -21.045321871036581 0.96158689453989343 29.738778122237211 0.0794966634787624 0.93164037631964158 2.4590606129605326 1.0473633326588982 0.303611693231222 40.00212761963099 4.6723962578261036 -470.85629237264612 -1.9962112831484229 119.89628571467571 0.70625271269919854 87.590257279351889 0.7133483116997833 -224.33669847092938 0.0027976350000000006 -124.13985806567494 -0.0019502649999999999 -1.3466531618848874 759.68823816262591 1.5150646658679121 0.79987092731244747 130.53885341147046 -118.65232163384142 24.915444229808298 -10.48050243226961 -19.643034615673404 -114.66932090753276 40.00212761963099 -2.3261012630880225 0.26599765394043001 -8.9854999999999999e-05 -2.2641275667962284 -0.037865405591845071 -48.872943528593389 29.738778122237211 -34.587641940497782 -68.126414462545398 2.626359566701947 17.053481415292286 0.00083285 0.00037024500000000006
decision_type=2 2 2 2 2 2 2 2 2 2 2 2 2 2 2 2 2 2 2 2 2 2 2 2 2 2 2 2 2 2 2 2 2 2 2 2 2 2 2 2 2 2 2 2 2 2 2 2 2 2 2 2 2 2 2 2 2 2 2 2 2 2 2 2 2 2 2 2 2 2 2 2 2 2 2 2 2 2 2 2 2 2 2 2 2 2 2 2 2 2 2 2 2 2 2 2 2 2 2 2 2 2 2 2 2 2 2 2 2 2 2 2 2 2 2 2 2 2 2 2 2 2 2 2 2 2
left_child=8 3 -3 7 5 -5 -7 62 27 15 11 17 14 -14 19 18 20 98 36 -12 -17 -16 23 33 25 66 -26 101 29 83 31 -30 91 34 35 -20 -10 80 45 40 88 42 -41 -44 59 81 69 48 50 -50 103 52 53 54 -52 -55 118 58 -8 -43 109 -18 63 -2 -56 121 -25 -53 -9 70 71 73 -73 -36 75 76 -72 -76 -79 95 -24 94 -54 84 87 123 -87 -29 -40 -89 -64 -22 -69 -74 108 -77 99 -98 -11 116 -83 102 -1 104 105 -39 107 -107 -32 -61 -96 -65 122 -104 -115 -60 -81 -46 -57 -116 -121 -49 -113 -86 125 -102
right_child=1 2 -4 4 -6 6 57 68 9 10 12 -13 13 -15 21 16 61 -19 22 -21 32 -23 37 24 26 -27 -28 28 30 -31 38 -33 -34 -35 46 -37 -38 47 39 41 -42 44 43 -45 117 -47 -48 65 49 -51 51 67 82 55 64 56 -58 -59 115 60 -62 -63 90 111 -66 -67 -68 92 -70 -71 74 72 93 -75 77 79 -78 78 -80 96 -82 100 -84 -85 85 86 -88 89 -90 -91 -92 -93 -94 -95 110 -97 97 -99 -100 -101 124 -103 113 -105 -106 106 -108 -109 -110 -111 -112 112 -114 114 119 -117 -118 -119 -120 120 -122 -123 -124 -125 -126 -127
leaf_value=1.6355910291414844 -1.4238071291729235 5.5093710604226178 -0.079239595766578907 2.5197624759356971 2.9781439947004693 2.14907298633611 -0.34836217403588238 2.1325370041488667 -2.3125778970206201 -0.99506879031803752 -0.20033333847339591 -4.8723600794653166 0.14086353847539218 4.2160186081444797 -0.33890531291357257 2.8632340945065429 0.48639087123543101 -2.968447823473257 2.2546806997285209 -2.7331527557594462 1.0541788067945324 2.1075768013512675 -2.1411323765287928 2.1532714302336751 0.90834630152994245 4.6422135244155083 -1.5689320596182765 -0.60873740863697567 0.56967202300836095 2.9488210696424035 -1.0963866696342253 3.5633990699482778 1.9945009459558938 -1.4308999816208954 0.081818212074762031 0.19461141128816581 -0.42692170743869301 -0.59487129365249669 -0.084179348963617728 -0.19102638354742735 2.7916558601800752 0.91411086537169628 -0.091374393411916555 2.2237589662669439 -2.3688339399986584 -1.197320534323185 -1.4227334122372661 0.61286565495324297 -0.14646735008110695 2.624589014801479 0.27041253414684108 0.029687554472181604 2.0232157534702773 1.5884460126844056 -0.71281198260119716 0.34018684695010831 -1.2274599620954048 -1.0683734144498491 0.36590197109621275 -0.45338711870598786 -1.7890685518335387 -1.4362480728114069 -0.38637837326823427 -0.64455276420557706 -2.7296630924753043 -1.8782358788931788 0.36379630074463332 -0.95913066938364722 0.14190228235734439 -1.1632701240110297 0.28639953094996939 0.62019511650353498 1.1553631455615738 1.7901291777516077 -0.43322433108930009 -1.5395746779074149 2.2752088389554945 2.0879808053641042 0.32308549597534575 -0.66644157814192617 -0.45328112547355154 1.3195092461621343 0.11824614690398964 0.2260188740331408 1.3504066835078252 1.5627583641155711 4.0447604096448009 1.8195343132133859 1.3481452177168223 0.35015712363718299 -2.3157221202338159 -0.63981801446124131 -2.5113366188057324 3.0214150356891603 1.6403242626702368 0.0068897046116296046 0.25770066537843705 -1.4864987904092561 0.64161103253718021 -0.93888846010808358 0.43069116449511058 0.23827694494686025 -0.72850830780672871 -0.74615513224248287 1.8720609686153249 1.386730916392364 1.7357294021598442 0.062920253585284275 -0.02889482929504722 0.47871071654226816 -0.054685442083519775 0.89051884604287301 1.6797602653148624 0.27790403888074777 0.50220419562514418 1.9940074725041281 0.15852337765414043 -0.75919968886021971 -0.36601437039021861 0.51985862689371709 2.4357987028047252 -0.69351758740616631 -0.68706737971860665 0.14131226803381672 0.71742680073616949 0.06238595865466845
leaf_weight=31 24 32 33 23 24 27 45 23 20 43 28 23 24 20 38 29 35 20 29 26 31 20 21 25 31 21 25 38 123 34 33 29 34 22 197 31 85 30 62 96 21 28 20 29 23 23 21 22 34 26 27 31 21 21 23 174 35 31 21 137 36 20 22 24 22 25 32 60 21 23 393 67 21 22 20 33 20 34 29 44 46 40 24 107 41 21 20 30 28 47 20 24 22 22 22 29 26 34 20 32 1208 112746 22 20 26 30 22 95 173 47 20 22 22 383 144 23 821 20 80 40 26 56 21 33 214 385
leaf_count=31 24 32 33 23 24 27 45 23 20 43 28 23 24 20 38 29 35 20 29 26 31 20 21 25 31 21 25 38 123 34 33 29 34 22 197 31 85 30 62 96 21 28 20 29 23 23 21 22 34 26 27 31 21 21 23 174 35 31 21 137 36 20 22 24 22 25 32 60 21 23 393 67 21 22 20 33 20 34 29 44 46 40 24 107 41 21 20 30 28 47 20 24 22 22 22 29 26 34 20 32 1208 112746 22 20 26 30 22 95 173 47 20 22 22 383 144 23 821 20 80 40 26 56 21 33 214 385
internal_value=0.241102 0.776377 2.67208 0.462839 0.990748 0.710175 0.427042 -0.0518059 0.239063 0.0971504 -0.614832 -1.8999 0.258352 1.99321 -0.423198 0.152421 0.904448 -1.0762 0.11179 -1.41984 1.42518 0.504709 0.142232 0.251463 1.13355 2.08923 -0.197582 0.24349 0.383867 0.93288 0.311562 1.14084 0.956595 0.191463 0.209786 1.19031 -0.786094 -0.0892098 0.264264 -0.0230648 0.821205 -0.238005 0.305676 1.27881 -0.508911 0.33847 0.178625 -0.0245903 0.0601934 1.05432 -0.017982 -0.213685 -0.0082273 -0.127849 -0.960363 0.0655085 -0.0451548 0.0395853 0.425504 -0.316234 -0.472823 -0.212751 -0.402179 -0.0665744 -1.69883 -0.702037 1.14865 -0.990061 1.18246 0.196637 0.213599 0.570784 1.20261 0.253429 0.136032 0.0938492 0.38271 0.863811 1.27557 -0.0232258 -0.982309 0.35533 1.00723 0.729491 0.963715 1.51081 2.77349 0.416621 0.361433 0.922642 -1.30511 0.31498 -1.37558 2.11009 -0.0249441 -0.816228 0.0281495 -0.730679 -0.475488 0.0789073 0.40639 0.239544 0.460613 0.455918 0.574349 0.383725 0.583438 0.380635 -0.199901 -0.215297 0.833177 0.299421 0.647965 0.401386 0.443305 1.21696 0.11656 -1.62017 0.117761 0.744964 1.27462 -0.325051 0.12007 0.811216 0.386178 0.341678
internal_weight=120675 458 65 393 194 170 147 199 120217 3637 262 106 156 44 112 3375 173 83 3202 54 118 58 3097 2104 134 78 56 116580 3188 371 2817 152 89 1970 1948 60 105 993 2665 547 111 436 145 49 291 2118 1888 926 823 60 763 540 427 382 72 310 289 120 89 248 220 55 155 113 45 103 57 113 44 1867 1844 329 110 219 1515 1432 413 83 63 1019 67 2095 45 337 230 115 41 115 90 77 42 55 82 43 248 62 957 60 63 897 1847 113392 646 223 203 177 147 125 206 184 42 89 65 615 593 44 865 43 254 210 66 78 43 74 1807 1593
internal_count=120675 458 65 393 194 170 147 199 120217 3637 262 106 156 44 112 3375 173 83 3202 54 118 58 3097 2104 134 78 56 116580 3188 371 2817 152 89 1970 1948 60 105 993 2665 547 111 436 145 49 291 2118 1888 926 823 60 763 540 427 382 72 310 289 120 89 248 220 55 155 113 45 103 57 113 44 1867 1844 329 110 219 1515 1432 413 83 63 1019 67 2095 45 337 230 115 41 115 90 77 42 55 82 43 248 62 957 60 63 897 1847 113392 646 223 203 177 147 125 206 184 42 89 65 615 593 44 865 43 254 210 66 78 43 74 1807 1593
is_linear=0
shrinkage=1


Tree=1
num_leaves=127
num_cat=0
split_feature=108 43 157 27 24 12 111 134 23 101 90 86 23 94 27 100 122 111 101 12 60 12 60 86 43 128 23 94 61 150 122 150 100 134 43 2 134 86 27 12 90 133 101 100 23 150 122 2 5 128 43 94 74 134 122 74 90 12 27 75 43 101 24 157 2 157 74 90 95 133 74 65 27 133 133 65 24 127 2 75 74 108 64 23 134 2 127 135 24 23 27 135 94 2 2 122 134 24 157 108 76 157 74 134 61 76 2 117 108 2 23 23 157 127 24 5 64 95 5 101 43 128 65 135 27 101
split_gain=986608 1.84775e+06 1.50464e+06 1.45489e+06 1.22442e+06 1.22937e+06 1.0988e+06 976268 816904 687594 2.34278e+06 1.85154e+06 1.31035e+06 1.33034e+06 915122 5.86278e+06 2.83256e+06 1.16546e+06 1.60627e+06 2.49449e+06 685185 670876 895285 737579 516311 484250 467329 461928 438273 4.42666e+06 576366 1.17603e+06 705605 993895 589737 1.15795e+06 546358 519745 615710 429518 410548 394156 379434 721261 682745 630146 531980 598170 1.10358e+06 1.12244e+06 523422 532532 516037 509428 474485 459593 379001 344177 588880 956608 454112 320412 1.65725e+06 896077 853074 919625 614382 407351 371383 366320 535011 389341 355283 403974 318712 328425 318044 316677 406005 313086 371208 352576 514683 372034 310090 300395 293081 289966 398645 289126 322058 317803 532208 362026 315024 290939 287184 272632 699326 527963 436278 499487 541278 329657 321144 506289 813686 343062 353778 340423 307835 282840 373828 296662 267434 380476 263929 263671 257997 507985 328692 278443 268793 258796 257564 424915
threshold=3738.6182569404132 3.1186189522990708 0.58776982111620579 0.8906839190350534 -900.56002186404851 -304.0971374480128 0.36174247644312346 0.036071433030884344 2.3609654513610465 2223.934874759922 -195.90789407334492 2.1167343650712698 2.4792925435731292 -0.00012953499999999999 4.6723962578261036 2395.9271535974431 3.7022200528036819 0.21902170624387848 979.55859868377308 -153.35941617532487 -2.4441784902268107 -68.252355405911672 -2.4441784902268107 0.95478861597403875 1.2950868932753536 -0.64378432235571847 3.0165285751316433 0.00099288499999999999 77.016215626102294 0.00072897589750321875 4.5431764406046105 0.025066087848920185 1201.6147487923936 0.036071433030884344 -1.5145405580630065 1.5803654188793235 0.0052065489822368258 -0.90720996659562958 0.75344535535132418 -165.58532709238679 -227.28364397213537 -0.023482715000000206 1271.8789904757257 2200.6790242836628 2.6182384084275108 0.065476043627101868 2.6269793788064395 2.0997583533464175 0.85978888098955009 0.70893694434589305 -0.29336673684011788 0.00092245000000000011 1.1234696382812588 0.04052075873006112 1.3143913578536883 2.1752450100476621 -134.68174276274388 -84.097208578183796 2.1092315326898148 -43.442864119826446 0.4860126641281638 1381.6037296085417 -18.017556710318015 -0.16667232825747999 1.7215471630097519 0.018455026106196152 1.2954294560845625 -255.76903784251311 1.6977764403221876 0.074867825000000124 0.28775934037754719 0.84349294041961531 0.47228906031693163 -0.12682456999999989 0.018967428000000178 0.66261837244709598 -225.15994011218729 0.00030537500000000004 -0.94743709906864482 755.69306013145058 1.8679735494051888 272.40710253087838 1.2707923873724043 2.3609654513610465 0.04052075873006112 1.645495967935656 -5.5714999999999998e-05 0.075812274368230889 -502.74559183885452 1.0966187048256886 -0.017883875283156301 0.24314132052845142 -4.0650000000000085e-06 2.5557077380249251 2.3885604740481634 -0.096223531503427107 0.0043974004423057442 -867.85196242315169 1.1227713618441431 598.04227602567437 346.37906817159285 -3.5912298671025265 1.2473916855958038 -0.018507889170998489 61.456873999117263 294.30381902086805 -0.16589871065810038 78.363128496915522 -1779.8782088044084 -2.138834176172145 -0.49479543763758366 -1.0670434417576613 -2.2616488573937823 1.0549999999999953e-05 -115.68409343715334 -0.83309992026260127 1.0347813415877314 -1.1115007774691354 -1.9119958648188657 783.10450058162303 0.1892630125689761 -3.0291315079005594 1.1621961860347321 0.14546583355850204 3.8607461176699442 395.59885931491851
decision_type=2 2 2 2 2 2 2 2 2 2 2 2 2 2 2 2 2 2 2 2 2 2 2 2 2 2 2 2 2 2 2 2 2 2 2 2 2 2 2 2 2 2 2 2 2 2 2 2 2 2 2 2 2 2 2 2 2 2 2 2 2 2 2 2 2 2 2 2 2 2 2 2 2 2 2 2 2 2 2 2 2 2 2 2 2 2 2 2 2 2 2 2 2 2 2 2 2 2 2 2 2 2 2 2 2 2 2 2 2 2 2 2 2 2 2 2 2 2 2 2 2 2 2 2 2 2
left_child=9 3 -3 -2 -5 7 8 -6 -7 14 11 41 24 -14 28 17 -17 20 40 -20 56 22 -8 -24 27 -23 -27 74 61 -30 34 -32 33 -33 35 36 -31 38 -36 -34 -19 -11 44 50 46 54 55 48 52 -50 86 114 76 -49 -45 57 -16 58 84 -60 -61 79 63 67 77 -66 69 -63 72 70 -67 -71 73 -69 75 -12 -48 78 -65 97 81 82 -81 89 118 -47 -44 -22 -89 90 -83 92 93 -91 -94 -92 -25 98 100 117 104 102 103 -102 124 107 -107 109 -109 -106 -105 112 113 -103 115 -52 -72 -100 119 120 123 -120 -123 -39 -1 -126
right_child=1 2 -4 4 5 6 21 -9 -10 10 12 -13 13 -15 15 16 -18 18 19 -21 87 25 23 96 -26 26 -28 -29 29 30 31 32 39 -35 37 -37 -38 42 -40 -41 -42 -43 43 45 -46 85 47 53 49 -51 51 -53 -54 -55 -56 -57 -58 -59 59 60 -62 62 -64 64 65 66 -68 68 -70 71 116 -73 -74 -75 -76 -77 -78 -79 -80 80 -82 83 -84 -85 -86 -87 -88 88 -90 91 95 -93 94 -95 -96 -97 -98 -99 99 -101 101 111 -104 110 105 106 -108 108 -110 -111 -112 -113 -114 -115 -116 -117 -118 -119 121 -121 -122 122 -124 -125 125 -127
leaf_value=-0.024266514439362084 2.4789988807395655 0.76546951228174664 4.2335695500807331 1.7489026749439729 -0.45603230843177212 0.090768381754557287 1.6703602702828015 -3.0905790250951597 2.4526304765045643 -1.8022971076965331 0.91984569968848395 -3.8935073089599612 -0.10646854743361474 3.4972273417881561 -2.8534373292922974 5.404438012838364 0.96076900775615981 0.78823764899681348 4.6874013843536373 0.15759145505966679 -1.0391685781807736 -2.2314153258800506 0.70652735807678924 -2.0011548633575438 1.1548814377784729 -1.1318870625370427 0.65053155541419982 -1.8509059342094092 4.7022222332727344 -0.10331066927277899 2.4448366932138321 -0.33496972759564719 0.19582688497460407 2.6439663541884646 0.20749339430672781 2.9217402353286741 1.4911348671748721 0.3636626806259155 1.9197880515654882 -1.8079342632293702 -0.60777810926561227 -0.17690249932778848 0.19578443813323976 -0.8718930885791778 1.4016126410166423 -0.89033345222473148 -0.17709891397412084 0.24844769306671924 0.57945939478666886 3.8186461477279665 0.533303861618042 -1.4523849513612945 1.4346474870045982 -1.6032662010192871 -2.717580106808589 -1.5015378223765981 -0.97119489918584412 -0.36760895352547501 -0.14798110802173614 2.9882356006503108 0.92790572645871539 0.8144580548173852 2.7166524766921998 1.380814082545619 2.9442899613153366 1.7122342416975231 -0.72088944816589362 -0.10657391969547715 -1.1123726868021246 0.78780538483099505 0.56861017189117091 2.6691507434844972 -0.32882395181197899 1.5129018946488699 -1.1417945851220026 -0.61276347420833732 0.99079107087233964 -0.35287496085260428 0.15171398963373486 -0.014236683982317564 -1.2452054539848778 -0.95103672158458963 1.8343190732002259 0.53353975983766411 0.70886509265539788 0.55676615384908823 1.9077445676624774 1.1235374124844868 -0.7630811351821537 -0.42097226368056406 -0.52607610752185185 -1.397466733303476 -0.31373731672763827 -2.0271016477501913 1.329491708934307 0.19055595552612997 -0.43221452610833305 0.0017731417376447862 0.5175755681530122 -1.6874964321020878 0.48758673531668528 -1.910302404054889 -2.137047758517058 -1.5242961224642668 1.1357064045307248 2.5948340233889491 -0.19209969365596771 1.0383716199398041 -0.36768575337353876 0.19605301386988835 -0.31450906301366871 -0.078283147446076798 -0.24637978510628653 -0.38228369941314067 0.71207923437037124 -0.90677022401676621 -0.92462234401702892 -0.45337382142777211 0.9399705687813138 1.7393927705855599 0.59392201633164377 -0.054396161642218138 -0.44207093106439482 -0.82031762952605891 -0.17469514751434326 1.730848135514693
leaf_weight=13890 27 29 22 39 39 27 34 22 32 25 29 29 20 21 20 32 26 29 20 31 29 20 44 20 20 38 24 23 21 83 31 24 23 21 70 20 29 30 30 20 77 37 20 30 36 32 119 39 23 20 32 29 33 24 26 22 23 269 50 20 23 36 25 31 21 27 25 43 49 22 29 22 313 24 27 27 29 102 202 61 34 46 20 52 53 26 20 24 21 36 84 47 28 23 20 174 28 97639 31 33 28 27 23 33 43 22 20 20 170 373 58 1958 234 24 41 43 20 286 23 21 66 573 260 48 25 22
leaf_count=13890 27 29 22 39 39 27 34 22 32 25 29 29 20 21 20 32 26 29 20 31 29 20 44 20 20 38 24 23 21 83 31 24 23 21 70 20 29 30 30 20 77 37 20 30 36 32 119 39 23 20 32 29 33 24 26 22 23 269 50 20 23 36 25 31 21 27 25 43 49 22 29 22 313 24 27 27 29 102 202 61 34 46 20 52 53 26 20 24 21 36 84 47 28 23 20 174 28 97639 31 33 28 27 23 33 43 22 20 20 170 373 58 1958 234 24 41 43 20 286 23 21 66 573 260 48 25 22
internal_value=0.000487788 0.470475 2.26151 0.23864 0.073818 -0.125354 0.167273 -1.4062 1.37178 -0.00126066 -0.516949 -1.80785 0.186477 1.73933 -0.000145977 0.524137 3.41245 -0.0872576 0.475754 1.93399 -0.842751 -0.174389 0.283765 -0.228673 -0.318815 -0.878381 -0.441919 -0.596871 -0.00160835 0.130702 0.0912108 0.76991 0.179879 1.0552 0.0562778 0.705325 0.309537 0.0169777 0.721182 -0.736155 -0.225849 -0.832304 -0.0168783 -0.346513 0.0384618 -0.972181 0.0103395 0.403878 0.645991 2.08606 0.0390339 -0.24034 0.303876 -0.456967 -1.72882 -0.0671267 -1.84666 -0.045151 0.0291773 0.792554 1.8862 -0.00439131 0.174654 0.108867 0.402289 0.988485 0.70523 -0.20727 -0.29301 1.00234 0.581942 1.72848 -0.187355 0.473537 -0.249368 0.180909 0.0517444 0.111816 0.315242 -0.00592642 -0.229137 -0.170683 0.442197 -0.268022 -0.0369251 -0.241634 1.05176 -0.259401 0.243115 -0.359029 -0.180202 -0.71204 -0.410964 -1.04709 0.370941 -0.0427661 -1.08594 -0.00471289 -0.041277 -0.483736 -0.0321514 -0.157538 -0.732697 -0.461268 -0.0116477 0.20597 1.26772 0.132383 -0.21968 0.293181 -0.753223 -0.121125 -0.415459 -1.19123 0.0626711 -0.292339 -0.0408725 -0.358423 -0.075639 0.286429 0.0745381 -0.14543 -0.175399 -0.364941 -0.0217658 0.717261
internal_weight=120062 445 51 394 367 328 267 61 59 119617 258 91 167 41 119359 332 58 274 157 51 117 208 126 92 126 82 62 106 119027 2452 2431 119 88 45 2312 132 112 2180 100 43 106 62 2080 299 1781 114 1745 287 224 43 185 145 181 63 56 1458 43 1436 1167 93 43 116575 991 966 501 166 145 465 429 120 76 44 380 67 83 56 148 335 233 115584 625 591 81 510 1074 58 40 74 45 458 304 154 107 59 48 258 48 114959 17320 350 16970 2385 142 119 14585 648 42 606 190 416 91 2243 285 51 116 75 49 317 1021 165 144 856 833 78 13937 47
internal_count=120062 445 51 394 367 328 267 61 59 119617 258 91 167 41 119359 332 58 274 157 51 117 208 126 92 126 82 62 106 119027 2452 2431 119 88 45 2312 132 112 2180 100 43 106 62 2080 299 1781 114 1745 287 224 43 185 145 181 63 56 1458 43 1436 1167 93 43 116575 991 966 501 166 145 465 429 120 76 44 380 67 83 56 148 335 233 115584 625 591 81 510 1074 58 40 74 45 458 304 154 107 59 48 258 48 114959 17320 350 16970 2385 142 119 14585 648 42 606 190 416 91 2243 285 51 116 75 49 317 1021 165 144 856 833 78 13937 47
is_linear=0
shrinkage=0.01


Tree=2
num_leaves=127
num_cat=0
split_feature=29 111 139 9 117 105 148 111 148 6 89 83 148 6 148 147 111 149 11 89 11 22 111 122 83 105 23 25 9 135 15 122 147 146 6 105 72 140 22 72 32 122 11 31 9 111 25 139 11 148 103 140 22 139 95 75 15 25 95 25 111 25 95 146 32 100 100 146 138 29 9 15 89 103 148 9 148 75 148 100 31 75 76 146 76 148 117 105 31 86 89 148 86 76 103 31 6 86 23 138 86 117 139 32 25 29 6 31 76 6 22 140 25 117 149 75 6 146 31 117 22 89 147 15 100 117
split_gain=4.15539e+06 5.31001e+06 1.38703e+06 7.3528e+06 1.68314e+06 1.29498e+06 1.85254e+06 1.26674e+06 2.14539e+06 2.60293e+06 1.25043e+06 1.28575e+06 2.30799e+06 1.1632e+06 1.12022e+06 1.98429e+06 1.11432e+06 975981 919432 877487 853697 959178 746660 666268 745407 652238 651493 585789 542181 428271 383633 618056 565638 559081 424004 2.53311e+06 1.05442e+06 1.06684e+06 618001 754308 598872 556238 643697 518841 485487 813584 501085 487163 474118 459004 1.03287e+06 412889 661989 580533 390202 382995 597099 563040 418885 379713 378959 370281 451318 346965 553548 801716 826689 334995 324756 321028 317653 313443 311485 316850 400872 461371 362876 287188 297398 279756 246085 426929 244370 243563 496653 624674 563991 502155 631472 603188 499475 473514 442570 437556 965139 479997 608184 433208 436563 399253 579290 377598 347445 340566 476086 396276 323390 307379 303416 254740 321827 302183 250521 630742 434287 403834 369893 310791 288236 473641 364031 281445 356720 280611 489724 477760
threshold=4.316820429033748 2.7813052358227459 806.36419485099384 1.7606262404167083 33.328692395385723 4.1584911350256641 3.9600255510546294 0.21902170624387848 1.6336710694219703 1159.3829285341908 2.1494632109380474 1.8995352967279069 0.68374650421041439 1325.2101879327395 -0.20940786971981371 1.6259259071848238 0.68066819630120634 2.5172224219555215 1.2668144466494458 1.2233489566369591 1.8895467632355383 0.075890656123106651 -0.17619624218803873 0.96213355210283213 2.0517962683808997 1.6699134962585227 2.1579331357446399 0.28819128258326093 1.0949461245494467 0.12776677523928573 3.2647211317233764 4.5431764406046105 3.6203281924556339 -1.5604999999999994e-05 1052.835698393432 4.5786465503228486 2.8380682713918843 2.5570707036785598 0.034736206528800252 -1.2581230740837175 -110.96476202865023 2.955399716196859 2.5348032484462535 3.3162068673762763 -0.11508739136007333 0.4375118252523118 -2.7658409072888612 334.16342887169998 -0.2829423644591153 1.1803207257833221 0.46259149685011502 3.7580439122344256 0.020954115114196172 310.66828508277473 -3.0296315865829166 298.16932686054014 0.64461623276626623 0.22078815343741928 0.30066504260040516 0.20365919243822675 0.99024198995719359 0.087420198993200707 -1.4614006185259985 -0.00030811999999999994 -697.09957941505911 1122.702614396185 1426.2943594303758 -0.00026534499999999995 1.2404822069364516 -1.0014932064676361 0.58880177550955004 1.2944775181079098 1.5887291234243317 1.6019720512622926 1.3950791471721506 0.72216551627575143 2.7545837879236492 850.5456092259268 2.5886799022330709 1929.907044085727 0.79508995966011398 10.879822106123484 161.33944015208735 -0.00073257999999999993 1060.2943939687395 -0.74750005598316516 23.509162286549095 3.0655641109387592 1.1237132366349545 2.6068278052183644 2.9992335025106365 1.0345333455384376 0.31983419580659528 900.66776232991435 0.89280846179280371 1.9828573686324817 741.60788281725024 1.3766797679459366 0.7025104762536275 1.4085702950942196 0.60683248100757903 19.421521427998027 282.93296014099252 -2591.2001441238867 -3.8062890083720045 -1.4067696924580313 719.02908212958312 1.1668860717822815 271.69088562247873 767.04341195222969 0.049481405921185079 0.67160500828702163 -2.9304199984141097 135.27076863174673 1.1205155299373615 318.4615585027729 380.63022530094423 0.0018920600000000003 1.4176986850904638 213.4430578327862 0.097707044460047465 4.5883242716700572 -0.65856057612958174 0.21265874368584012 1568.6979761524058 92.00299528040469
decision_type=2 2 2 2 2 2 2 2 2 2 2 2 2 2 2 2 2 2 2 2 2 2 2 2 2 2 2 2 2 2 2 2 2 2 2 2 2 2 2 2 2 2 2 2 2 2 2 2 2 2 2 2 2 2 2 2 2 2 2 2 2 2 2 2 2 2 2 2 2 2 2 2 2 2 2 2 2 2 2 2 2 2 2 2 2 2 2 2 2 2 2 2 2 2 2 2 2 2 2 2 2 2 2 2 2 2 2 2 2 2 2 2 2 2 2 2 2 2 2 2 2 2 2 2 2 2
left_child=2 7 30 4 16 6 13 10 9 14 17 12 26 23 18 29 22 -2 19 -9 -15 25 -4 71 -25 -22 -12 -27 -10 -16 34 32 51 -33 83 36 38 -38 40 48 44 42 49 -37 45 47 -46 79 -40 80 -51 54 -53 -54 -32 56 59 58 -57 -48 77 62 -56 64 -63 -66 -67 -62 -47 82 -44 -6 -65 74 -74 -76 -77 78 -55 -36 -41 -82 -50 93 112 92 101 89 -89 97 102 -91 -86 103 99 96 -96 109 -99 100 -95 -87 -90 108 105 -105 -101 -108 -1 110 111 -88 113 114 115 117 -116 -85 121 120 123 -114 -123 -120 125 -125
right_child=1 -3 3 -5 5 -7 -8 8 28 -11 11 -13 -14 20 15 -17 -18 -19 -20 -21 21 -23 -24 24 -26 27 -28 -29 -30 -31 31 33 -34 -35 35 43 37 -39 39 41 -42 -43 70 -45 46 68 55 -49 69 50 -52 52 53 60 61 57 -58 -59 -60 -61 67 63 -64 72 65 66 -68 -69 -70 -71 -72 -73 73 -75 75 76 -78 -79 -80 -81 81 -83 -84 84 85 86 87 88 90 91 -92 -93 -94 94 95 -97 -98 98 -100 106 -102 -103 -104 104 -106 -107 107 -109 -110 -111 -112 -113 118 -115 116 -117 -118 -119 119 -121 -122 122 -124 124 -126 -127
leaf_value=-0.13132551232973735 0.18375249897472951 6.0098642349243168 1.1494933103478473 5.0416507844363938 0.41887781169679428 1.8470178607531957 -3.2631618458884106 -0.014310701688130697 0.16647368294497331 4.199133488048207 -1.2244289153530483 -1.4006999597549439 3.7657819438422169 -2.3630585694313049 1.7477155108200877 4.7254875314831741 -0.14305426088663248 -2.1307431358609881 -0.89635924952370782 2.4706250254313149 1.4787161359786987 -2.3006852235794066 3.6708871765434741 2.178639632978955 -0.14575907089493492 0.70327824865068711 1.2380242815884677 -1.5622513473510742 -1.959125360250473 0.018821076102878736 1.0316193208694457 2.1005931767821311 -1.8178601134907115 -0.046952073838975698 -0.11533698541177831 3.6598149143565788 -0.15428333282470705 2.6348094937205313 0.23011196154356003 0.11659685332094481 -1.8466252829811791 1.6496776916867211 -2.0387681161789666 1.4343769226074219 1.1983856566747029 -0.81829797625541689 -0.24281475752846809 1.125208410835266 1.2552235045433044 -0.20945177282605851 2.7659720044136047 0.44513038039207459 -1.9332049385277001 0.2961133136956588 1.352270904858907 2.3050950202487765 -1.4723699559436905 -0.38541157103873586 0.30775059177761988 1.2481929948329926 -0.87941049982000286 -1.3966106261525835 0.036525840681401925 -0.17175753690268195 -0.23251220734914146 2.8003270318291404 0.26568361732267565 0.52954587046305346 -2.3692976368798151 0.74447426802403216 -0.38517246099618768 -1.2328222446143628 -0.23780427541732788 0.041623589062109223 -0.63246452575259737 -2.9069968509674071 -1.1289584012465044 -1.9302941222812819 -1.0580508181832053 -1.3277760105866654 0.21514725917094463 -1.3255209475925991 2.8184580039978027 0.12581532002934137 -0.49208390041653605 0.13765866784017478 -0.22362742911685599 1.8328070776462557 -0.036551075348487269 -0.34776091194152836 1.2464157883326212 -2.3213460466938636 -2.0823583186467487 -0.13627816555133232 -0.35360688058535261 2.1030295346598877 1.5998666667938233 1.374990117274798 -0.45754339071420524 0.27318944454193117 1.5842180470057898 1.4996838585535686 -1.4911472670237222 0.30321654684403365 0.03678627412613366 2.0503696498416719 -2.0717315402030945 -0.31850761726498605 -1.6985598515612739 -0.94925904223793445 0.58500962271834867 -1.4367514092581612 -0.0010592107684246844 1.4951747917225868 0.073260294596354178 -0.76777831364955218 1.8735293304443361 -0.82963027954101565 -0.11479911503587092 -1.1257052226293656 1.077361639397485 1.6742727244984019 0.18565245426694552 -0.064319434718375049 0.46245270286930934 0.48715345163846158
leaf_weight=30 38 20 23 34 27 28 21 30 30 33 21 20 27 28 38 20 26 35 35 27 25 20 24 37 22 21 22 25 20 23 30 22 22 27 71 22 24 32 60 303 22 21 21 20 36 27 117 25 20 28 20 54 37 23 30 21 36 37 21 20 27 21 199 218 90 22 31 45 27 37 26 20 50 41 45 24 22 23 55 26 37 35 20 1248 42 134 77 20 52 20 21 31 30 65 30 38 34 26 26 24 28 24 24 34 8128 21 20 20 21 95 33 28 98940 33 21 56 25 35 4310 42 28 22 60 2230 225 169
leaf_count=30 38 20 23 34 27 28 21 30 30 33 21 20 27 28 38 20 26 35 35 27 25 20 24 37 22 21 22 25 20 23 30 22 22 27 71 22 24 32 60 303 22 21 21 20 36 27 117 25 20 28 20 54 37 23 30 21 36 37 21 20 27 21 199 218 90 22 31 45 27 37 26 20 50 41 45 24 22 23 55 26 37 35 20 1248 42 134 77 20 52 20 21 31 30 65 30 38 34 26 26 24 28 24 24 34 8128 21 20 20 21 95 33 28 98940 33 21 56 25 35 4310 42 28 22 60 2230 225 169
internal_value=0.00480257 0.97593 0.00123114 0.603632 0.168783 -0.190703 -0.422638 0.735647 1.17439 1.6254 0.0465781 0.835396 1.47428 -0.157523 1.13446 1.99205 1.51809 -0.925937 0.379402 1.16276 -0.836125 -0.366299 2.43701 0.604304 1.31191 0.178598 0.0354309 -0.527988 -0.683766 1.09584 -0.000697714 -0.181823 -0.230385 0.917252 0.00108231 0.187157 0.10054 1.43948 0.0332318 0.240432 -0.234508 0.0573635 -0.0137825 2.60008 -0.158072 -0.571852 0.0947938 -0.119516 0.896539 0.109576 1.03031 -0.198256 -0.542367 -0.796296 -0.0878723 -0.0628621 -0.326305 0.514045 1.30642 -0.0251494 -0.553141 -0.130224 0.208894 -0.267915 0.119442 0.342079 1.3178 0.00118723 -1.5938 1.41583 -1.12401 -0.283973 -0.426732 -0.73214 -0.957136 -1.35237 -2.05663 -0.948306 -0.658746 -0.440321 -0.00827717 -0.533789 2.03684 -0.000851521 -0.00490178 -0.273708 -0.169893 -0.349323 0.214895 -0.545792 -0.118695 -1.54739 -1.1547 0.0507136 0.455422 1.21277 0.684176 -0.366558 0.458723 -0.0366128 0.381721 0.344549 -0.495897 0.0379835 0.0430607 0.970311 -0.644504 -1.19512 -0.776657 -0.550741 -0.276399 -0.547127 -0.00319303 0.128845 0.0962899 0.0634689 1.05167 0.0997509 -0.00495892 -0.0669545 -0.0605673 -0.000573864 0.585038 -0.0651623 0.0163676 -0.0254704
internal_weight=119810 439 119371 381 347 274 246 419 256 206 163 90 70 225 173 81 73 73 92 57 119 91 47 106 59 71 43 46 50 61 118990 1158 1109 49 117832 1212 1170 56 1114 628 486 491 470 42 464 176 288 122 137 423 48 1087 264 210 823 252 173 79 42 137 173 793 229 564 164 143 53 72 54 77 47 47 400 182 141 91 46 101 78 97 375 72 40 116620 108127 683 611 453 117 336 97 51 72 8493 259 102 64 285 52 157 93 158 76 8234 8183 55 64 40 51 233 138 105 107444 1418 1385 1339 46 1283 106026 7004 6962 99022 82 6934 2624 2399
internal_count=119810 439 119371 381 347 274 246 419 256 206 163 90 70 225 173 81 73 73 92 57 119 91 47 106 59 71 43 46 50 61 118990 1158 1109 49 117832 1212 1170 56 1114 628 486 491 470 42 464 176 288 122 137 423 48 1087 264 210 823 252 173 79 42 137 173 793 229 564 164 143 53 72 54 77 47 47 400 182 141 91 46 101 78 97 375 72 40 116620 108127 683 611 453 117 336 97 51 72 8493 259 102 64 285 52 157 93 158 76 8234 8183 55 64 40 51 233 138 105 107444 1418 1385 1339 46 1283 106026 7004 6962 99022 82 6934 2624 2399
is_linear=0
shrinkage=0.01


Tree=3
num_leaves=127
num_cat=0
split_feature=30 80 143 109 128 109 75 55 155 147 43 31 145 117 103 150 138 155 80 92 31 147 55 132 43 109 85 160 82 103 73 150 26 109 62 138 125 150 27 73 117 111 111 138 155 155 111 150 143 55 132 27 124 150 143 82 82 26 103 109 71 55 109 128 55 103 75 30 80 82 147 117 27 73 109 64 75 31 155 138 82 73 138 75 30 71 43 26 147 132 117 71 128 85 82 73 145 27 103 132 145 116 115 31 30 117 145 115 85 92 116 43 75 138 132 71 150 111 150 103 30 150 43 138 109 160
split_gain=1.71642e+06 3.45825e+06 3.40434e+06 2.42902e+06 1.23165e+06 2.16851e+06 1.52819e+06 1.40572e+06 1.17252e+06 1.14956e+06 1.09087e+06 1.07539e+06 888493 849722 759925 829659 716052 705016 636330 3.26255e+06 7.00402e+06 1.49683e+06 942543 934613 2.25259e+06 2.59745e+06 670149 704040 623983 616778 665571 707979 587315 632323 575257 563414 537529 810945 990233 726317 582407 520527 487966 444003 587217 757718 577295 481649 420324 454857 416201 492606 409533 425200 404306 589786 438783 426508 399026 398539 378137 371549 356350 377071 328240 325852 925555 677846 1.11441e+06 893660 730153 726980 522626 589716 627973 464690 431508 632330 392924 382792 583908 365277 376104 379638 365315 396864 360971 344593 465199 338061 396350 326428 321516 316019 306244 505098 306143 295746 293817 293805 287292 275135 269898 264264 253977 246408 241541 232852 231073 721940 495031 311780 231195 322107 383111 314626 322966 341516 299296 295094 284994 430176 275646 227262 319302 227199
threshold=5055.9143200838726 2400.452098336802 539.93450248799434 0.0017439100000000002 1.2717090672383906 -0.0020166449999999996 15.407924819488274 0.98709267811875512 3.8097777415072742 1.2045126661033467 -0.13524726255026195 4.6073871819621006 -0.097700826309734659 74.398935368809063 0.80667879574549028 0.059508077186971729 2.0424755354482338 4.5905921703889492 1163.9990722016325 -442.85431476313636 1.477269829876471 -0.54041260942082714 -2.0310083699947743 -0.70946701532791712 -0.77441289738432639 -0.00055227499999999986 2.9972745130747276 0.035038341691418277 0.97245676361360878 1.4658503540853054 2.4565047094562131 0.11394893091873802 1380.1960848377162 -0.0010309849999999997 1.0463244333475765 1.7362043356030685 81.913469181590372 0.13094505886963007 2.8658865076816928 2.9748389997276199 149.32098985453783 -0.50201381457995753 0.29777079396603229 2.4755242755219418 3.5404393814838997 2.8802411337625906 0.71966079881809231 0.028485500765098103 -279.41952279676656 2.295142122444997 0.095409736892048999 1.1010324188522624 -2.4314145663713149 0.036939720770100583 -39.44491765602686 0.87962385437321922 0.6740420235068193 2210.1423028174099 0.44143829512151495 0.00049048000000000006 -0.24362613977905662 -0.21786865335065472 -0.0006224999999999999 -0.10769257976530876 0.75885388363662953 1.2310668576382591 1003.0243738419388 2494.2052402008912 837.57636994675102 0.9261671231703662 -0.65856057612958174 80.629368034144122 0.41732293047134078 -0.2660293775051546 -0.00018502499999999998 1.10555602494618 850.5456092259268 2.3039953525713224 2.8802411337625906 1.0391339841225709 0.80738423695369399 -0.96716053506169297 4.2847357541357836 -741.65330028474307 1004.3121703006487 -2.4812954634694528 -0.66694869428964021 2375.1887337444591 -0.064858960017978043 0.94705762379217107 58.054461755322478 0.5534007061936973 -2.0159433585669793 1.5545458025787202 0.84136699554962702 0.52790578559892809 -0.10972337469306241 2.3719688096515434 0.48413558274314472 0.61100343554764203 0.13650386583514593 2.6116642043632332 -1.3379300215966545 2.894417917559386 1731.3389099288347 95.814022831638439 0.027156900398902995 -1.8476148486674673 -2.442045322621095 411.21809342980271 4.254933970012087 -2.4825406605585161 -838.24163050272057 0.738710861181607 1.0210672394613372 1.6728821608074671 0.090988247352962792 -1.0182342569583624 0.10206772960116696 0.067597865514983937 3888.2666606905595 0.020118639628731325 0.34516595177520187 3.8066289943310108 -0.00015466999999999995 -0.28026270347434712
decision_type=2 2 2 2 2 2 2 2 2 2 2 2 2 2 2 2 2 2 2 2 2 2 2 2 2 2 2 2 2 2 2 2 2 2 2 2 2 2 2 2 2 2 2 2 2 2 2 2 2 2 2 2 2 2 2 2 2 2 2 2 2 2 2 2 2 2 2 2 2 2 2 2 2 2 2 2 2 2 2 2 2 2 2 2 2 2 2 2 2 2 2 2 2 2 2 2 2 2 2 2 2 2 2 2 2 2 2 2 2 2 2 2 2 2 2 2 2 2 2 2 2 2 2 2 2 2
left_child=17 2 4 13 5 -2 10 9 -4 -6 -7 16 -9 -3 59 107 58 18 65 20 -20 23 101 34 25 -25 36 -28 54 30 31 41 -31 -34 -21 -17 37 43 -39 40 52 102 -35 48 45 47 -46 -45 99 125 51 -43 -38 -54 56 94 -19 -57 -12 -8 96 -55 -32 -64 -59 76 67 87 70 -70 71 103 -72 74 106 97 78 79 108 98 -81 86 83 104 85 -85 -80 -67 -89 90 -82 -76 -86 123 95 -56 -52 -75 -78 -24 -63 -23 -26 -69 -83 -94 -74 -16 109 110 111 -1 113 -110 115 116 -115 -118 -119 -116 -114 -122 -123 124 -49 -50
right_child=1 3 8 -5 7 6 14 12 -10 -11 11 -13 -14 -15 15 35 -18 28 19 21 -22 22 26 24 29 -27 27 -29 -30 32 62 -33 33 42 -36 -37 39 38 -40 -41 -42 50 -44 44 46 -47 -48 93 49 -51 60 -53 53 61 55 57 -58 64 -60 -61 -62 100 63 -65 -66 66 -68 68 69 -71 72 -73 73 75 91 -77 77 -79 81 80 89 82 -84 84 92 -87 -88 88 -90 -91 -92 -93 105 -95 -96 -97 -98 -99 -100 -101 -102 -103 -104 -105 -106 -107 -108 -109 112 -111 -112 -113 120 114 119 -117 117 118 -120 -121 121 122 -124 -125 -126 -127
leaf_value=-0.89161188212308018 3.0572664821624755 -0.10881334554065358 -3.5760606497305414 5.4077911252067201 1.0028441200256348 2.9120937652587888 0.97852608489990234 -1.2496204686164856 -0.68023342592962865 4.1917539986394914 -0.72149334828058886 2.0607997894287111 1.4714280605316163 2.3729028159863241 -1.1518235540390014 -3.5014186542034151 -1.7056645368493122 -1.0569121409717359 7.2847536721229549 0.09505685526749183 -0.35506664721171066 -0.75994909427784108 0.074678348600864405 5.459921468257904 -1.4358256713203761 0.74146552903311591 0.19090391431535994 -2.2504325608853941 1.1091086208820344 -0.063673395418351694 -1.2865875881740025 1.8640977133404124 2.915696436564128 -0.27674474716186526 -2.1094687795639038 -1.2495906536102295 -1.772288097381592 0.21465040946006775 3.0872694630622863 -1.7625233498741599 0.98994720234189715 0.05771002323854537 1.671406847635905 1.8781387147903441 -1.6683585515229598 2.2323538366172992 0.4086646833643317 1.3341120342981247 0.33274759131258935 -1.3484788947269835 1.4098689565787443 2.0056791260663203 -1.4276596130371093 -0.6910286250321761 -0.22110640988179614 -0.70909928377936871 0.20895846101702475 -1.3728308692845432 1.0043618893623352 -0.843879117012024 -0.21649329986683158 -0.16454224169254303 0.84443921813258416 -0.82682329478087258 -3.1429157314300542 0.026329000362550436 1.6492674763997397 -0.83040115007162107 0.56678082986311484 3.4508082411402747 2.018207679228349 -2.1343346801258272 2.6489666757583623 -1.4533345271801128 1.0818207007646561 0.58344473731761082 -0.43809035363197324 0.90505035848328563 1.2717591072011876 0.14897684237536263 -0.95566627915700286 -0.010481657289689588 -1.4032580609674807 -1.3224032870205966 0.36244503583069204 0.056785266426493335 0.049517422384541973 2.0362438545227048 -0.094772873833065943 -0.43225402465233437 -2.5438177209911923 -0.2658642201307343 -0.3851615015077679 1.3606045141220093 0.68537288574945365 -1.9022208694616953 0.27658000273491018 -0.025178283997650805 0.72085810865674704 1.7887510700225828 1.1078046039853777 -2.2664787569912996 0.15255678319931032 0.4570979978008704 1.344210488986969 -1.1007075789341561 1.1609723154703777 0.28339354597605193 -0.016252504330256889 1.8090048922240736 1.51734312136968 0.092724440175890002 -0.0060889155328835423 -0.28670753910676039 0.52675703003406527 1.2487434820028451 -0.51393041757436897 1.8305496767589027 0.44040574161683099 1.7685714690916001 -1.2959738393162572 0.7426057090078082 -0.55786927223205562 -0.73009145054125013 -0.11908664204456189 -0.15527879174195189
leaf_weight=33 25 22 27 21 20 20 30 20 29 26 21 28 30 37 20 20 23 38 20 29 30 27 20 20 23 28 21 27 24 31 35 33 24 20 20 25 20 30 20 34 35 21 36 20 23 28 32 21 116 29 37 34 25 46 70 34 98 22 37 20 86 36 27 27 20 11403 36 25 22 21 22 21 20 29 32 49 100 33 27 34 30 31 27 22 54 404 230 20 21 26 33 41 646 20 21 24 67 29 28 20 35 22 20 44 25 52 24 26 406 25 24 1292 100884 113 50 26 26 21 59 31 43 28 39 31 54 537
leaf_count=33 25 22 27 21 20 20 30 20 29 26 21 28 30 37 20 20 23 38 20 29 30 27 20 20 23 28 21 27 24 31 35 33 24 20 20 25 20 30 20 34 35 21 36 20 23 28 32 21 116 29 37 34 25 46 70 34 98 22 37 20 86 36 27 27 20 11403 36 25 22 21 22 21 20 29 32 49 100 33 27 34 30 31 27 22 54 404 230 20 21 26 33 41 646 20 21 24 67 29 28 20 35 22 20 44 25 52 24 26 406 25 24 1292 100884 113 50 26 26 21 59 31 43 28 39 31 54 537
internal_value=0.00281241 0.572253 0.229553 2.48709 0.559822 0.239653 -0.0212376 1.54368 -2.07644 2.80527 0.765302 0.371396 0.383009 1.44752 -0.740838 -1.28502 -0.212596 0.000292907 0.00161557 0.178614 2.70086 0.113841 -0.0752341 0.520446 0.634566 2.70749 -0.0231289 -1.18235 -0.447219 0.443587 0.264561 0.476713 1.10485 1.55766 -0.80475 -2.2504 0.0220355 0.122378 1.3637 -0.412782 -0.179831 0.317742 0.975638 0.0571139 0.44078 0.725481 -0.459909 0.436491 -0.0645752 -0.123009 0.495847 1.26191 -0.432561 -0.243867 -0.561445 -0.858156 -0.144741 -1.54171 0.379483 0.249564 0.274093 0.00907969 -0.500617 0.00880796 -2.21573 -0.00141169 0.0482737 0.0433989 0.459473 1.97526 0.265489 -0.505208 0.547451 0.403002 0.893679 -0.133533 -0.00702855 -0.396295 -0.00597183 -0.567388 -0.965767 -0.165686 -0.235716 -0.21017 -0.248413 -0.0144404 0.177924 0.0296194 0.944747 -1.39162 -1.78756 0.324902 -0.380956 0.207658 -0.406417 -0.650327 0.679769 -0.739256 -0.18457 0.931715 0.462671 -1.43635 -0.697043 -0.0093872 0.594292 -0.438469 1.83733 -0.340614 -0.00362026 0.125195 0.0939904 0.0682089 -0.00536016 0.171718 0.405817 0.208705 0.0852299 0.481729 0.805319 1.00202 -0.00664361 -0.515371 -0.0143872 -0.00987888 0.287809 -0.068585
internal_weight=119636 527 447 80 391 295 270 96 56 46 129 109 50 59 141 91 81 119109 118758 1997 50 1947 1329 618 569 48 1280 48 351 521 410 321 111 80 49 45 1232 1001 50 231 197 288 56 951 229 174 55 146 722 682 245 55 162 142 327 191 136 76 58 50 190 117 89 54 42 116761 11859 11823 379 43 336 90 246 224 117 107 104902 284 104618 251 123 1518 1261 1234 1178 426 257 11444 41 89 63 73 752 126 115 94 104 58 128 40 71 49 43 69 56 698 44 46 103100 1374 1349 1325 101726 732 326 245 219 106 80 81 100994 110 67 106 75 653
internal_count=119636 527 447 80 391 295 270 96 56 46 129 109 50 59 141 91 81 119109 118758 1997 50 1947 1329 618 569 48 1280 48 351 521 410 321 111 80 49 45 1232 1001 50 231 197 288 56 951 229 174 55 146 722 682 245 55 162 142 327 191 136 76 58 50 190 117 89 54 42 116761 11859 11823 379 43 336 90 246 224 117 107 104902 284 104618 251 123 1518 1261 1234 1178 426 257 11444 41 89 63 73 752 126 115 94 104 58 128 40 71 49 43 69 56 698 44 46 103100 1374 1349 1325 101726 732 326 245 219 106 80 81 100994 110 67 106 75 653
is_linear=0
shrinkage=0.01


end of trees

feature_importances:
x_1440m_RatioSkewDiff_neut=16
x_1440m_L2C_neut=14
x_240m_OI_P_Corr=12
x_480m_RatioSkewDiff_neut=12
x_5m_L2C=12
x_240m_O2C=11
x_720m_EffRatio=11
x_1440m_EffRatio_neut=10
x_1440m_O2H_neut=10
x_1440m_O2L=10
x_15m_OI_Chg=10
x_60m_Vol_neut=10
x_120m_Close_Diff_Rate_neut=9
x_1m_H2L_Vol=9
x_240m_PremiumDiff=9
x_480m_NetTaker_neut=9
x_60m_H2L_Vol_neut=9
x_720m_OI_XSkew=9
x_480m_L2C=8
x_480m_PremiumDiff=8
x_5m_O2H_neut=8
x_120m_H2L_Vol=7
x_1440m_H2C_neut=7
x_30m_L2C_neut=7
x_480m_H2L_Vol=7
x_60m_Close_Diff_Rate=7
x_60m_PremiumDiff_neut=7
x_1440m_H2C=6
x_1440m_RVol=6
x_240m_NetTaker_neut=6
x_240m_O2H=6
x_480m_Close_Diff_Rate=6
x_5m_PremiumDiff_neut=6
x_720m_O2L_neut=6
x_120m_L2C=5
x_120m_NetTaker_neut=5
x_120m_O2L=5
x_1440m_EffRatio=5
x_1440m_O2H=5
x_15m_O2H_neut=5
x_15m_PremiumDiff_neut=5
x_240m_EffRatio_neut=5
x_30m_O2H_neut=5
x_30m_PremiumDiff_neut=5
x_5m_PremiumDiff=5
x_5m_RatioSkew_neut=5
x_60m_PremiumDiff=5
x_720m_O2H_neut=5
x_720m_OI_Price_Ratio_neut=5
x_120m_O2H_neut=4
x_120m_OI_Chg_neut=4
x_1440m_Close_Diff_Rate_neut=4
x_1440m_NetTaker_neut=4
x_1m_H2C=4
x_1m_Premium_neut=4
x_30m_O2L=4
x_30m_PremiumDiff=4
x_480m_O2H_neut=4
x_480m_OI_Chg=4
x_5m_O2L=4
x_5m_WhaleGap=4
x_60m_EffRatio=4
x_60m_O2H=4
x_60m_OI_Price_Ratio=4
x_120m_CrowdingPressure_neut=3
x_120m_H2C_neut=3
x_120m_L2C_neut=3
x_120m_PremiumDiff_neut=3
x_120m_Vol=3
x_1440m_L2C=3
x_1440m_O2C_neut=3
x_15m_O2L=3
x_1m_L2C_neut=3
x_1m_O2H_neut=3
x_240m_OI_Chg=3
x_240m_PremiumDiff_neut=3
x_5m_H2L_Vol_neut=3
x_60m_O2H_neut=3
x_60m_OI_Chg=3
x_1440m_PremiumDiff=2
x_15m_H2C=2
x_1m_H2C_neut=2
x_240m_C2VWAP_neut=2
x_240m_PctB_neut=2
x_30m_OI_Chg=2
x_480m_PremiumDiff_neut=2
x_5m_H2C_neut=2
x_5m_O2C=2
x_720m_Close_Diff_Rate_neut=2
x_1m_H2L_Vol_neut=1
x_5m_O2C_neut=1
x_5m_O2L_neut=1
x_5m_OI_Chg=1

parameters:
[boosting: gbdt]
[objective: regression]
[metric: rmse]
[tree_learner: serial]
[device_type: cpu]
[data_sample_strategy: bagging]
[data: ]
[valid: ]
[num_iterations: 4000]
[learning_rate: 0.01]
[num_leaves: 127]
[num_threads: 0]
[seed: 42]
[deterministic: 0]
[force_col_wise: 0]
[force_row_wise: 0]
[histogram_pool_size: -1]
[max_depth: -1]
[min_data_in_leaf: 20]
[min_sum_hessian_in_leaf: 0.001]
[bagging_fraction: 0.2]
[pos_bagging_fraction: 1]
[neg_bagging_fraction: 1]
[bagging_freq: 1]
[bagging_seed: 400]
[bagging_by_query: 0]
[feature_fraction: 0.2]
[feature_fraction_bynode: 1]
[feature_fraction_seed: 30056]
[extra_trees: 0]
[extra_seed: 12879]
[early_stopping_round: 0]
[early_stopping_min_delta: 0]
[first_metric_only: 0]
[max_delta_step: 0]
[lambda_l1: 0]
[lambda_l2: 0]
[linear_lambda: 0]
[min_gain_to_split: 0]
[drop_rate: 0.1]
[max_drop: 50]
[skip_drop: 0.5]
[xgboost_dart_mode: 0]
[uniform_drop: 0]
[drop_seed: 17869]
[top_rate: 0.2]
[other_rate: 0.1]
[min_data_per_group: 100]
[max_cat_threshold: 32]
[cat_l2: 10]
[cat_smooth: 10]
[max_cat_to_onehot: 4]
[top_k: 20]
[monotone_constraints: ]
[monotone_constraints_method: basic]
[monotone_penalty: 0]
[feature_contri: ]
[forcedsplits_filename: ]
[refit_decay_rate: 0.9]
[cegb_tradeoff: 1]
[cegb_penalty_split: 0]
[cegb_penalty_feature_lazy: ]
[cegb_penalty_feature_coupled: ]
[path_smooth: 0]
[interaction_constraints: ]
[verbosity: -1]
[saved_feature_importance_type: 0]
[use_quantized_grad: 0]
[num_grad_quant_bins: 4]
[quant_train_renew_leaf: 0]
[stochastic_rounding: 1]
[linear_tree: 0]
[max_bin: 255]
[max_bin_by_feature: ]
[min_data_in_bin: 3]
[bin_construct_sample_cnt: 200000]
[data_random_seed: 175]
[is_enable_sparse: 1]
[enable_bundle: 1]
[use_missing: 1]
[zero_as_missing: 0]
[feature_pre_filter: 0]
[pre_partition: 0]
[two_round: 0]
[header: 0]
[label_column: ]
[weight_column: ]
[group_column: ]
[ignore_column: ]
[categorical_feature: ]
[forcedbins_filename: ]
[precise_float_parser: 0]
[parser_config_file: ]
[objective_seed: 16083]
[num_class: 1]
[is_unbalance: 0]
[scale_pos_weight: 1]
[sigmoid: 1]
[boost_from_average: 1]
[reg_sqrt: 0]
[alpha: 0.9]
[fair_c: 1]
[poisson_max_delta_step: 0.7]
[tweedie_variance_power: 1.5]
[lambdarank_truncation_level: 30]
[lambdarank_norm: 1]
[label_gain: ]
[lambdarank_position_bias_regularization: 0]
[eval_at: ]
[multi_error_top_k: 1]
[auc_mu_weights: ]
[num_machines: 1]
[local_listen_port: 12400]
[time_out: 120]
[machine_list_filename: ]
[machines: ]
[gpu_platform_id: -1]
[gpu_device_id: -1]
[gpu_use_dp: 0]
[num_gpu: 1]

end of parameters

pandas_categorical:[]
