tree
version=v4
num_class=1
num_tree_per_iteration=1
label_index=0
max_feature_idx=165
objective=regression
feature_names=x_120m_C2VWAP_neut x_120m_Close_Diff_Rate x_120m_Close_Diff_Rate_neut x_120m_CrowdingPressure_neut x_120m_H2C x_120m_H2C_neut x_120m_H2L_Vol x_120m_L2C x_120m_L2C_neut x_120m_NetTaker_neut x_120m_O2H x_120m_O2H_neut x_120m_O2L x_120m_O2L_neut x_120m_OI_Chg x_120m_OI_Chg_neut x_120m_PremiumDiff x_120m_PremiumDiff_neut x_120m_Vol x_120m_VolDiff_neut x_120m_Vol_neut x_1440m_Close_Diff_Rate_neut x_1440m_EffRatio x_1440m_EffRatio_neut x_1440m_H2C x_1440m_H2C_neut x_1440m_L2C x_1440m_L2C_neut x_1440m_NetTaker_neut x_1440m_O2C_neut x_1440m_O2H x_1440m_O2H_neut x_1440m_O2L x_1440m_O2L_neut x_1440m_OI_Chg x_1440m_OI_Chg_neut x_1440m_OI_Price_Ratio_neut x_1440m_PctB x_1440m_PctB_neut x_1440m_Premium x_1440m_PremiumDiff x_1440m_PremiumDiff_neut x_1440m_RVol x_1440m_RatioSkewDiff_neut x_15m_H2C x_15m_H2C_neut x_15m_H2L_Vol x_15m_L2C x_15m_O2H x_15m_O2H_neut x_15m_O2L x_15m_O2L_neut x_15m_OI_Chg x_15m_OI_Chg_neut x_15m_PremiumDiff x_15m_PremiumDiff_neut x_15m_RatioSkewDiff_neut x_1m_C2VWAP x_1m_C2VWAP_neut x_1m_H2C x_1m_H2C_neut x_1m_H2L_Vol x_1m_H2L_Vol_neut x_1m_L2C x_1m_L2C_neut x_1m_O2H_neut x_1m_O2L x_1m_O2L_neut x_1m_Premium x_1m_PremiumDiff x_1m_PremiumDiff_neut x_1m_Premium_neut x_240m_C2VWAP_neut x_240m_EffRatio_neut x_240m_NetTaker_neut x_240m_O2C x_240m_O2H x_240m_O2H_neut x_240m_O2L x_240m_O2L_neut x_240m_OI_Chg x_240m_OI_Chg_neut x_240m_OI_P_Corr x_240m_PctB_neut x_240m_PremiumDiff x_240m_PremiumDiff_neut x_30m_L2C_neut x_30m_O2C x_30m_O2H x_30m_O2H_neut x_30m_O2L x_30m_O2L_neut x_30m_OI_Chg x_30m_OI_Chg_neut x_30m_PremiumDiff x_30m_PremiumDiff_neut x_480m_Close_Diff_Rate x_480m_EffRatio x_480m_EffRatio_neut x_480m_H2C_neut x_480m_H2L_Vol x_480m_L2C x_480m_L2C_neut x_480m_NetTaker_neut x_480m_O2C_neut x_480m_O2H_neut x_480m_O2L x_480m_O2L_neut x_480m_OI_Chg x_480m_PremiumDiff x_480m_PremiumDiff_neut x_480m_RatioSkewDiff_neut x_5m_C2VWAP x_5m_C2VWAP_neut x_5m_H2C x_5m_H2C_neut x_5m_H2L_Vol_neut x_5m_L2C x_5m_L2C_neut x_5m_O2C x_5m_O2C_neut x_5m_O2H x_5m_O2H_neut x_5m_O2L x_5m_O2L_neut x_5m_OI_Chg x_5m_PctB_neut x_5m_PremiumDiff x_5m_PremiumDiff_neut x_5m_Premium_neut x_5m_RVol x_5m_RVol_neut x_5m_RatioSkew_neut x_5m_WhaleGap x_60m_Close_Diff_Rate x_60m_EffRatio x_60m_EffRatio_neut x_60m_H2C x_60m_H2L_Vol_neut x_60m_O2H x_60m_O2H_neut x_60m_O2L x_60m_O2L_neut x_60m_OI_Chg x_60m_OI_Chg_neut x_60m_OI_Price_Ratio x_60m_PremiumDiff x_60m_PremiumDiff_neut x_60m_Vol_neut x_720m_Close_Diff_Rate_neut x_720m_EffRatio x_720m_H2C_neut x_720m_H2L_Vol x_720m_O2C_neut x_720m_O2H x_720m_O2H_neut x_720m_O2L x_720m_O2L_neut x_720m_OI_Chg_neut x_720m_OI_Price_Ratio x_720m_OI_Price_Ratio_neut x_720m_OI_XSkew x_720m_OI_Z x_720m_OI_Z_neut x_720m_PremiumDiff x_720m_PremiumDiff_neut
feature_infos=[-5.3725108499457592:5.3324185409262332] [-0.89922235130982275:0.82310355681460501] [-5.3779723940134465:5.3585664868227347] [-5.1691191131801499:4.9069889974713741] [-9013.4768516225613:0] [-5.3793548271269289:2.7656160755017933] [8.7833723639496597:137719.00826446281] [0:17594.634873323401] [-2.9022661751216168:5.382065049574166] [-4.8598808192107681:4.7649230739275259] [0:16480.972930561005] [-2.6587518056064758:5.3848121456146396] [-9322.3205448612607:0] [-5.3835789783761188:3.3567699465292478] [-8256.0495782788166:24742.139698348674] [-5.3220973541599426:5.3759541211371245] [-0.14524102:0.14106063000000002] [-5.3839666565144348:5.3828610353956732] [-3.1630499097443643:13.387176384939467] [-5.1188258479193314:5.264314818496679] [-3.8103643272853929:5.3005937626904789] [-5.3131782575384445:5.3677421980092284] [0:0.42766697350925614] [-3.3266273247964451:5.3264532891053751] [-9161.5458657098789:0] [-5.3584600933120115:3.4438962668296318] [0:44901.117798796207] [-2.49396311078364:5.3796809357019404] [-4.7957229274508189:4.707213247248264] [-5.3122783908257558:5.3677523852256943] [0:47984.56260720412] [-2.4659386659332037:5.3815503059172984] [-9415.1226570436484:0] [-5.3090297444125643:3.5760935165414671] [-8495.5981591984491:186811.84893859646] [-5.10039770576003:5.3830525369929703] [-5.378971279303209:5.3815058067890931] [-2.3554302847606188:3.1329943650524719] [-4.7358363316871985:5.0763596684690455] [-0.09347559454861111:0.0020517374513888886] [-0.22244830999999998:0.24889726000000001] [-5.3848020060087523:5.3844539225866406] [1.326828634782099:301.94294808453901] [-4.9885508574110284:4.9402095330603988] [-5098.4555984555982:0] [-5.3792286598748982:3.1028066243180428] [0.85858618852130419:11778.98118094213] [0:2962.3873992519621] [0:3519.8456449834616] [-2.9340691940022796:5.3825614267547719] [-5226.9105883580651:0] [-5.3801510258053771:2.8702869637160324] [-3593.8262941025869:3610.2963088821348] [-5.3582425274313668:5.3574392239323156] [-0.079726799999999987:0.12100504000000001] [-5.3820805362145547:5.383294259283617] [-5.3459616252546143:5.3315440092089847] [-255.82283314241948:255.2320063932867] [-5.3386003919520126:5.3422998356492615] [-897.30046948356733:0] [-5.3816357217762736:3.0506938354463711] [0:2300.5847108929456] [-2.6896637085751514:5.3733943982586956] [0:1196.8526672922831] [-2.8540366696489503:5.3817909544325246] [-3.0094267625483191:5.3725537500257925] [-1430.21856466502:0] [-5.3763575024900438:2.8244737805069655] [-0.22737932999999999:0.015985180000000002] [-0.02475869:0.042871869999999992] [-5.3485003822205774:5.3794311997082431] [-5.3848915583111339:5.3459151080884952] [-5.3769302694143368:5.3084846185860286] [-3.4550560018014709:5.231730861536886] [-4.8300677938894667:4.9260260766279949] [-9122.6790905264806:13135.593220338988] [0:17365.580822550433] [-2.7431660595121841:5.384779156927376] [-9397.9745976437734:0] [-5.3749122698293705:3.310199277392007] [-8468.770913780425:69648.067092518526] [-5.3328954319455004:5.3807675787637663] [-0.9613992092602881:0.995491458713333] [-4.8308506547616057:5.1000785858334385] [-0.22287430999999999:0.18535967999999997] [-5.384975183920206:5.3846627048954137] [-3.0919863534234304:5.369894786346797] [-7613.4840501027356:5463.9738820135153] [0:10499.58241591375] [-2.9375347023106153:5.3817857942871852] [-7764.4013407350731:0] [-5.3813195570200039:2.9467066200328262] [-6830.4291304082817:11433.409875580324] [-5.3629093315562493:5.3683972364366452] [-0.096784769999999992:0.11165018] [-5.3815879101651305:5.3832605223730043] [-0.91409828838671348:1.381158167675022] [0:0.56053094941823034] [-3.3624630994739615:5.2424633307071433] [-5.373019334329963:2.8098742231336558] [26.026103932081934:160004.60642189407] [0:20910.987671047289] [-3.1386605584555634:5.3804152380588324] [-4.9810647922682003:4.7978671417048764] [-5.328073979843758:5.3350240613933311] [-2.2190872543469058:5.3816297668806978] [-9410.549887237019:0] [-5.3768097752445616:3.3719294710108842] [-8489.2046873794661:94648.287312846034] [-0.2211021:0.25607092999999997] [-5.3849101993731123:5.384667484786771] [-5.0833857576141055:4.9108666914968451] [-1199.1787034366941:793.00164813479455] [-5.3470826205539366:5.3438375257535204] [-2986.1878453038671:0] [-5.3701408856120469:3.0262551017204338] [-3.1493244923058441:5.3799177491552514] [0:1927.5327193407654] [-3.0690192167724324:5.3771474114871918] [-2630.4545955893022:1559.9455040871946] [-5.3708437772210296:5.3451362756278371] [0:2342.4598000869178] [-2.5331240362788692:5.3811068229779426] [-3096.4861868189928:0] [-5.3797041398744829:2.9542943651083662] [-1971.5303592693733:1621.2246148153486] [-5.1842688330052455:5.2087180974774068] [-0.063009849999999992:0.061401420000000005] [-5.3784835267804585:5.3738992214283483] [-5.3850017105064865:5.3119375396109518] [0:918.11055226805615] [-2.710685643798838:5.3742961357545767] [-3.1205768424727705:3.9719387167267568] [-1.047240476:2.41492766] [-0.77919435071485721:0.70451578348341326] [0:0.76332839180804846] [-3.5175026010399524:4.9712444941068989] [-7800.3108501248435:0] [-2.7625536322207549:5.3846892492306235] [0:13154.103421661954] [-2.824697144436576:5.3827390828291453] [-7932.6218510476656:0] [-5.381361650037161:3.153601842999914] [-7041.5459979882944:13875.517975499748] [-5.3439320856891488:5.3801090702064975] [-1068788257.8005214:979655156.61940563] [-0.10002577999999998:0.1255251] [-5.3834235411341904:5.3832119881350282] [-4.1155882290554917:5.2356481944264113] [-5.3425713812118651:5.338955963088595] [0:0.52149362305840108] [-5.3711778014028519:3.0294413340077986] [28.730039573312549:162046.87711692179] [-5.3401793400219066:5.338414930424614] [0:23315.43624161074] [-2.4872329165913012:5.3824171016853093] [-9415.4144925883338:0] [-5.3493886629184342:3.3838293848036471] [-5.2763618546806645:5.3820601958184042] [-1521749150.7824543:2172395046.7046967] [-5.3851648071345029:5.3851648071345046] [-22.950038891624224:26.602607859793846] [-8.9180955379538851:12.967056566582622] [-4.2800949931056751:4.9575795884038314] [-0.21472824999999998:0.21463627999999998] [-5.3848442533821954:5.3844774257766801]
tree_sizes=2867 2904 2879 2879 2873 2866 2859 2894 2875 2871 2866 2888 2854 2882 2917 2865 2876 2890 2899 2874 2885 2862 2853 2891 2921 2903 2880 2918 2870 2868 2853 2868 2867 2890 2883 2913 2868 2866 2883 2901 2861 2920 2863 2872 2880 2893 2871 2889 2862 2909 2864 2891 2879 2890 2827 2875 2916 2889 2928 2911 2891 2874 2873 2885 2863 2868 2861 2899 2883 2877

Tree=0
num_leaves=31
num_cat=0
split_feature=25 20 124 52 20 145 39 1 76 95 44 124 28 74 50 127 82 42 124 35 160 126 160 61 82 0 60 3 37 1
split_gain=4.01108e+06 3.00369e+06 2.66439e+06 6.07273e+06 1.18677e+07 2.2375e+06 3.03196e+06 2.38538e+06 1.98248e+06 4.32211e+06 4.07894e+06 3.40692e+06 2.39756e+06 2.34308e+06 2.7353e+06 1.96153e+06 1.72397e+06 3.17064e+06 1.64443e+06 3.05496e+06 1.82529e+06 1.61384e+06 1.6278e+06 1.57844e+06 2.31336e+06 2.01005e+06 2.35664e+06 1.55111e+06 1.58244e+06 1.40796e+06
threshold=-4.4081024461642029 1.3494837753755282 -4.6215313946534904 -435.21549896167016 1.9341800749790885 -0.48242604308541254 -0.00013950875347222219 0.05868984481633522 1631.3512975070269 -1.8098141817196163 -19.144019241302821 0.44925608387071631 2.5373597997932755 1.7969635994317967 -6.2305187516170637 -0.0024256149999999995 0.25196742306057968 51.973376431740895 -2.6808985907067711 4.7291042140657762 0.48304903379342928 0.80876444144838489 0.10059343387670221 65.074705036124456 0.86646568737556351 2.9380146710371107 -3.2610212944989074 1.0648212667418597 0.25756083712174543 0.05306870560923483
decision_type=2 2 2 2 2 2 2 2 2 2 2 2 2 2 2 2 2 2 2 2 2 2 2 2 2 2 2 2 2 2
left_child=1 5 3 4 -2 6 -1 16 -4 11 12 23 13 14 18 -5 17 -7 19 -11 21 22 -20 -10 -25 26 -26 -18 -29 -24
right_child=2 -3 8 15 -6 7 -8 -9 9 10 -12 -13 -14 -15 -16 -17 27 -19 20 -21 -22 -23 29 24 25 -27 -28 28 -30 -31
leaf_value=-0.53281489298195828 -0.32344247557174355 -1.991753936963049 -0.18787100174733345 0.60839198395916516 -5.0779266886741752 0.084309208852421491 -2.7053910772525409 1.2590723056762583 -0.35731407637041473 -0.15011916022049523 1.6069752568298743 2.3274100139337524 1.3633828471229164 -1.6682206164149518 1.4408155444432462 -0.47438873190412306 -0.20019687581661874 -2.4522115660326231 -0.060381861312931329 1.7538009063372182 0.27919418096683796 -1.1002225884171071 -0.32796122642948278 -0.54196712842117312 0.52520039972808163 0.26655757892742504 2.6796973812549481 -0.26046915849356184 -2.2494625596633386 -1.675484411931452
leaf_weight=42 35 38 118837 47 21 22 26 21 45 134 32 28 23 29 24 380 271 28 151 25 71 110 42 27 22 39 30 20 20 36
leaf_count=42 35 38 118837 47 21 22 26 21 45 134 32 28 23 29 24 380 271 28 151 25 71 110 42 27 22 39 30 20 20 36
internal_value=-0.189464 -0.641852 -0.187627 -0.558241 -2.10637 -0.52786 -1.36351 -0.379106 -0.186132 0.0519544 -0.13545 0.716211 -0.221896 -0.280516 -0.212652 -0.355207 -0.474402 -1.33614 -0.282394 0.149239 -0.449783 -0.60246 -0.36336 0.439441 0.743288 1.12463 1.76818 -0.335858 -1.25497 -0.949895
internal_weight=120676 488 120188 483 56 450 68 382 119705 868 677 191 645 622 593 427 361 50 569 159 410 339 229 163 118 91 52 311 40 78
internal_count=120676 488 120188 483 56 450 68 382 119705 868 677 191 645 622 593 427 361 50 569 159 410 339 229 163 118 91 52 311 40 78
is_linear=0
shrinkage=1


Tree=1
num_leaves=31
num_cat=0
split_feature=104 163 161 110 43 101 94 25 6 100 13 19 128 65 94 123 20 161 127 68 138 60 161 108 76 55 42 111 161 101
split_gain=5.54135e+06 3.97956e+07 1.55789e+07 7.59333e+06 3.60697e+06 3.84829e+06 3.25487e+06 2.56883e+06 5.61689e+06 4.01333e+06 7.03026e+06 2.08751e+06 4.14659e+06 2.2027e+06 3.30432e+06 1.99963e+06 4.25553e+06 3.49226e+06 3.57624e+06 1.93679e+06 1.97969e+06 1.91662e+06 2.13619e+06 1.90481e+06 1.58269e+06 1.51372e+06 1.89753e+06 1.47052e+06 1.39803e+06 1.32198e+06
threshold=-3.6444973849969213 -2.0406697078570208 -4.3266631000891769 -4.3916798742826142 -0.84820797487835142 619.5349249456151 0.0019600650000000004 -4.4081024461642029 2123.4642981488132 4440.8032201661399 -4.6483178618880325 0.98163837703982038 1.9578873446784517 2.1928666869455937 -0.0041470999999999991 -257.2852775635825 4.1688638701117249 -3.2013037859617688 -0.00042004499999999991 -0.0093233499999999993 1.7302029262372294 -3.0456905142432231 1.1635395515211151 -1931.9082586554457 42.474670060728144 -3.00570748767568 64.751534991869235 0.93985930064109691 0.23898452825327396 1518.8707385640857
decision_type=2 2 2 2 2 2 2 2 2 2 2 2 2 2 2 2 2 2 2 2 2 2 2 2 2 2 2 2 2 2
left_child=1 -1 -3 -4 5 -5 24 8 23 15 -11 13 28 14 -12 16 17 18 -9 -16 -21 -15 -23 -2 -6 -19 -27 -26 -13 -25
right_child=7 2 3 4 6 -7 -8 9 -10 10 11 12 -14 21 19 -17 -18 25 -20 20 -22 22 -24 29 27 26 -28 -29 -30 -31
leaf_value=-7.1108772867376153 -1.445589007695516 3.9828624693552657 -3.1025551122665407 -0.46104424848734776 0.71803205326199537 -2.4616924771954936 1.8462685151894889 -3.0502884950637816 -2.6102184113749751 3.0887458251953128 2.7709145573207308 -2.2972428646087648 1.0820435681343079 -1.0837387170791626 -0.79707279145717624 0.0020384953903755444 -2.4449638736248018 0.98903430307612694 -0.4713467594181619 0.13722337589263917 1.4562108317288485 1.3431249671993835 -0.44266910160289097 -0.22229639776463533 -0.12278824661022578 0.049406859882541801 -1.1205538021645896 -1.4289954597473145 -0.56641256298337672 0.97617483296394358
leaf_weight=22 30 21 25 107 48 31 24 20 27 25 21 20 30 30 20 118496 23 34 41 50 66 33 34 289 156 224 41 25 28 25
leaf_count=22 30 21 25 107 48 31 24 20 27 25 21 20 30 30 20 118496 23 34 41 50 66 33 34 289 156 224 41 25 28 25
internal_value=-0.000934481 -0.549262 -0.218929 -0.431038 -0.260225 -0.910465 0.0944511 0.00116976 -0.41424 0.0024623 0.531806 0.339265 -0.376194 0.558973 0.924961 0.000872652 -0.359827 -0.226609 -1.3169 0.639924 0.887682 -0.0333999 0.436901 -0.241881 -0.0891455 -0.00417526 -0.131606 -0.303204 -1.28759 -0.126877
internal_weight=120066 459 437 416 391 138 253 119607 371 119236 357 332 78 254 157 118879 383 360 61 136 116 97 67 344 229 299 265 181 48 314
internal_count=120066 459 437 416 391 138 253 119607 371 119236 357 332 78 254 157 118879 383 360 61 136 116 97 67 344 229 299 265 181 48 314
is_linear=0
shrinkage=0.005


Tree=2
num_leaves=31
num_cat=0
split_feature=75 161 157 154 73 135 6 39 83 15 135 161 54 148 11 152 16 39 9 47 32 100 54 73 148 83 93 16 9 23
split_gain=3.9373e+06 1.12967e+07 3.91395e+06 4.25816e+06 4.13617e+06 8.78142e+06 4.32502e+06 3.84938e+06 3.6639e+06 4.84635e+06 4.40516e+06 7.54608e+06 3.96028e+06 2.97867e+06 2.95518e+06 2.81093e+06 2.0323e+06 2.58271e+06 1.90326e+06 1.8762e+06 1.77643e+06 1.76012e+06 5.91653e+06 4.87182e+06 4.00063e+06 3.38425e+06 1.6413e+06 1.63377e+06 1.50171e+06 1.3615e+06
threshold=1529.0603452159505 7.0821768468237911 -3.6920229172852093 2336.2293901708258 3.390826364295275 0.27498639211127845 1625.1292443580769 -0.00026479302083333331 -0.54725995917345205 4.2755303034694121 0.21203830369357193 -4.504240007496402 -0.0018519999999999997 1.0231121473467744 4.3417821811120483 3888.2082426567781 0.0052556800000000013 -0.0096136030243055542 0.87785934752398875 185.87654109583522 -1031.0819724724531 4440.8032201661399 0.0015017100000000001 0.21499611693901596 0.50020188103531027 -1.3754417212746357 2.8401466668660933 -0.00058931499999999987 0.71607114746731659 2.8600942901527477
decision_type=2 2 2 2 2 2 2 2 2 2 2 2 2 2 2 2 2 2 2 2 2 2 2 2 2 2 2 2 2 2
left_child=2 8 3 4 6 -6 -1 13 -2 10 11 -10 -13 -8 18 28 21 19 -12 20 -18 -4 23 24 -23 -25 -17 -27 -11 -14
right_child=1 -3 16 -5 5 -7 7 -9 9 15 14 12 29 -15 -16 26 17 -19 -20 -21 -22 22 -24 25 -26 27 -28 -29 -30 -31
leaf_value=-0.19221319553188024 -1.7509985672343862 3.2278330163745319 0.00077216983649102224 -2.0384428142778801 -0.5429269991499005 3.4816986730824344 -1.0079383626514011 0.22605505611747503 3.9144899733861287 1.0997956705093384 -0.2134815584883398 2.3649430710449817 0.15270893947831515 -3.0034091126918794 -1.5830490849699295 -2.0470787428271384 -1.8686617438849948 -0.094263870283333287 1.5567838345874441 -2.0707683219909669 -0.18607511960450679 0.26816010682406477 2.7057592183208237 -2.5496783676147463 2.8765691194080172 0.99156649971008304 -0.4672107785088675 -0.83013623020437077 -0.65585983531106085 1.1773127746582031
leaf_weight=1227 22 34 117359 33 33 23 45 32 21 29 49 32 116 32 28 31 21 261 22 30 62 49 26 20 21 20 35 32 21 45
leaf_count=1227 22 34 117359 33 33 23 45 32 21 29 49 32 116 32 28 31 21 261 22 30 62 49 26 20 21 20 35 32 21 45
internal_value=-0.00098759 0.448603 -0.00281495 -0.263287 -0.221204 1.11004 -0.277005 -1.23149 0.239083 0.341138 0.664662 1.06811 0.758402 -1.83722 -0.207442 -0.531817 0.000333225 -0.367659 0.335051 -0.999129 -0.61179 0.00150427 0.512922 0.111417 1.05068 -0.801758 -1.20927 -0.129481 0.36242 0.439089
internal_weight=119811 485 119326 1425 1392 56 1336 109 451 429 313 214 193 77 99 116 117901 374 71 113 83 117527 168 142 70 72 66 52 50 161
internal_count=119811 485 119326 1425 1392 56 1336 109 451 429 313 214 193 77 99 116 117901 374 71 113 83 117527 168 142 70 72 66 52 50 161
is_linear=0
shrinkage=0.005


Tree=3
num_leaves=31
num_cat=0
split_feature=99 155 18 43 20 116 90 107 68 18 107 18 8 82 162 158 40 20 20 27 80 114 26 45 143 12 65 27 12 111
split_gain=2.53797e+06 1.70464e+07 1.67548e+07 3.70876e+06 3.20484e+06 2.1779e+06 8.55166e+06 2.39401e+06 3.66527e+06 4.20052e+06 3.65869e+06 3.35761e+06 4.44821e+06 2.45496e+06 2.57731e+06 4.42189e+06 2.11397e+06 1.96563e+06 1.55375e+06 3.91825e+06 1.50917e+06 1.4801e+06 1.43916e+06 1.4762e+06 1.3378e+06 1.28592e+06 1.2647e+06 1.15273e+06 1.28786e+06 1.15048e+06
threshold=-4.436295440734896 -0.84865925457593738 2.7408929313762145 -1.0951162561133927 0.90012676864599472 4.0423310957282661 -1.8268733486775932 -0.42646151772830659 -0.0093233499999999993 2.5525282184369678 -0.61155440202731803 3.1992722284881485 4.2887611825015552 0.92606511018360871 1.7818919455773463 1.8160667124286929 0.0049815050000000015 3.0641361997171255 4.1688638701117249 -0.92950963284155896 1883.0548964403986 -148.23653198823726 169.92831310845392 -1.1612414077728275 -77.528567827326853 -324.23014518181242 1.9864199700965417 3.0726963895016115 -95.247646161190076 0.870549082594125
decision_type=2 2 2 2 2 2 2 2 2 2 2 2 2 2 2 2 2 2 2 2 2 2 2 2 2 2 2 2 2 2
left_child=1 -1 3 4 24 18 7 10 9 -9 13 17 -13 16 15 -15 25 20 -2 -20 -10 -21 -5 29 -3 -7 -25 -23 -29 -24
right_child=5 2 -4 22 -6 6 -8 8 11 -11 -12 12 -14 14 -16 -17 -18 -19 19 21 -22 27 23 26 -26 -27 -28 28 -30 -31
leaf_value=4.1747755851745607 0.0044308799292894011 0.18248069182659191 -3.8176683011319903 1.0260651044845581 -2.381888982599432 0.51100700142370026 3.4866400601863861 0.059812809172130769 -0.21545586402649466 -3.1026613426208498 2.3515921964593556 2.3130960385939652 -0.19215769458461451 0.73477311339018481 0.016495967532197637 3.4458528495970229 -1.0187253372920186 -1.4048954319184828 -2.4076315225873675 -1.4500222119418058 1.0714682380969709 0.012743295152720654 -0.2138234859814673 -0.00087281853311202114 -1.1625706873441997 -0.14183516466256346 1.1524175221992261 -1.3906039473589729 0.043682884347849886 -1.237557558001894
leaf_weight=20 117855 36 36 30 33 176 20 21 184 21 23 34 37 53 48 21 38 31 21 22 26 304 163 85 38 132 33 34 29 33
leaf_count=20 117855 36 36 30 33 176 20 21 184 21 23 34 37 53 48 21 38 31 21 22 26 304 163 85 38 132 33 34 29 33
internal_value=0.00368793 -0.349322 -0.535117 -0.273095 -1.08608 0.00519029 0.255166 0.178682 -0.134751 -1.52142 0.404659 0.0519166 1.00754 0.308977 0.918834 1.50413 0.0939405 -0.229616 0.00336195 -0.303904 -0.0561224 -0.190335 -0.0202183 -0.120182 -0.508221 0.231218 0.321658 -0.114822 -0.730377 -0.386187
internal_weight=119637 507 487 451 107 119130 865 845 354 42 491 312 71 468 122 74 346 241 118265 410 210 389 344 314 74 308 118 367 63 196
internal_count=119637 507 487 451 107 119130 865 845 354 42 491 312 71 468 122 74 346 241 118265 410 210 389 344 314 74 308 118 367 63 196
is_linear=0
shrinkage=0.005


Tree=4
num_leaves=31
num_cat=0
split_feature=25 7 40 22 23 67 97 6 48 103 108 99 99 132 22 133 39 140 150 50 98 14 39 30 74 65 93 30 14 27
split_gain=6.41767e+06 1.45824e+07 2.35466e+06 1.07224e+07 1.48164e+07 2.25714e+07 4.80875e+06 5.97168e+06 2.34553e+06 2.33678e+06 2.23116e+06 2.45085e+06 1.74003e+06 9.52969e+06 1.71165e+07 3.21468e+06 2.56374e+06 2.03273e+06 1.70488e+06 1.68328e+06 1.60408e+06 1.49206e+06 3.3593e+06 1.45186e+06 1.44607e+06 1.44063e+06 1.37685e+06 1.31695e+06 1.47615e+06 1.46274e+06
threshold=-4.4081024461642029 1303.1800638747006 -0.0038391499999999991 0.074374307045532703 2.8600942901527477 -0.77215613142113126 0.12419351575259628 974.32040102387498 377.68307521470427 0.66975729537000261 -2365.1796627193849 -3.626375152307562 -3.9709279452158328 -0.64051942154138963 0.032115382107281397 0.12533793499999993 -0.0096136030243055542 0.4979784194930546 0.098671506795561553 -265.52898949463491 0.15848160309400836 1648.734256769219 -0.0037439823020833335 4072.6539589442818 -0.3119469738634259 4.6886781700220181 -0.24523224990905393 6855.0620353721706 1002.0283556889855 2.5067821705188447
decision_type=2 2 2 2 2 2 2 2 2 2 2 2 2 2 2 2 2 2 2 2 2 2 2 2 2 2 2 2 2 2
left_child=1 8 3 10 5 -5 7 -6 19 -8 -2 20 13 14 -4 16 -15 -17 21 24 -12 27 -23 26 -1 -18 -21 28 -13 -30
right_child=2 -3 12 4 6 -7 9 -9 -10 -11 11 18 -14 15 -16 17 25 -19 -20 23 -22 22 -24 -25 -26 -27 -28 -29 29 -31
leaf_value=1.2190887678823163 1.6569317898750304 -4.3762400484085084 -0.21790494921960327 1.1490526662932501 -0.28503067357973622 7.7739206919670112 -2.0512727301461355 3.4899675543494522 -1.7785932078318936 0.12339972734451295 -0.17429034647734271 0.041241524765888854 0.0025749779816539842 -1.7756664357582728 -5.9324870600700379 0.25171429881027768 -0.059061383018883071 2.282690475854007 1.3237963497161866 0.056925125132790577 -2.0039461941480634 0.78269057057120583 -1.6845308056393185 -1.2814513547853992 -0.1780826997756958 -1.4253077158927918 -0.61853757435264012 -0.98679601669311523 -0.11933481422066688 1.615037988232028
leaf_weight=31 20 24 38 36 22 20 21 20 28 30 23 492 118014 24 20 28 547 22 25 139 25 22 37 44 46 20 165 28 20 31
leaf_count=31 20 24 38 36 22 20 21 20 28 30 23 492 118014 24 20 28 547 22 25 139 25 22 37 44 46 20 165 28 20 31
internal_value=0.000694536 -0.578114 0.00300328 0.261876 1.48321 3.51508 0.25972 1.51259 -0.376889 -0.772054 0.0101767 -0.0366726 0.00110175 -0.247628 -2.18845 -0.0720149 -0.175006 1.14534 0.0432465 -0.284541 -1.12724 -0.00756893 -0.76455 -0.432557 0.384415 -0.107253 -0.309691 0.070648 0.125176 0.934892
internal_weight=120062 477 119585 872 149 56 93 42 453 51 723 703 118713 699 58 641 591 50 655 425 48 630 59 348 77 567 304 571 543 51
internal_count=120062 477 119585 872 149 56 93 42 453 51 723 703 118713 699 58 641 591 50 655 425 48 630 59 348 77 567 304 571 543 51
is_linear=0
shrinkage=0.005


Tree=5
num_leaves=31
num_cat=0
split_feature=75 56 12 103 5 137 46 110 9 82 94 84 84 153 163 44 105 158 113 56 67 134 30 108 140 134 120 136 117 30
split_gain=7.04224e+06 7.4938e+06 3.92777e+06 3.30916e+06 2.17423e+06 2.35119e+06 2.72831e+06 2.60222e+06 3.00386e+06 2.65316e+06 2.03129e+06 1.80661e+06 1.89826e+06 1.68553e+06 1.73645e+07 7.92949e+06 1.35305e+07 4.0384e+06 3.6008e+06 2.45312e+06 2.26196e+06 2.24344e+06 3.39215e+06 1.99643e+06 1.34114e+06 2.25702e+06 1.11706e+06 1.07406e+06 985635 977584
threshold=1529.0603452159505 -2.1964872638704089 -928.17368484639053 2.3034297850833743 0.58152556514508935 -147.71589550577053 537.51413183277816 -3.5618345869357215 0.65528765963133562 0.96180680829016885 -0.00087312999999999985 0.00057725000000000018 -0.00091641499999999996 -2.7050558400069145 -2.40476150191911 -402.51401829723306 -0.28527584733513206 2.5578373731853881 0.8322657147150414 -2.1964872638704089 -2.7536636849246503 -0.062815217560450984 1224.5190591292446 -488.71091744766665 4.7593069341873981 0.040912447175288642 2.3371113241955652 -0.68364272370065093 84.270347072735731 4801.4372484628338
decision_type=2 2 2 2 2 2 2 2 2 2 2 2 2 2 2 2 2 2 2 2 2 2 2 2 2 2 2 2 2 2
left_child=13 -2 -3 4 5 7 26 8 -4 10 -9 12 -11 14 -1 16 -16 19 -19 23 -18 22 -21 -17 25 -23 -7 -12 -29 -14
right_child=1 2 3 -5 -6 6 -8 9 -10 11 27 -13 29 -15 15 17 20 18 -20 21 -22 24 -24 -25 -26 -27 -28 28 -30 -31
leaf_value=-4.685975118818738 3.6075264475345614 2.6459051284790043 1.9652849088112512 2.1448535019874573 -0.90245852682325578 0.91137863433121569 2.3897567208607993 -2.1809216208457944 -0.31835882008075717 1.0576688763073512 0.60516789817810057 1.4016429904199417 0.046642067730426791 0.0020529977903397806 5.021563797950745 -2.0335900985399884 -0.92376903448104852 -3.2506273807287216 -0.31927596829154276 -0.33513211561285927 1.3322049312591555 -0.12002845294143541 2.4111083336309953 -0.25141850970008156 1.0642378278918887 -1.5835299894544812 -0.44084844589233402 0.093963212728500362 -1.3390076430638633 -1.2729496765136719
leaf_weight=21 20 20 36 25 36 56 27 20 24 28 20 31 32 117746 20 30 25 20 22 23 20 1085 22 33 23 27 21 20 30 25
leaf_count=21 20 20 36 25 36 56 27 20 24 28 20 31 32 117746 20 30 25 20 22 23 20 1085 22 33 23 27 21 20 30 25
internal_value=0.00243617 0.612616 0.479804 0.379289 0.270572 0.384705 1.02214 0.135481 1.05183 -0.131415 -0.775623 0.368401 -0.00842903 2.34597e-05 -0.17428 -0.104098 1.59971 -0.190283 -1.71516 -0.138759 0.0788861 -0.0874342 1.00747 -1.10007 -0.130845 -0.155563 0.542589 -0.374109 -0.765819 -0.532126
internal_weight=119588 471 451 431 406 370 104 266 60 206 90 116 85 119117 1371 1350 65 1285 42 1243 45 1180 45 63 1135 1112 77 70 50 57
internal_count=119588 471 451 431 406 370 104 266 60 206 90 116 85 119117 1371 1350 65 1285 42 1243 45 1180 45 63 1135 1112 77 70 50 57
is_linear=0
shrinkage=0.005


Tree=6
num_leaves=31
num_cat=0
split_feature=104 163 111 138 56 82 101 132 28 105 36 163 92 128 132 132 159 148 79 70 132 82 68 148 76 159 92 83 7 43
split_gain=7.46077e+06 9.76901e+07 4.24657e+06 6.30347e+06 5.25428e+06 4.95329e+06 4.19981e+06 1.75018e+07 8.16188e+06 5.30937e+06 7.10161e+06 5.2153e+06 4.88312e+06 3.67443e+06 2.34395e+06 3.55829e+06 3.4058e+06 2.12938e+06 2.22056e+06 1.89471e+06 1.69935e+06 1.74114e+06 1.56106e+06 1.55601e+06 1.25353e+06 1.08425e+06 927911 926570 2.79452e+06 3.22653e+06
threshold=-3.6444973849969213 -2.173570685750617 -2.8566196496512561 4.6012624648997509 -1.18406713572789 0.92606511018360871 2908.0018118555677 -0.58781340141815142 0.99390304829950737 4.7931409023812774 0.42404048705638581 1.537646047383856 -413.79698624753877 2.0871214303615568 1.2857274698014887 0.18962099169439292 0.072997174740402362 2.811553803973144 -2.5331667819511341 -0.4587814337305281 0.10372017333397605 0.97482599775308032 -0.0013652249999999996 1.200301278188509 67.266581475412536 -0.66716585553566154 -331.33235661872868 2.2572258178547053 1303.1800638747006 0.04970023341441461
decision_type=2 2 2 2 2 2 2 2 2 2 2 2 2 2 2 2 2 2 2 2 2 2 2 2 2 2 2 2 2 2
left_child=1 -1 4 20 -3 -5 27 -8 12 13 11 -11 -9 17 15 22 25 18 -10 -20 24 23 -14 26 -4 -17 -22 -2 -29 -30
right_child=6 2 3 5 -6 -7 7 8 9 10 -12 -13 14 -15 -16 16 -18 -19 19 -21 21 -23 -24 -25 -26 -27 -28 28 29 -31
leaf_value=-11.168787901287988 0.0017225664019034494 -3.2712555358720863 1.08077129055472 0.37190704447882517 0.0095010331960824826 3.6298505182266236 4.5380692737579347 3.0886040679268216 -1.2104731728719629 -1.9577278762705186 -3.7557980958275174 0.77293430487314863 -1.1421088204383849 1.9331560142517092 -0.74310584288377035 1.8183432524544854 2.7950551068286105 -1.6213091450645811 1.3601168923764615 -0.27493216093848732 0.86192021965980536 -1.8314947972978866 0.46757986531882995 -1.440547309451633 -0.034929179997788266 0.47221965445921976 -0.27999663124173324 -0.071617355797499394 -2.1178464034530853 0.19366470556992751
leaf_weight=21 116462 23 34 28 26 20 25 23 23 34 23 36 20 25 26 21 33 21 37 34 20 21 61 27 97 52 161 2126 36 26
leaf_count=21 116462 23 34 28 26 20 25 23 23 34 23 36 20 25 26 21 33 21 37 34 20 21 61 27 97 52 161 2126 36 26
internal_value=-0.000778235 -0.624195 -0.139651 0.0273806 -1.53045 1.72938 0.00172288 0.461788 0.244502 -0.419328 -1.34538 -0.553387 0.899893 0.195837 0.663553 0.859132 1.46205 -0.181841 0.139742 0.577136 -0.199553 -0.459377 0.0701259 -0.320845 0.254642 0.859461 -0.153818 -0.000192601 -0.102132 -1.1485
internal_weight=119622 478 457 408 49 48 119144 494 469 233 93 70 236 140 213 187 106 115 94 71 360 229 81 208 131 73 181 118650 2188 62
internal_count=119622 478 457 408 49 48 119144 494 469 233 93 70 236 140 213 187 106 115 94 71 360 229 81 208 131 73 181 118650 2188 62
is_linear=0
shrinkage=0.005


Tree=7
num_leaves=31
num_cat=0
split_feature=153 53 38 22 94 154 130 137 19 57 152 108 15 42 36 7 136 103 22 69 48 92 108 22 23 19 103 38 153 150
split_gain=3.87874e+06 1.56636e+07 2.73529e+07 5.11106e+06 1.41249e+07 9.11582e+06 4.94763e+06 2.50214e+06 2.68178e+06 2.35076e+06 2.45506e+06 8.76471e+06 1.99692e+06 1.84855e+06 2.56192e+06 4.94052e+06 3.15745e+06 3.42199e+06 3.39095e+06 2.88919e+06 3.21084e+06 2.37826e+06 2.12446e+06 2.07989e+06 2.37987e+06 2.40639e+06 3.38598e+06 2.799e+06 2.01173e+06 1.91353e+06
threshold=-3.0307132606880924 -3.8434326678778254 -2.1039798764652615 0.10299731084228593 -0.0012424349999999999 3986.837288713406 90.205428333046015 -561.80061294191557 -0.61295846476057103 -28.695542502629731 4491.477272727273 2940.0909988179387 3.6766416327672728 60.093902599709729 -0.87979503143285065 1303.1800638747006 1.5474426326111728 1.5431406094418885 0.068433575919776932 -0.00080601999999999985 168.29912098434764 132.9195598277411 4135.1617697972515 0.031068431876271726 0.96140523064512251 -0.81904323903168019 0.70556447182366933 0.893361034684374 -1.4531692028328316 0.098671506795561553
decision_type=2 2 2 2 2 2 2 2 2 2 2 2 2 2 2 2 2 2 2 2 2 2 2 2 2 2 2 2 2 2
left_child=1 2 -1 13 5 -5 7 8 -3 -6 -11 -12 -13 -2 15 -15 18 -18 21 20 -20 23 29 28 25 26 -25 -27 -16 -21
right_child=3 6 -4 4 9 -7 -8 -9 -10 10 11 12 -14 14 16 -17 17 -19 19 22 -22 -23 -24 24 -26 27 -28 -29 -30 -31
leaf_value=-7.5722634935379034 0.0031349034269021214 -2.2482051678361565 -0.11836905399337411 0.26951754891872404 -1.4271736199515206 4.5236438796099492 1.6529515185621051 -0.13668611919343393 -0.47631563599462867 0.061761020683212049 3.9239627227783207 0.88028416403408716 -1.1173934635249052 0.06969839050489314 -1.0234711541192045 2.5142001691071885 -0.58675973343655341 -2.5524759829485859 2.7710075290004417 0.12076036233110589 0.15668636995813121 -0.77730004299285949 1.4355927917480469 0.22721771836280824 -0.30863939085975289 0.52502090808749202 2.9763961149397353 -1.2991186338204606 -0.19825731672032582 -1.4009263684272768
leaf_weight=20 116970 29 32 20 21 34 36 761 81 243 20 29 22 204 103 23 123 27 24 119 23 204 25 24 176 110 21 26 261 25
leaf_count=20 116970 29 32 20 21 34 36 761 81 243 20 29 22 204 103 23 123 27 24 119 23 204 25 24 176 110 21 26 261 25
internal_value=0.00020865 -0.316501 -2.98525 0.0027636 0.574952 2.94804 -0.163497 -0.238574 -0.94345 0.192424 0.300741 1.11866 0.0185409 0.000885084 -0.172475 0.317379 -0.258608 -0.940589 -0.168952 0.395116 1.49166 -0.30067 0.0901606 -0.165812 0.105356 0.507916 1.51017 0.176288 -0.431766 -0.143421
internal_weight=119836 959 52 118877 389 54 907 871 110 335 314 71 51 118488 1518 227 1291 150 1141 216 47 925 169 721 357 181 45 136 364 144
internal_count=119836 959 52 118877 389 54 907 871 110 335 314 71 51 118488 1518 227 1291 150 1141 216 47 925 169 721 357 181 45 136 364 144
is_linear=0
shrinkage=0.005


Tree=8
num_leaves=31
num_cat=0
split_feature=96 85 47 51 28 28 19 45 2 160 139 47 25 143 16 132 132 163 15 111 82 0 102 94 19 73 3 115 58 113
split_gain=2.92722e+06 6.47049e+06 7.34098e+06 5.43613e+06 8.03034e+06 4.80452e+06 4.39612e+06 4.29849e+06 3.69389e+06 2.81818e+06 2.78532e+06 1.86741e+06 1.66865e+06 5.13146e+06 6.62621e+06 2.8332e+06 1.78129e+06 2.75184e+06 1.42139e+06 1.5749e+06 2.43433e+06 1.29643e+06 3.23779e+06 2.21514e+06 1.98449e+06 2.59249e+06 1.89461e+06 1.82331e+06 1.24032e+06 1.50873e+06
threshold=0.23491324981334263 -3.0302148383314855 340.8059033172662 -0.17800676101382781 1.8103241346626509 1.7057826290172649 0.15869927307294934 -3.7596602782058155 4.1428474137975817 -0.02935004284762768 668.1553670540942 340.8059033172662 -3.8964033605666666 -905.03491559616452 0.0052556800000000013 1.2857274698014887 -0.34934920356977134 1.1601934631545259 -3.6049420976870228 0.82257521375887477 0.80740304346462854 -2.6310944193759243 2.8212392754393139 0.0019600650000000004 1.8201022254632637 3.390826364295275 -0.77307757353766571 -4.576013052282355 2.2601139269591908 1.5801648065708267
decision_type=2 2 2 2 2 2 2 2 2 2 2 2 2 2 2 2 2 2 2 2 2 2 2 2 2 2 2 2 2 2
left_child=12 2 9 5 11 7 -7 8 -3 -2 28 -5 13 -1 15 16 17 -15 -18 -20 -21 22 24 26 -14 27 -24 -26 29 -9
right_child=1 3 -4 4 -6 6 -8 10 -10 -11 -12 -13 21 14 -16 -17 18 -19 19 20 -22 -23 23 -25 25 -27 -28 -29 -30 -31
leaf_value=-2.0858925112315587 1.5961982978820799 2.4383602455931324 3.4975991491837939 0.074326474199692405 3.9260262708663944 -0.49929516342708041 -3.4378713819980624 0.049814599931958206 -0.31777871990203854 -0.8289665802665378 -1.2365935342289784 1.7612081464131675 0.026809705399845934 -0.43081632234122419 2.1369894955235145 1.244895635843277 0.9786713637624469 -2.0446595764954885 -0.091078163035360038 0.21025280869525412 -1.9679489859219255 0.0061694956373894707 0.51059976058847767 -2.0146898654301961 -1.7178612996339797 -1.8353494908014936 -0.83840220247840025 -0.1392099118009906 -1.0138145243525505 1.5796357617378234
leaf_weight=35 25 31 33 75 20 35 20 83 20 23 54 21 1213 221 31 32 28 30 510 23 29 116810 34 30 20 30 111 214 20 20
leaf_count=35 25 31 33 75 20 35 20 83 20 23 54 21 1213 221 31 32 28 30 510 23 29 116810 34 30 20 30 111 214 20 20
internal_value=0.00410481 0.393783 1.68222 0.132221 1.0438 -0.241428 -1.56787 0.0785464 1.35752 0.43414 -0.289972 0.443332 0.00253827 -0.207407 -0.134678 -0.215344 -0.270906 -0.623706 -0.120817 -0.175595 -1.00451 0.00420242 -0.134886 -0.77796 -0.0586923 -0.451548 -0.522085 -0.274137 0.125618 0.346867
internal_weight=119881 480 81 399 116 283 55 228 51 48 177 96 119401 939 904 873 841 251 590 562 52 118462 1652 175 1477 264 145 234 123 103
internal_count=119881 480 81 399 116 283 55 228 51 48 177 96 119401 939 904 873 841 251 590 562 52 118462 1652 175 1477 264 145 234 123 103
is_linear=0
shrinkage=0.005


Tree=9
num_leaves=31
num_cat=0
split_feature=76 127 118 73 156 33 162 73 158 153 26 47 35 26 163 162 145 35 110 76 78 47 35 39 78 86 42 15 39 33
split_gain=5.35558e+06 7.05235e+06 1.64857e+07 3.9608e+06 4.24758e+06 2.60652e+06 6.80471e+06 4.67921e+06 1.14872e+07 2.94448e+06 2.61406e+06 2.46936e+06 2.88142e+06 2.22486e+06 2.40755e+06 1.9853e+06 1.9359e+06 1.79656e+06 3.34426e+06 5.80083e+06 2.23824e+06 2.55236e+06 1.68819e+06 1.66483e+06 3.3505e+06 1.78155e+06 1.78952e+06 1.81761e+06 1.7579e+06 1.53106e+06
threshold=2117.2042028563415 -0.0019739200000000001 3.3166557087115431 2.3558157560048376 -56.059834590005401 -3.1515320586995861 -2.9720298854280718 3.390826364295275 -2.762316774578264 -3.6118587891450722 2081.6196579965367 246.6196873055238 3.2893902716189003 3634.0706697597184 2.2174431710323583 0.13841157548420233 -0.24707175127874573 4.7291042140657762 3.733555222820871 711.69251818319799 -488.52956355808493 267.49547218481888 1.849630629850169 -0.0096136030243055542 -1007.4469368885351 2.9196999994429089 70.753210073753749 -0.52161075677744917 0.00011894559027777778 -0.12874032486846121
decision_type=2 2 2 2 2 2 2 2 2 2 2 2 2 2 2 2 2 2 2 2 2 2 2 2 2 2 2 2 2 2
left_child=5 2 -2 4 11 6 -1 9 -9 10 -8 15 -13 -5 22 -3 -17 -7 20 -20 -19 -22 -15 24 -11 -25 27 -27 -29 -24
right_child=1 3 -4 13 -6 17 7 8 -10 23 -12 12 -14 14 -16 16 -18 18 19 -21 21 -23 29 25 -26 26 -28 28 -30 -31
leaf_value=-2.8103097494939964 0.27043237856456215 1.4236459403514863 5.260091651916504 0.46911861345685768 2.740783598733985 0.0038349715227502402 -0.48318975496094257 4.119346670670943 -0.42058993204643857 -2.5865198321342469 -2.0256825567829995 0.47727859884500506 2.8965517807602885 -1.590961134672165 -2.1053293732643126 -1.395740407804648 0.18868923708492397 -0.46320981590178884 0.038772567704666493 2.7803085564204624 0.22337552903230126 1.9895049159423164 1.1762460091000511 -0.14275565628790193 -0.21327297005160101 0.6868048819193715 1.269380126580214 -0.48268122957817228 0.59180638004232333 -0.49096902275085447
leaf_weight=24 49 25 25 58 23 117046 241 22 38 20 31 32 20 20 25 24 98 110 43 35 185 23 21 1656 58 95 39 129 54 40
leaf_count=24 49 25 25 58 23 117046 241 22 38 20 31 32 20 20 25 24 98 110 43 35 185 23 21 1656 58 95 39 129 54 40
internal_value=0.00370102 0.542172 1.95613 0.271103 0.706427 0.00163428 -0.161242 -0.134562 1.24405 -0.17017 -0.658989 0.471301 1.40777 -0.318178 -0.748963 0.140033 -0.123002 0.00497246 0.341182 1.26895 0.113616 0.418669 -0.330331 -0.105344 -0.821798 -0.0770195 0.266385 0.125677 -0.165619 0.0829903
internal_weight=120309 460 74 386 222 119849 2407 2383 60 2323 272 199 52 164 106 147 122 117442 396 78 318 208 81 2051 78 1973 317 278 183 61
internal_count=120309 460 74 386 222 119849 2407 2383 60 2323 272 199 52 164 106 147 122 117442 396 78 318 208 81 2051 78 1973 317 278 183 61
is_linear=0
shrinkage=0.005


Tree=10
num_leaves=31
num_cat=0
split_feature=151 148 101 19 134 20 54 65 37 151 19 22 107 20 13 90 133 4 92 122 82 70 81 2 107 46 139 40 21 119
split_gain=5.88447e+06 1.73149e+07 4.52466e+06 5.05268e+06 1.57904e+07 4.27371e+06 4.56262e+06 3.56568e+06 4.00201e+06 3.44012e+06 3.1825e+06 3.27943e+06 4.28662e+06 4.85944e+06 2.88668e+06 3.1169e+06 3.03519e+06 2.35628e+06 4.02163e+06 3.37128e+06 4.16112e+06 2.93948e+06 2.34185e+06 2.59812e+06 2.22327e+06 3.19999e+06 1.99476e+06 1.86454e+06 1.69782e+06 2.09798e+06
threshold=-4.3894293087198912 2.0457413610645356 2206.9688722289843 3.6565316925656473 0.072231733833172176 0.14566336522539639 -0.00099247499999999982 4.6886781700220181 -0.20835284759402797 -0.66844660927561395 -1.0062963251038159 0.061260033598634904 0.13667584945584035 1.4876511038357763 0.92978255232807905 -7.6169923709901157 -0.064337203999999856 -290.03883582944417 -80.220103465690173 3.6352662904096325 0.94514473275275301 -0.8783140090592888 2.3132176387601402 1.6653886878635664 -0.32324904806440308 391.61047151925931 1011.8439088678344 -0.0016945049999999996 1.9163864297333262 -22.145845075730026
decision_type=2 2 2 2 2 2 2 2 2 2 2 2 2 2 2 2 2 2 2 2 2 2 2 2 2 2 2 2 2 2
left_child=1 7 -2 5 -5 6 9 8 -1 -4 11 -7 13 -13 15 17 -16 21 -19 27 -21 -12 23 28 25 -8 -23 -20 -10 -30
right_child=2 -3 3 4 -6 10 24 -9 22 -11 14 12 -14 -15 16 -17 -18 18 19 20 -22 26 -24 -25 -26 -27 -28 -29 29 -31
leaf_value=-2.5169847627119588 0.00056568795886421952 -4.6900969390074412 1.0147871131896973 -0.73279448390007018 5.2827051196098331 -0.28991602400938671 0.38648194984956219 1.5027244499206542 -0.18371897363974377 3.72575467413122 0.56712081779272128 0.70824054280916859 0.37014394276671936 3.8900367337465287 -2.7247018225193025 -1.9042519273757936 -0.3488403424402563 2.2234822360400499 -1.6218925266265871 -0.26857593183517453 2.4731123671993132 -0.30082645331249863 0.99330546148361709 -1.8742546379977258 -0.081910178707196163 2.7219765697826039 -1.5998478319706062 0.036604523462755188 -0.12001531839370728 -2.2797567666095238
leaf_weight=22 118630 24 25 24 20 60 44 25 306 22 78 24 72 24 20 20 41 29 20 25 31 122 31 29 78 22 39 111 22 23
leaf_count=22 118630 24 25 24 20 60 44 25 306 22 78 24 72 24 20 20 41 29 20 25 31 122 31 29 78 22 39 111 22 23
internal_value=0.00109709 -0.550252 0.00331944 0.346829 2.00152 0.266557 0.931078 -0.333317 -0.439324 2.28375 0.0892896 0.664523 1.14174 2.29914 -0.103886 0.027608 -1.12781 0.112525 0.491011 0.222339 1.24914 -0.229538 -0.328111 -0.435911 0.489581 1.16498 -0.615496 -0.216601 -0.317073 -1.22388
internal_weight=120063 482 119581 951 44 907 191 458 433 47 716 180 120 48 536 475 61 455 216 187 56 239 411 380 144 66 161 131 351 45
internal_count=120063 482 119581 951 44 907 191 458 433 47 716 180 120 48 536 475 61 455 216 187 56 239 411 380 144 66 161 131 351 45
is_linear=0
shrinkage=0.005


Tree=11
num_leaves=31
num_cat=0
split_feature=5 162 155 135 35 84 94 35 52 38 38 102 52 160 24 151 56 148 28 13 84 55 78 123 162 135 148 105 38 35
split_gain=3.31692e+06 4.12408e+07 1.80894e+07 4.90163e+06 4.87503e+06 5.33861e+06 3.56758e+06 8.27332e+06 1.23235e+07 2.6153e+06 4.59032e+06 2.47975e+06 3.51569e+06 3.13019e+06 2.31459e+06 2.63129e+06 2.05469e+06 2.02926e+06 1.9634e+06 1.89486e+06 1.72311e+06 1.8092e+06 3.876e+06 1.75794e+06 1.67357e+06 1.53109e+06 1.52108e+06 2.00062e+06 1.55884e+06 1.52652e+06
threshold=-4.0683070553831238 -3.1828736658477301 -0.9060863484447762 0.4406898817651812 4.7291042140657762 0.0016183550000000004 -0.0041470999999999991 4.1922171656336404 124.02387525957127 2.1335943706710796 2.9479843007098423 3.0139899874158798 -39.731211349666722 -0.22542019384283379 -3510.6219094503363 -2.9359080057053917 -0.22358030009008037 4.0257780855301855 1.4748979887071545 -3.7963430352198126 -0.0052300649999999999 -0.72088642700772843 -1619.2684437973628 -75.599683449735764 1.0269068091889209 0.13961407491486896 -1.3203192540366349 0.021578368674775448 -1.1430004748941942 -2.0390487569156277
decision_type=2 2 2 2 2 2 2 2 2 2 2 2 2 2 2 2 2 2 2 2 2 2 2 2 2 2 2 2 2 2
left_child=1 -1 -3 4 11 -6 7 9 -9 19 -11 17 13 -13 15 26 -10 20 -14 -2 -4 22 -22 24 -23 -15 27 -8 29 -28
right_child=6 2 3 -5 5 -7 14 8 16 10 -12 12 18 25 -16 -17 -18 -19 -20 -21 21 23 -24 -25 -26 -27 28 -29 -30 -31
leaf_value=-5.7888674972996572 -1.4589960991252553 4.4877543334166212 -1.3589470804148707 -2.6545485582351684 0.13756610696380203 3.3438782732486727 -0.70563158035278317 5.1348649631847039 1.7639000683739072 2.4431242100397745 -0.56379139293323866 -3.1067292885158371 -0.52605499230112351 -1.6989053057034809 -0.000812072191402765 0.17534244558240614 -0.33889165419798628 1.1625075132151446 1.1863578942147168 0.070389331733479221 1.857242359826059 -0.42365015180858634 -0.042569429845445692 0.033268530095616977 -1.654676826361454 -0.057692159016927085 -1.5918537095252503 -2.7471872329711915 -0.038281280935546495 -0.13310455207167002
leaf_weight=33 22 21 29 20 37 20 30 22 21 30 22 23 70 30 117689 117 26 30 22 255 33 169 144 204 33 27 47 20 81 29
leaf_count=33 22 21 29 20 37 20 30 22 21 30 22 23 70 30 117689 117 26 30 22 255 33 169 144 204 33 27 47 20 81 29
internal_value=-0.0027348 -0.297785 -0.0990942 -0.207202 -0.151005 1.26259 -0.000380101 0.47221 2.04634 0.142072 1.17097 -0.249992 -0.78316 -1.54975 -0.00197391 -0.423999 0.600654 -0.107149 -0.116565 -0.0510781 -0.169387 -0.110215 0.311633 -0.294124 -0.624758 -0.921489 -0.762757 -1.52225 -0.520879 -1.03523
internal_weight=119356 945 912 891 871 57 118411 398 69 329 52 814 172 80 118013 324 47 642 92 277 612 583 177 406 202 57 207 50 157 76
internal_count=119356 945 912 891 871 57 118411 398 69 329 52 814 172 80 118013 324 47 642 92 277 612 583 177 406 202 57 207 50 157 76
is_linear=0
shrinkage=0.005


Tree=12
num_leaves=31
num_cat=0
split_feature=25 20 102 82 154 159 40 19 9 158 147 145 120 42 42 9 15 25 4 147 20 13 56 71 63 81 24 71 83 71
split_gain=2.59843e+06 2.6813e+07 1.07822e+07 1.68529e+06 1.4825e+06 7.47766e+06 8.83092e+06 5.41972e+06 5.26878e+06 3.38681e+06 3.25134e+06 2.67969e+06 2.61338e+06 2.26049e+06 1.635e+06 3.38761e+06 3.61973e+06 3.84184e+06 2.99801e+06 2.70485e+06 2.48174e+06 2.31217e+06 1.76333e+06 1.57772e+06 1.55599e+06 1.54193e+06 1.53855e+06 1.52984e+06 1.49742e+06 1.5041e+06
threshold=-3.8964033605666666 2.8382005411118327 4.7475427731487709 0.98079837967973127 3986.837288713406 -1.1905138910901643 -0.00093636499999999998 1.3303978461890742 1.2713700809149338 3.467587888949256 -4.2613929947907643 0.31649482388188482 2.0451697795199375 56.697791954587252 64.751534991869235 -0.93733482797945722 1.3830126048363367 0.65404540156684066 -786.12761307368976 -1.452129691818508 -0.1339992346374852 -4.1746783475978058 -0.078187624530053249 -0.4144287547695617 44.63391805045736 4.3126084501791828 -2868.9014521671647 0.30268528638448017 1.294185773413999 1.8915518381344165
decision_type=2 2 2 2 2 2 2 2 2 2 2 2 2 2 2 2 2 2 2 2 2 2 2 2 2 2 2 2 2 2
left_child=1 2 3 -1 14 6 -6 8 10 -8 -7 -9 13 25 -2 18 19 20 -16 21 -18 -17 -22 -14 27 -12 -21 -15 29 -28
right_child=4 -3 -4 -5 5 7 9 11 -10 -11 12 -13 23 24 15 16 17 -19 -20 26 22 -23 -24 -25 -26 -27 28 -29 -30 -31
leaf_value=-0.19026470288827493 0.0027811046225015065 -5.1698846887659151 2.4575204903651509 -1.4817626650516804 3.721761221731863 1.7478142776489258 -0.64531780445214482 -0.67572820093896657 2.4406058074951171 1.6376002974621953 -0.86843537289588191 -2.8753495616912841 -2.0730859375000001 1.8415748990283294 -2.7707146981488102 1.8127982298894361 -1.0625315523217707 -2.6572732643459154 -0.49464059126682769 0.44147036618793134 -0.49612124420875725 0.30689264680658068 1.0276099854006486 -0.34000679048998605 -0.33507310239168314 0.58571652467434221 -0.04776064907163835 0.29246117134888966 -1.2327243375778199 -1.0223915282355416
leaf_weight=887 117434 27 39 26 31 25 33 45 25 32 61 20 24 34 23 33 85 23 39 97 43 112 34 29 26 26 329 30 36 45
leaf_count=887 117434 27 39 26 31 25 33 45 25 32 61 20 24 34 23 33 85 23 39 97 43 112 34 29 26 26 329 30 36 45
internal_value=0.00011882 -0.256419 -0.117067 -0.227043 0.00223334 0.291595 1.52586 -0.0518521 0.250092 0.47858 0.0353359 -1.35253 -0.150803 0.140845 0.00115496 -0.211264 -0.127729 -0.74501 -1.33899 0.0474202 -0.473516 0.649616 0.176695 -1.1248 0.696394 -0.433861 -0.124805 1.11543 -0.258778 -0.165029
internal_weight=119753 979 952 913 118774 441 96 345 280 65 255 65 230 177 118333 899 837 185 62 652 162 145 77 53 90 87 507 64 410 374
internal_count=119753 979 952 913 118774 441 96 345 280 65 255 65 230 177 118333 899 837 185 62 652 162 145 77 53 90 87 507 64 410 374
is_linear=0
shrinkage=0.005


Tree=13
num_leaves=31
num_cat=0
split_feature=144 97 155 43 42 2 115 103 40 101 133 75 75 20 155 76 16 3 103 52 133 9 32 100 116 165 103 28 42 88
split_gain=7.71277e+06 3.17442e+07 4.58997e+06 6.49828e+06 3.98766e+06 8.60829e+06 9.70852e+06 5.75167e+06 5.56389e+06 4.5447e+06 3.50349e+06 3.11822e+06 2.78943e+06 2.06356e+06 8.05174e+06 3.14238e+06 3.39807e+06 4.76103e+06 2.51555e+06 2.17856e+06 7.84303e+06 2.02263e+06 1.77233e+06 1.73505e+06 1.73479e+06 1.8976e+06 1.72173e+06 2.62553e+06 2.19712e+06 1.68681e+06
threshold=-3.7309276070169481 0.16482227449969372 4.4100128418076805 -0.21396784713258452 83.244563655361063 -0.30689113142247382 -3.766734620931238 0.50828257747739147 -0.0038391499999999991 2908.0018118555677 -0.098038123000000019 219.20526018143764 -573.95035540745982 4.1688638701117249 -0.69745163929196974 1394.4325679545202 -0.004923069999999999 -0.65832689461174787 2.3034297850833743 459.87856521409361 0.02186539600000004 0.0093879632062320115 -731.58530078922354 2210.657536861193 4.0423310957282661 -1.2201061699887912 1.8608258920262999 1.9900446548635806 46.755011798534937 330.4052442548911
decision_type=2 2 2 2 2 2 2 2 2 2 2 2 2 2 2 2 2 2 2 2 2 2 2 2 2 2 2 2 2 2
left_child=1 2 -1 -4 13 6 7 -6 -8 11 -11 23 -10 15 -15 -2 17 -17 19 26 -21 -5 -14 -7 -16 -26 27 -18 -28 -13
right_child=4 -3 3 21 5 9 8 -9 12 10 -12 29 22 14 24 16 18 -19 -20 20 -22 -23 -24 -25 25 -27 28 -29 -30 -31
leaf_value=-0.10257400602255899 0.00051251763415948468 -5.7993224048614502 -3.8206895791916624 0.62907379822297527 4.2934790391921993 -0.46138612886754482 1.9543989554047585 0.72696169853210446 -1.2874709462523461 -4.0225831308364866 -1.4799895563579741 0.67592615116967092 0.74079316729591005 -3.2888744708624751 -0.020817024865836808 2.9724199068987809 0.094934387077363278 0.32744733390600789 1.9485277678966524 -0.058703651720163778 3.6568503088951112 -1.4132913843790689 -0.7494957990238541 -1.7829256415367127 -0.04792943326438346 -1.5430058190497484 0.074709768584280301 1.4038149172067642 -1.9384141051250956 -1.0134357322346081
leaf_weight=388 117865 28 21 22 20 41 24 26 80 20 42 45 42 22 330 27 909 46 20 49 20 27 38 63 41 44 33 40 23 22
leaf_count=388 117865 28 21 22 20 41 24 26 80 20 42 45 42 22 330 27 909 46 20 49 20 27 38 63 41 44 33 40 23 22
internal_value=-0.00253242 -0.631139 -0.31518 -1.49362 1.48767e-05 -0.463111 0.223091 2.27762 -0.290541 -1.14048 -2.30018 -0.72 -0.627283 0.00180971 -0.341149 0.00306881 0.26125 1.30572 0.191555 0.158836 1.01827 -0.496311 0.0329059 -1.26193 -0.184884 -0.821851 0.0998307 0.150103 -0.752109 0.12121
internal_weight=120418 486 458 70 119932 463 230 46 184 233 62 171 160 119469 437 119032 1167 73 1094 1074 69 49 80 104 415 85 1005 949 56 67
internal_count=120418 486 458 70 119932 463 230 46 184 233 62 171 160 119469 437 119032 1167 73 1094 1074 69 49 80 104 415 85 1005 949 56 67
is_linear=0
shrinkage=0.005


Tree=14
num_leaves=31
num_cat=0
split_feature=23 9 66 47 25 18 66 77 31 123 82 99 153 42 43 99 29 10 68 22 58 151 112 125 22 36 43 16 137 137
split_gain=5.48462e+06 4.52803e+07 6.83168e+06 6.70404e+06 3.79825e+06 7.78836e+06 3.85875e+06 8.59589e+06 3.32927e+06 2.32068e+06 2.03556e+06 1.88129e+06 1.59158e+06 2.73136e+06 3.26755e+06 2.66582e+06 3.44094e+06 2.30992e+06 4.60453e+06 1.95458e+06 8.45694e+06 1.99627e+06 3.63622e+06 1.95285e+06 1.69835e+06 1.62424e+06 1.59874e+06 1.58832e+06 1.48317e+06 1.8837e+06
threshold=3.5454334150555176 -1.2141375522446731 -118.98207862753139 435.11004004678006 -4.4081024461642029 0.78647701968394446 -118.98207862753139 4.7634806150610265 4.8951088574138035 -174.23294328307966 0.49692884700183537 -1.6839520367833167 2.3024773648916717 70.753210073753749 -2.2318244813271799 -1.2182564393571063 3.0839687377111944 212.01877735321565 -0.0013249949999999998 0.07626961841075984 3.7157581326218909 -2.6262673346356764 -49.495424858863039 -141.64332184694646 0.013246842117887668 0.054824261622694333 -0.35355298852211897 -0.0025231899999999994 -508.52333947130285 -365.57670661084109
decision_type=2 2 2 2 2 2 2 2 2 2 2 2 2 2 2 2 2 2 2 2 2 2 2 2 2 2 2 2 2 2
left_child=4 -2 -3 9 5 27 7 8 10 -4 -6 -12 13 -8 -15 17 24 18 -16 21 23 22 -14 -21 -17 -19 -27 -1 -25 -30
right_child=1 2 3 -5 6 -7 12 -9 -10 -11 11 -13 19 14 15 16 -18 25 -20 20 -22 -23 -24 28 -26 26 -28 -29 29 -31
leaf_value=-1.600072677192234 -7.8971464733928443 -2.3037122135692174 -1.5198221365610758 2.6525141629305753 1.2735168677568436 -2.7451806953975133 0.0016423491933546725 3.2324273755815298 1.9854130082660251 -0.074332762036981914 0.57921027073107267 -0.28965380492460663 -2.456810025215149 -2.142550123023987 2.4745282109578453 -1.4203412748205251 -2.3124150987342 -0.04050287349486914 0.015339133894961814 1.4824116292493097 2.9921161721547449 0.10214676627123109 -0.19147171693848028 -0.91186455772769071 0.034753586471080782 -1.9727180554316597 -0.3720664936456925 -0.18044639556385483 1.3649568972443089 0.10400751751186939
leaf_weight=21 20 36 30 22 36 35 114916 27 27 373 95 181 20 25 24 29 32 127 92 29 30 2484 155 31 65 26 39 319 33 289
leaf_count=21 20 36 30 22 36 35 114916 27 27 373 95 181 20 25 24 29 32 127 92 29 30 2484 155 31 65 26 39 319 33 289
internal_value=0.000942936 -0.531896 -0.212362 -0.0352129 0.0030933 -0.499321 0.00467904 0.517284 0.301034 -0.181937 0.15527 0.00941173 0.00309509 0.000104832 -0.384831 -0.283579 -0.896256 -0.0329391 0.524137 0.115437 0.435892 0.0657835 -0.450368 0.235141 -0.414159 -0.369506 -1.01233 -0.268129 0.132674 0.233235
internal_weight=119668 481 461 425 119187 375 118812 366 339 403 312 276 118446 115375 459 434 126 308 116 3071 412 2659 175 382 94 192 65 340 353 322
internal_count=119668 481 461 425 119187 375 118812 366 339 403 312 276 118446 115375 459 434 126 308 116 3071 412 2659 175 382 94 192 65 340 353 322
is_linear=0
shrinkage=0.005


Tree=15
num_leaves=31
num_cat=0
split_feature=149 163 102 56 68 19 83 70 154 148 46 126 14 148 140 148 28 70 74 76 112 29 163 25 39 76 106 126 91 93
split_gain=6.11799e+06 4.6255e+07 4.66681e+06 5.51986e+06 3.10325e+06 7.60947e+06 1.85284e+07 5.93756e+06 4.99326e+06 2.56644e+06 3.28584e+06 3.89632e+06 2.38406e+06 2.23233e+06 2.05744e+06 3.22575e+06 2.85372e+06 2.96871e+06 2.78749e+06 2.31882e+06 2.28446e+06 1.70235e+06 1.61397e+06 1.56416e+06 5.68974e+06 1.61979e+06 5.77682e+06 2.18905e+06 1.97359e+06 2.70731e+06
threshold=-3.6128432867916325 -1.9462728047394364 -0.81912214579582032 -0.1384617616808542 -0.0093233499999999993 1.9073022386047034 0.72168233313157837 -3.9174092801126705 3986.837288713406 0.67912974906940438 391.61047151925931 -0.65225838865659513 1648.734256769219 -1.5828719708249668 3.9711420850065831 1.5693313137140603 1.2340705911847503 1.6350739924541395 -0.12281730705442631 1140.792511028639 8.98906372967412 -2.4076448967477839 0.59253253988174093 -4.4081024461642029 0.00074375840625000018 1631.3512975070269 -10.024392700069273 -1.6566011784376042 0.76782149498150432 2.8401466668660933
decision_type=2 2 2 2 2 2 2 2 2 2 2 2 2 2 2 2 2 2 2 2 2 2 2 2 2 2 2 2 2 2
left_child=1 -1 3 -3 5 7 -7 8 -2 13 -11 -12 -8 21 16 19 17 18 -9 -16 -18 -4 -20 24 -6 -25 27 -27 -29 -30
right_child=4 2 9 -5 23 6 12 14 -10 10 11 -13 -14 -15 15 -17 20 -19 22 -21 -22 -23 -24 25 -26 26 -28 28 29 -31
leaf_value=-7.6456204971400181 0.073816536664962767 -0.36095707261088222 -1.9508553161791391 3.2684205229282379 -0.15040785638949097 -5.849312232789539 0.93446389588442713 1.1129533212415634 3.4565508031845091 -0.056069351343008188 -3.5629604530334475 -0.72829259448581274 -1.166026080948966 0.02146904970361636 -0.71871616806145067 0.49727456631867784 1.2701103004521015 -1.8015208755599128 -1.4061034740342035 -2.8107709869971642 -0.374963589641783 -0.20732033789157867 0.24761661243438721 0.0055686348037994491 -2.6915834796428681 -0.58794875431596572 2.5462378102082472 0.16659963391158253 -0.096803837490081798 2.0991921096295121
leaf_weight=22 24 22 28 20 268 21 22 31 20 39 22 27 35 260 27 23 51 36 36 26 36 28 25 117756 24 89 26 665 25 32
leaf_count=22 24 22 28 20 268 21 22 31 20 39 22 27 35 260 27 23 51 36 36 26 36 28 25 117756 24 89 26 665 25 32
internal_value=0.00248528 -0.568075 -0.218958 1.36732 0.00472356 -0.42794 -1.83446 -0.100451 1.61142 -0.383868 -1.13904 -2.001 -0.355311 -0.173566 -0.359291 -1.06642 -0.109328 -0.584238 -0.10791 -1.74501 0.58939 -1.07909 -0.728349 0.00622661 -0.359272 0.00712654 0.226305 0.15193 0.243134 1.13604
internal_weight=119766 468 446 42 119298 413 78 335 44 404 88 49 57 316 291 76 215 128 92 53 87 56 61 118885 292 118593 837 811 722 57
internal_count=119766 468 446 42 119298 413 78 335 44 404 88 49 57 316 291 76 215 128 92 53 87 56 61 118885 292 118593 837 811 722 57
is_linear=0
shrinkage=0.005


Tree=16
num_leaves=31
num_cat=0
split_feature=20 29 43 46 100 133 31 111 82 45 36 83 33 19 20 70 8 103 70 33 29 111 17 46 94 83 128 6 161 72
split_gain=2.27599e+06 1.13318e+07 6.40015e+06 6.73834e+06 2.04493e+06 8.64201e+06 1.12932e+07 4.779e+06 4.66883e+06 3.97716e+06 7.39582e+06 3.79772e+06 2.87934e+06 2.20324e+06 2.19144e+06 2.92629e+06 1.51249e+06 1.4708e+06 1.52834e+06 1.44764e+06 1.99003e+06 2.01874e+06 1.69061e+06 2.42128e+06 1.68875e+06 2.87973e+06 1.58211e+06 2.32589e+06 2.63087e+06 1.35328e+06
threshold=4.1688638701117249 -2.202755462816576 1.6887889733192061 683.40895007272479 4440.8032201661399 -0.118381159 -0.51483568092036458 -1.8817398117423541 0.91838216190281408 -3.4592047019360828 0.4448515728157158 1.5738696775880168 0.32873845362669185 0.26004562464231656 1.3928409094014023 -0.60467321009846209 2.6122750603340523 1.3607430698453964 -0.64392759109899977 -2.9202731983168255 3.4073012331321118 -2.4318354159546174 3.6565873734971297 328.71534202241321 -0.0041470999999999991 -0.85378070454743649 -4.0567971841911765 930.3255565957603 -1.796773452335946 1.8735504175795143
decision_type=2 2 2 2 2 2 2 2 2 2 2 2 2 2 2 2 2 2 2 2 2 2 2 2 2 2 2 2 2 2
left_child=4 -2 3 17 19 8 -7 -8 16 10 12 14 13 -9 29 -16 -6 -3 -19 20 21 -1 24 -24 25 -23 27 -21 -29 -11
right_child=1 2 -4 -5 5 6 7 9 -10 11 -12 -13 -14 -15 15 -17 -18 18 -20 26 -22 22 23 -25 -26 -27 -28 28 -30 -31
leaf_value=-1.0893990468043908 -3.7717361172385835 0.048868325916411992 2.2852004108428954 -2.4876159300948637 0.53518326959302354 4.2313517052786693 -1.8565333993094308 2.1895393820731872 -2.5968626867979765 0.57774707888754517 3.8477417874336242 1.7946494180505925 -0.76659019291400909 0.17165594865878422 0.75963307189941409 -1.56409136953808 -1.1177638473510743 -1.6468054811709696 -0.27012182328436113 0.057813987651514624 -1.6144424191388218 -2.4754757833480836 0.088438043231765434 1.9964999041349993 -0.091152241987463828 0.14598812623457474 0.00038094178122967349 2.1876911218961079 0.470604404252151 -0.73943842013676953
leaf_weight=51 23 286 25 33 31 21 21 31 32 104 24 33 24 24 20 42 25 28 72 252 22 20 60 23 2445 22 115912 30 87 24
leaf_count=51 23 286 25 33 31 21 21 31 32 104 24 33 24 24 20 42 25 28 72 252 22 20 60 23 2445 22 115912 30 87 24
internal_value=-0.00128988 -0.349666 -0.172397 -0.319032 7.29314e-05 0.334265 0.670863 0.455387 -1.07333 0.604315 1.41692 0.228984 0.678447 1.30901 -0.0429474 -0.814503 -0.20274 -0.133635 -0.655593 -0.00120849 -0.116919 -0.104349 -0.0848013 0.617178 -0.108229 -1.10233 0.00142154 0.328299 0.910883 0.330775
internal_weight=119847 467 444 419 119380 456 368 347 88 326 103 223 79 55 190 62 56 386 100 118924 2643 2621 2570 83 2487 42 116281 369 117 128
internal_count=119847 467 444 419 119380 456 368 347 88 326 103 223 79 55 190 62 56 386 100 118924 2643 2621 2570 83 2487 42 116281 369 117 128
is_linear=0
shrinkage=0.005


Tree=17
num_leaves=31
num_cat=0
split_feature=157 135 76 141 58 65 19 80 145 154 4 103 139 157 40 20 43 82 146 154 30 134 131 139 103 16 76 65 107 157
split_gain=4.07584e+06 9.8911e+06 2.97991e+06 1.06598e+07 2.65781e+07 7.00286e+06 7.03207e+06 3.85261e+06 2.89893e+06 2.82995e+06 5.94892e+06 2.62567e+06 4.61316e+06 3.19457e+06 2.76958e+06 2.41761e+06 2.02111e+06 2.85705e+06 1.72297e+06 1.65601e+06 3.2052e+06 1.61926e+06 1.57642e+06 1.50118e+06 2.25318e+06 3.13106e+06 2.20267e+06 2.11456e+06 1.95701e+06 1.8498e+06
threshold=-3.4173868896681987 0.38210661129382328 2117.2042028563415 -134.21867979583388 2.8555583816394576 1.5059506944571999 1.291068800154483 490.29768298477944 0.10166021582564226 172.90408411437255 -1141.8854604299192 1.3878384077431916 782.44269611078573 0.43734748413676489 -0.0020919699999999999 1.5921329044813515 -0.84820797487835142 0.95711070685654775 -0.0030003649999999996 1565.50408254747 6855.0620353721706 -0.04182542747264411 2.7356425284056329 782.44269611078573 1.3352597259600085 -0.0032557999999999997 1631.3512975070269 1.6499208863850496 -0.15505827398920838 -0.50037805436854754
decision_type=2 2 2 2 2 2 2 2 2 2 2 2 2 2 2 2 2 2 2 2 2 2 2 2 2 2 2 2 2 2
left_child=1 9 23 7 5 6 -5 8 -4 10 -1 12 21 -14 -13 -7 17 18 -11 -18 -21 -9 -23 -2 26 -26 -25 -28 -27 -30
right_child=2 -3 3 4 -6 15 -8 11 -10 16 -12 14 13 -15 -16 -17 19 -19 -20 20 -22 22 -24 24 25 28 27 -29 29 -31
leaf_value=2.6491328061710706 0.0011128487478739358 -2.8644998706408908 2.4424170651643173 0.71434784635584403 6.7080378486996608 0.54405398981911801 4.2541992063522338 -1.4432996778488161 -0.16040243470668791 -1.7721458007812501 0.0014756645893349368 2.0713756952285767 -0.968282519462632 -3.3663990474882581 -0.31515179726385301 -1.4270985043389457 -0.24753691188189614 -2.3493025649677621 -0.41779416972198535 -0.053361882232129572 2.2397856279462576 -0.34991007749405173 0.86898713662510829 -0.21399840242495494 -2.2738799905776976 0.41254553604125976 1.7637492995426574 0.078663355994683049 -2.1646238817487444 -0.45444110553245992
leaf_weight=22 116761 35 23 47 21 28 20 20 20 25 595 20 41 21 31 35 753 22 387 64 20 72 42 448 28 45 29 52 21 64
leaf_count=22 116761 35 23 47 21 28 20 20 20 25 595 20 41 21 31 35 753 22 387 64 20 72 42 448 28 45 29 52 21 64
internal_value=-0.00244255 -0.230779 0.00128207 0.411523 1.48882 0.645718 1.77102 -0.149416 1.2318 -0.181955 0.0958816 -0.389871 -0.652837 -1.78055 0.620741 -0.551031 -0.316829 -0.59372 -0.499976 -0.173255 0.492626 -0.13106 0.0991573 -0.000258328 -0.233301 -0.75725 -0.0768092 0.681966 -0.430591 -0.876957
internal_weight=119812 1923 117889 441 151 130 67 290 43 1888 617 247 196 62 51 63 1271 434 412 837 84 134 114 117448 687 158 529 81 130 85
internal_count=119812 1923 117889 441 151 130 67 290 43 1888 617 247 196 62 51 63 1271 434 412 837 84 134 114 117448 687 158 529 81 130 85
is_linear=0
shrinkage=0.005


Tree=18
num_leaves=31
num_cat=0
split_feature=157 163 111 132 106 140 104 74 27 127 121 132 62 37 142 16 10 30 47 74 107 101 117 37 31 165 88 37 142 125
split_gain=4.17979e+06 8.62271e+06 4.42256e+06 5.32135e+06 2.91169e+06 2.16801e+06 1.71132e+06 5.69671e+06 4.95094e+06 3.47808e+06 5.65525e+06 6.89391e+06 1.76579e+06 2.01643e+06 2.46914e+06 1.65552e+06 1.87362e+06 1.56809e+06 2.33681e+06 1.8953e+06 1.5562e+06 6.86995e+06 3.23339e+06 4.02179e+06 1.46495e+06 1.94517e+06 1.47254e+06 1.83402e+06 1.72212e+06 1.45913e+06
threshold=-3.4173868896681987 -2.40476150191911 -2.6080501586229365 -0.079473245126942163 -33.977811104827218 1.8079623069156718 3.2360603338681364 1.7454783283540036 4.5020583998509158 0.0015738350000000002 182.64268977989386 0.60817517374249552 4.0291582379543902 0.97048287079601026 -1.3827874025032589 -0.0032557999999999997 604.53091239234607 4801.4372484628338 435.11004004678006 -0.70537238680193315 -4.5631756514070165 1663.1847982850402 72.77233597826617 -0.053876654090358363 1.7329633876114467 0.11974942014837713 206.00146512203213 0.87874109455407767 -1.3274472484548656 -190.38136355490397
decision_type=2 2 2 2 2 2 2 2 2 2 2 2 2 2 2 2 2 2 2 2 2 2 2 2 2 2 2 2 2 2
left_child=1 -1 3 5 20 -3 17 9 -9 15 12 -12 13 -11 -15 16 -8 -2 19 -19 21 22 -4 -24 25 -21 -26 28 -28 -17
right_child=6 2 4 -5 -6 -7 7 8 -10 10 11 -13 -14 14 -16 29 -18 18 -20 24 -22 -23 23 -25 26 -27 27 -29 -30 -31
leaf_value=-3.3467110566388478 0.00147745123685949 0.090357483863830565 0.44788475537863309 -3.5732742033004765 -1.875416975816091 -1.8361773271146029 -0.42589185357093812 -0.090160221572845214 -2.36393033687885 -0.1205323259647076 0.48886080946241112 4.0298401874966086 -0.64068914623821482 2.5258052792756454 0.56954026164831939 1.1655749111970266 1.0531638819830758 -1.3748310657754177 1.0291226970788205 -0.14911605289247301 -0.18389701211893264 2.3305332427866321 -2.6997495051792693 -0.23461558262507123 -0.12200700124776831 1.6937987123216902 0.0083595162101938753 -1.8439607801437379 -1.0999541661095997 0.045346831264268826
leaf_weight=22 116285 40 127 20 24 23 28 62 39 52 28 27 34 23 54 30 91 41 33 45 1501 34 21 78 255 21 79 30 63 936
leaf_count=22 116285 40 127 20 24 23 28 62 39 52 28 27 34 23 54 30 91 41 33 45 1501 34 21 78 255 21 79 30 63 936
internal_value=-0.00144493 -0.234723 -0.198072 -1.3263 -0.14561 -0.612981 0.00228338 0.175807 -0.968151 0.264479 0.840786 2.22716 0.372991 0.640163 1.15388 0.148686 0.705151 0.000198462 -0.262107 -0.341902 -0.122036 0.235095 -0.0801477 -0.757523 -0.256 0.437266 -0.363155 -0.720672 -0.483357 0.0801365
internal_weight=120146 1890 1868 83 1785 63 118256 1404 101 1303 218 55 163 129 77 1085 119 116852 567 534 1761 260 226 99 493 66 427 172 142 966
internal_count=120146 1890 1868 83 1785 63 118256 1404 101 1303 218 55 163 129 77 1085 119 116852 567 534 1761 260 226 99 493 66 427 172 142 966
is_linear=0
shrinkage=0.005


Tree=19
num_leaves=31
num_cat=0
split_feature=149 163 47 158 87 35 55 150 85 104 3 73 68 30 111 150 137 33 120 152 25 51 117 69 37 39 15 111 18 3
split_gain=4.83872e+06 4.96605e+07 1.0312e+07 2.83344e+06 1.78837e+06 1.75809e+06 4.84626e+06 8.42114e+06 3.34621e+06 3.61028e+06 3.6413e+06 2.49055e+06 2.05087e+06 2.03124e+06 4.20281e+06 4.19899e+06 1.96157e+06 3.11506e+06 4.94049e+06 3.43395e+06 1.86626e+06 1.82986e+06 2.29505e+06 1.78066e+06 1.57839e+06 2.81981e+06 1.72049e+06 1.45853e+06 1.30236e+06 1.37125e+06
threshold=-3.0317908143202668 -2.173570685750617 435.11004004678006 2.196077216687685 189.65713215743253 4.1922171656336404 -4.1422064674311301 0.10946094257527962 -2.0295015682025777 4.2363534265966454 0.63424117332514363 1.8792205526216075 0.0014853300000000002 6855.0620353721706 1.2631531167347372 0.047261562813620102 -804.46533170867735 -1.1225423443633717 -2.602281164544237 1666.6666666666665 -0.63155443374157305 -4.6305141041749076 250.73497834940733 0.000373805 -0.11934352150347489 -0.00059520333680555544 -3.6049420976870228 2.051120833527428 -0.5413140003269904 0.39668015869378509
decision_type=2 2 2 2 2 2 2 2 2 2 2 2 2 2 2 2 2 2 2 2 2 2 2 2 2 2 2 2 2 2
left_child=1 -1 3 4 24 13 7 20 9 11 -11 28 21 16 15 -15 17 19 -19 -2 -7 23 27 -10 25 -3 -26 -23 -8 -30
right_child=5 2 -4 -5 -6 6 8 -9 12 10 -12 -13 -14 14 -16 -17 -18 18 -20 -21 -22 22 -24 -25 26 -27 -28 -29 29 -31
leaf_value=-7.9548606007439755 -1.721130811691284 -2.1424533130504466 2.52190561504925 -1.6006798399258884 -0.99709671611371253 1.1902685579285026 -1.3935600097656251 4.0324280647798023 0.099096047328068662 -3.3337493829727176 -0.4959916727359478 1.4883224536123731 1.4942893080413342 -0.1119996601048811 1.1744221909840902 -1.8039729832891209 0.0035127734337516326 -2.5724697043678977 -0.4289676815148058 0.52807785659611128 -0.63299262504577636 0.25369331499210734 1.5327946779307198 -1.8853410301208495 1.0104701880847706 -0.14415375943277398 -0.14082211352774895 -0.89670142625940263 0.49046469620088257 -1.0807045482453845
leaf_weight=21 20 27 34 39 69 32 25 22 26 20 26 21 32 81 30 67 118150 33 145 112 25 552 34 20 34 51 712 29 41 21
leaf_count=21 20 27 34 39 69 32 25 22 26 20 26 21 32 81 30 67 118150 33 145 112 25 552 34 20 34 51 712 29 41 21
internal_value=0.000484366 -0.348167 -0.182804 -0.281474 -0.22386 0.00336248 0.220381 1.40477 0.109912 -0.556758 -1.7298 -0.0571294 0.258061 0.0016686 -0.532053 -0.877961 0.00247058 -0.394741 -0.826359 0.187289 0.390593 0.198213 0.270162 -0.763703 -0.159111 -0.835873 -0.0883503 0.196273 -0.430169 -0.0417055
internal_weight=120551 987 966 932 893 119564 926 79 847 154 46 108 693 118638 178 148 118460 310 178 132 57 661 615 46 824 78 746 581 87 62
internal_count=120551 987 966 932 893 119564 926 79 847 154 46 108 693 118638 178 148 118460 310 178 132 57 661 615 46 824 78 746 581 87 62
is_linear=0
shrinkage=0.005


Tree=20
num_leaves=31
num_cat=0
split_feature=38 150 7 91 128 23 151 161 42 9 10 125 150 27 150 142 15 94 138 62 162 32 62 165 161 61 23 58 109 138
split_gain=4.78685e+06 7.22307e+07 3.42133e+06 1.62293e+07 2.03283e+07 3.57792e+06 3.33765e+06 2.82662e+06 2.61433e+06 5.31022e+06 3.39543e+06 4.24204e+06 3.82019e+06 2.47124e+06 2.44186e+06 2.31969e+06 2.62377e+06 2.23676e+06 2.34097e+06 3.32737e+06 4.8256e+06 3.3496e+06 2.21094e+06 2.77815e+06 2.16138e+06 1.9967e+06 1.97713e+06 1.95736e+06 1.73547e+06 1.69245e+06
threshold=-2.7754718692116449 0.12577611789108747 1303.1800638747006 0.85527062956455924 -0.045591162038846229 -0.73201744555369197 -3.9469874273016541 -7.2361328904521232 83.244563655361063 -1.0038354917734618 410.5050818892953 109.11795832367234 0.092620532165497441 4.5020583998509158 0.075215914536901449 -4.6504587701329188 1.5804800252074453 0.00032625999999999998 4.6012624648997509 2.0588881271082373 2.6936154520285847 -540.60148336522718 2.650510559881595 -2.0018385493474509 -1.8713288709378377 114.85765931766757 0.98174479509458101 -1.2261422288538923 -0.0011942849999999998 1.8044817430668518
decision_type=2 2 2 2 2 2 2 2 2 2 2 2 2 2 2 2 2 2 2 2 2 2 2 2 2 2 2 2 2 2
left_child=1 -1 8 5 -5 -4 -7 -8 13 -10 11 14 15 -2 26 -12 29 18 19 -9 21 -21 -15 -24 -19 -18 27 -11 -25 -17
right_child=2 -3 3 4 -6 6 7 17 9 10 12 -13 -14 22 -16 16 25 24 -20 20 -22 -23 23 28 -26 -27 -28 -29 -30 -31
leaf_value=-0.064977697978074525 -0.0012944094104448511 -9.3510690944845027 -1.2419822863160179 7.032724754333497 0.26968546767234802 -1.6733529170354209 1.9658622184166541 0.17735010058380837 -2.898771298825741 0.69356168253641381 1.0463381623138082 1.8813695661483272 -2.5978335539499922 0.05379482320424242 -1.1461870323527943 0.85692575849019559 -0.78739953713170407 -1.3472366349624867 -0.25027223512530328 1.389019847393036 0.44909672339757289 4.2828065280914309 1.4273527165106785 -0.87760128543927129 0.10440766917104308 -2.8118278339930942 1.0298608505229156 -0.74326346439028546 0.51111173033535839 -0.5950247476317666
leaf_weight=435 118040 22 43 20 25 21 26 86 20 38 22 31 24 359 44 26 29 33 64 20 45 20 81 26 115 21 48 63 167 88
leaf_count=435 118040 22 43 20 25 21 26 86 20 38 22 31 24 359 44 26 29 33 64 20 45 20 81 26 115 21 48 63 167 88
internal_value=-0.00126008 -0.512011 0.000690795 0.406162 3.27548 0.133183 0.270699 0.370516 -0.00107232 -0.37977 -0.263687 0.164524 -0.720446 0.000376445 -0.111239 -0.478202 -0.682714 0.262216 0.565449 0.870748 1.5723 2.83591 0.311953 0.650196 -0.21927 -1.63766 0.194383 -0.202676 0.324031 -0.263878
internal_weight=120102 457 119645 518 45 473 430 409 119127 454 434 224 210 118673 193 186 164 383 235 171 85 40 633 274 148 50 149 101 193 114
internal_count=120102 457 119645 518 45 473 430 409 119127 454 434 224 210 118673 193 186 164 383 235 171 85 40 633 274 148 50 149 101 193 114
is_linear=0
shrinkage=0.005


Tree=21
num_leaves=31
num_cat=0
split_feature=24 46 111 135 142 163 34 95 140 55 82 148 104 117 156 68 29 24 12 132 42 123 12 7 148 35 160 148 24 91
split_gain=2.59234e+06 6.14181e+06 1.1251e+07 3.7659e+06 3.20554e+06 2.88e+06 1.81224e+06 7.28726e+06 5.3154e+06 2.08049e+06 2.56322e+06 2.46921e+06 3.67666e+06 2.29685e+06 2.53346e+06 1.93307e+06 7.52312e+06 2.9571e+06 2.2088e+06 2.30356e+06 1.93852e+06 2.07019e+06 1.74408e+06 1.71528e+06 1.7047e+06 2.19977e+06 1.62988e+06 1.50645e+06 2.03717e+06 1.31612e+06
threshold=-3510.6219094503363 683.40895007272479 0.35166290443456327 0.27498639211127845 -4.6504587701329188 -1.294400533951007 9268.6774506046713 -4.1755616116063079 4.3153587561501316 -3.00570748767568 0.67774449803853487 -0.71635797155392023 1.4571313909892956 170.84772692696598 -122.60453973333028 -0.0093233499999999993 -2.202755462816576 -1997.8864409297782 -278.21579720065705 0.21568558022126291 64.751534991869235 -56.302203908330505 -179.04205997795461 351.20378899033193 -0.84703622741423534 -2.6041763005413627 0.025156838190549521 -0.050343878724963299 -1028.324062841459 -1.2280947716654314
decision_type=2 2 2 2 2 2 2 2 2 2 2 2 2 2 2 2 2 2 2 2 2 2 2 2 2 2 2 2 2 2
left_child=1 3 4 5 -3 23 15 8 -8 -9 27 12 -12 14 -13 16 -2 -18 20 -20 -19 -22 -15 -1 25 -7 -21 28 -11 -16
right_child=6 2 -4 -5 -6 24 7 9 -10 10 11 13 -14 22 29 -17 17 18 19 26 21 -23 -24 -25 -26 -27 -28 -29 -30 -31
leaf_value=-0.63163520928086903 -3.0982436875502271 -4.6619466000511531 1.1296745689348742 1.5618501710891723 -1.9600208431741468 0.35275045846637931 3.4961558631370808 1.1087614680891451 0.19311122576395673 2.4144573354721071 -0.16485603203376134 -0.1433677898383722 -2.4197323217474183 0.01944459457397461 1.6565447676487457 -0.0014110322046302975 1.6781164751052857 -0.1892308439460455 -0.77011520788404686 -0.055899702096596747 -0.74399451160430918 -2.8207470798492431 -1.8301720985999475 -2.5349991111755372 0.16793279762440061 -1.1453265939782495 1.4090469766307521 -0.29317841717395288 0.54641268243392316 0.1683828075726827
leaf_weight=29 24 21 22 30 23 38 29 46 21 20 48 123 29 25 39 118906 20 51 45 39 30 20 26 20 201 69 37 29 54 24
leaf_count=29 24 21 22 30 23 38 29 46 21 20 48 123 29 25 39 118906 20 51 45 39 30 20 26 20 201 69 37 29 54 24
internal_value=-0.00251587 -0.380042 -1.78983 -0.139613 -3.24958 -0.282594 -0.00108696 0.295455 2.10888 0.0996216 -0.0116984 -0.236215 -1.0141 0.0165141 0.274259 -0.00236349 -0.428126 -0.163321 -0.329217 0.126442 -0.875104 -1.5747 -0.923497 -1.40852 -0.103469 -0.613299 0.657298 0.67275 1.05129 1.08963
internal_weight=120138 453 66 387 44 357 119685 513 50 463 417 314 77 237 186 119172 266 242 222 121 101 50 51 49 308 107 76 103 74 63
internal_count=120138 453 66 387 44 357 119685 513 50 463 417 314 77 237 186 119172 266 242 222 121 101 50 51 49 308 107 76 103 74 63
is_linear=0
shrinkage=0.005


Tree=22
num_leaves=31
num_cat=0
split_feature=149 52 139 54 85 144 111 73 62 158 55 58 31 42 91 148 42 4 76 107 135 103 9 36 34 97 148 18 73 36
split_gain=3.16417e+06 7.96576e+06 4.62543e+06 2.22338e+06 1.55066e+06 1.51717e+06 2.64638e+06 3.18714e+06 2.24284e+06 1.57641e+06 1.54462e+06 1.75183e+06 1.3975e+06 1.31605e+06 1.20158e+06 1.60445e+06 2.17314e+06 1.11583e+06 1.0847e+06 3.72287e+06 3.89482e+06 3.37434e+06 2.58075e+06 4.00746e+06 6.17423e+06 4.17637e+06 1.98155e+06 2.41699e+06 2.25411e+06 1.95584e+06
threshold=-3.0317908143202668 -435.21549896167016 1011.8439088678344 0.0039653150000000014 4.4769718244783734 -1.0994600594225539 0.34269441655630745 2.6141618083810854 3.1922413493671256 -2.0096432392384922 0.068410576328078079 -1.2677184307803795 0.10423160014440787 83.244563655361063 -1.9616020706065849 -1.3902587406002576 53.931366715437463 -712.76923059161493 1631.3512975070269 -4.5631756514070165 0.25179856115108007 1.6182945908739124 1.0183081196243158 0.4448515728157158 2185.7493960536895 0.12419351575259628 2.0457413610645356 2.6450886454568279 1.36842023903611 -0.22627469210499779
decision_type=2 2 2 2 2 2 2 2 2 2 2 2 2 2 2 2 2 2 2 2 2 2 2 2 2 2 2 2 2 2
left_child=1 -1 3 4 5 6 12 -8 9 13 11 -10 17 -7 -11 -16 -17 -3 -2 -20 22 26 -21 24 -24 -26 27 28 -22 -28
right_child=18 2 -4 -5 -6 8 7 -9 10 14 -12 -13 -14 -15 15 16 -18 -19 19 20 21 -23 23 -25 25 -27 29 -29 -30 -31
leaf_value=-2.8576114309245146 0.0013289706897048621 -1.4955704599618913 -2.28166616494839 1.2975867137542139 -1.3435858924048287 -0.3027331354203871 0.27837569026059883 2.6943474448919296 -0.65940606406331059 -0.34638301844067043 -0.39715490998162167 -2.7040318948572333 0.1454786200587814 -1.3416967703955516 -0.90950595129103895 0.27717182090639003 1.9075740497589113 -0.23854696269468828 2.2505470643724714 0.1489196939538783 0.84908415079116828 -1.8241408799244807 -0.23818413615226747 -0.41742497086524966 1.3671364656654563 4.0452437289555867 -0.76759637319124663 -2.034825331687927 -1.281000460749087 0.8966257723894987
leaf_weight=29 118317 26 26 26 28 236 43 20 20 90 45 22 185 35 21 112 25 55 21 635 27 39 34 40 37 24 26 25 23 55
leaf_count=29 118317 26 26 26 28 236 43 20 20 90 45 22 185 35 21 112 25 55 21 635 27 39 34 40 37 24 26 25 23 55
internal_value=0.000306953 -0.273761 -0.199936 -0.145209 -0.184163 -0.149443 0.123908 1.04535 -0.297846 -0.173306 -1.04079 -1.7304 -0.0943285 -0.436917 0.114752 0.377424 0.57469 -0.642036 0.00270527 0.167857 0.122534 -0.508682 0.282388 0.910183 1.46918 2.42082 -0.179817 -0.765445 -0.130755 0.362431
internal_weight=120347 1044 1015 989 963 935 329 63 606 519 87 42 266 271 248 158 137 81 119303 986 965 195 770 135 95 61 156 75 50 81
internal_count=120347 1044 1015 989 963 935 329 63 606 519 87 42 266 271 248 158 137 81 119303 986 965 195 770 135 95 61 156 75 50 81
is_linear=0
shrinkage=0.005


Tree=23
num_leaves=31
num_cat=0
split_feature=139 142 69 83 130 132 142 48 35 149 37 111 105 73 164 86 147 76 73 56 93 139 87 119 102 5 96 137 57 153
split_gain=1.77877e+06 3.96609e+06 3.15828e+06 5.02179e+06 4.70749e+06 2.71578e+06 2.18734e+06 2.86165e+06 1.87546e+06 1.75771e+06 4.5877e+06 6.97388e+06 2.73019e+06 2.18969e+06 2.18427e+06 1.5528e+06 3.04313e+06 2.97312e+06 2.44335e+06 2.17236e+06 1.58096e+06 1.3317e+06 1.13213e+06 2.32313e+06 1.90152e+06 3.23968e+06 1.41454e+06 1.65666e+06 1.07835e+06 1.36929e+06
threshold=1011.8439088678344 1.2519574277605066 -0.0020780599999999992 1.9641262638696517 90.205428333046015 1.3411924066748266 -2.0442498363249517 377.68307521470427 2.4422135975713908 -2.7138317643275225 -0.29339212889511307 -0.01524782228054909 1.9108483580823574 3.390826364295275 -0.0037108449999999995 3.368432239756554 -0.22653069306878512 1631.3512975070269 2.1579048612830314 -0.43883760149543388 1.9208267452660548 183.89113644722403 383.76226001300756 -111.39554535693874 2.8212392754393139 0.99785428150696087 0.02507360878159293 -173.55833607558597 23.199072371158373 4.2877625610884289
decision_type=2 2 2 2 2 2 2 2 2 2 2 2 2 2 2 2 2 2 2 2 2 2 2 2 2 2 2 2 2 2
left_child=9 2 3 4 -2 6 7 -4 -3 10 11 -1 13 21 -14 20 17 -17 -19 -18 -8 -12 -11 -24 26 28 27 -25 29 -26
right_child=1 8 5 -5 -6 -7 15 -9 -10 22 12 -13 14 -15 -16 16 19 18 -20 -21 -22 -23 23 24 25 -27 -28 -29 -30 -31
leaf_value=-0.18969202441553915 0.11839919635227748 -0.65346467199779701 -0.061828278541564946 -1.0530495332634968 3.3926925493323283 1.4090855623426892 -0.31843096315860747 -2.5992904647827149 -2.7201600754779323 0.0016137673156025707 -0.072875527790150593 3.5973187171816825 -2.3667087909153528 1.0793287038121906 -0.62593309803506525 -0.47682164372819841 0.43900962791442871 2.8129152526855465 0.58512201547622678 -1.4225572282359713 -1.4193887555080911 -0.43677066012895649 1.7306628387669722 1.7004935424327852 0.28705295512127499 2.0572005926767987 -0.22687422268235913 0.15854121494293213 0.97763786703348166 -1.0648708603598855
leaf_weight=31 21 21 20 23 23 21 112 25 23 117675 780 20 21 35 127 33 25 20 32 42 46 371 24 20 126 30 312 135 44 22
leaf_count=31 21 21 20 23 23 21 112 25 23 117675 780 20 21 35 127 33 25 20 32 42 46 371 24 20 126 30 312 135 44 22
internal_value=-0.000480597 -0.302048 -0.159844 0.840271 1.82996 -0.338057 -0.441409 -1.47153 -1.73378 0.000745585 -0.176344 1.29541 -0.232611 -0.152705 -0.872935 -0.291875 0.068914 0.697025 1.44197 -0.727943 -0.638963 -0.190169 0.00281733 0.201455 0.148188 0.52916 -0.0329161 0.357503 0.290404 0.0860913
internal_weight=120260 487 443 67 44 376 355 45 44 119773 1385 51 1334 1186 148 310 152 85 52 67 158 1151 118388 713 689 222 467 155 192 148
internal_count=120260 487 443 67 44 376 355 45 44 119773 1385 51 1334 1186 148 310 152 85 52 67 158 1151 118388 713 689 222 467 155 192 148
is_linear=0
shrinkage=0.005


Tree=24
num_leaves=31
num_cat=0
split_feature=151 162 11 53 110 100 18 94 111 1 164 151 37 162 22 138 105 24 107 50 69 130 7 110 50 161 100 4 100 134
split_gain=1.03547e+07 7.0699e+07 4.36629e+06 3.1178e+06 4.19726e+06 2.4305e+06 3.54329e+06 3.63387e+06 4.3995e+06 3.06404e+06 2.81021e+06 2.64385e+06 2.82382e+07 2.11782e+06 2.03312e+06 1.99383e+06 2.0637e+06 2.3686e+06 1.94392e+06 2.51971e+06 3.10269e+06 1.89284e+06 1.51973e+06 1.31324e+06 9.07977e+06 3.04398e+06 3.1905e+06 2.17797e+06 3.67332e+06 1.32039e+06
threshold=-4.3894293087198912 -2.4093814224275643 4.3417821811120483 2.8206247424512205 -3.5618345869357215 4440.8032201661399 3.3304409115703382 -0.0011154199999999998 0.41634123163270303 -0.059483096041605614 -0.00077240999999999985 -3.3329066038537927 -0.38481595335764029 0.28127264919866724 0.093806833518673235 4.6012624648997509 1.4403501335564362 -1255.7751741317145 -1.6406138328229705 -297.59996647026884 -1.0000000180025095e-35 31.072084682602551 658.72420150693404 -4.3916798742826142 -347.55342456849183 -1.0296400983583303 2096.9902200589181 -273.00807553245096 2514.7652521673253 0.072231733833172176
decision_type=2 2 2 2 2 2 2 2 2 2 2 2 2 2 2 2 2 2 2 2 2 2 2 2 2 2 2 2 2 2
left_child=1 -1 3 4 -3 11 7 8 -7 -9 -8 12 -2 -14 -15 16 -11 -18 19 20 -6 -20 -21 24 -13 26 -26 -27 -29 -25
right_child=5 2 -4 -5 18 6 10 9 -10 15 -12 23 13 14 -16 -17 17 -19 21 22 -22 -23 -24 29 25 27 -28 28 -30 -31
leaf_value=-9.6993135184901096 -6.1169992179870611 -2.2943898174285891 -2.0007855999469757 1.2884119640697134 2.0071407500108083 0.43472717680582185 -2.0829469407123069 -1.1261107339709997 2.812806734136633 -0.20079288110500429 0.27580249377659388 2.8459806326031685 -0.039697659279239302 -0.41776041407438252 -2.0491014435177757 -0.85084260680458768 2.2116390116074509 0.6302511692658449 -0.13594433903694153 -0.14070038304797242 -0.35271757749410776 -2.311283451318741 -1.4803708804172018 0.0024985445543492021 -0.063968296280274034 -0.16484946102739495 -2.0133514790765701 0.38633802261490091 2.5208939815521241 -0.30419362739321182
leaf_weight=21 20 25 36 33 30 41 23 32 37 41 28 32 1099 211 21 22 34 78 20 266 26 20 23 116915 65 107 31 104 25 352
leaf_count=21 20 25 36 33 30 41 23 32 37 41 28 32 1099 211 21 22 34 78 20 266 26 20 23 116915 65 107 31 104 25 352
internal_value=-0.00182689 -0.719864 -0.326193 -0.190108 -0.309111 0.00118204 0.425837 0.64304 1.56279 0.296467 -0.787947 -1.71703e-05 -0.219945 -0.131335 -0.565425 0.556596 0.758973 1.11032 -0.180197 -0.0592211 0.911492 -1.22361 -0.247318 0.00250872 0.302369 0.0572011 -0.693457 0.362553 0.800012 0.00157795
internal_weight=119818 500 479 443 410 119318 336 285 78 207 51 118982 1351 1331 232 175 153 112 385 345 56 40 289 117631 364 332 96 236 129 117267
internal_count=119818 500 479 443 410 119318 336 285 78 207 51 118982 1351 1331 232 175 153 112 385 345 56 40 289 117631 364 332 96 236 129 117267
is_linear=0
shrinkage=0.005


Tree=25
num_leaves=31
num_cat=0
split_feature=151 18 100 134 94 17 50 157 50 133 37 134 40 21 78 157 94 56 17 12 95 80 25 25 100 158 117 75 77 92
split_gain=4.43936e+06 1.32677e+07 3.24042e+06 4.34708e+06 3.33597e+06 2.90759e+06 5.48365e+06 2.62248e+06 2.07576e+06 1.97288e+06 1.96813e+06 1.81923e+06 1.84081e+06 1.81438e+06 2.70049e+06 3.07147e+06 1.71482e+06 1.62421e+06 1.60916e+06 1.53002e+06 1.52153e+06 2.14534e+06 3.7915e+06 1.48067e+06 1.37283e+06 1.29901e+06 1.26042e+06 1.22308e+06 1.63933e+06 1.41e+06
threshold=-3.6021101255009582 4.1292674107458156 4440.8032201661399 0.018930095439267384 -0.0028273499999999997 -0.9542544398406333 -347.55342456849183 0.60197064739361517 -347.55342456849183 0.21840788899999999 1.3432867211755199 0.072231733833172176 0.0029084100000000006 1.9163864297333262 -223.23722514562601 -0.28107327082170858 -0.0014222849999999999 -1.3565303030853502 0.35336341491207329 -169.45147290780281 4.1922112623291516 791.92049550307684 -0.15055719737178461 -0.67654430548527034 3068.8977841233482 0.80168089375335871 122.6392351071204 647.36426612226899 1.4431578030717656 -331.33235661872868
decision_type=2 2 2 2 2 2 2 2 2 2 2 2 2 2 2 2 2 2 2 2 2 2 2 2 2 2 2 2 2 2
left_child=1 5 11 4 -4 6 -1 10 -6 27 23 20 13 17 15 -15 -16 -13 -10 -17 -2 25 -23 -5 -18 -22 -27 28 -7 -30
right_child=2 -3 3 7 8 9 -8 -9 18 -11 -12 12 -14 14 16 19 24 -19 -20 -21 21 22 -24 -25 -26 26 -28 -29 29 -31
leaf_value=-2.5157417842921088 0.0028149281056477045 -3.3696801062191235 3.0182736042567662 0.63940481612556865 2.1531445356458425 -0.030085100998923524 -0.39479970603167608 1.3143834481415926 1.1462658481457797 1.3443432675798734 -1.8435267353057863 -1.7589403445521989 -1.2555195796489715 0.71088674477168501 1.7755254339320319 -0.49481080009823758 0.82905431913166516 -0.36628930341906668 -0.19913602927396465 -2.4271608053445819 -0.32020296895102168 -2.1934594734954205 -0.13972616388581016 -0.66441298741335952 -0.71921180153434938 0.054310361513724689 1.5056797016234627 0.88703291535377504 0.31278584700364337 -0.74683224880269594
leaf_weight=34 117736 34 21 38 24 741 294 27 46 24 20 24 48 28 28 21 41 164 43 20 178 38 55 51 22 52 21 30 39 161
leaf_count=34 117736 34 21 38 24 741 294 27 46 24 20 24 48 28 28 21 41 164 43 20 178 38 55 51 22 52 21 30 39 161
internal_value=-0.00129262 -0.285656 0.00195701 0.549092 1.18824 -0.206399 -0.614653 -0.0806607 0.848149 -0.0718183 -0.426222 0.00071012 -0.337619 -0.211012 0.180337 -0.565644 0.74597 -0.544075 0.49624 -1.43742 0.00184476 -0.330201 -0.978886 -0.107727 0.28839 -0.0898515 0.471828 -0.106821 -0.138506 -0.540207
internal_weight=120103 1357 118746 270 134 1323 328 136 113 995 109 118476 396 348 160 69 91 188 89 41 118080 344 93 89 63 251 73 971 941 200
internal_count=120103 1357 118746 270 134 1323 328 136 113 995 109 118476 396 348 160 69 91 188 89 41 118080 344 93 89 63 251 73 971 941 200
is_linear=0
shrinkage=0.005


Tree=26
num_leaves=31
num_cat=0
split_feature=151 18 43 163 35 95 150 38 3 67 57 32 139 111 155 151 143 164 89 82 9 18 114 155 38 128 20 164 106 20
split_gain=4.85934e+06 4.28041e+07 4.0923e+06 5.60323e+06 3.49852e+06 7.54487e+06 1.42062e+07 4.50037e+06 4.20825e+06 4.53969e+06 2.48534e+06 2.33278e+06 2.01016e+06 2.35604e+06 2.09091e+06 2.75258e+06 2.73052e+06 3.18042e+06 1.91925e+06 1.83734e+06 1.62093e+06 1.48347e+06 1.46076e+06 1.16428e+06 1.16249e+06 1.13445e+06 1.00723e+06 1.44116e+06 1.17949e+06 1.00696e+06
threshold=-4.3894293087198912 2.9532520226897661 -0.18105443766884602 -0.16408462317548406 4.1922171656336404 -4.1755616116063079 0.10334933567081282 2.359394430559612 -1.3390641895002957 -0.5354470906316452 16.621849463086537 -3083.8380666094331 782.44269611078573 -0.054339328508907637 4.4100128418076805 -1.2215601661586148 241.00904811742654 0.0017558850000000002 3.65352267543593 0.93463464928506912 -0.62084173109142915 0.88941751729140028 -164.04006388963495 0.46496002442210166 -1.6326689827561651 0.38853415163502503 4.1688638701117249 -0.0057857899999999999 -1018.2540209662326 0.26649890400859971
decision_type=2 2 2 2 2 2 2 2 2 2 2 2 2 2 2 2 2 2 2 2 2 2 2 2 2 2 2 2 2 2
left_child=1 2 10 11 26 6 7 -6 9 -7 20 -4 14 -14 22 16 17 25 -15 -20 23 -17 -10 -1 -25 -16 -2 -28 -29 -22
right_child=4 -3 3 -5 5 8 -8 -9 12 -11 -12 -13 13 18 15 21 -18 -19 19 -21 29 -23 -24 24 -26 -27 27 28 -30 -31
leaf_value=-0.14669534353109506 0.0030391171200904055 -6.7380631650411171 1.5645912642912432 2.6502724455870119 1.4224871065336115 2.6146953983306882 4.8139534414731537 -1.5665872445106508 -1.0227319446477023 -0.11405073817129489 -1.6481780022841233 -0.23539961478625884 0.60582670323988974 -0.0076272198733161479 0.6460810898445748 0.8055040675837819 2.8400996727347376 2.2664771211624144 -0.68454346497853591 -2.5198766262054444 -0.29531344847491126 -0.3890282993921092 0.069405787810683253 -2.3619758758544922 -0.67762713293234511 -0.83195173549652102 -1.5122932806469147 0.68263486998206047 -0.25096318303935133 0.48609559175215267
leaf_weight=26 117981 26 22 26 34 35 26 20 33 27 39 99 34 34 37 41 20 25 30 25 149 71 424 20 21 20 21 37 395 57
leaf_count=26 117981 26 22 26 34 35 26 20 33 27 39 99 34 34 37 41 20 25 30 25 149 71 424 20 21 20 21 37 395 57
internal_value=0.00251264 -0.496955 -0.143428 0.544378 0.00454197 0.309026 1.77745 0.315423 0.171791 1.42637 -0.46749 0.0918715 0.0738262 -0.513776 0.181539 0.589414 1.18363 0.779608 -0.941489 -1.51879 -0.298821 0.0482559 -0.00945755 -0.974385 -1.49926 0.127473 0.00213559 -0.233181 -0.171002 -0.0790983
internal_weight=119855 485 459 147 119370 936 80 54 856 62 312 121 794 123 671 214 102 82 89 55 273 112 457 67 41 57 118434 453 432 206
internal_count=119855 485 459 147 119370 936 80 54 856 62 312 121 794 123 671 214 102 82 89 55 273 112 457 67 41 57 118434 453 432 206
is_linear=0
shrinkage=0.005


Tree=27
num_leaves=31
num_cat=0
split_feature=24 77 77 160 97 157 146 22 138 6 52 161 38 155 28 99 137 42 64 111 97 28 97 42 122 132 138 106 46 22
split_gain=2.33683e+06 6.5542e+06 5.04849e+06 3.70415e+06 2.4862e+06 1.16392e+07 2.10495e+06 5.63695e+06 2.19535e+06 2.79999e+06 6.93116e+06 2.40843e+06 2.0472e+06 3.12635e+06 1.77691e+06 1.66376e+06 2.58073e+06 2.04387e+06 1.66065e+06 1.63845e+06 1.89695e+06 1.91596e+06 1.82415e+06 1.43475e+06 2.12276e+06 1.41829e+06 1.27741e+06 1.73663e+06 1.60419e+06 1.38891e+06
threshold=-2229.6136109155013 -1.2785682729146484 4.7634806150610265 -0.070810585930113731 0.16482227449969372 -2.4961574340462294 -0.0023887549999999998 0.10299731084228593 4.1120366960124342 1625.1292443580769 110.5869823603223 -1.1430162889531514 -1.1842234191393857 3.7575205495210358 1.4748979887071545 -3.9709279452158328 -365.57670661084109 56.697791954587252 3.8033480817394651 -0.78731818224448757 0.13694094581323205 -0.10086157424068012 0.15090316674823678 53.931366715437463 1.2417950940782048 -0.089018542726200342 3.7361015841069385 -35.427864621597188 391.61047151925931 0.10299731084228593
decision_type=2 2 2 2 2 2 2 2 2 2 2 2 2 2 2 2 2 2 2 2 2 2 2 2 2 2 2 2 2 2
left_child=1 -1 12 -4 6 -6 7 8 9 23 -11 -10 13 19 -13 16 17 -14 -17 20 -3 -22 -21 -2 -25 -20 -8 29 -29 -28
right_child=4 2 3 -5 5 -7 26 -9 11 10 -12 14 15 -15 -16 18 -18 -19 25 22 21 -23 -24 24 -26 -27 27 28 -30 -31
leaf_value=2.3422432760091927 0.10116831103924735 -0.41544777283426565 -3.4444529747962953 -0.55752768688201904 -3.4432207459005815 -0.14770877753299747 0.0053912146840013444 2.7254082402316007 -1.5993486318167518 -0.068212118893861778 3.6839755766391757 -0.51346891177328013 -0.14450036931920934 -1.9909364141164156 1.0638446774849526 -0.072897813384498508 -0.19705406487650343 1.5037132852885031 -1.9875565609652548 -0.21640296231680561 -0.35774434447288511 -2.3995555143003111 0.96735924184322364 -0.013046811468460982 1.1885294406712055 -0.41211778779029851 -0.099279608445572265 -0.17324568271636964 -2.1518769545782179 -1.2509138561178137
leaf_weight=26 812 202 20 25 29 352 114826 22 34 32 20 57 27 29 26 1385 90 62 20 339 20 27 36 68 80 50 863 20 21 27
leaf_count=26 812 202 20 25 29 352 114826 22 34 32 20 57 27 29 26 1385 90 62 20 339 20 27 36 68 80 50 863 20 21 27
internal_value=0.00156393 -0.15428 -0.182114 -1.84061 0.00469704 -0.398548 0.00601121 0.218778 0.169934 0.244902 1.37494 -0.47851 -0.149481 -0.38612 -0.0193707 -0.0549123 0.399966 1.00369 -0.110873 -0.311537 -0.625957 -1.5307 -0.102762 0.183692 0.636454 -0.862243 0.00389561 -0.180566 -1.18669 -0.134217
internal_weight=119647 2358 2332 45 117289 381 116908 1151 1129 1012 52 117 2287 653 83 1634 179 89 1455 624 249 47 375 960 148 70 115757 931 41 890
internal_count=119647 2358 2332 45 117289 381 116908 1151 1129 1012 52 117 2287 653 83 1634 179 89 1455 624 249 47 375 960 148 70 115757 931 41 890
is_linear=0
shrinkage=0.005


Tree=28
num_leaves=31
num_cat=0
split_feature=101 132 142 162 39 20 20 56 73 33 126 92 78 24 9 56 155 30 39 76 162 99 79 13 85 24 73 161 59 0
split_gain=8.05901e+06 1.32059e+07 6.47967e+06 7.05124e+07 4.55105e+06 8.42426e+06 3.76891e+06 3.22924e+06 2.83054e+06 2.43611e+06 2.42345e+06 2.61522e+06 2.45792e+06 2.27044e+06 2.19291e+06 2.10043e+06 2.29264e+06 1.98621e+06 2.39984e+06 1.85714e+06 2.61268e+06 2.56635e+06 2.30473e+06 3.5439e+06 3.66519e+06 3.4941e+06 3.50751e+06 1.72166e+06 2.1311e+06 1.70619e+06
threshold=2908.0018118555677 -0.58781340141815142 -4.6504587701329188 -3.1828736658477301 -0.0096136030243055542 2.1182818694627268 0.83742330537814047 -2.362611109135333 3.390826364295275 -0.64058234265027603 0.83198069755177884 704.96105136497852 -65.441382036373611 -3510.6219094503363 0.98470060872778042 -1.7371464780459187 -0.0098375286215074235 6855.0620353721706 0.00060879273263888904 1631.3512975070269 -0.603272972034817 -2.0606195815002564 0.15059671177569797 -1.7867405586418472 -0.19801663852006188 -478.57780010066796 2.2519725100122563 2.5000772537937599 -40.010387525676869 2.6759959779511537
decision_type=2 2 2 2 2 2 2 2 2 2 2 2 2 2 2 2 2 2 2 2 2 2 2 2 2 2 2 2 2 2
left_child=2 -2 3 -1 5 6 -3 -5 27 17 11 12 -11 15 29 -4 -17 18 -6 -15 21 -21 23 -22 25 -25 -27 -9 -29 -12
right_child=1 4 13 7 9 -7 -8 8 -10 10 14 -13 -14 19 -16 16 -18 -19 -20 20 22 -23 -24 24 -26 26 -28 28 -30 -31
leaf_value=-8.2828261234079097 3.8050793368585647 1.5070580684777464 -1.3758625050808522 -1.7037821151470318 0.13034393917886836 3.7156994857106889 -1.0383658001056084 0.080633912583192191 1.426763983928796 -0.57748461665625272 0.97911279122034711 -1.7681751026645784 0.95893739567862613 0.0012550282721869427 2.0582314035892488 -0.71741389350758655 0.12593121624058062 2.1689592056274414 2.0359518071413043 0.3692012327194214 -0.37131995926440603 2.772176420211792 -0.084382528376398674 0.68195183878143628 0.11770835675299168 4.0485871423374524 1.2560401729915454 -1.959259196472168 -0.20355754294565745 -0.97241376513526545
leaf_weight=28 31 33 47 29 95 28 26 285 33 94 24 31 36 117888 20 144 183 20 20 25 71 20 330 48 72 22 23 25 56 21
leaf_count=28 31 33 47 29 95 28 26 285 33 94 24 31 36 117888 20 144 183 20 20 25 71 20 330 48 72 22 23 25 56 21
internal_value=0.00176858 0.64902 -0.000829559 -0.595714 0.430632 1.45718 0.385346 -0.0928189 0.0242686 0.183236 -0.134215 -0.4632 -0.152014 0.00145243 0.680656 -0.387507 -0.24545 0.714673 0.461754 0.00268005 0.277627 1.43719 0.185436 0.562724 0.964646 1.62034 2.62129 -0.102186 -0.745441 0.0684004
internal_weight=119808 479 119329 456 448 87 59 428 399 361 226 161 130 118873 65 374 327 135 115 118499 611 45 566 236 165 93 45 366 81 45
internal_count=119808 479 119329 456 448 87 59 428 399 361 226 161 130 118873 65 374 327 135 115 118499 611 45 566 236 165 93 45 366 81 45
is_linear=0
shrinkage=0.005


Tree=29
num_leaves=31
num_cat=0
split_feature=25 20 73 101 7 160 54 27 82 67 79 101 27 158 145 33 64 160 25 86 9 12 38 50 82 52 129 33 107 104
split_gain=4.98363e+06 2.08238e+07 7.96479e+06 6.571e+06 1.92795e+06 3.615e+06 7.6887e+06 4.03038e+06 5.58369e+06 4.06662e+06 2.85357e+06 2.28789e+06 3.75239e+06 3.44582e+06 3.4009e+06 3.31064e+06 5.32846e+06 2.03734e+06 2.67549e+06 4.06397e+06 1.83778e+06 2.4359e+06 1.79206e+06 2.5677e+06 2.04059e+06 1.7247e+06 2.68315e+06 1.80251e+06 1.67438e+06 1.53688e+06
threshold=-4.4081024461642029 2.6530820381452025 3.390826364295275 2908.0018118555677 770.80874334391274 -1.2884047907686684 0.0015017100000000001 4.928616340248853 0.94414347224640627 -2.7536636849246503 -0.17819472953513832 1870.234795480025 0.43299301039928495 2.5578373731853881 -0.090052627801506899 1.0000000180025095e-35 2.8845208569728213 0.21186788274357105 1.0564559529734707 4.2720263664719615 0.74155175175236399 -343.69597348007704 -1.01085127476753 -347.55342456849183 0.74930085469498897 -25.071202631567477 -3.3710354079321818 -3.1515320586995861 -1.4051972800113972 -2.0028268461106928
decision_type=2 2 2 2 2 2 2 2 2 2 2 2 2 2 2 2 2 2 2 2 2 2 2 2 2 2 2 2 2 2
left_child=1 2 3 22 -2 6 10 11 20 -10 28 17 -13 -14 -15 16 -16 18 25 -20 21 -9 23 -1 29 26 -7 -27 -6 -24
right_child=4 -3 -4 -5 5 7 -8 8 9 -11 -12 12 13 14 15 -17 -18 -19 19 -21 -22 -23 24 -25 -26 27 -28 -29 -30 -31
leaf_value=-2.2218815245628356 0.00028321983234830549 -4.6141261405369329 2.389797594194059 -2.8976411575317385 0.55550072238130388 2.0956804449661921 3.432189503479004 -0.31792428193268957 -3.8614193840026854 -0.77864342813906462 1.6284644985198975 2.2762651770203202 -0.079807286340726452 0.042422956638038162 1.0454606926739216 0.50701283987363177 4.0657422718794445 -0.26351640839035773 0.38758313597764005 2.9488496331090017 -0.68468312627618955 1.9843212280273437 0.20200274516796246 -0.35748389669721059 0.67199128994996515 -1.0460630179283232 0.27344087109687815 0.027835042638199352 -0.77238603547215468 -1.5085008835792542
leaf_weight=20 117840 29 27 25 53 23 25 27 20 23 35 27 221 84 40 60 23 357 59 21 55 20 29 241 87 43 166 428 43 24
leaf_count=20 117840 29 27 25 53 23 25 27 20 23 35 27 221 84 40 60 23 357 59 21 55 20 29 241 87 43 166 428 43 24
internal_value=0.000756323 -0.506639 -0.243688 -0.410599 0.00279959 0.162826 0.891218 0.0958672 -0.701326 -2.21249 0.406299 0.170347 0.468432 0.354386 0.817946 1.34757 2.1481 0.0467114 0.196375 1.05992 -0.0642657 0.661755 -0.255546 -0.50035 0.200838 0.0917038 0.495195 -0.0702066 -0.0392819 -0.572565
internal_weight=120175 482 453 426 119693 1853 156 1697 145 43 131 1552 455 428 207 123 63 1097 740 80 102 47 401 261 140 660 189 471 96 53
internal_count=120175 482 453 426 119693 1853 156 1697 145 43 131 1552 455 428 207 123 63 1097 740 80 102 47 401 261 140 660 189 471 96 53
is_linear=0
shrinkage=0.005


Tree=30
num_leaves=31
num_cat=0
split_feature=149 88 20 46 58 113 76 136 163 103 135 98 76 23 88 148 80 97 152 158 149 95 83 148 38 53 114 3 149 127
split_gain=2.49404e+06 6.06676e+06 6.17811e+06 9.48752e+06 4.77987e+06 3.39083e+06 9.88679e+06 9.18111e+06 2.80703e+06 2.3996e+06 2.27893e+06 2.11643e+06 2.49073e+06 1.99002e+06 2.09971e+06 1.69245e+06 1.58537e+06 1.52683e+06 1.51414e+06 1.46958e+06 4.61714e+06 4.75119e+06 2.6812e+06 4.18475e+06 3.8316e+06 2.58941e+06 3.02853e+06 3.40017e+06 2.87173e+06 2.03213e+06
threshold=-3.0317908143202668 686.7356461810715 1.5921329044813515 423.84287561252125 -3.2251047276928309 3.7869521103430315 2117.2042028563415 1.244606292018249 1.1408959414282196 -0.2792265416391892 0.34391796972442396 2.3866433951436758 412.02662892382733 2.0329227634879197 311.39292035546333 2.63685997320409 455.83580200632474 0.011885227745057363 2966.9089983950407 3.9477377634793567 4.2827368624389104 2.097415229221137 0.89158176137586276 2.4994255965133632 2.9479843007098423 -1.7087152630548896 -148.23653198823726 -0.4973664322937435 4.2827368624389104 0.0035962250000000006
decision_type=2 2 2 2 2 2 2 2 2 2 2 2 2 2 2 2 2 2 2 2 2 2 2 2 2 2 2 2 2 2
left_child=1 2 8 9 -5 19 11 -8 10 -4 16 12 -7 14 18 -16 17 -1 -14 20 -2 -22 23 24 29 -24 27 -27 -29 -21
right_child=5 -3 3 4 -6 6 7 -9 -10 -11 -12 -13 13 -15 15 -17 -18 -19 -20 22 21 -23 25 -25 -26 26 -28 28 -30 -31
leaf_value=-1.348533821787153 0.0028079283781795648 1.7963685618298393 0.49390569584710259 -4.6901684483614829 -1.7159686708450317 -0.23759190217115497 0.34896236181259155 4.6784850597381595 -1.3285950391491255 -1.2502740576772979 1.3180586159229279 -0.81774397428999546 0.55818392453522525 1.805665805570541 0.2539165380795797 -1.3953295698620025 0.63633314322252743 -0.15580339241083452 1.9135706512216064 0.37427515764085956 -0.5128374351210454 -3.2851570210456851 -1.1560731664657593 -1.4904793695303109 2.5163915411631268 -0.55290053100585934 -0.17492408233453041 0.40717306867889741 2.8114324592660971 1.7913050771642614
leaf_weight=28 117353 35 49 22 35 131 24 25 48 33 28 47 87 31 60 21 61 643 27 402 68 20 50 26 24 25 289 23 27 27
leaf_count=28 117353 35 49 22 35 131 24 25 48 33 28 47 87 31 60 21 61 643 27 402 68 20 50 26 24 25 289 23 27 27
internal_value=0.00306423 -0.24788 -0.323433 -1.29712 -2.86391 0.00513876 0.4369 2.5579 -0.15593 -0.20802 -0.0818665 0.17965 0.31096 0.628925 0.441854 -0.173666 -0.135416 -0.205575 0.879197 0.00348591 0.00194943 -1.14291 0.205553 0.460261 0.572224 -0.0891439 0.0574123 0.952682 1.70547 0.463459
internal_weight=119769 982 947 139 57 118787 453 49 808 82 760 404 357 226 195 81 732 671 114 118334 117441 88 893 479 453 414 364 75 50 429
internal_count=119769 982 947 139 57 118787 453 49 808 82 760 404 357 226 195 81 732 671 114 118334 117441 88 893 479 453 414 364 75 50 429
is_linear=0
shrinkage=0.005


Tree=31
num_leaves=31
num_cat=0
split_feature=99 163 161 20 106 161 108 154 31 128 20 20 99 123 110 83 142 85 99 12 128 132 153 143 14 60 20 137 31 31
split_gain=4.11132e+06 1.29122e+07 1.04872e+07 4.28694e+06 3.52399e+06 4.4017e+06 3.53136e+06 2.09298e+06 2.01542e+06 2.89173e+06 3.81698e+06 3.64968e+06 3.63904e+06 2.53572e+06 2.00017e+06 2.35823e+06 2.01341e+06 2.49869e+06 1.99175e+06 3.25815e+06 2.30616e+06 1.65732e+06 1.64782e+06 1.83366e+06 1.66124e+06 1.67617e+06 1.62328e+06 1.73609e+06 1.75443e+06 1.62147e+06
threshold=-3.9709279452158328 -2.40476150191911 -4.504240007496402 1.3928409094014023 -2316.0767150887891 0.10919884661819544 508.82105796864704 3986.837288713406 4.4405228890169441 -4.0567971841911765 0.79729622714095016 0.60256404543534692 -0.42848134778382257 -257.2852775635825 1.2171162434155294 -1.3754417212746357 -1.2292525475706693 1.1798650665047383 -0.30660796296831905 -58.747119761770598 2.986761713322307 0.72432548051324741 3.7011420118259069 577.067878068195 1002.0283556889855 -3.4994203262964247 0.2354958108745672 -398.34114260651137 2.7549172548546408 4.8951088574138035
decision_type=2 2 2 2 2 2 2 2 2 2 2 2 2 2 2 2 2 2 2 2 2 2 2 2 2 2 2 2 2 2
left_child=1 -1 -3 7 5 -5 -6 26 22 12 11 14 21 -12 -11 -16 17 -17 20 -20 -15 -10 -2 -24 -25 -26 -4 28 -28 -19
