tree
version=v4
num_class=1
num_tree_per_iteration=1
label_index=0
max_feature_idx=165
objective=regression
feature_names=x_120m_C2VWAP_neut x_120m_Close_Diff_Rate x_120m_Close_Diff_Rate_neut x_120m_CrowdingPressure_neut x_120m_H2C x_120m_H2C_neut x_120m_H2L_Vol x_120m_L2C x_120m_L2C_neut x_120m_NetTaker_neut x_120m_O2H x_120m_O2H_neut x_120m_O2L x_120m_O2L_neut x_120m_OI_Chg x_120m_OI_Chg_neut x_120m_PremiumDiff x_120m_PremiumDiff_neut x_120m_Vol x_120m_VolDiff_neut x_120m_Vol_neut x_1440m_Close_Diff_Rate_neut x_1440m_EffRatio x_1440m_EffRatio_neut x_1440m_H2C x_1440m_H2C_neut x_1440m_L2C x_1440m_L2C_neut x_1440m_NetTaker_neut x_1440m_O2C_neut x_1440m_O2H x_1440m_O2H_neut x_1440m_O2L x_1440m_O2L_neut x_1440m_OI_Chg x_1440m_OI_Chg_neut x_1440m_OI_Price_Ratio_neut x_1440m_PctB x_1440m_PctB_neut x_1440m_Premium x_1440m_PremiumDiff x_1440m_PremiumDiff_neut x_1440m_RVol x_1440m_RatioSkewDiff_neut x_15m_H2C x_15m_H2C_neut x_15m_H2L_Vol x_15m_L2C x_15m_O2H x_15m_O2H_neut x_15m_O2L x_15m_O2L_neut x_15m_OI_Chg x_15m_OI_Chg_neut x_15m_PremiumDiff x_15m_PremiumDiff_neut x_15m_RatioSkewDiff_neut x_1m_C2VWAP x_1m_C2VWAP_neut x_1m_H2C x_1m_H2C_neut x_1m_H2L_Vol x_1m_H2L_Vol_neut x_1m_L2C x_1m_L2C_neut x_1m_O2H_neut x_1m_O2L x_1m_O2L_neut x_1m_Premium x_1m_PremiumDiff x_1m_PremiumDiff_neut x_1m_Premium_neut x_240m_C2VWAP_neut x_240m_EffRatio_neut x_240m_NetTaker_neut x_240m_O2C x_240m_O2H x_240m_O2H_neut x_240m_O2L x_240m_O2L_neut x_240m_OI_Chg x_240m_OI_Chg_neut x_240m_OI_P_Corr x_240m_PctB_neut x_240m_PremiumDiff x_240m_PremiumDiff_neut x_30m_L2C_neut x_30m_O2C x_30m_O2H x_30m_O2H_neut x_30m_O2L x_30m_O2L_neut x_30m_OI_Chg x_30m_OI_Chg_neut x_30m_PremiumDiff x_30m_PremiumDiff_neut x_480m_Close_Diff_Rate x_480m_EffRatio x_480m_EffRatio_neut x_480m_H2C_neut x_480m_H2L_Vol x_480m_L2C x_480m_L2C_neut x_480m_NetTaker_neut x_480m_O2C_neut x_480m_O2H_neut x_480m_O2L x_480m_O2L_neut x_480m_OI_Chg x_480m_PremiumDiff x_480m_PremiumDiff_neut x_480m_RatioSkewDiff_neut x_5m_C2VWAP x_5m_C2VWAP_neut x_5m_H2C x_5m_H2C_neut x_5m_H2L_Vol_neut x_5m_L2C x_5m_L2C_neut x_5m_O2C x_5m_O2C_neut x_5m_O2H x_5m_O2H_neut x_5m_O2L x_5m_O2L_neut x_5m_OI_Chg x_5m_PctB_neut x_5m_PremiumDiff x_5m_PremiumDiff_neut x_5m_Premium_neut x_5m_RVol x_5m_RVol_neut x_5m_RatioSkew_neut x_5m_WhaleGap x_60m_Close_Diff_Rate x_60m_EffRatio x_60m_EffRatio_neut x_60m_H2C x_60m_H2L_Vol_neut x_60m_O2H x_60m_O2H_neut x_60m_O2L x_60m_O2L_neut x_60m_OI_Chg x_60m_OI_Chg_neut x_60m_OI_Price_Ratio x_60m_PremiumDiff x_60m_PremiumDiff_neut x_60m_Vol_neut x_720m_Close_Diff_Rate_neut x_720m_EffRatio x_720m_H2C_neut x_720m_H2L_Vol x_720m_O2C_neut x_720m_O2H x_720m_O2H_neut x_720m_O2L x_720m_O2L_neut x_720m_OI_Chg_neut x_720m_OI_Price_Ratio x_720m_OI_Price_Ratio_neut x_720m_OI_XSkew x_720m_OI_Z x_720m_OI_Z_neut x_720m_PremiumDiff x_720m_PremiumDiff_neut
feature_infos=[-5.3725108499457592:5.3324185409262332] [-0.89922235130982275:0.82310355681460501] [-5.3779723940134465:5.3585664868227347] [-5.1691191131801499:4.9069889974713741] [-9013.4768516225613:0] [-5.3793548271269289:2.7656160755017933] [8.7833723639496597:137719.00826446281] [0:17594.634873323401] [-2.9022661751216168:5.382065049574166] [-4.8598808192107681:4.7649230739275259] [0:16480.972930561005] [-2.6587518056064758:5.3848121456146396] [-9322.3205448612607:0] [-5.3835789783761188:3.3567699465292478] [-8256.0495782788166:24742.139698348674] [-5.3220973541599426:5.3759541211371245] [-0.14524102:0.14106063000000002] [-5.3839666565144348:5.3828610353956732] [-3.1630499097443643:13.387176384939467] [-5.1188258479193314:5.264314818496679] [-3.8103643272853929:5.3005937626904789] [-5.3131782575384445:5.3677421980092284] [0:0.42766697350925614] [-3.3266273247964451:5.3264532891053751] [-9161.5458657098789:0] [-5.3584600933120115:3.4438962668296318] [0:44901.117798796207] [-2.49396311078364:5.3796809357019404] [-4.7957229274508189:4.707213247248264] [-5.3122783908257558:5.3677523852256943] [0:47984.56260720412] [-2.4659386659332037:5.3815503059172984] [-9415.1226570436484:0] [-5.3090297444125643:3.5760935165414671] [-8495.5981591984491:186811.84893859646] [-5.10039770576003:5.3830525369929703] [-5.378971279303209:5.3815058067890931] [-2.3554302847606188:3.1329943650524719] [-4.7358363316871985:5.0763596684690455] [-0.09347559454861111:0.0020517374513888886] [-0.22244830999999998:0.24889726000000001] [-5.3848020060087523:5.3844539225866406] [1.326828634782099:301.94294808453901] [-4.9885508574110284:4.9402095330603988] [-5098.4555984555982:0] [-5.3792286598748982:3.1028066243180428] [0.85858618852130419:11778.98118094213] [0:2962.3873992519621] [0:3519.8456449834616] [-2.9340691940022796:5.3825614267547719] [-5226.9105883580651:0] [-5.3801510258053771:2.8702869637160324] [-3593.8262941025869:3610.2963088821348] [-5.3582425274313668:5.3574392239323156] [-0.079726799999999987:0.12100504000000001] [-5.3820805362145547:5.383294259283617] [-5.3459616252546143:5.3315440092089847] [-255.82283314241948:255.2320063932867] [-5.3386003919520126:5.3422998356492615] [-897.30046948356733:0] [-5.3816357217762736:3.0506938354463711] [0:2300.5847108929456] [-2.6896637085751514:5.3733943982586956] [0:1196.8526672922831] [-2.8540366696489503:5.3817909544325246] [-3.0094267625483191:5.3725537500257925] [-1430.21856466502:0] [-5.3763575024900438:2.8244737805069655] [-0.22737932999999999:0.015985180000000002] [-0.02475869:0.042871869999999992] [-5.3485003822205774:5.3794311997082431] [-5.3848915583111339:5.3459151080884952] [-5.3769302694143368:5.3084846185860286] [-3.4550560018014709:5.231730861536886] [-4.8300677938894667:4.9260260766279949] [-9122.6790905264806:13135.593220338988] [0:17365.580822550433] [-2.7431660595121841:5.384779156927376] [-9397.9745976437734:0] [-5.3749122698293705:3.310199277392007] [-8468.770913780425:69648.067092518526] [-5.3328954319455004:5.3807675787637663] [-0.9613992092602881:0.995491458713333] [-4.8308506547616057:5.1000785858334385] [-0.22287430999999999:0.18535967999999997] [-5.384975183920206:5.3846627048954137] [-3.0919863534234304:5.369894786346797] [-7613.4840501027356:5463.9738820135153] [0:10499.58241591375] [-2.9375347023106153:5.3817857942871852] [-7764.4013407350731:0] [-5.3813195570200039:2.9467066200328262] [-6830.4291304082817:11433.409875580324] [-5.3629093315562493:5.3683972364366452] [-0.096784769999999992:0.11165018] [-5.3815879101651305:5.3832605223730043] [-0.91409828838671348:1.381158167675022] [0:0.56053094941823034] [-3.3624630994739615:5.2424633307071433] [-5.373019334329963:2.8098742231336558] [26.026103932081934:160004.60642189407] [0:20910.987671047289] [-3.1386605584555634:5.3804152380588324] [-4.9810647922682003:4.7978671417048764] [-5.328073979843758:5.3350240613933311] [-2.2190872543469058:5.3816297668806978] [-9410.549887237019:0] [-5.3768097752445616:3.3719294710108842] [-8489.2046873794661:94648.287312846034] [-0.2211021:0.25607092999999997] [-5.3849101993731123:5.384667484786771] [-5.0833857576141055:4.9108666914968451] [-1199.1787034366941:793.00164813479455] [-5.3470826205539366:5.3438375257535204] [-2986.1878453038671:0] [-5.3701408856120469:3.0262551017204338] [-3.1493244923058441:5.3799177491552514] [0:1927.5327193407654] [-3.0690192167724324:5.3771474114871918] [-2630.4545955893022:1559.9455040871946] [-5.3708437772210296:5.3451362756278371] [0:2342.4598000869178] [-2.5331240362788692:5.3811068229779426] [-3096.4861868189928:0] [-5.3797041398744829:2.9542943651083662] [-1971.5303592693733:1621.2246148153486] [-5.1842688330052455:5.2087180974774068] [-0.063009849999999992:0.061401420000000005] [-5.3784835267804585:5.3738992214283483] [-5.3850017105064865:5.3119375396109518] [0:918.11055226805615] [-2.710685643798838:5.3742961357545767] [-3.1205768424727705:3.9719387167267568] [-1.047240476:2.41492766] [-0.77919435071485721:0.70451578348341326] [0:0.76332839180804846] [-3.5175026010399524:4.9712444941068989] [-7800.3108501248435:0] [-2.7625536322207549:5.3846892492306235] [0:13154.103421661954] [-2.824697144436576:5.3827390828291453] [-7932.6218510476656:0] [-5.381361650037161:3.153601842999914] [-7041.5459979882944:13875.517975499748] [-5.3439320856891488:5.3801090702064975] [-1068788257.8005214:979655156.61940563] [-0.10002577999999998:0.1255251] [-5.3834235411341904:5.3832119881350282] [-4.1155882290554917:5.2356481944264113] [-5.3425713812118651:5.338955963088595] [0:0.52149362305840108] [-5.3711778014028519:3.0294413340077986] [28.730039573312549:162046.87711692179] [-5.3401793400219066:5.338414930424614] [0:23315.43624161074] [-2.4872329165913012:5.3824171016853093] [-9415.4144925883338:0] [-5.3493886629184342:3.3838293848036471] [-5.2763618546806645:5.3820601958184042] [-1521749150.7824543:2172395046.7046967] [-5.3851648071345029:5.3851648071345046] [-22.950038891624224:26.602607859793846] [-8.9180955379538851:12.967056566582622] [-4.2800949931056751:4.9575795884038314] [-0.21472824999999998:0.21463627999999998] [-5.3848442533821954:5.3844774257766801]
tree_sizes=2953 2955 2932 2915 2935 2920 2935 2954 2929 2960 2908 2919 2937

Tree=0
num_leaves=31
num_cat=0
split_feature=124 52 21 84 42 18 18 43 42 52 44 101 27 127 42 42 101 96 160 44 127 42 52 127 21 27 119 119 160 114
split_gain=3.60337e+06 2.26523e+06 1.4368e+06 2.11449e+06 1.83005e+06 2.39963e+06 1.03695e+06 1.2972e+06 1.399e+06 933046 1.45824e+06 1.10048e+06 629232 1.2439e+06 867121 624055 620117 572837 1.34298e+06 1.27834e+06 655641 546923 470353 1.86226e+06 460245 432514 394127 462128 388028 386463
threshold=-4.6215313946534904 -94.230452893109259 -2.6577284706580695 -0.0052300649999999999 70.753210073753749 -0.66035252825839008 0.71257320945906877 -0.62569428714691389 53.931366715437463 291.65791287953056 -74.584901204519653 979.39109315772214 4.5020583998509158 9.3544999999999986e-05 64.751534991869235 27.687266956228108 266.33838017167682 0.12830718978505021 -0.33683058857996667 -141.12680940356333 -0.0014128049999999998 45.424728464640481 -278.34167757286247 -0.00026646499999999996 1.5100495963155753 3.5261038660120794 30.755513056224263 -32.631180261213913 0.23922831480343573 -68.79570133888457
decision_type=2 2 2 2 2 2 2 2 2 2 2 2 2 2 2 2 2 2 2 2 2 2 2 2 2 2 2 2 2 2
left_child=1 -1 6 -4 9 -6 7 8 -2 12 11 -11 14 -14 17 -12 -9 20 -19 -20 21 -5 23 -22 -21 -24 27 -27 29 -25
right_child=2 -3 3 4 5 -7 -8 16 -10 10 15 -13 13 -15 -16 -17 -18 18 19 24 22 -23 25 28 -26 26 -28 -29 -30 -31
leaf_value=-1.782524357710396 -0.34384180325865221 -0.44403180772399631 0.55068646509658037 -0.060063119563192074 -1.3580400049060761 -0.11167734434494536 -1.0854129615683759 0.37289201432753677 -1.3555511363298149 -0.014037310425759425 0.063649038383778611 0.81479688894857527 -0.3623343792038014 0.65752892582629618 -0.73832974420669562 -0.64546732842594579 -0.31493652690599278 0.32619928555184258 -1.1145236070474012 -0.59949120181035886 0.86025757399944469 0.46564771606183014 -0.18537925518460283 -0.67307163089998989 -0.047884996899761362 -0.65100838991312515 -0.78741340115679703 -0.032074329049366773 0.16747788629481686 -0.12856257808605076
leaf_weight=223 395 292 393 1698 305 313 252 231 209 307 240 335 226 254 283 257 303 202 296 291 213 224 111135 211 315 200 217 304 211 341
leaf_count=223 395 292 393 1698 305 313 252 231 209 307 240 335 226 254 283 257 303 202 296 291 213 224 111135 211 315 200 217 304 211 341
internal_value=-0.188928 -1.02361 -0.185351 -0.18161 -0.184041 -0.726792 -0.504992 -0.376463 -0.69392 -0.181193 0.103633 0.418454 -0.183974 0.177343 -0.185468 -0.303037 -0.0173927 -0.184117 -0.410817 -0.57587 -0.181936 0.00120599 -0.185056 0.0335192 -0.312765 -0.186963 -0.431097 -0.277683 -0.197274 -0.336699
internal_weight=120676 515 120161 118771 118378 618 1390 1138 604 117760 1139 642 116621 480 116141 497 534 115858 1104 902 114754 1922 112832 976 606 111856 721 504 763 552
internal_count=120676 515 120161 118771 118378 618 1390 1138 604 117760 1139 642 116621 480 116141 497 534 115858 1104 902 114754 1922 112832 976 606 111856 721 504 763 552
is_linear=0
shrinkage=1


Tree=1
num_leaves=31
num_cat=0
split_feature=24 100 123 119 23 27 94 75 95 157 75 60 5 24 157 2 94 100 74 127 108 86 76 23 134 60 100 2 27 90
split_gain=4.92946e+06 3.30958e+06 3.0863e+06 2.89057e+06 1.21219e+06 1.00412e+06 625795 584192 444711 827977 424473 826275 434737 402944 597143 414942 451008 385640 1.16271e+06 349474 430306 670202 425323 698299 694040 420137 399988 298427 295751 432570
threshold=-3510.6219094503363 4440.8032201661399 -257.2852775635825 -2.021187495869214 3.5454334150555176 4.928616340248853 -0.0041470999999999991 1529.0603452159505 -3.4978196402979633 -0.5854734435706439 978.57213222339658 -1.2926294677851036 -0.38260766937461949 -564.43249577944709 -2.3683671158500386 3.1638148254361331 0.0029019100000000002 1896.1353557516284 0.2387162833410186 -0.00088006499999999997 1270.7623694639726 0.6249772729574532 804.42565040132365 0.29626551122425565 -0.02334231163280653 -0.38992031801630694 2721.1012368816569 1.9666102673514578 0.11940127006446208 -252.67891616053859
decision_type=2 2 2 2 2 2 2 2 2 2 2 2 2 2 2 2 2 2 2 2 2 2 2 2 2 2 2 2 2 2
left_child=3 2 -2 -1 5 6 -4 8 9 -8 13 -12 -13 15 -15 16 19 -16 -19 28 22 -22 26 24 -24 -26 27 -21 -10 -30
right_child=1 -3 4 -5 -6 -7 7 -9 10 -11 11 12 -14 14 17 -17 -18 18 -20 20 21 -23 23 -25 25 -27 -28 -29 29 -31
leaf_value=-1.7256032121273188 -0.88986697971322859 0.98742340050024147 -0.44691342364622944 -0.18302256161183642 -0.63148412610605309 0.60858947633011062 -0.092852397207993584 0.47537760197433804 0.0054502177395723975 0.73932019410249983 -0.63400661403482605 0.38269474957544025 -0.23068089871936373 0.45399454586972027 0.013827455180193397 -0.40259823260532673 0.30306147648504489 -0.2070059011080643 0.86334044406144184 -0.025007371172341357 0.0084351022488817901 -0.68243146218126638 0.81595713061829134 -0.19739622886546634 -0.15377136564206498 0.41693168465296432 -0.3756027585232436 -0.25206207984285489 -0.2263105721652508 0.28182365237099893
leaf_weight=260 389 340 309 228 301 274 249 262 2177 230 308 202 270 312 71763 283 432 205 201 37261 311 256 219 352 247 270 335 588 200 1032
leaf_count=260 389 340 309 228 301 274 249 262 2177 230 308 202 270 312 71763 283 432 205 201 37261 311 256 219 352 247 270 335 588 200 1032
internal_value=-0.0018795 0.0022138 -0.000595469 -1.00489 0.00231517 0.00392442 0.00252362 0.00370089 0.00265096 0.306729 0.00140844 -0.231094 0.0318231 0.00296586 0.0174534 -0.0209195 -0.0184466 0.0155662 0.322895 -0.0216582 -0.0299736 -0.303491 -0.0260246 0.168935 0.344137 0.144275 -0.0315797 -0.0285348 0.0755192 0.199334
internal_weight=120066 119578 119238 488 118849 118548 118274 117965 117703 479 117224 780 472 116444 72481 43963 43680 72169 406 43248 39839 567 39272 1088 736 517 38184 37849 3409 1232
internal_count=120066 119578 119238 488 118849 118548 118274 117965 117703 479 117224 780 472 116444 72481 43963 43680 72169 406 43248 39839 567 39272 1088 736 517 38184 37849 3409 1232
is_linear=0
shrinkage=0.01


Tree=2
num_leaves=31
num_cat=0
split_feature=75 32 149 76 25 105 6 29 83 148 152 86 22 100 15 111 117 149 29 11 122 100 111 23 152 100 140 76 11 55
split_gain=3.90999e+06 4.29592e+06 3.64266e+06 2.81191e+06 1.17265e+06 1.52172e+06 1.56454e+06 1.50995e+06 1.45316e+06 772412 1.37494e+06 1.33869e+06 755130 796188 746766 704008 735848 692358 1.66641e+06 1.21594e+06 896140 964613 647829 477834 531242 463309 821304 458295 408504 402876
threshold=1529.0603452159505 -401.44151879841212 -3.6128432867916325 255.58766810374169 -1.8073727054593383 1.7381900389741192 930.3255565957603 1.9178075938627177 -0.65071759693988651 3.5458708373713246 1459.8337726727464 4.683108920411839 0.058816982042301076 1202.4950780864986 1.5804800252074453 -0.51829162859053313 17.237275198364049 2.9665783837265098 3.8616898837342486 3.9949964657047037 0.21272872848893534 2340.1837880038661 0.10649461583070861 -0.46643283477833553 2180.9794822546251 1167.1029902470943 0.25800327727847933 1394.4325679545202 1.0140476839638983 -1.5516413799107467
decision_type=2 2 2 2 2 2 2 2 2 2 2 2 2 2 2 2 2 2 2 2 2 2 2 2 2 2 2 2 2 2
left_child=2 -2 3 -1 5 7 23 12 -8 11 -11 17 14 -14 15 16 -4 18 27 20 -19 28 -15 -7 -25 -18 -27 -6 -22 -17
right_child=1 -3 4 -5 9 6 8 -9 -10 10 -12 -13 13 22 -16 29 25 19 -20 -21 21 -23 -24 24 -26 26 -28 -29 -30 -31
leaf_value=-0.20829957295408233 0.068190715904653504 1.9665665864379487 0.10209743575045938 -1.7806256116385484 0.0042285699732696851 -0.56288529457771674 -1.5094635581153713 0.75842823498899603 -0.33196358178385454 -0.053466465128143764 -1.0018902531494365 0.81529201630266701 -0.091690501019495343 0.1150224719346906 -0.57847116183317004 0.34194108310919896 -0.20727095927739558 0.55118362490286277 -0.8503136487174453 0.94216331835490907 -0.22430683274263455 -0.67297295801120227 0.8978438283910799 -0.2866433788891945 0.36876108734128626 -0.24799033907900719 -0.99119819352342764 0.33717556086218503 0.32520212266189036 -0.052258923061722043
leaf_weight=262 274 211 399 201 108830 226 219 216 201 569 209 205 545 223 367 290 655 319 228 205 211 202 201 293 214 321 277 415 377 2446
leaf_count=262 274 211 399 201 108830 226 219 216 201 569 209 205 545 223 367 290 655 319 228 205 211 202 201 293 214 321 277 415 377 2446
internal_value=-0.00197601 0.894082 -0.00561803 -0.890886 -0.0021697 -0.126853 -0.459307 -0.0623212 -0.945946 0.00574279 -0.308249 0.00794372 -0.0932929 0.161141 -0.145143 -0.1089 -0.271908 0.00644981 0.00371098 0.234629 0.103841 -0.076795 0.486124 -0.180469 -0.0100032 -0.391005 -0.592252 0.00549337 0.128014 -0.010476
internal_weight=119811 485 119326 463 118863 7093 1153 5940 420 111770 778 110992 5724 969 4755 4388 1652 110787 109473 1314 1109 790 424 733 507 1253 598 109245 588 2736
internal_count=119811 485 119326 463 118863 7093 1153 5940 420 111770 778 110992 5724 969 4755 4388 1652 110787 109473 1314 1109 790 424 733 507 1253 598 109245 588 2736
is_linear=0
shrinkage=0.01


Tree=3
num_leaves=31
num_cat=0
split_feature=117 43 138 43 92 75 150 31 150 30 43 80 103 147 116 115 111 80 147 115 55 43 62 27 92 27 30 103 43 64
split_gain=1.79338e+06 9.77464e+06 1.80415e+06 4.48663e+06 3.06182e+06 1.20906e+06 1.65872e+06 922648 896250 764552 742121 704153 1.87713e+06 947342 440725 485765 1.43228e+06 506344 461041 460427 954222 621486 600818 556701 545927 846441 715841 517827 499437 481866
threshold=250.73497834940733 0.04970023341441461 4.1120366960124342 -0.19759535257305935 106.67421190093009 -573.95035540745982 0.118454436940006 -0.52620097624578965 0.0080531449753974606 3254.7881979372219 -1.3428602138842973 1883.0548964403986 1.0852897086983704 -0.10945182029353444 4.0423310957282661 -3.766734620931238 -0.39598117601116056 -1361.2751844528673 -0.22068001566079029 -1.8016654811584432 0.13177614610338564 -0.31750099584605318 1.3809433122703043 4.5020583998509158 -265.48420339553564 3.5261038660120794 1861.9932269933804 0.44350231397052509 0.55228083230670588 0.15582959581444958
decision_type=2 2 2 2 2 2 2 2 2 2 2 2 2 2 2 2 2 2 2 2 2 2 2 2 2 2 2 2 2 2
left_child=2 -2 5 -4 -5 6 7 -1 -9 10 -10 14 13 -13 15 16 -7 -17 -18 20 24 -22 29 -21 -19 26 -26 -28 -24 -23
right_child=1 -3 3 4 -6 11 -8 8 9 -11 -12 12 -14 -15 -16 17 18 19 -20 23 21 22 28 -25 25 -27 27 -29 -30 -31
leaf_value=0.35582424398187712 -0.85769861446050966 2.0245761000272657 -1.3574384330971512 0.87769410270497317 -0.65739519830294479 -0.9470382346853542 -0.97552212099131208 0.43907348646965205 -0.69178633969170711 -0.73721438952467666 -0.11098710110202839 1.2082734052807678 -0.41304727844959865 0.29479728823062035 0.38484014435470865 -0.48907217209018883 0.40871836157179459 0.69613951327321744 -0.26195036346156425 0.0079223160543894586 -0.33296920014590753 0.033204020498847429 0.075735125466946912 0.48709986241756648 0.15592937796466189 -0.44596108106398347 0.25136613593172674 0.96566546199779679 -0.53521647010143703 0.59667699693053056
leaf_weight=368 229 242 334 266 254 207 241 219 245 264 2156 204 226 256 316 201 205 219 205 107887 615 357 318 243 2257 202 201 205 231 264
leaf_count=368 229 242 334 266 254 207 241 219 245 264 2156 204 226 256 316 201 205 219 205 107887 615 357 318 243 2257 202 201 205 231 264
internal_value=0.0073733 0.623215 0.0049392 -0.45304 0.127862 0.00824499 -0.175036 -0.115713 -0.175882 -0.226417 -0.170252 0.0138207 0.333247 0.699904 0.0119008 0.0108654 -0.268962 0.0123906 0.073384 0.0132826 0.108408 -0.0756027 0.0596798 0.00899917 0.214912 0.178127 0.225467 0.612035 -0.181332 0.272748
internal_weight=119637 471 119166 854 520 118312 3493 3252 2884 2665 2401 114819 686 460 114133 113817 617 113200 410 112999 4869 1785 1170 108130 3084 2865 2663 406 549 621
internal_count=119637 471 119166 854 520 118312 3493 3252 2884 2665 2401 114819 686 460 114133 113817 617 113200 410 112999 4869 1785 1170 108130 3084 2865 2663 406 549 621
is_linear=0
shrinkage=0.01


Tree=4
num_leaves=31
num_cat=0
split_feature=32 7 40 150 30 15 150 98 84 6 5 139 111 93 31 2 32 154 116 108 15 139 6 55 98 6 6 5 7 116
split_gain=3.11575e+06 2.5693e+06 2.17729e+06 7.47648e+06 1.90897e+06 960974 2.61252e+06 928059 806331 770358 1.6364e+06 1.20032e+06 1.21542e+06 571114 625473 956609 802684 564743 514897 416244 537093 449542 402951 365346 352270 588562 351969 291688 465291 276203
threshold=-3702.6870425557008 442.22167992068916 -0.0038391499999999991 0.071359684825614805 6855.0620353721706 -3.0842257426059621 0.060715003733700923 0.15848160309400836 0.00040579499999999997 1258.5162667656748 -0.47564211802082718 782.44269611078573 -0.0076089166587163535 3.1519265086105963 4.0764005002102222 -1.0926796897768336 -316.82905161463486 743.21068385946785 2.265699160521367 -929.8799105381255 0.86428886763987112 385.97676641066283 1153.6715143068602 0.15962742616339412 2.2831534106546374 765.95935568677498 1081.7236648555752 1.2673167857183605 323.68320608856305 0.89544349645238264
decision_type=2 2 2 2 2 2 2 2 2 2 2 2 2 2 2 2 2 2 2 2 2 2 2 2 2 2 2 2 2 2
left_child=1 -1 3 7 5 6 8 17 -4 13 11 12 -11 14 19 -16 -17 -2 23 20 21 -7 24 -15 26 29 27 -21 -29 -26
right_child=2 -3 4 -5 -6 9 -8 -9 -10 10 -12 -13 -14 18 15 16 -18 -19 -20 22 -22 -23 -24 -25 25 -27 -28 28 -30 -31
leaf_value=-0.063939781386731412 -0.16006436315638511 -1.5923903606451146 0.27271529934979893 2.0225343612745657 -0.71155933605353039 -0.077179428398663846 -1.3322944998741151 -0.57698637273576525 -0.49770417938722633 -0.13753166248324938 0.99775372352047509 -0.47080846556610439 0.75033440082413805 0.1460221330496852 -0.26329173854818927 0.97888546437288815 0.17773479095473885 0.57808543614137953 -0.52773925378404818 0.0071394574753286082 -0.49513721642269432 0.38869527087167455 -0.38739888279706008 -0.36144029933594646 0.012140269038269589 0.64821093473040947 0.37478939297442987 -0.061234068130104111 -0.55253818183595482 0.31746506397534785
leaf_weight=217 201 223 372 236 375 5041 200 225 214 302 240 283 315 358 213 226 280 214 377 105022 297 216 258 235 1297 206 258 1557 220 384
leaf_count=217 201 223 372 236 375 5041 200 225 214 302 240 283 315 358 213 226 280 214 377 105022 297 216 258 235 1297 206 258 1557 220 384
internal_value=0.00137188 -0.838586 0.00446146 0.50118 0.000797122 0.00305387 -0.345442 -0.0598197 -0.00863243 0.0053834 0.264073 0.0684244 0.315755 0.00285083 0.00488058 0.298905 0.535561 0.220572 -0.238784 0.00303838 -0.0814114 -0.0580375 0.00733348 -0.0550802 0.00826828 0.143712 0.00588094 0.00498975 -0.12206 0.0818873
internal_weight=120062 440 119622 876 118746 118371 786 640 586 117585 1140 900 617 116445 115475 719 506 415 970 114756 5554 5257 109202 593 108944 1887 107057 106799 1777 1681
internal_count=120062 440 119622 876 118746 118371 786 640 586 117585 1140 900 617 116445 115475 719 506 415 970 114756 5554 5257 109202 593 108944 1887 107057 106799 1777 1681
is_linear=0
shrinkage=0.01


Tree=5
num_leaves=31
num_cat=0
split_feature=76 149 161 110 30 153 9 81 56 52 134 76 17 9 140 87 162 9 97 81 19 120 91 76 31 140 81 44 162 117
split_gain=6.2648e+06 6.21314e+06 2.10694e+06 2.41078e+06 1.94473e+06 1.59846e+06 2.16983e+06 2.02112e+06 1.52275e+06 671131 548822 600376 592040 534530 419029 626468 968423 593664 621805 529082 859227 540618 516876 1.65605e+06 1.31884e+06 538512 438435 422703 381116 359716
threshold=1631.3512975070269 4.2827368624389104 1.3491454679881929 0.010930910135533154 6855.0620353721706 -2.7050558400069145 -0.93733482797945722 -2.420951362648823 -0.42049051634227891 459.87856521409361 0.05450864314417337 645.06595340478987 -4.304052972855728 0.32846673954553568 3.1819733700757431 263.5366493471692 2.2455800548867835 0.79523302576867649 0.040640050701101299 0.66949783766411008 -0.27614123223157722 0.45090735275395571 -3.5467233449313738 886.49027569046586 1.7329633876114467 0.4341814813244223 1.6144330041442856 -57.888374256445658 -0.40116935950610677 31.187364244179566
decision_type=2 2 2 2 2 2 2 2 2 2 2 2 2 2 2 2 2 2 2 2 2 2 2 2 2 2 2 2 2 2
left_child=4 2 3 -2 5 6 -1 -8 -9 10 12 -12 -7 -10 15 22 17 18 -17 20 -16 26 23 24 25 -14 -21 -23 -22 -24
right_child=1 -3 -4 -5 -6 9 7 8 13 -11 11 -13 14 -15 19 16 -18 -19 -20 21 28 27 29 -25 -26 -27 -28 -29 -30 -31
leaf_value=-1.2969820685104785 1.388596677889004 2.3438790421665296 -0.30912527328471417 -0.011670878600636755 -0.76375366611751971 0.49455448507354027 0.71087676677249734 -0.94903949443226709 0.16018965017994799 0.44661753347568345 0.11320598581489527 -0.55969396929282933 0.073036795165136004 -0.45250082674925607 0.60777670170766551 0.21944403207336849 0.83561718863248835 0.4900508778910655 -0.40670716870033136 -0.81457078615164857 -0.39724268212500546 0.27865052234810012 0.01286458797956906 1.0154058522070755 -0.49338813183787528 0.69438368885252222 -0.26875794963467692 -0.34374018401896222 0.16608636431757684 -0.02657299239360578
leaf_weight=203 282 206 277 218 334 246 210 308 359 342 212 354 367 236 205 343 220 269 295 241 288 226 79122 211 313 225 378 211 206 32681
leaf_count=203 282 206 277 218 334 246 210 308 359 342 212 354 367 236 205 343 220 269 295 241 288 226 79122 211 313 225 378 211 206 32681
internal_value=0.00481684 0.799849 0.390492 0.77808 -0.00177239 0.00037946 -0.346193 -0.172778 -0.378279 0.00427916 0.00298188 -0.307654 0.00449695 -0.0828271 0.0034559 0.00581565 0.240417 0.0960467 -0.0700773 -0.149888 0.0635223 -0.291152 0.00347418 0.217617 0.0316136 0.309191 -0.481263 -0.0218631 -0.162332 0.00133664
internal_weight=119588 983 777 500 118605 118271 1316 1113 903 116955 116613 566 116047 595 115801 114046 1127 907 638 1755 699 1056 112919 1116 905 592 619 437 494 111803
internal_count=119588 983 777 500 118605 118271 1316 1113 903 116955 116613 566 116047 595 115801 114046 1127 907 638 1755 699 1056 112919 1116 905 592 619 437 494 111803
is_linear=0
shrinkage=0.01


Tree=6
num_leaves=31
num_cat=0
split_feature=104 113 154 63 43 155 113 113 104 158 76 131 104 159 63 113 60 154 70 154 122 36 138 155 4 79 0 7 105 51
split_gain=7.4268e+06 6.94303e+06 4.04369e+06 7.33119e+06 3.26693e+06 3.2821e+06 991766 1.03169e+06 659056 549756 1.33239e+06 743598 523275 480077 469852 466314 671890 595678 745199 684455 590689 565437 1.04969e+06 749948 535641 511720 435133 519384 428360 389455
threshold=-3.6444973849969213 -0.94422513942927833 3086.9383047595961 59.09703490199481 0.99999248971766186 4.4100128418076805 3.7869521103430315 1.3069467246531095 2.9204589011805626 -2.1302894542817099 33.189844193723957 2.2281954892020921 2.2983992437860139 0.037293747916559414 75.675800185475168 -2.4173397483079628 -4.1387169614955122 2130.0009208941979 -0.73885485903027848 1029.8861547331564 2.6164722236884583 0.29291139006753214 1.8044817430668518 1.0253777176455987 -276.86774240796291 -0.44608354050076909 1.5370278077942678 707.76261158988393 2.5374066335794052 -0.98030192006691552
decision_type=2 2 2 2 2 2 2 2 2 2 2 2 2 2 2 2 2 2 2 2 2 2 2 2 2 2 2 2 2 2
left_child=1 -1 6 4 5 -4 7 9 12 10 -2 13 14 -12 -9 21 -17 19 -19 26 -21 23 -23 24 -11 -25 27 -18 -20 -15
right_child=2 -3 3 -5 -6 -7 -8 8 -10 15 11 -13 -14 29 -16 16 17 18 28 20 -22 22 -24 25 -26 -27 -28 -29 -30 -31
leaf_value=-2.6483743525021182 -0.8829371713570372 -0.21014726989052512 0.43184253991077448 2.1597636983107726 1.1992778750912148 -1.1914545340538025 0.51930103125726124 -0.09164218311067332 -0.52384858346270002 -0.53435292807476364 -0.35605511107943094 0.50359197439979764 0.32966528032148612 -0.33333581732505818 -0.44429208318082775 0.5298211095361941 0.0066160060216879282 -0.77658144930807438 -0.31534570140278445 0.091977548921949703 0.53913861568730614 -0.0032530683152219081 -0.82186126257663594 -0.05505678435892758 0.0038042401934285132 0.53100729565701243 -0.12951767882707438 0.43117875885695323 0.21623238609742315 0.18240181238464781
leaf_weight=203 229 275 279 241 207 225 364 6533 377 339 610 200 279 209 401 248 96939 208 349 5557 312 329 299 301 407 295 2361 289 268 489
leaf_count=203 229 275 279 241 207 225 364 6533 377 339 610 200 279 209 401 248 96939 208 349 5557 312 329 299 301 407 295 2361 289 268 489
internal_value=-0.00163689 -1.24563 0.00335395 0.652479 0.141571 -0.292844 -0.00187456 -0.0034846 -0.116255 0.00427975 -0.172217 -0.0642891 -0.0949512 -0.151121 -0.112036 0.00710529 0.00992444 0.00871131 -0.258951 0.0108052 0.115749 -0.145345 -0.393004 -0.0294503 -0.240747 0.235025 0.00462068 0.00787797 -0.0844495 0.0279761
internal_weight=119622 478 119144 952 711 504 118192 117828 7590 110238 1737 1508 7213 1308 6934 108501 106531 106283 825 105458 5869 1970 628 1342 746 596 99589 97228 617 698
internal_count=119622 478 119144 952 711 504 118192 117828 7590 110238 1737 1508 7213 1308 6934 108501 106531 106283 825 105458 5869 1970 628 1342 746 596 99589 97228 617 698
is_linear=0
shrinkage=0.01


Tree=7
num_leaves=31
num_cat=0
split_feature=50 36 67 55 102 161 57 102 100 23 24 100 23 23 100 69 130 50 94 45 84 130 67 50 50 84 65 69 102 17
split_gain=2.84063e+06 4.53433e+06 5.11577e+06 1.84883e+06 2.70386e+06 1.81407e+06 903114 968776 1.47461e+06 1.98435e+06 789210 1.41099e+06 2.48314e+06 1.0505e+06 1.32663e+06 769280 571318 915059 959925 648580 587046 517720 1.33054e+06 817262 656535 864962 535520 357839 634942 429743
threshold=-347.55342456849183 0.11498059267595935 -1.9023625443395369 -4.1422064674311301 2.3642385349563546 1.1635395515211151 -28.695542502629731 4.3128670105043669 3068.8977841233482 1.581791873704028 -2099.979476001075 2721.1012368816569 1.5406277425270907 -0.43739955986869966 1896.1353557516284 -0.00090699999999999993 34.764102199480092 -103.4550192671757 -2.1549999999999972e-05 -1.4594519729394306 0.00027164000000000002 51.694932176088059 -0.5354470906316452 -57.561172374527835 -265.52898949463491 -6.1459999999999957e-05 2.4399793441572051 -0.00094871999999999979 0.35213096417156819 -0.27275702371453886
decision_type=2 2 2 2 2 2 2 2 2 2 2 2 2 2 2 2 2 2 2 2 2 2 2 2 2 2 2 2 2 2
left_child=1 2 -1 4 -2 -3 -5 10 9 -9 13 21 -13 14 -8 -15 17 18 -17 -18 -19 24 23 -23 25 -12 -24 28 -26 -30
right_child=3 5 -4 6 -6 -7 7 8 -10 -11 11 12 -14 15 -16 16 19 20 -20 -21 -22 22 26 -25 27 -27 -28 -29 29 -31
leaf_value=-2.4348356282236567 -0.13016459840819949 -0.43422448285713722 -0.35896935086003667 0.51465678699596984 1.4803527407456136 0.87596388171888095 -0.035048081986257966 -0.57682366235344207 -0.96718307996808794 0.67207118577248337 0.86254684046558705 0.014759123607526852 1.3482667173169278 0.39959360043617459 -1.1168932505959792 -0.24004580990940916 -0.86798382847649702 -0.060440857775631497 0.65335852567449781 -0.10992090650513524 -0.64509733187027696 -0.19711899868767671 -0.30749260761008279 0.60808388583736328 -0.0016230783623502958 0.026124451028407592 -0.95493089952758536 0.0013991413244472649 0.14187227769413185 0.5031706087691028
leaf_weight=201 210 217 290 343 207 206 214 298 259 222 207 395 216 291 241 204 210 488 293 244 265 297 317 219 2397 307 214 108877 995 492
leaf_count=201 210 217 290 343 207 206 214 298 259 222 207 395 216 291 241 204 210 488 293 244 265 297 317 219 2397 307 214 108877 995 492
internal_value=0.000344364 -0.555012 -1.20876 0.00461267 0.669301 0.203834 0.00227374 0.000786401 -0.350698 -0.0436416 0.00311899 0.00690476 0.486179 -0.174477 -0.608069 -0.0755874 -0.156736 -0.046385 0.286649 -0.460567 -0.266196 0.00434326 -0.217005 0.144624 0.00638918 0.362972 -0.568419 0.00476376 0.0990814 0.261414
internal_weight=119836 914 491 118922 417 423 118505 118162 779 520 117383 114933 611 2450 455 1995 1704 1250 497 454 753 114322 1047 516 113275 514 531 112761 3884 1487
internal_count=119836 914 491 118922 417 423 118505 118162 779 520 117383 114933 611 2450 455 1995 1704 1250 497 454 753 114322 1047 516 113275 514 531 112761 3884 1487
is_linear=0
shrinkage=0.01


Tree=8
num_leaves=31
num_cat=0
split_feature=35 97 0 19 163 163 27 157 43 132 97 130 115 59 19 1 50 131 116 58 50 102 130 35 12 58 58 19 23 102
split_gain=2.20247e+06 4.19255e+06 1.45965e+06 3.76871e+06 1.52789e+06 1.58032e+06 1.42869e+06 870467 1.7288e+06 1.03192e+06 1.39455e+06 1.68085e+06 915165 808180 792576 977206 1.64997e+06 943159 754521 699213 551138 1.18164e+06 655574 501474 1.03663e+06 488288 483379 483327 477509 642124
threshold=4.1922171656336404 0.089028225489425128 -2.6310944193759243 1.5534813658631041 -0.64319335429117952 -1.149433486758259 2.3631806440014005 -3.1861039868652807 -1.3768080892846972 0.90700571097111282 0.07833557769863464 31.072084682602551 -0.79875260409875437 -57.750276088158742 2.0992506389937549 0.016339922025372381 -57.561172374527835 1.7355546491425613 2.7974282690681376 -0.20225412959099606 -297.59996647026884 0.9344657801220887 71.333990236970166 -2.6041763005413627 -167.47018073330287 -1.9089746383109938 1.5728958476896344 -0.31651004807148841 2.0329227634879197 3.2149540110213715
decision_type=2 2 2 2 2 2 2 2 2 2 2 2 2 2 2 2 2 2 2 2 2 2 2 2 2 2 2 2 2 2
left_child=2 18 3 4 5 19 27 8 -4 10 11 -10 -12 14 15 17 -17 25 -2 -1 21 -15 23 24 -22 -9 -25 -6 29 -28
right_child=1 -3 7 -5 6 -7 -8 13 9 -11 12 -13 -14 20 -16 16 -18 -19 -20 -21 22 -23 -24 26 -26 -27 28 -29 -30 -31
leaf_value=0.31135768061409347 0.29929481869135266 1.5544046101696734 -0.89099001289166335 -1.14944721853825 -0.42193156194020426 0.89335977404759814 -1.0757769441193166 0.72197145918437411 -0.10598358146905898 0.53003828375915851 0.75126009884117939 -1.026064191153369 -0.18389104674015141 -0.003529581879587902 -0.34532979406382702 1.0878450439349714 0.074181934881631967 -0.31290163595613335 -0.43177819213237278 -0.50205612067458705 0.69185041598784625 0.9140940805450436 -0.50227444493581386 0.011227131374262112 -0.1658274578816232 0.13922053304811319 -0.083754302913403314 0.18497227985944067 0.27787368032767046 -0.53232952185621152
leaf_weight=217 435 266 307 389 237 271 201 210 625 242 216 291 203 419 221 332 311 359 209 206 312 211 252 107153 257 456 4107 294 326 346
leaf_count=217 435 266 307 389 237 271 201 210 625 242 216 291 203 419 221 332 311 359 209 206 312 211 252 107153 257 456 4107 294 326 346
internal_value=0.00817247 0.498267 0.00442378 -0.276992 -0.0389941 0.297178 -0.357715 0.00878352 -0.20443 -0.0707754 -0.179687 -0.39828 0.298192 0.0122683 0.217408 0.291968 0.597566 0.10026 0.0620367 -0.0847729 0.00885057 0.303802 0.00720255 0.00834377 0.304463 0.322971 0.00683846 -0.0859057 -0.0915627 -0.118609
internal_weight=119881 910 118971 1815 1426 694 732 117156 1884 1577 1335 916 419 115272 1889 1668 643 1025 644 423 113383 630 112753 112501 569 666 111932 531 4779 4453
internal_count=119881 910 118971 1815 1426 694 732 117156 1884 1577 1335 916 419 115272 1889 1668 643 1025 644 423 113383 630 112753 112501 569 666 111932 531 4779 4453
is_linear=0
shrinkage=0.01


Tree=9
num_leaves=31
num_cat=0
split_feature=75 145 153 105 65 35 30 95 86 62 66 112 80 65 106 46 30 147 75 1 35 65 78 80 156 165 77 22 106 145
split_gain=4.87329e+06 2.86666e+06 2.25005e+06 2.03448e+06 2.75183e+06 2.01846e+06 1.99589e+06 1.05829e+06 843514 654899 1.01258e+06 583010 499345 626141 617612 408555 581861 452979 770066 527906 350209 958201 1.27048e+06 447632 412688 407654 403494 1.01715e+06 574952 559377
threshold=1529.0603452159505 -0.081139114637417395 -3.0307132606880924 0.51775248741977553 1.0073123117625737 4.7291042140657762 6855.0620353721706 4.1922112623291516 4.683108920411839 4.0291582379543902 -54.335435217726094 91.465257047557159 -1186.09538749634 1.7276699986648212 -513.82680850522877 537.51413183277816 4801.4372484628338 -3.5246848859412654 1159.9344160005355 -0.0056855400175758177 -1.5152457368939793 0.075045138719145074 -529.42987414963602 44.634209247527153 -933.44449944629582 0.51803759583530751 3.4766239087998092 0.046296509143044853 -289.5656445133182 0.040754308857310649
decision_type=2 2 2 2 2 2 2 2 2 2 2 2 2 2 2 2 2 2 2 2 2 2 2 2 2 2 2 2 2 2
left_child=2 -2 3 4 -1 6 7 8 9 11 -11 12 13 14 -4 16 17 19 20 -14 21 -19 24 25 -23 -24 -22 28 29 -28
right_child=1 -3 5 -5 -6 -7 -8 -9 -10 10 -12 -13 15 -15 -16 -17 -18 18 -20 -21 26 22 23 -25 -26 -27 27 -29 -30 -31
leaf_value=-0.7419539586898577 0.18148747870473048 1.7295844071872475 -0.2520255433027902 -1.1918247369534158 0.53363976253499823 0.71725336222085445 -0.9786558092913582 -0.56688525264136891 0.5385465951528039 0.086937940700841043 -0.81690153884176375 0.49757529388729932 0.70210146010512176 -0.71177111250339165 0.37740721461886451 -0.35513296228860802 0.51818917117648655 0.058546558163286029 -0.50775671550559343 0.059421819751632632 0.014446837818149807 -1.0091898792238678 -0.12417052512515836 -0.39356784401541239 -0.39922044782174959 0.29505558523572301 0.068072405639341332 -0.77960143922695102 0.24798177843413702 -0.6353491740567343
leaf_weight=386 223 258 605 282 301 399 206 321 299 253 243 243 202 202 210 307 225 2310 289 348 109139 228 804 397 216 326 236 224 410 217
leaf_count=386 223 258 605 282 301 399 206 321 299 253 243 243 202 202 210 307 225 2310 289 348 109139 228 804 397 216 326 236 224 410 217
internal_value=0.007316 1.01186 0.00328368 -0.476639 -0.183069 0.00719626 0.00480462 0.00651782 0.00807856 0.00673023 -0.355871 0.00826559 0.00724842 -0.21337 -0.0898404 0.00918468 0.0101524 0.00916144 0.00778975 0.295461 0.00909092 -0.0796486 -0.241613 -0.10471 -0.712448 -0.00322565 0.0125374 -0.179176 -0.0233293 -0.268887
internal_weight=120309 481 119828 969 687 118859 118460 118254 117933 117634 496 117138 116895 1017 815 115878 115571 115346 114796 550 114507 4281 1971 1527 444 1130 110226 1087 863 453
internal_count=120309 481 119828 969 687 118859 118460 118254 117933 117634 496 117138 116895 1017 815 115878 115571 115346 114796 550 114507 4281 1971 1527 444 1130 110226 1087 863 453
is_linear=0
shrinkage=0.01


Tree=10
num_leaves=31
num_cat=0
split_feature=101 22 22 16 90 91 154 69 21 19 28 36 36 154 108 109 28 108 7 4 1 105 148 4 28 21 21 19 2 85
split_gain=4.5554e+06 4.32189e+06 3.3881e+06 2.37299e+06 1.49089e+06 927152 658148 1.00231e+06 850182 676609 719795 727063 931120 1.22789e+06 828508 1.45394e+06 889046 657924 845579 1.62488e+06 609805 993884 609023 1.3503e+06 573736 597156 720791 610382 545994 538179
threshold=2206.9688722289843 0.093806833518673235 0.10299731084228593 0.00020237 -111.82016074396893 -4.6408959487546442 1119.0641886651213 0.0021653100000000006 3.4079652042113087 -1.1786201794717925 -1.1173882335751975 1.7335619212265883 0.58354076458783677 3086.9383047595961 1633.5031199919806 -8.2504999999999983e-05 0.72756094223023837 1183.988357217356 456.61819459079771 -212.89079819031716 -0.032219283635690148 3.4827269044572908 -1.5828719708249668 -408.59793680147635 1.3594668014631208 -0.13746625635958445 1.6888577246494025 -0.15545542252126746 3.5922460333615773 -0.88314897719486118
decision_type=2 2 2 2 2 2 2 2 2 2 2 2 2 2 2 2 2 2 2 2 2 2 2 2 2 2 2 2 2 2
left_child=2 3 5 4 -2 -1 8 9 22 20 -11 12 13 17 15 -14 -17 18 24 -20 -8 -22 23 -7 25 27 -27 -12 -24 -19
right_child=1 -3 -4 -5 -6 6 7 -9 -10 10 11 -13 14 -15 -16 16 -18 29 19 -21 21 -23 28 -25 -26 26 -28 -29 -30 -31
leaf_value=-0.48497406706242319 1.3121903089146398 1.8805860914665722 -1.0077714730910401 -0.36379213549634992 0.14584326173535628 -0.92778387154283981 -0.53449316706508399 0.77848031221662906 -0.56163368903372413 -0.47192132454216479 0.83421642667717411 -0.33797149191757569 -0.2137287739969598 -0.65926628844491364 0.94332877260348025 0.27526313584025314 1.1437650052070618 0.37013517205715185 1.0584370979140787 0.069801012724637984 -0.17554436500799303 0.53109386666440495 0.00074902251569887934 -0.088041745568068208 -0.21788397934934103 -0.010845811237352107 0.52336476476146621 0.17203892828950543 -0.43225341277375612 -0.21208709132942286
leaf_weight=394 241 230 335 306 201 210 288 206 274 200 252 304 349 203 242 287 200 200 306 364 907 255 107711 2172 415 1326 312 311 292 770
leaf_count=394 241 230 335 306 201 210 288 206 274 200 252 304 349 203 242 287 200 200 306 364 907 255 107711 2172 415 1326 312 311 292 770
internal_value=0.00206516 0.681766 -0.00351696 0.313144 0.781793 -0.000683909 0.000928264 0.090341 -0.00529093 0.0714174 0.117979 0.138178 0.16432 0.100559 0.428059 0.278902 0.631937 0.1368 0.204353 0.521327 -0.122568 -0.0204732 -0.00390996 -0.162074 0.12317 0.187476 0.0909086 0.468431 -0.000421655 -0.0920413
internal_weight=120063 978 119085 748 442 118750 118356 7697 110659 7491 6041 5841 5537 4459 1078 836 487 4256 3286 670 1450 1162 110385 2382 2616 2201 1638 563 108003 970
internal_count=120063 978 119085 748 442 118750 118356 7697 110659 7491 6041 5841 5537 4459 1078 836 487 4256 3286 670 1450 1162 110385 2382 2616 2201 1638 563 108003 970
is_linear=0
shrinkage=0.01


Tree=11
num_leaves=31
num_cat=0
split_feature=5 27 37 24 31 78 96 56 133 43 102 0 19 96 0 24 70 5 44 96 44 28 0 133 143 123 14 19 147 19
split_gain=3.28282e+06 7.21858e+06 7.55866e+06 2.14056e+06 1.56959e+06 2.77323e+06 2.20065e+06 1.05533e+06 863074 746702 725839 2.13204e+06 621034 618623 535103 570842 559976 665504 551615 651165 641359 581418 478579 442073 909475 486200 479603 466381 416225 406185
threshold=-4.0683070553831238 3.5261038660120794 0.045282754353242555 -3510.6219094503363 3.8056767149354087 -71.976684275191204 0.11554597132679424 0.018251753058524438 -0.021603844999999951 0.22654978502099202 4.3128670105043669 2.4569376511652656 -0.034179369535358821 0.17178141438633035 3.8417430414965472 -1499.4025431532291 0.28428949117643054 -2.3784114622860009 -167.88039519902151 -0.042527627218213453 -22.335349320860008 0.15904100079633568 1.8808407638492339 -0.028198718000000119 469.1506475118457 -63.288726311064856 643.51512491905521 0.46426583177422764 -0.92974505357281323 0.93877120481509135
decision_type=2 2 2 2 2 2 2 2 2 2 2 2 2 2 2 2 2 2 2 2 2 2 2 2 2 2 2 2 2 2
left_child=1 2 -1 -2 10 6 8 -4 9 -6 13 -12 -10 14 15 16 18 -18 19 21 29 -5 -17 24 25 -24 27 -25 -27 -20
right_child=3 -3 7 4 5 -7 -8 -9 12 -11 11 -13 -14 -15 -16 22 17 -19 20 -21 -22 -23 23 26 -26 28 -28 -29 -30 -31
leaf_value=-2.5371379692326204 -0.80035583497521401 1.0525003030495002 -0.7513249284008664 0.38978408565038236 0.99128097170376561 -0.72545748090849516 1.1372092370186766 0.17879313148094705 -0.28074438363572823 0.15843861747586557 0.20813608160318045 -1.1152882551499621 0.33545314925084924 0.39165657485935629 0.51273830588184188 0.0051586291887613803 -0.59218972747401355 -0.14228280456107162 -0.17810276641175946 0.70779321360878822 0.26262137946983177 -0.3122618532581255 0.33650571358260928 0.1009850681407249 -0.6609745023651824 -0.57900634188085931 0.35369231975878396 -0.36362495044556759 -0.08492930847483797 0.1590753016513414
leaf_weight=235 334 208 293 232 222 226 365 209 345 209 271 221 311 399 201 106022 393 2012 2531 205 483 240 209 494 384 219 313 384 770 416
leaf_count=235 334 208 293 232 222 226 365 209 345 209 271 221 311 399 201 106022 393 2012 2531 205 483 240 209 494 384 219 313 384 770 416
internal_value=-0.00561625 -0.592675 -1.05698 -0.000931127 0.00133018 0.304991 0.465378 -0.364085 0.239786 0.58742 -0.00304738 -0.386329 0.0113858 -0.00142043 -0.00277824 -0.00367688 -0.0946216 -0.215802 -0.0236601 0.2372 -0.0751477 0.0328116 0.00176668 -0.12792 -0.237473 -0.101726 0.0175989 -0.102216 -0.194336 -0.130507
internal_weight=119356 945 737 118411 118077 1678 1452 502 1087 431 116399 492 656 115907 115508 115307 6512 2405 4107 677 3430 472 108795 2773 1582 1198 1191 878 989 2947
internal_count=119356 945 737 118411 118077 1678 1452 502 1087 431 116399 492 656 115907 115508 115307 6512 2405 4107 677 3430 472 108795 2773 1582 1198 1191 878 989 2947
is_linear=0
shrinkage=0.01


Tree=12
num_leaves=31
num_cat=0
split_feature=25 19 63 140 149 129 82 24 145 129 158 59 145 0 126 145 129 132 94 82 103 94 140 140 14 92 149 14 95 108
split_gain=2.48818e+06 5.49849e+06 3.60489e+06 1.13999e+06 2.48987e+06 3.47422e+06 2.25604e+06 2.21217e+06 1.46303e+06 1.32583e+06 1.64389e+06 989703 592258 582448 646348 735240 573128 702873 565546 539520 522452 461561 730761 638562 455944 642536 633837 806024 558630 555350
threshold=-3.8964033605666666 0.79048327085712955 41.728200670624339 4.3153587561501316 2.9665783837265098 -3.9285441736718458 0.94514473275275301 -608.33159987056786 -0.13019027699385627 -2.5614340653486436 0.71974326685553691 -22.429906542055786 -0.076796889415816971 2.6759959779511537 0.30865147869601778 0.089156899172546447 -4.5650349797690781 0.30093207279434631 -3.3999999999999602e-06 0.9841041348872489 0.63416991197323413 -0.0017180899999999996 2.1026911526285312 -0.32832347814852175 559.52014656512563 -638.51755191168138 1.7796841577828753 1002.0283556889855 0.37343416485779807 1487.8710431077316
decision_type=2 2 2 2 2 2 2 2 2 2 2 2 2 2 2 2 2 2 2 2 2 2 2 2 2 2 2 2 2 2
left_child=1 2 12 4 13 -6 9 20 -9 -5 -11 -10 -1 16 -15 18 17 -2 -16 21 -7 22 23 -18 25 -23 27 28 -26 -28
right_child=3 -3 -4 6 5 7 -8 8 11 10 -12 -13 -14 14 15 -17 19 -19 -20 -21 -22 24 -24 -25 26 -27 29 -29 -30 -31
leaf_value=-0.90392338785750814 -0.70216659130786241 -1.9626304780560382 1.0123400726295324 0.60473597266510426 1.6010238549482256 -0.025521282166242602 -1.2492023376777699 1.0462878374831799 0.6497454784708333 0.31252251526287622 -0.85971077479475699 -0.15547656751117286 -0.25092316938712733 0.078788454988864803 0.23457635918066871 -0.81440563103068953 0.49384834095835689 0.080468078948202584 -0.49378164927864915 -0.37132449904088144 -0.73802800940736291 -0.45931090406432057 0.71599691218602546 -0.033045253153837474 0.046739379565143201 0.0025804698910842955 0.13486370064420242 -0.33792477477332505 0.46400071910172702 0.8528765016119435
leaf_weight=242 253 204 207 204 210 200 213 312 277 210 278 340 326 437 201 275 300 210 227 379 212 302 218 986 1118 110134 219 397 450 212
leaf_count=242 253 204 207 204 210 200 213 312 277 210 278 340 326 437 201 275 300 210 227 379 212 302 218 986 1118 110134 219 397 450 212
internal_value=0.000160236 -0.501913 -0.117414 0.0042986 0.00701325 0.405034 -0.349264 0.217743 0.488223 -0.0722597 -0.355266 0.206025 -0.529138 0.00170599 -0.223219 -0.410953 0.00393223 -0.347192 -0.151726 0.0053494 -0.392151 0.006598 0.180624 0.0898693 0.0042783 0.00131737 0.140753 0.0645795 0.166489 0.488039
internal_weight=119753 979 775 118774 117869 1551 905 1341 929 692 488 617 568 116318 1140 703 115178 463 428 114715 412 114336 1504 1286 112832 110436 2396 1965 1568 431
internal_count=119753 979 775 118774 117869 1551 905 1341 929 692 488 617 568 116318 1140 703 115178 463 428 114715 412 114336 1504 1286 112832 110436 2396 1965 1568 431
is_linear=0
shrinkage=0.01


end of trees

feature_importances:
x_120m_VolDiff_neut=10
x_1440m_RatioSkewDiff_neut=9
x_480m_H2L_Vol=9
x_1440m_L2C_neut=8
x_1440m_EffRatio_neut=7
x_240m_O2H=7
x_120m_C2VWAP_neut=6
x_1440m_H2C=6
x_1440m_O2H=6
x_15m_O2L=6
x_240m_O2C=6
x_480m_L2C_neut=6
x_60m_O2H_neut=6
x_720m_O2H=6
x_120m_H2C_neut=5
x_120m_H2L_Vol=5
x_1440m_Close_Diff_Rate_neut=5
x_1440m_RVol=5
x_15m_H2C=5
x_30m_PremiumDiff=5
x_480m_OI_Chg=5
x_60m_OI_Price_Ratio=5
x_720m_Close_Diff_Rate_neut=5
x_120m_Close_Diff_Rate_neut=4
x_120m_L2C=4
x_1440m_EffRatio=4
x_1440m_NetTaker_neut=4
x_1440m_O2H_neut=4
x_1440m_OI_Chg_neut=4
x_1440m_OI_Price_Ratio_neut=4
x_15m_OI_Chg=4
x_15m_PremiumDiff_neut=4
x_1m_O2H_neut=4
x_240m_OI_Chg=4
x_240m_PremiumDiff=4
x_480m_Close_Diff_Rate=4
x_480m_O2H_neut=4
x_480m_RatioSkewDiff_neut=4
x_5m_C2VWAP_neut=4
x_5m_H2L_Vol_neut=4
x_5m_PremiumDiff=4
x_5m_RVol=4
x_60m_PremiumDiff_neut=4
x_720m_EffRatio=4
x_120m_Close_Diff_Rate=3
x_120m_H2C=3
x_120m_NetTaker_neut=3
x_120m_OI_Chg=3
x_120m_OI_Chg_neut=3
x_1440m_O2L=3
x_1m_C2VWAP_neut=3
x_1m_H2C_neut=3
x_1m_L2C=3
x_1m_PremiumDiff=3
x_240m_OI_Chg_neut=3
x_30m_L2C_neut=3
x_30m_OI_Chg=3
x_30m_PremiumDiff_neut=3
x_480m_EffRatio=3
x_480m_L2C=3
x_480m_NetTaker_neut=3
x_480m_O2C_neut=3
x_5m_H2C_neut=3
x_5m_L2C=3
x_5m_O2C=3
x_5m_Premium_neut=3
x_720m_O2L_neut=3
x_120m_O2H_neut=2
x_120m_PremiumDiff_neut=2
x_120m_Vol=2
x_1440m_H2C_neut=2
x_1440m_O2C_neut=2
x_15m_RatioSkewDiff_neut=2
x_1m_H2C=2
x_1m_H2L_Vol_neut=2
x_1m_O2L_neut=2
x_1m_PremiumDiff_neut=2
x_240m_O2L=2
x_240m_OI_P_Corr=2
x_30m_O2L=2
x_30m_O2L_neut=2
x_480m_EffRatio_neut=2
x_480m_O2L=2
x_5m_O2H_neut=2
x_5m_O2L=2
x_5m_RVol_neut=2
x_5m_RatioSkew_neut=2
x_5m_WhaleGap=2
x_60m_Close_Diff_Rate=2
x_60m_H2L_Vol_neut=2
x_60m_O2H=2
x_60m_Vol_neut=2
x_720m_H2L_Vol=2
x_720m_O2C_neut=2
x_720m_O2H_neut=2
x_720m_OI_Chg_neut=2
x_720m_OI_Price_Ratio_neut=2
x_720m_OI_XSkew=2
x_720m_OI_Z=2
x_720m_OI_Z_neut=2
x_120m_O2L=1
x_120m_PremiumDiff=1
x_1440m_PctB=1
x_1440m_PremiumDiff=1
x_15m_H2C_neut=1
x_15m_H2L_Vol=1
x_15m_O2L_neut=1
x_1m_C2VWAP=1
x_1m_L2C_neut=1
x_1m_O2L=1
x_240m_NetTaker_neut=1
x_240m_O2H_neut=1
x_240m_O2L_neut=1
x_240m_PctB_neut=1
x_240m_PremiumDiff_neut=1
x_30m_O2C=1
x_30m_OI_Chg_neut=1
x_480m_PremiumDiff=1
x_480m_PremiumDiff_neut=1
x_5m_C2VWAP=1
x_5m_H2C=1
x_5m_O2C_neut=1
x_5m_O2L_neut=1
x_5m_PctB_neut=1
x_60m_OI_Chg=1
x_720m_O2L=1
x_720m_OI_Price_Ratio=1
x_720m_PremiumDiff_neut=1

parameters:
[boosting: gbdt]
[objective: regression]
[metric: rmse]
[tree_learner: serial]
[device_type: cpu]
[data_sample_strategy: bagging]
[data: ]
[valid: ]
[num_iterations: 4000]
[learning_rate: 0.01]
[num_leaves: 31]
[num_threads: 0]
[seed: 42]
[deterministic: 0]
[force_col_wise: 0]
[force_row_wise: 0]
[histogram_pool_size: -1]
[max_depth: -1]
[min_data_in_leaf: 200]
[min_sum_hessian_in_leaf: 0.001]
[bagging_fraction: 0.2]
[pos_bagging_fraction: 1]
[neg_bagging_fraction: 1]
[bagging_freq: 1]
[bagging_seed: 400]
[bagging_by_query: 0]
[feature_fraction: 0.2]
[feature_fraction_bynode: 1]
[feature_fraction_seed: 30056]
[extra_trees: 0]
[extra_seed: 12879]
[early_stopping_round: 0]
[early_stopping_min_delta: 0]
[first_metric_only: 0]
[max_delta_step: 0]
[lambda_l1: 0]
[lambda_l2: 0]
[linear_lambda: 0]
[min_gain_to_split: 0]
[drop_rate: 0.1]
[max_drop: 50]
[skip_drop: 0.5]
[xgboost_dart_mode: 0]
[uniform_drop: 0]
[drop_seed: 17869]
[top_rate: 0.2]
[other_rate: 0.1]
[min_data_per_group: 100]
[max_cat_threshold: 32]
[cat_l2: 10]
[cat_smooth: 10]
[max_cat_to_onehot: 4]
[top_k: 20]
[monotone_constraints: ]
[monotone_constraints_method: basic]
[monotone_penalty: 0]
[feature_contri: ]
[forcedsplits_filename: ]
[refit_decay_rate: 0.9]
[cegb_tradeoff: 1]
[cegb_penalty_split: 0]
[cegb_penalty_feature_lazy: ]
[cegb_penalty_feature_coupled: ]
[path_smooth: 0]
[interaction_constraints: ]
[verbosity: -1]
[saved_feature_importance_type: 0]
[use_quantized_grad: 0]
[num_grad_quant_bins: 4]
[quant_train_renew_leaf: 0]
[stochastic_rounding: 1]
[linear_tree: 0]
[max_bin: 255]
[max_bin_by_feature: ]
[min_data_in_bin: 3]
[bin_construct_sample_cnt: 200000]
[data_random_seed: 175]
[is_enable_sparse: 1]
[enable_bundle: 1]
[use_missing: 1]
[zero_as_missing: 0]
[feature_pre_filter: 0]
[pre_partition: 0]
[two_round: 0]
[header: 0]
[label_column: ]
[weight_column: ]
[group_column: ]
[ignore_column: ]
[categorical_feature: ]
[forcedbins_filename: ]
[precise_float_parser: 0]
[parser_config_file: ]
[objective_seed: 16083]
[num_class: 1]
[is_unbalance: 0]
[scale_pos_weight: 1]
[sigmoid: 1]
[boost_from_average: 1]
[reg_sqrt: 0]
[alpha: 0.9]
[fair_c: 1]
[poisson_max_delta_step: 0.7]
[tweedie_variance_power: 1.5]
[lambdarank_truncation_level: 30]
[lambdarank_norm: 1]
[label_gain: ]
[lambdarank_position_bias_regularization: 0]
[eval_at: ]
[multi_error_top_k: 1]
[auc_mu_weights: ]
[num_machines: 1]
[local_listen_port: 12400]
[time_out: 120]
[machine_list_filename: ]
[machines: ]
[gpu_platform_id: -1]
[gpu_device_id: -1]
[gpu_use_dp: 0]
[num_gpu: 1]

end of parameters

pandas_categorical:[]
