tree
version=v4
num_class=1
num_tree_per_iteration=1
label_index=0
max_feature_idx=165
objective=regression
feature_names=x_120m_C2VWAP_neut x_120m_Close_Diff_Rate x_120m_Close_Diff_Rate_neut x_120m_CrowdingPressure_neut x_120m_H2C x_120m_H2C_neut x_120m_H2L_Vol x_120m_L2C x_120m_L2C_neut x_120m_NetTaker_neut x_120m_O2H x_120m_O2H_neut x_120m_O2L x_120m_O2L_neut x_120m_OI_Chg x_120m_OI_Chg_neut x_120m_PremiumDiff x_120m_PremiumDiff_neut x_120m_Vol x_120m_VolDiff_neut x_120m_Vol_neut x_1440m_Close_Diff_Rate_neut x_1440m_EffRatio x_1440m_EffRatio_neut x_1440m_H2C x_1440m_H2C_neut x_1440m_L2C x_1440m_L2C_neut x_1440m_NetTaker_neut x_1440m_O2C_neut x_1440m_O2H x_1440m_O2H_neut x_1440m_O2L x_1440m_O2L_neut x_1440m_OI_Chg x_1440m_OI_Chg_neut x_1440m_OI_Price_Ratio_neut x_1440m_PctB x_1440m_PctB_neut x_1440m_Premium x_1440m_PremiumDiff x_1440m_PremiumDiff_neut x_1440m_RVol x_1440m_RatioSkewDiff_neut x_15m_H2C x_15m_H2C_neut x_15m_H2L_Vol x_15m_L2C x_15m_O2H x_15m_O2H_neut x_15m_O2L x_15m_O2L_neut x_15m_OI_Chg x_15m_OI_Chg_neut x_15m_PremiumDiff x_15m_PremiumDiff_neut x_15m_RatioSkewDiff_neut x_1m_C2VWAP x_1m_C2VWAP_neut x_1m_H2C x_1m_H2C_neut x_1m_H2L_Vol x_1m_H2L_Vol_neut x_1m_L2C x_1m_L2C_neut x_1m_O2H_neut x_1m_O2L x_1m_O2L_neut x_1m_Premium x_1m_PremiumDiff x_1m_PremiumDiff_neut x_1m_Premium_neut x_240m_C2VWAP_neut x_240m_EffRatio_neut x_240m_NetTaker_neut x_240m_O2C x_240m_O2H x_240m_O2H_neut x_240m_O2L x_240m_O2L_neut x_240m_OI_Chg x_240m_OI_Chg_neut x_240m_OI_P_Corr x_240m_PctB_neut x_240m_PremiumDiff x_240m_PremiumDiff_neut x_30m_L2C_neut x_30m_O2C x_30m_O2H x_30m_O2H_neut x_30m_O2L x_30m_O2L_neut x_30m_OI_Chg x_30m_OI_Chg_neut x_30m_PremiumDiff x_30m_PremiumDiff_neut x_480m_Close_Diff_Rate x_480m_EffRatio x_480m_EffRatio_neut x_480m_H2C_neut x_480m_H2L_Vol x_480m_L2C x_480m_L2C_neut x_480m_NetTaker_neut x_480m_O2C_neut x_480m_O2H_neut x_480m_O2L x_480m_O2L_neut x_480m_OI_Chg x_480m_PremiumDiff x_480m_PremiumDiff_neut x_480m_RatioSkewDiff_neut x_5m_C2VWAP x_5m_C2VWAP_neut x_5m_H2C x_5m_H2C_neut x_5m_H2L_Vol_neut x_5m_L2C x_5m_L2C_neut x_5m_O2C x_5m_O2C_neut x_5m_O2H x_5m_O2H_neut x_5m_O2L x_5m_O2L_neut x_5m_OI_Chg x_5m_PctB_neut x_5m_PremiumDiff x_5m_PremiumDiff_neut x_5m_Premium_neut x_5m_RVol x_5m_RVol_neut x_5m_RatioSkew_neut x_5m_WhaleGap x_60m_Close_Diff_Rate x_60m_EffRatio x_60m_EffRatio_neut x_60m_H2C x_60m_H2L_Vol_neut x_60m_O2H x_60m_O2H_neut x_60m_O2L x_60m_O2L_neut x_60m_OI_Chg x_60m_OI_Chg_neut x_60m_OI_Price_Ratio x_60m_PremiumDiff x_60m_PremiumDiff_neut x_60m_Vol_neut x_720m_Close_Diff_Rate_neut x_720m_EffRatio x_720m_H2C_neut x_720m_H2L_Vol x_720m_O2C_neut x_720m_O2H x_720m_O2H_neut x_720m_O2L x_720m_O2L_neut x_720m_OI_Chg_neut x_720m_OI_Price_Ratio x_720m_OI_Price_Ratio_neut x_720m_OI_XSkew x_720m_OI_Z x_720m_OI_Z_neut x_720m_PremiumDiff x_720m_PremiumDiff_neut
feature_infos=[-5.3763438477060221:5.3615893637010821] [-0.92028674036347813:0.95704761390628379] [-5.375046127153138:5.3742204852263882] [-4.2859247756182475:4.9104601340648886] [-9205.086216549098:0] [-5.3697965947346447:3.12494360102836] [9.413043891137729:144879.82658176401] [0:9799.8569041039027] [-3.3334513609682266:5.3755116427680854] [-4.522645259207299:4.7438836122590997] [0:15854.426459102049] [-3.0612427527450703:5.3788312241208951] [-9354.3268238233377:0] [-5.3749401361041089:3.7981132957130779] [-8519.5383890127123:23001.09179750787] [-5.3215767439474266:5.3753068722923087] [-0.14269280000000001:0.17848358] [-5.3840988309966225:5.3845754150542202] [-3.0540647272352714:12.599162707193482] [-5.1173491432011167:5.257459586873785] [-4.3331501953751186:5.3001468822732587] [-5.3155355943133822:5.3595711329576279] [0:0.40679167499237529] [-3.9714676963243027:5.2725245209200411] [-9284.4036986230167:0] [-5.3333385193063929:3.4028186977301393] [0:29388.888888888894] [-3.0391918651870826:5.3794942594290749] [-4.1633189089762572:4.5231809284885056] [-5.3129593029264059:5.3589571837349776] [0:29957.058507783146] [-2.4092042333659878:5.3782983650272032] [-9416.4377799809936:0] [-5.3093510101235353:3.4272796376526924] [-8637.3586553720233:137341.89161490873] [-5.1499184927166866:5.382956993736947] [-5.382618775480819:5.3811030104077311] [-1.3551107385434473:3.7759045249951009] [-4.6053537219553284:5.1452162280188753] [-0.093707932048611095:0.0019818186319444445] [-0.21168963000000002:0.29323533999999996] [-5.3842430090647131:5.3836457411814251] [1.9746785263138029:301.94282454235764] [-4.6939668839763842:4.7080593351310887] [-3346.9023179535238:0] [-5.3628883168597703:3.2233041000950697] [1.067642254433121:12572.376527243483] [0:7048.8576830105612] [0:12392.144604955924] [-3.0516385535309394:5.3833338339480399] [-3159.1532586935568:0] [-5.3795300218719513:3.2367522559292481] [-2862.6073074267142:4050.3751044327087] [-5.312991356966986:5.3432031945653806] [-0.066882120000000017:0.085691670000000011] [-5.3834619825980248:5.383164048712981] [-5.3489325462002482:5.3186585475520802] [-407.43423846518965:277.72800573373945] [-5.3544474682517027:5.3483785182654691] [-2447.0258315806359:0] [-5.3799592781199603:3.0664754124337925] [0:7855.6627778935153] [-3.007979608015368:5.3832540536855404] [0:3486.3359721436882] [-2.9333225174707986:5.3811086818490841] [-2.8492890237723425:5.3841413873694703] [-1177.0447003708762:0] [-5.3664163915546963:2.8940683996234879] [-0.22658828:0.021647799999999998] [-0.029914670000000001:0.053622439999999993] [-5.3781240720681911:5.369100119007622] [-5.3848736837233941:5.3695398144500617] [-5.3770875705830994:5.3709449039623953] [-3.5147761329286387:5.2453204809382461] [-4.4746052978226549:4.8632466613555589] [-9258.8097498588941:14761.117417699028] [0:23315.236168007501] [-3.0612427527450703:5.383484813985203] [-9398.1601525106689:0] [-5.3807078113340587:3.3514720286689559] [-8610.4697065891087:39757.500339568243] [-5.3328954319455004:5.377418588102219] [-0.94740695324914925:0.99549069583152694] [-4.774930645931251:5.1426351060786688] [-0.21722416:0.19942701000000002] [-5.384717012698192:5.3840646484061301] [-3.3763209744570144:5.3811892433686417] [-3457.9277774578131:9594.698617758293] [0:14262.825859480443] [-2.9375347023106153:5.3825167067959194] [-4686.2581351149001:0] [-5.3701546561815192:3.2783507208428384] [-3093.2630914141992:10920.392097755748] [-5.3139484762006743:5.3634838324132863] [-0.10040529000000001:0.073579999999999993] [-5.3839792392873891:5.3832605223730043] [-0.92764922069567324:1.3126684550143377] [0:0.50628183715712327] [-4.0431570532744292:5.2437487627102506] [-5.3705321617725241:2.988375698058944] [30.05963659368005:160243.86939439102] [0:19040.509416068282] [-3.0400624687184949:5.3773846678525938] [-4.2181908118150195:4.7290157168115581] [-5.3310468448369255:5.3666158889638398] [-2.7981304157984361:5.3838971969206568] [-9412.392226795424:0] [-5.3729696870284931:3.310199277392007] [-8636.3089199952065:71044.589884198373] [-0.22082572:0.13493138000000002] [-5.3843283949737168:5.3831056661587224] [-4.7993571227943868:4.9108666914968451] [-1050.3265271235218:1958.2290701126603] [-5.3036425430831269:5.3762056583716538] [-2447.0258315806359:0] [-5.3699848566778652:3.3245356853757446] [-3.1945039121502177:5.3830383002786082] [0:5574.5230208749526] [-3.0837009453282076:5.3817187247170057] [-1811.9302734687349:5141.7699894954258] [-5.3176781048939583:5.3789529778497132] [0:10047.427214575255] [-2.8801805188693037:5.3840754057339808] [-1856.069086838319:0] [-5.3698385497837053:2.9830204252558126] [-1904.6475842026166:1748.7340300250698] [-5.3793193376265256:5.235735694227003] [-0.047669190000000014:0.048182660000000002] [-5.374464504588798:5.3748097415940093] [-5.3850624269107552:5.3119375396109518] [0:1051.3365384409356] [-3.0009074121393722:5.3744881978692565] [-4.3267079471054295:3.9051082698449489] [-0.99366902000000046:2.4411292460000018] [-0.64361405903161795:0.95933871021719486] [0:0.76299287494605561] [-4.3417140373792238:4.7610809087726365] [-6689.5446265938062:0] [-3.0899587537642348:5.3825864609790477] [0:15364.810269066234] [-2.7622023987349249:5.3808074049571957] [-7016.5723524656432:0] [-5.3671088812906556:3.4545942422316087] [-4084.6907839340283:13875.517975499748] [-5.2421924650539786:5.3801090702064975] [-1105132247.7840834:796612896.96005487] [-0.13964522000000001:0.12343245999999999] [-5.3835688545205969:5.382334712319552] [-4.4318470205785081:5.2196132046820587] [-5.3392589162609356:5.330554221190539] [0:0.48054553508749437] [-5.3660770338693204:3.1258239759971387] [33.727020642908556:162046.87711692179] [-5.3396704329480125:5.3328114209590147] [0:20593.253829140351] [-2.7201146933038158:5.3809311470467369] [-9415.5561362250664:0] [-5.37455701771301:3.3747536211444054] [-5.2749192550164832:5.3784892004034202] [-1476798506.4857249:2014640179.1796207] [-5.3851648071345029:5.3851648071345046] [-20.241993903226589:26.935441258746859] [-9.891621992400049:12.555681132277023] [-4.5258210284130316:5.167654173739864] [-0.21339160000000001:0.23137128999999998] [-5.384631454326346:5.384443974825297]
tree_sizes=11269

Tree=0
num_leaves=127
num_cat=0
split_feature=35 42 0 17 25 43 33 100 102 116 59 44 127 8 1 102 108 108 37 39 28 15 116 100 35 21 28 7 44 42 101 73 60 131 137 42 8 0 108 28 100 100 127 8 52 44 161 59 32 78 112 160 145 32 138 73 3 60 100 20 113 109 18 21 50 161 101 100 95 42 7 76 35 112 7 21 25 37 141 20 15 61 100 120 138 0 61 43 42 110 162 161 114 20 39 42 33 101 21 28 33 8 131 44 84 20 71 42 76 17 42 8 49 42 100 7 142 100 116 82 100 42 100 22 32 1
split_gain=2.89932e+06 2.50858e+06 1.70702e+06 1.61576e+06 1.5187e+06 2.57846e+06 2.71971e+06 1.77335e+06 1.47168e+06 1.18232e+06 837066 775938 756604 1.71181e+06 883098 644121 1.25096e+06 619216 545973 865499 2.08301e+06 608214 1.22646e+06 588265 472078 725113 524343 407709 495828 494493 418712 399971 392991 356944 556333 501115 417218 409735 391846 336132 331720 780922 316694 440477 344867 329166 315558 311156 295333 483038 356596 335766 291897 288485 534824 736786 392853 280761 277882 419104 318969 326573 300574 284051 322624 276814 368229 275804 264816 263135 729481 368243 259180 369534 255836 250182 240681 237382 342109 314755 236232 235511 233166 229523 241926 227427 234527 223903 220726 218901 214625 314938 246186 234419 213940 212214 229838 211586 209779 208377 636516 424696 201761 350975 271260 443826 391470 253831 212032 192363 191751 191716 216213 176035 239400 185557 173548 172268 170774 169283 285800 223359 193674 169987 306780 222330
threshold=4.6956910040581272 46.90884362418624 3.8393805407190209 -4.287150493802077 -3.6704271708184875 -1.1009590811232386 -3.8129887028788469 1639.2025934837077 1.3230815212773406 4.4177532592148792 -31.494967483819412 -405.55104758338007 -0.0024680699999999997 1.513926993296433 0.10847299039826143 3.9699835267841537 1666.0545393541017 728.56036960822337 0.76383369470526385 -0.00077430833333333319 1.8529882376393909 1.2546284371038825 2.6264465541491862 3559.6812994436204 1.6999102495072536 0.85779866243230651 0.69867626012162509 585.94874630778065 -158.9961891993774 34.925658618540901 488.19928411741546 2.7795385635325194 -1.2594368392738089 1.9538941251432655 -481.58793188356248 50.037793959474449 1.513926993296433 -3.1852603383898423 -286.83768118351099 0.42072699444593414 2518.4996719950518 2121.0145786416974 0.0011320650000000002 3.3442927828103803 260.9313718748752 -213.85228168934285 0.2386905614483093 -7.8111269533187579 -820.6343701069195 -200.52287404221934 12.164639437892701 0.0039425496916054787 -0.13018896490330598 -2100.3758118200826 0.71775498354560352 -0.010362388581473996 -0.6658028488504788 -0.58105404563231566 548.32010605061271 2.8121626459741642 0.96915813925894267 0.0017896250000000002 -0.26104005415534975 -0.07814998150527655 -83.679734894815937 1.4410801342197519 663.55064205848146 1677.7335884751167 -0.17389436706709369 31.33025000284935 207.29479362441188 548.63922619995185 0.4413905916850161 36.837244304852589 398.65036874163883 -0.76241052116510311 0.32737715581166021 0.59430836529653852 -345.49122436396232 1.238670336282319 2.1372578577012118 58.349931316432631 1128.1723995127682 1.1411907347879082 0.3169204356093433 1.4462553372274864 30.365987078943004 -0.33418951154188159 34.080109772392092 0.95670891206409159 1.1718949462380988 1.2808706193972073 -73.154498367470339 -1.1244422700090604 0.00013558312500000001 22.434076017024164 -1.0110026143048554 1043.1624705234979 0.44311991813868451 1.0570200918333639 0.10601106638297422 0.019093471511771029 1.0025132575996512 -158.9961891993774 1.0000000180025095e-35 0.070117753347806108 0.09508785040076477 34.925658618540901 159.33133351857091 2.6977875814965451 26.242699953245559 1.6497910568466716 1.4430651414614857 27.990116855912209 1390.9901616449986 429.99448732083727 -0.59603278754852662 1307.0160028803882 0.47567322149097119 0.85354018706300938 1505.6323272238305 40.301197416669943 563.23801443901823 0.0418336687547936 -1474.0020936689273 0.0022898408499381078
decision_type=2 2 2 2 2 2 2 2 2 2 2 2 2 2 2 2 2 2 2 2 2 2 2 2 2 2 2 2 2 2 2 2 2 2 2 2 2 2 2 2 2 2 2 2 2 2 2 2 2 2 2 2 2 2 2 2 2 2 2 2 2 2 2 2 2 2 2 2 2 2 2 2 2 2 2 2 2 2 2 2 2 2 2 2 2 2 2 2 2 2 2 2 2 2 2 2 2 2 2 2 2 2 2 2 2 2 2 2 2 2 2 2 2 2 2 2 2 2 2 2 2 2 2 2 2 2
left_child=2 -2 3 8 5 7 -7 -5 -1 11 -4 -6 13 32 15 18 17 -17 21 20 24 23 27 33 25 26 46 28 -23 74 -31 40 -13 37 -35 36 39 -14 -38 52 41 42 43 44 45 -21 -20 -44 49 -47 65 -52 -36 54 56 -56 -39 -46 99 60 77 62 63 83 -65 66 -51 82 -66 72 -71 -72 85 76 89 -41 87 97 -79 81 111 90 -58 -62 -85 113 -87 -74 117 95 91 92 -80 -94 118 -30 -97 102 -70 -55 101 -101 109 -104 105 106 108 -106 -105 119 -98 112 -78 114 115 -50 -54 -64 -95 120 122 -121 -60 124 -124 -126
right_child=1 -3 10 4 9 6 -8 -9 -10 -11 -12 12 14 -15 -16 16 -18 -19 19 31 -22 22 -24 -25 -26 -27 -28 -29 29 30 -32 -33 -34 34 35 -37 38 53 -40 75 -42 -43 47 -45 57 48 -48 -49 69 50 51 -53 116 58 55 -57 67 -59 59 -61 61 -63 88 64 68 -67 -68 -69 98 70 71 -73 73 -75 -76 -77 80 78 79 -81 -82 -83 -84 84 -86 86 -88 -89 -90 -91 -92 -93 93 94 -96 96 110 -99 -100 100 -102 -103 103 104 107 -107 -108 -109 -110 -111 -112 -113 -114 -115 -116 -117 -118 -119 -120 121 -122 -123 123 -125 125 -127
leaf_value=0.244238872321628 0.30665911299413623 1.7757061932597802 -0.87299784706226213 -0.13033976445513148 -0.32046034942513457 1.1847055153838308 -0.25979263216165616 -1.4441665050866814 1.4295447967431376 0.90643965892539136 0.029655946472365441 0.50188509021001537 -0.13457498307339524 1.3070674061427623 -0.43518153773664081 -0.077214919014013311 -0.49227319566610306 0.70385171156555459 -0.21633189781238868 -0.15451789556990378 1.4498041181510759 0.5821915367564261 -0.56520869829094922 0.70383649999083708 -0.016167419074617717 0.88062588238170214 0.67956293045937621 -0.23979672525354692 0.26314757965089552 -0.48585950160824731 0.13257181099385179 0.57586046387711654 -0.1195924175309088 0.54058887982435011 0.41007924074695845 -0.38267447538219745 0.67705342023532777 0.50330181390380446 0.08530285712114255 -0.43602053116447481 0.5829088637777281 -0.31516409301350989 0.72568408026569864 -0.15661357641294324 0.79970077158198472 0.066594521632451942 0.34064457803056353 0.23049377171493074 0.21720134579678924 0.21276063233997139 1.0021857825447178 0.4256013585265096 -0.13908918710140702 0.22422587962396448 1.0513116740778607 0.23932657882892303 0.065403721101692569 0.27179285936658504 0.028779939899886003 0.61161682852342814 0.24302165527528238 -0.22028987463289504 0.037548837692387704 0.61692235771925985 0.49926021426370959 0.12419587666240023 0.75252187555373484 -0.14408808758489763 0.31321645162146811 0.47689482154727569 -0.51417258767591512 0.076687733293718918 0.38856366002767528 0.71722587990121056 0.48365373559299474 -0.020627541595568399 0.29070714759289518 0.63398105343069344 0.5135467094910231 0.60084035227688559 0.56269839886638173 -0.090645043620338234 0.49204486323570162 0.18928652610496496 -0.20371484467291592 0.22073686840003756 -0.21070766532427862 0.040958419281788033 -0.27315955161704319 -0.11486862740639234 0.078247102719485068 0.50536228645165659 -0.064009079466960023 0.23634018504626025 0.45864124930686523 -0.19632191502316484 -0.034725834894031499 -0.10689749092222375 -0.1123996415002764 0.41649314826099104 0.2454618833526104 0.95938241164391358 0.56911137369305231 0.39863233437374945 0.26201790851415874 0.42052967102730332 -0.32695333617348277 0.66808802602829354 -0.056852678124384964 0.49356378606189744 0.39035816263152823 0.028214067652990282 0.62527784330569003 0.51181862759438401 -0.11630662237363201 0.43744554385121248 0.22441069503448796 0.35062913014429758 -0.019888997429097777 0.1624350839913844 -0.03555378428604769 -0.088040673245663975 0.55135960960156238 0.15900108798245738 0.27567091791179105 0.16521342797716981
leaf_weight=209 244 222 208 208 267 204 361 203 210 250 203 204 331 208 207 203 367 203 207 211 200 263 270 245 276 278 203 268 1263 222 216 366 203 251 289 245 212 379 237 207 283 252 268 278 200 394 200 241 12119 240 201 203 308 42832 223 224 301 203 518 239 660 278 1399 292 229 328 267 275 215 239 208 214 255 202 255 484 3343 240 293 239 349 220 223 289 342 254 250 678 203 275 657 509 283 1915 379 251 205 237 251 509 4030 201 363 200 618 327 266 205 209 200 220 259 205 208 210 395 229 201 301 10934 463 368 323 2788 5208 2803
leaf_count=209 244 222 208 208 267 204 361 203 210 250 203 204 331 208 207 203 367 203 207 211 200 263 270 245 276 278 203 268 1263 222 216 366 203 251 289 245 212 379 237 207 283 252 268 278 200 394 200 241 12119 240 201 203 308 42832 223 224 301 203 518 239 660 278 1399 292 229 328 267 275 215 239 208 214 255 202 255 484 3343 240 293 239 349 220 223 289 342 254 250 678 203 275 657 509 283 1915 379 251 205 237 251 509 4030 201 363 200 618 327 266 205 209 200 220 259 205 208 210 395 229 201 301 10934 463 368 323 2788 5208 2803
internal_value=0.219252 1.00651 0.2162 0.218407 0.216231 -0.176621 0.261761 -0.779261 0.838306 0.21947 -0.427162 0.218016 0.219236 0.569069 0.217401 0.218555 -0.0691552 0.313318 0.220467 0.262206 0.507047 0.209219 0.083765 0.214512 0.345061 0.457335 0.264425 0.134732 0.166395 0.128777 -0.18088 0.247887 0.19191 0.213144 0.0944387 0.0437903 0.0969357 0.216574 0.364704 0.0176819 0.242658 0.238411 0.244633 0.238905 0.243987 0.238487 0.0573666 0.491223 0.242432 0.371584 0.46857 0.712466 0.15383 0.217944 0.349902 0.644411 0.238149 0.533782 0.215368 0.194265 0.19145 0.111343 0.133934 0.210285 0.337995 0.350565 0.497014 0.112376 0.220805 0.231553 0.0354631 -0.214542 0.238475 0.297758 0.183711 -0.145065 0.281108 0.20269 0.265535 0.247098 0.313692 0.228545 0.24697 0.112647 -0.023719 0.215129 0.00672668 0.135963 0.0374686 0.149164 0.244737 0.27446 0.237397 0.209283 0.239087 0.186611 0.0436142 0.190531 0.0839683 0.231188 0.294102 0.570184 0.193264 0.285128 0.228643 0.118152 -0.0283338 0.363165 0.165878 0.184749 0.185318 0.290865 0.310038 0.223251 0.218534 0.224153 0.0159229 0.0768795 0.201536 0.18211 0.208099 0.154279 0.21779 0.226593 0.249205 0.237023
internal_weight=120678 466 120212 119801 119382 976 565 411 419 118406 411 118156 117889 615 117274 117067 773 406 116294 24687 1364 91607 3708 87899 1164 888 610 3438 3170 2907 438 23323 407 87654 2462 2211 1966 85192 449 1517 22957 22674 22422 21913 21635 21232 407 509 21021 1633 1239 404 826 84861 1625 447 1178 403 83236 35664 35425 4359 4081 2278 987 835 507 799 695 19388 661 422 18727 5291 2469 691 5089 31066 5036 4796 4156 4557 524 1291 631 13436 504 933 1803 2214 4337 3680 3171 2878 2595 1939 676 26030 466 47572 4740 710 25793 2188 1825 1002 675 823 409 23605 425 3807 3548 12932 12724 12514 537 1600 2216 23405 12103 11302 11640 11122 8334 8011
internal_count=120678 466 120212 119801 119382 976 565 411 419 118406 411 118156 117889 615 117274 117067 773 406 116294 24687 1364 91607 3708 87899 1164 888 610 3438 3170 2907 438 23323 407 87654 2462 2211 1966 85192 449 1517 22957 22674 22422 21913 21635 21232 407 509 21021 1633 1239 404 826 84861 1625 447 1178 403 83236 35664 35425 4359 4081 2278 987 835 507 799 695 19388 661 422 18727 5291 2469 691 5089 31066 5036 4796 4156 4557 524 1291 631 13436 504 933 1803 2214 4337 3680 3171 2878 2595 1939 676 26030 466 47572 4740 710 25793 2188 1825 1002 675 823 409 23605 425 3807 3548 12932 12724 12514 537 1600 2216 23405 12103 11302 11640 11122 8334 8011
is_linear=0
shrinkage=1


end of trees

feature_importances:
x_480m_H2L_Vol=11
x_1440m_RVol=10
x_120m_L2C_neut=5
x_120m_L2C=4
x_120m_Vol_neut=4
x_1440m_Close_Diff_Rate_neut=4
x_1440m_NetTaker_neut=4
x_15m_H2C=4
x_120m_C2VWAP_neut=3
x_1440m_O2L=3
x_1440m_O2L_neut=3
x_1440m_OI_Chg_neut=3
x_480m_L2C=3
x_480m_OI_Chg=3
x_5m_H2L_Vol_neut=3
x_720m_OI_XSkew=3
x_120m_Close_Diff_Rate=2
x_120m_OI_Chg_neut=2
x_120m_PremiumDiff_neut=2
x_1440m_H2C_neut=2
x_1440m_PctB=2
x_1440m_Premium=2
x_1440m_RatioSkewDiff_neut=2
x_1m_H2C=2
x_1m_H2C_neut=2
x_1m_H2L_Vol=2
x_240m_EffRatio_neut=2
x_240m_O2H=2
x_480m_L2C_neut=2
x_5m_C2VWAP=2
x_5m_PremiumDiff=2
x_5m_RVol_neut=2
x_60m_H2L_Vol_neut=2
x_120m_CrowdingPressure_neut=1
x_120m_Vol=1
x_1440m_EffRatio=1
x_15m_O2H_neut=1
x_15m_O2L=1
x_15m_OI_Chg=1
x_1m_Premium_neut=1
x_240m_O2L=1
x_240m_OI_P_Corr=1
x_240m_PremiumDiff=1
x_30m_PremiumDiff_neut=1
x_480m_PremiumDiff=1
x_480m_PremiumDiff_neut=1
x_5m_C2VWAP_neut=1
x_5m_H2C=1
x_5m_O2C_neut=1
x_60m_H2C=1
x_60m_O2L=1
x_60m_O2L_neut=1
x_60m_OI_Price_Ratio=1
x_720m_OI_Price_Ratio_neut=1
x_720m_OI_Z=1

parameters:
[boosting: gbdt]
[objective: regression]
[metric: rmse]
[tree_learner: serial]
[device_type: cpu]
[data_sample_strategy: bagging]
[data: ]
[valid: ]
[num_iterations: 4000]
[learning_rate: 0.01]
[num_leaves: 127]
[num_threads: 0]
[seed: 42]
[deterministic: 0]
[force_col_wise: 0]
[force_row_wise: 0]
[histogram_pool_size: -1]
[max_depth: -1]
[min_data_in_leaf: 200]
[min_sum_hessian_in_leaf: 0.001]
[bagging_fraction: 0.2]
[pos_bagging_fraction: 1]
[neg_bagging_fraction: 1]
[bagging_freq: 1]
[bagging_seed: 400]
[bagging_by_query: 0]
[feature_fraction: 0.4]
[feature_fraction_bynode: 1]
[feature_fraction_seed: 30056]
[extra_trees: 0]
[extra_seed: 12879]
[early_stopping_round: 0]
[early_stopping_min_delta: 0]
[first_metric_only: 0]
[max_delta_step: 0]
[lambda_l1: 0]
[lambda_l2: 0]
[linear_lambda: 0]
[min_gain_to_split: 0]
[drop_rate: 0.1]
[max_drop: 50]
[skip_drop: 0.5]
[xgboost_dart_mode: 0]
[uniform_drop: 0]
[drop_seed: 17869]
[top_rate: 0.2]
[other_rate: 0.1]
[min_data_per_group: 100]
[max_cat_threshold: 32]
[cat_l2: 10]
[cat_smooth: 10]
[max_cat_to_onehot: 4]
[top_k: 20]
[monotone_constraints: ]
[monotone_constraints_method: basic]
[monotone_penalty: 0]
[feature_contri: ]
[forcedsplits_filename: ]
[refit_decay_rate: 0.9]
[cegb_tradeoff: 1]
[cegb_penalty_split: 0]
[cegb_penalty_feature_lazy: ]
[cegb_penalty_feature_coupled: ]
[path_smooth: 0]
[interaction_constraints: ]
[verbosity: -1]
[saved_feature_importance_type: 0]
[use_quantized_grad: 0]
[num_grad_quant_bins: 4]
[quant_train_renew_leaf: 0]
[stochastic_rounding: 1]
[linear_tree: 0]
[max_bin: 255]
[max_bin_by_feature: ]
[min_data_in_bin: 3]
[bin_construct_sample_cnt: 200000]
[data_random_seed: 175]
[is_enable_sparse: 1]
[enable_bundle: 1]
[use_missing: 1]
[zero_as_missing: 0]
[feature_pre_filter: 0]
[pre_partition: 0]
[two_round: 0]
[header: 0]
[label_column: ]
[weight_column: ]
[group_column: ]
[ignore_column: ]
[categorical_feature: ]
[forcedbins_filename: ]
[precise_float_parser: 0]
[parser_config_file: ]
[objective_seed: 16083]
[num_class: 1]
[is_unbalance: 0]
[scale_pos_weight: 1]
[sigmoid: 1]
[boost_from_average: 1]
[reg_sqrt: 0]
[alpha: 0.9]
[fair_c: 1]
[poisson_max_delta_step: 0.7]
[tweedie_variance_power: 1.5]
[lambdarank_truncation_level: 30]
[lambdarank_norm: 1]
[label_gain: ]
[lambdarank_position_bias_regularization: 0]
[eval_at: ]
[multi_error_top_k: 1]
[auc_mu_weights: ]
[num_machines: 1]
[local_listen_port: 12400]
[time_out: 120]
[machine_list_filename: ]
[machines: ]
[gpu_platform_id: -1]
[gpu_device_id: -1]
[gpu_use_dp: 0]
[num_gpu: 1]

end of parameters

pandas_categorical:[]
