tree
version=v4
num_class=1
num_tree_per_iteration=1
label_index=0
max_feature_idx=165
objective=regression
feature_names=x_120m_C2VWAP_neut x_120m_Close_Diff_Rate x_120m_Close_Diff_Rate_neut x_120m_CrowdingPressure_neut x_120m_H2C x_120m_H2C_neut x_120m_H2L_Vol x_120m_L2C x_120m_L2C_neut x_120m_NetTaker_neut x_120m_O2H x_120m_O2H_neut x_120m_O2L x_120m_O2L_neut x_120m_OI_Chg x_120m_OI_Chg_neut x_120m_PremiumDiff x_120m_PremiumDiff_neut x_120m_Vol x_120m_VolDiff_neut x_120m_Vol_neut x_1440m_Close_Diff_Rate_neut x_1440m_EffRatio x_1440m_EffRatio_neut x_1440m_H2C x_1440m_H2C_neut x_1440m_L2C x_1440m_L2C_neut x_1440m_NetTaker_neut x_1440m_O2C_neut x_1440m_O2H x_1440m_O2H_neut x_1440m_O2L x_1440m_O2L_neut x_1440m_OI_Chg x_1440m_OI_Chg_neut x_1440m_OI_Price_Ratio_neut x_1440m_PctB x_1440m_PctB_neut x_1440m_Premium x_1440m_PremiumDiff x_1440m_PremiumDiff_neut x_1440m_RVol x_1440m_RatioSkewDiff_neut x_15m_H2C x_15m_H2C_neut x_15m_H2L_Vol x_15m_L2C x_15m_O2H x_15m_O2H_neut x_15m_O2L x_15m_O2L_neut x_15m_OI_Chg x_15m_OI_Chg_neut x_15m_PremiumDiff x_15m_PremiumDiff_neut x_15m_RatioSkewDiff_neut x_1m_C2VWAP x_1m_C2VWAP_neut x_1m_H2C x_1m_H2C_neut x_1m_H2L_Vol x_1m_H2L_Vol_neut x_1m_L2C x_1m_L2C_neut x_1m_O2H_neut x_1m_O2L x_1m_O2L_neut x_1m_Premium x_1m_PremiumDiff x_1m_PremiumDiff_neut x_1m_Premium_neut x_240m_C2VWAP_neut x_240m_EffRatio_neut x_240m_NetTaker_neut x_240m_O2C x_240m_O2H x_240m_O2H_neut x_240m_O2L x_240m_O2L_neut x_240m_OI_Chg x_240m_OI_Chg_neut x_240m_OI_P_Corr x_240m_PctB_neut x_240m_PremiumDiff x_240m_PremiumDiff_neut x_30m_L2C_neut x_30m_O2C x_30m_O2H x_30m_O2H_neut x_30m_O2L x_30m_O2L_neut x_30m_OI_Chg x_30m_OI_Chg_neut x_30m_PremiumDiff x_30m_PremiumDiff_neut x_480m_Close_Diff_Rate x_480m_EffRatio x_480m_EffRatio_neut x_480m_H2C_neut x_480m_H2L_Vol x_480m_L2C x_480m_L2C_neut x_480m_NetTaker_neut x_480m_O2C_neut x_480m_O2H_neut x_480m_O2L x_480m_O2L_neut x_480m_OI_Chg x_480m_PremiumDiff x_480m_PremiumDiff_neut x_480m_RatioSkewDiff_neut x_5m_C2VWAP x_5m_C2VWAP_neut x_5m_H2C x_5m_H2C_neut x_5m_H2L_Vol_neut x_5m_L2C x_5m_L2C_neut x_5m_O2C x_5m_O2C_neut x_5m_O2H x_5m_O2H_neut x_5m_O2L x_5m_O2L_neut x_5m_OI_Chg x_5m_PctB_neut x_5m_PremiumDiff x_5m_PremiumDiff_neut x_5m_Premium_neut x_5m_RVol x_5m_RVol_neut x_5m_RatioSkew_neut x_5m_WhaleGap x_60m_Close_Diff_Rate x_60m_EffRatio x_60m_EffRatio_neut x_60m_H2C x_60m_H2L_Vol_neut x_60m_O2H x_60m_O2H_neut x_60m_O2L x_60m_O2L_neut x_60m_OI_Chg x_60m_OI_Chg_neut x_60m_OI_Price_Ratio x_60m_PremiumDiff x_60m_PremiumDiff_neut x_60m_Vol_neut x_720m_Close_Diff_Rate_neut x_720m_EffRatio x_720m_H2C_neut x_720m_H2L_Vol x_720m_O2C_neut x_720m_O2H x_720m_O2H_neut x_720m_O2L x_720m_O2L_neut x_720m_OI_Chg_neut x_720m_OI_Price_Ratio x_720m_OI_Price_Ratio_neut x_720m_OI_XSkew x_720m_OI_Z x_720m_OI_Z_neut x_720m_PremiumDiff x_720m_PremiumDiff_neut
feature_infos=[-5.3495323200422646:5.2950845960410842] [-0.18951870802686277:0.87223665715381005] [-5.2231750834362884:5.3661867800553988] [-5.1247904526445094:4.9641534875682618] [-2762.9166949555297:0] [-5.325179285653495:2.7767417460715995] [10.200548261434239:11592.505854800938] [0:10587.587822014051] [-3.9861010213412498:5.381279156490451] [-4.134986954060512:4.3753337640776193] [0:9726.1446298673527] [-2.769440594713021:5.3845059019657393] [-2268.5053741634565:0] [-5.3570553127754339:3.7402533891308063] [-3412.7547003618574:13800.781354335184] [-5.2295006041243424:5.3576011576632965] [-0.10901545000000001:0.10964072] [-5.3843975925636425:5.3841130240469974] [-3.075077251808318:14.716515653818] [-5.1333570874167469:5.2573827380450151] [-4.6557322684276476:5.266907756991432] [-5.040674573802729:5.3600884103962887] [0:0.23253478697460947] [-2.9212089783950739:4.8589180558972647] [-4708.2494969818908:0] [-5.230580102841297:2.6030768660959125] [0:46564.40281030444] [-4.1351363525859606:5.3691206431853633] [-4.0755246799139533:3.6363282692670302] [-5.0483141561631815:5.3616179809359075] [0:44509.587020648971] [-2.4512570798498898:5.3559018067518078] [-4821.6862502576787:0] [-5.2919326795592712:3.1184997374284249] [-5525.0702642733195:102929.83300033865] [-4.6170234443707932:5.3810866423886816] [-5.3842865277373768:5.3843095867615993] [-2.3535577720124463:3.5368049306451659] [-4.3534006184837475:5.2049979796258352] [-0.052623290666666676:0.0013800820069444445] [-0.1295095:0.13164745999999999] [-5.3847375469607393:5.3840890708859055] [1.8528245714349909:140.26151709908149] [-4.3696846669935692:4.704656398219262] [-1586.8192580899765:0] [-5.3657261989261276:3.3929646158905964] [1.7265360523310846:3049.6967502489379] [0:1970.1818455630437] [0:2990.8984410200956] [-3.3383872567386788:5.3732841197269376] [-1792.6227321237998:0] [-5.3681806642949708:3.321810220264283] [-1928.2589193447009:3028.0074536692391] [-5.3505425565607103:5.356945294840755] [-0.031830659999999997:0.040759789999999997] [-5.3727512980414289:5.3761527566107548] [-5.3361557109265449:5.3664842690171888] [-139.4893516525797:153.73653185930536] [-5.251628880898175:5.2818564319242576] [-433.40105726363265:0] [-5.3689723522673232:3.465131139401195] [0:845.62563580874883] [-3.1129230220669637:5.3742089102806636] [0:531.44316044074321] [-3.4164973652509132:5.3806660978801348] [-3.0730288253328961:5.3802213140618411] [-779.69281275647836:0] [-5.3751856226191626:3.4339547494790752] [-0.14881435000000001:0.012073179999999999] [-0.036136520000000005:0.021005070000000001] [-5.3741810011180666:5.3680933519678362] [-5.3846765007309108:5.2425196335998088] [-5.2234267691627689:5.3294937673892644] [-3.8242510365518894:5.1177402643134693] [-4.3017551694665741:4.5892484463797709] [-2533.6083892040574:11229.383632056495] [0:12285.752875762555] [-2.7927463122206162:5.3848640510663222] [-2756.7474643286914:0] [-5.3678453256629073:3.5099072401492291] [-3805.2704187094687:25573.389712881166] [-4.9180149311929746:5.3697653745962839] [-0.96800140934956835:0.99455791463620513] [-4.6784627971279793:5.2871813620492683] [-0.14458483000000003:0.15723668000000002] [-5.3847927654310546:5.3848215053879072] [-3.9861010213412498:5.3698386462374454] [-1738.4227862817281:3268.4556243935203] [0:4614.8391430917354] [-2.8342410811629493:5.3847530542508126] [-2236.447834377554:0] [-5.3657923615098913:3.4041384024181998] [-2967.8658152450789:5109.1036352406081] [-5.3501466835197986:5.3599582303441045] [-0.056925550000000005:0.053965630000000007] [-5.3810019578759603:5.3810954837530502] [-0.3079086791003468:1.7134312675544061] [0:0.35167286245353352] [-3.5603061936461882:4.9909164205557328] [-5.3149984096979059:2.9451350038247277] [28.716630812988253:21046.135762562444] [0:18186.264220645651] [-3.9861010213412498:5.3829705193869319] [-4.3767058413018267:4.2794323422480094] [-5.0803915735140865:5.3662653786516428] [-2.6457478800579524:5.3830044424816688] [-3317.122159283248:0] [-5.2997532547882074:3.4527601829273769] [-4286.9854438709635:41976.595796854956] [-0.14430969000000002:0.14562652999999998] [-5.3845152657669386:5.3843266941970285] [-4.8938242037202118:4.942317812025002] [-369.12140693079022:461.73797871382317] [-5.2592547296099568:5.2882137768525173] [-1275.6659267480586:0] [-5.3678414158243832:3.3938532200119034] [-3.7633135492978913:5.3529649200835605] [0:1154.7671840354767] [-3.9861010213412498:5.3714043903375055] [-881.00827875942196:1108.4614025790484] [-5.2642963305142061:5.346120881955601] [0:2732.7327327327343] [-3.0653570214953487:5.3851019026313702] [-1411.5999638630406:0] [-5.3822605437018058:3.4200293785248035] [-1281.5043270223525:1485.5432134152059] [-5.2632209816573443:5.1698635132009381] [-0.021852220000000002:0.035360300000000004] [-5.3451050146310894:5.381767054792947] [-5.3848759554115979:5.3617221214679844] [0:539.12654549782008] [-3.8391868326839051:5.3392313196665508] [-3.2871203845469266:3.2491603137572174] [-1.901811092:1.3471515580000002] [-0.22754447624913943:0.58765211566372666] [0:0.71478200451624241] [-3.9083855583229341:4.7223058178314377] [-2338.4604326888516:0] [-3.321746057413268:5.3458992298248793] [0:7517.2784003220831] [-2.4714720475458103:5.3849038809800289] [-2543.2320690275033:0] [-5.3592782896706925:3.5365318328121687] [-3264.4053559345521:9639.4047212144724] [-5.3077639253832842:5.3618728355830365] [-737893805.56701791:1036035239.0243896] [-0.069203690000000012:0.079161630000000011] [-5.3832244738968784:5.3843062134383075] [-4.3618315702548518:5.288492788142598] [-4.9092375625002891:5.3629364172569991] [0:0.27295652650622293] [-5.239398036002525:2.7277300118840353] [40.515777617133878:32085.948477751761] [-4.9000451222361807:5.3642972532440885] [0:31819.556920785628] [-2.938526051168354:5.3799295328195225] [-3411.8653993423131:0] [-5.289876255618104:3.3901387894438155] [-4.7779149403008416:5.3777968114372809] [-1872218877.469408:502239234.42645121] [-5.3851648071345029:5.3851648071345037] [-25.518381996781841:38.206757435679009] [-11.094698991913347:10.605389252991554] [-4.4923881414497489:5.0027761305234941] [-0.14635555:0.14865937000000001] [-5.3846618992979076:5.3846989426962901]
tree_sizes=10776 10958 10898 10915 10964

Tree=0
num_leaves=127
num_cat=0
split_feature=116 96 84 49 84 84 82 59 42 101 3 28 17 49 82 21 59 52 43 127 43 84 3 61 32 7 7 7 44 96 18 32 84 8 17 161 161 161 52 27 28 82 101 8 42 61 120 161 161 21 96 52 61 50 27 17 32 52 96 59 61 110 82 160 44 61 96 84 123 32 161 32 110 52 119 49 49 43 43 7 127 21 119 82 42 96 82 18 161 21 42 27 32 161 52 161 61 28 32 40 123 84 28 7 8 3 52 52 61 59 50 52 42 43 18 84 160 160 50 42 123 123 49 52 84 40
split_gain=1.31726e+06 2.72223e+06 5.07409e+06 1.06773e+06 1.08176e+06 871001 980803 860582 755313 1.43123e+06 2.9399e+06 2.59531e+06 1.84453e+06 1.81166e+06 1.03577e+06 1.03125e+06 1.00644e+06 943459 875206 864860 795139 784277 782940 1.11353e+06 1.70466e+06 1.87299e+06 849304 645880 1.26552e+06 1.52117e+06 1.10494e+06 2.10322e+06 592683 585593 595191 635876 575685 573076 568219 992627 1.00561e+06 642169 700866 634430 623071 548446 544570 531862 639607 1.13134e+06 707635 861368 518683 614917 654397 522453 556662 513098 545106 477794 745729 470469 469694 561317 457389 456714 449435 444235 434988 430655 510893 659685 581380 577535 465101 484279 752764 443273 487500 415148 410743 406783 406438 397408 688418 1.01587e+06 631059 596681 395722 395362 389962 388182 387846 374129 372332 369148 368602 448222 365667 343754 340897 317520 449551 317469 502172 345927 343522 399564 315807 304035 300987 292825 354042 291286 295876 290978 284217 277168 273314 270018 578433 269561 267399 267292 266358 396030
threshold=4.254933970012087 0.19318649846191641 -0.00015002499999999995 4.0937596652255985 0.0012084500000000002 -0.0025468099999999996 0.60792470970992019 -9.6122205102544527 40.00212761963099 2223.934874759922 -0.19702007571820684 2.0165429023007602 1.141586228592921 1.4002834872707457 0.91269866241397624 4.3132488075502531 -20.058292574782197 265.63967153269925 -2.103950369556121 -0.00010465499999999997 0.18115483062149293 0.00042672000000000006 0.67617937332776223 108.75230527175206 -821.84130360500581 684.98693176522704 588.79871162749635 498.24616586950037 -165.86719408668122 0.19318649846191641 -0.39810799501042859 -233.83184725815349 7.5805000000000024e-05 4.5344913755194396 -3.0204922430883188 0.49978737468032913 -1.0858260018168433 -3.3490444210511252 232.77855013410067 0.36821831039274738 0.77098760066390393 0.89377100801280041 1123.9676469405938 2.5934853125143484 35.134690711851171 135.86451778886845 3.7577451798610269 2.8150037488398829 2.2379624807361274 0.76103954693931752 -0.040385352058361627 94.168921218671386 87.590257279351889 -182.0695067257133 0.54906645294640843 -2.1143034668433986 -153.39319393951163 418.97424479879436 0.074953614132908811 -58.357487072310803 81.749521485028353 2.2793842199421452 0.92392371112160709 -0.83584633355421978 -239.02147808568915 70.329506787514276 -0.065483421321318833 -0.00049742999999999988 -134.05890682901153 -8.1954617845497726 -1.3992785408353972 -778.92650318324979 0.43718176267964098 210.81283428696199 105.67418734483637 -0.29018868988107388 -0.32324980184579416 -0.63035787633609541 0.58566379512927946 37.574852552978442 -0.00050486499999999985 -0.88579892548846895 -21.045321871036581 0.96158689453989343 29.738778122237211 0.0794966634787624 0.93164037631964158 2.4590606129605326 1.0473633326588982 0.303611693231222 40.00212761963099 4.6723962578261036 -470.85629237264612 -1.9962112831484229 119.89628571467571 0.70625271269919854 87.590257279351889 0.7133483116997833 -224.33669847092938 0.0027976350000000006 -124.13985806567494 -0.0019502649999999999 -1.3466531618848874 759.68823816262591 1.5150646658679121 0.79987092731244747 130.53885341147046 -118.65232163384142 24.915444229808298 -10.48050243226961 -19.643034615673404 -114.66932090753276 40.00212761963099 -2.3261012630880225 0.26599765394043001 -8.9854999999999999e-05 -2.2641275667962284 -0.037865405591845071 -48.872943528593389 29.738778122237211 -34.587641940497782 -68.126414462545398 2.626359566701947 17.053481415292286 0.00083285 0.00037024500000000006
decision_type=2 2 2 2 2 2 2 2 2 2 2 2 2 2 2 2 2 2 2 2 2 2 2 2 2 2 2 2 2 2 2 2 2 2 2 2 2 2 2 2 2 2 2 2 2 2 2 2 2 2 2 2 2 2 2 2 2 2 2 2 2 2 2 2 2 2 2 2 2 2 2 2 2 2 2 2 2 2 2 2 2 2 2 2 2 2 2 2 2 2 2 2 2 2 2 2 2 2 2 2 2 2 2 2 2 2 2 2 2 2 2 2 2 2 2 2 2 2 2 2 2 2 2 2 2 2
left_child=8 3 -3 7 5 -5 -7 62 27 15 11 17 14 -14 19 18 20 98 36 -12 -17 -16 23 33 25 66 -26 101 29 83 31 -30 91 34 35 -20 -10 80 45 40 88 42 -41 -44 59 81 69 48 50 -50 103 52 53 54 -52 -55 118 58 -8 -43 109 -18 63 -2 -56 121 -25 -53 -9 70 71 73 -73 -36 75 76 -72 -76 -79 95 -24 94 -54 84 87 123 -87 -29 -40 -89 -64 -22 -69 -74 108 -77 99 -98 -11 116 -83 102 -1 104 105 -39 107 -107 -32 -61 -96 -65 122 -104 -115 -60 -81 -46 -57 -116 -121 -49 -113 -86 125 -102
right_child=1 2 -4 4 -6 6 57 68 9 10 12 -13 13 -15 21 16 61 -19 22 -21 32 -23 37 24 26 -27 -28 28 30 -31 38 -33 -34 -35 46 -37 -38 47 39 41 -42 44 43 -45 117 -47 -48 65 49 -51 51 67 82 55 64 56 -58 -59 115 60 -62 -63 90 111 -66 -67 -68 92 -70 -71 74 72 93 -75 77 79 -78 78 -80 96 -82 100 -84 -85 85 86 -88 89 -90 -91 -92 -93 -94 -95 110 -97 97 -99 -100 -101 124 -103 113 -105 -106 106 -108 -109 -110 -111 -112 112 -114 114 119 -117 -118 -119 -120 120 -122 -123 -124 -125 -126 -127
leaf_value=0.93810162450159429 -0.59159745465560976 2.8749916401421607 0.080686312047562575 1.3801873478987006 1.6093781072810867 1.194842603098907 -0.05387497708708916 1.1865746120052854 -1.0359828385794581 -0.3772282852281667 0.020139440694154076 -2.3158739298018065 0.19073787916854812 2.2283154140030921 -0.049146546525934254 1.5519231571841234 0.36350154554856756 -1.3639178018057765 1.2476464597951125 -1.2462702679488711 0.64739551332811818 1.1740945106064857 -0.95026007833354442 1.1969418250476895 0.57447926069582333 2.4414128721386059 -0.66415991987828615 -0.18406259438763584 0.40514212143503248 1.5947166447520538 -0.42788722488626058 1.9020056449049909 1.117556582908799 -0.59514388087959569 0.16121521596823304 0.21761181557493492 -0.093154743788494476 -0.17712953689539634 0.078216435449043165 0.024792918157138355 1.5161340400208896 0.57736154261670025 0.074618913224893751 1.232185593064324 -1.0641108600684772 -0.47835415723074043 -0.59106059618778106 0.42673893740747348 0.047072434890298553 1.4326006173315915 0.2555123770042726 0.13514988716694282 1.1319139866659906 0.91452911627305489 -0.23609988136974652 0.29039953340590619 -0.49342387111685032 -0.41388059729407251 0.30325709547895841 -0.1063874494221419 -0.77422816598591737 -0.59781792647485132 -0.072883076703265104 -0.20197027217193647 -1.2445254363068001 -0.81881182951573739 0.30220426030316871 -0.35925922476097155 0.19125725110952424 -0.46132895207466279 0.26350587540583675 0.43040366818261955 0.69798768271163891 1.015370698806656 -0.096306055613798014 -0.64948122902285532 1.2579105294085993 1.1642965126129041 0.28184885791852488 -0.21291467914011103 -0.10633445280592374 0.78006073301191914 0.17942918338284686 0.23331554694742243 0.79550945168476472 0.90168529198863756 2.1426863147532522 1.0300732665375449 0.79437871878926325 0.29538467174944349 -1.0375549501860559 -0.1996028972997686 -1.1353621994720142 1.6310136277754321 0.94046824126597039 0.12375096223666683 0.24915644262007056 -0.62294328527377596 0.44111162619944211 -0.34913812012318973 0.33565169217840729 0.23944458240428215 -0.24394804397251235 -0.25277145619038943 1.0563365942385146 0.81367156812703412 0.98817081101077409 0.15176623672349415 0.10585869528332842 0.35966146820198608 0.092963388889092141 0.56556553295228862 0.96018624258828322 0.25925812937122594 0.37140820774342409 1.1173098461829161 0.19956779875792224 -0.25929373449925786 -0.062701075264257278 0.38023542337771055 1.3382054613332146 -0.2264526837722311 -0.22322757992845133 0.1909622439477604 0.47901951029893675 0.15149908925818625
leaf_weight=31 24 32 33 23 24 27 45 23 20 43 28 23 24 20 38 29 35 20 29 26 31 20 21 25 31 21 25 38 123 34 33 29 34 22 197 31 85 30 62 96 21 28 20 29 23 23 21 22 34 26 27 31 21 21 23 174 35 31 21 137 36 20 22 24 22 25 32 60 21 23 393 67 21 22 20 33 20 34 29 44 46 40 24 107 41 21 20 30 28 47 20 24 22 22 22 29 26 34 20 32 1208 112746 22 20 26 30 22 95 173 47 20 22 22 383 144 23 821 20 80 40 26 56 21 33 214 385
leaf_count=31 24 32 33 23 24 27 45 23 20 43 28 23 24 20 38 29 35 20 29 26 31 20 21 25 31 21 25 38 123 34 33 29 34 22 197 31 85 30 62 96 21 28 20 29 23 23 21 22 34 26 27 31 21 21 23 174 35 31 21 137 36 20 22 24 22 25 32 60 21 23 393 67 21 22 20 33 20 34 29 44 46 40 24 107 41 21 20 30 28 47 20 24 22 22 22 29 26 34 20 32 1208 112746 22 20 26 30 22 95 173 47 20 22 22 383 144 23 821 20 80 40 26 56 21 33 214 385
internal_value=0.240857 0.508495 1.45634 0.351726 0.61568 0.475394 0.333827 0.0944031 0.239838 0.168881 -0.18711 -0.829642 0.249482 1.11691 -0.0912929 0.196517 0.57253 -0.417794 0.176201 -0.589613 0.832894 0.372661 0.191422 0.246038 0.687079 1.16492 0.0215153 0.242051 0.31224 0.586746 0.276087 0.690728 0.598604 0.216038 0.225199 0.715462 -0.272741 0.0757012 0.252438 0.108774 0.530908 0.00130361 0.273144 0.759709 -0.13415 0.289541 0.209619 0.108011 0.150403 0.647468 0.111315 0.0134635 0.116192 0.0563814 -0.359875 0.15306 0.0977287 0.140099 0.333058 -0.0378108 -0.116105 0.0139308 -0.0807832 0.0870189 -0.729108 -0.230713 0.694633 -0.374725 0.711537 0.218625 0.227106 0.405698 0.72161 0.247021 0.188322 0.167231 0.311661 0.552212 0.75809 0.108693 -0.370848 0.297971 0.623922 0.485052 0.602164 0.875711 1.50705 0.328617 0.301022 0.581627 -0.532251 0.277796 -0.567482 1.17535 0.107834 -0.287808 0.134381 -0.245033 -0.117438 0.15976 0.323501 0.240078 0.350613 0.348265 0.407481 0.312168 0.412025 0.310624 0.0203557 0.0126577 0.536895 0.270017 0.444289 0.320999 0.341959 0.728785 0.178586 -0.689777 0.179187 0.492788 0.757618 -0.0422191 0.180341 0.525914 0.313395 0.291145
internal_weight=120675 458 65 393 194 170 147 199 120217 3637 262 106 156 44 112 3375 173 83 3202 54 118 58 3097 2104 134 78 56 116580 3188 371 2817 152 89 1970 1948 60 105 993 2665 547 111 436 145 49 291 2118 1888 926 823 60 763 540 427 382 72 310 289 120 89 248 220 55 155 113 45 103 57 113 44 1867 1844 329 110 219 1515 1432 413 83 63 1019 67 2095 45 337 230 115 41 115 90 77 42 55 82 43 248 62 957 60 63 897 1847 113392 646 223 203 177 147 125 206 184 42 89 65 615 593 44 865 43 254 210 66 78 43 74 1807 1593
internal_count=120675 458 65 393 194 170 147 199 120217 3637 262 106 156 44 112 3375 173 83 3202 54 118 58 3097 2104 134 78 56 116580 3188 371 2817 152 89 1970 1948 60 105 993 2665 547 111 436 145 49 291 2118 1888 926 823 60 763 540 427 382 72 310 289 120 89 248 220 55 155 113 45 103 57 113 44 1867 1844 329 110 219 1515 1432 413 83 63 1019 67 2095 45 337 230 115 41 115 90 77 42 55 82 43 248 62 957 60 63 897 1847 113392 646 223 203 177 147 125 206 184 42 89 65 615 593 44 865 43 254 210 66 78 43 74 1807 1593
is_linear=0
shrinkage=1


Tree=1
num_leaves=127
num_cat=0
split_feature=108 43 157 27 24 12 111 134 23 101 90 86 23 94 27 100 122 111 101 12 60 12 60 86 43 128 23 94 61 150 122 150 100 134 43 2 134 86 27 12 90 133 101 100 23 150 122 2 5 128 43 94 74 134 122 74 90 12 27 75 43 101 24 157 2 157 74 90 95 133 74 65 27 133 133 65 24 127 2 134 75 74 108 64 23 2 127 135 24 23 27 135 94 2 2 122 134 24 157 108 76 157 74 134 61 76 2 117 108 2 23 23 157 127 24 5 95 64 5 101 43 128 65 135 27 101
split_gain=989193 1.85252e+06 1.51162e+06 1.45395e+06 1.22009e+06 1.23032e+06 1.10065e+06 974706 821130 691196 2.3473e+06 1.85085e+06 1.31225e+06 1.32807e+06 919470 5.8685e+06 2.82715e+06 1.16399e+06 1.6085e+06 2.49832e+06 682447 668933 893821 738929 517372 483510 470234 461907 439260 4.42624e+06 577850 1.17518e+06 707263 996844 587755 1.15724e+06 545799 520379 615850 429595 410223 393739 381268 720975 682155 632922 530570 599393 1.10312e+06 1.12275e+06 523805 533670 515853 510316 474524 461175 379041 345007 590160 957325 454586 321372 1.65829e+06 896755 854943 919634 614435 406946 370445 367523 535542 388681 355513 403888 319057 328610 317681 317225 405243 312373 312211 371006 352566 515068 372242 300838 293061 290253 399726 289356 321764 318230 532138 361741 314999 290296 287252 273107 699650 527899 437044 500120 540615 329339 321146 505859 813717 343287 354253 340146 308157 282924 373811 296639 266760 381743 263654 263375 258003 508791 328560 278174 268582 258935 257578 424510
threshold=3738.6182569404132 3.1186189522990708 0.58776982111620579 0.8906839190350534 -900.56002186404851 -304.0971374480128 0.36174247644312346 0.036071433030884344 2.3609654513610465 2223.934874759922 -195.90789407334492 2.1167343650712698 2.4792925435731292 -0.00012953499999999999 4.6723962578261036 2395.9271535974431 3.7022200528036819 0.21902170624387848 979.55859868377308 -153.35941617532487 -2.4441784902268107 -68.252355405911672 -2.4441784902268107 0.95478861597403875 1.2950868932753536 -0.64378432235571847 3.0165285751316433 0.00099288499999999999 77.016215626102294 0.00072897589750321875 4.5431764406046105 0.025066087848920185 1201.6147487923936 0.036071433030884344 -1.5145405580630065 1.5803654188793235 0.0052065489822368258 -0.90720996659562958 0.75344535535132418 -165.58532709238679 -227.28364397213537 -0.023482715000000206 1271.8789904757257 2200.6790242836628 2.6182384084275108 0.065476043627101868 2.6269793788064395 2.0997583533464175 0.85978888098955009 0.70893694434589305 -0.29336673684011788 0.00092245000000000011 1.1234696382812588 0.04052075873006112 1.3143913578536883 2.1752450100476621 -134.68174276274388 -84.097208578183796 2.1092315326898148 -43.442864119826446 0.4860126641281638 1381.6037296085417 -18.017556710318015 -0.16667232825747999 1.7215471630097519 0.018455026106196152 1.2954294560845625 -255.76903784251311 1.6977764403221876 0.074867825000000124 0.28775934037754719 0.84349294041961531 0.47228906031693163 -0.12682456999999989 0.018967428000000178 0.66261837244709598 -225.15994011218729 0.00030537500000000004 -0.94743709906864482 0.04052075873006112 755.69306013145058 1.8679735494051888 272.40710253087838 1.2707923873724043 2.3609654513610465 1.645495967935656 -5.5714999999999998e-05 0.075812274368230889 -502.74559183885452 1.0966187048256886 -0.017883875283156301 0.24314132052845142 -4.0650000000000085e-06 2.5557077380249251 2.3885604740481634 -0.096223531503427107 0.0043974004423057442 -867.85196242315169 1.1227713618441431 598.04227602567437 346.37906817159285 -3.5912298671025265 1.2473916855958038 -0.018507889170998489 61.456873999117263 294.30381902086805 -0.16589871065810038 78.363128496915522 -1779.8782088044084 -2.138834176172145 -0.49479543763758366 -1.0670434417576613 -2.2616488573937823 1.0549999999999953e-05 -115.68409343715334 -0.83309992026260127 -1.1115007774691354 1.0347813415877314 -1.9119958648188657 783.10450058162303 0.1892630125689761 -3.0291315079005594 1.1621961860347321 0.14546583355850204 3.8607461176699442 395.59885931491851
decision_type=2 2 2 2 2 2 2 2 2 2 2 2 2 2 2 2 2 2 2 2 2 2 2 2 2 2 2 2 2 2 2 2 2 2 2 2 2 2 2 2 2 2 2 2 2 2 2 2 2 2 2 2 2 2 2 2 2 2 2 2 2 2 2 2 2 2 2 2 2 2 2 2 2 2 2 2 2 2 2 2 2 2 2 2 2 2 2 2 2 2 2 2 2 2 2 2 2 2 2 2 2 2 2 2 2 2 2 2 2 2 2 2 2 2 2 2 2 2 2 2 2 2 2 2 2 2
left_child=9 3 -3 -2 -5 7 8 -6 -7 14 11 41 24 -14 28 17 -17 20 40 -20 56 22 -8 -24 27 -23 -27 74 61 -30 34 -32 33 -33 35 36 -31 38 -36 -34 -19 -11 44 50 46 54 55 48 52 -50 86 114 76 -49 -45 57 -16 58 79 -60 -61 80 63 67 77 -66 69 -63 72 70 -67 -71 73 -69 75 -12 -48 78 -65 118 97 82 83 -82 89 -47 -44 -22 -89 90 -84 92 93 -91 -94 -92 -25 98 100 116 104 102 103 -102 124 107 -107 109 -109 -106 -105 112 113 -103 115 -52 -100 -72 119 120 123 -120 -123 -39 -1 -126
right_child=1 2 -4 4 5 6 21 -9 -10 10 12 -13 13 -15 15 16 -18 18 19 -21 87 25 23 96 -26 26 -28 -29 29 30 31 32 39 -35 37 -37 -38 42 -40 -41 -42 -43 43 45 -46 85 47 53 49 -51 51 -53 -54 -55 -56 -57 -58 -59 59 60 -62 62 -64 64 65 66 -68 68 -70 71 117 -73 -74 -75 -76 -77 -78 -79 -80 -81 81 -83 84 -85 -86 -87 -88 88 -90 91 95 -93 94 -95 -96 -97 -98 -99 99 -101 101 111 -104 110 105 106 -108 108 -110 -111 -112 -113 -114 -115 -116 -117 -118 -119 121 -121 -122 122 -124 -125 125 -127
leaf_value=-0.012142423348731557 1.2393002068554915 0.38246553971849639 2.1205327608368614 0.87315442623236239 -0.22827984699836143 0.044656656229937523 0.83455589632777605 -1.5444984071904964 1.2286386923491954 -0.90227897033691407 0.45947890084365323 -1.9478553390502931 -0.052221949875354765 1.7480912208557129 -1.4250266499519346 2.7025957602262496 0.48288256278404823 0.3939713064555464 2.3455618433952332 0.078917625488773471 -0.51964613914489743 -1.1144055083990096 0.35384412705898288 -1.0008712189197539 0.57768046712875365 -0.56639586102021366 0.32757881949345269 -0.92609871366749641 2.3510776029314315 -0.05198226527995374 1.2226285612967707 -0.16738357027371722 0.098035700010216761 1.3242930262429373 0.10401835298538208 1.4600420041084288 0.74483213391797298 0.18204853264490761 0.96026286516586934 -0.90393422126770018 -0.30376094612208282 -0.090011004886111703 0.097732110977172854 -0.43702138106028238 0.70065432071685796 -0.44486226260662082 -0.088414203419404883 0.12397917160621055 0.28948453695877741 1.9093062584698199 0.26731337755918505 -0.72725107916470233 0.71727032690337211 -0.80268396298090627 -1.3599025438382075 -0.75180222901430993 -0.48385614291481355 -0.18377968565515868 -0.073488023179769518 1.4952883777767421 0.46458620638951009 0.40703763969242573 1.358857387828827 0.69001354309820362 1.4726488549368721 0.85655721982320143 -0.35997699394226074 -0.053132037035254542 -0.55558433019385045 0.39540146383372221 0.28399045547293822 1.3352768598903311 -0.16441767117579859 0.75651977459589648 -0.57180284323515718 -0.30704081113691684 0.49519731324294519 -0.17661942081708534 0.076040721410276874 0.35603092805394587 -0.0070620847139202178 -0.62231082165942475 -0.47517281490175622 0.91756104516983028 0.26702849195553707 0.27922124899350681 0.95368293975293639 0.56262021735310552 -0.3819667382467361 -0.21042343666156132 -0.26263358456747876 -0.69890053703429855 -0.15671647076095854 -1.0131727044478707 0.66486630725860596 0.09528684394626781 -0.21630811163357325 0.00088615247478055837 0.25870023246734375 -0.84378239833947388 0.24322569625718252 -0.95521174344751569 -1.0683488578381746 -0.76261770291761921 0.56771481053773754 1.2971953149275348 -0.096298414468765262 0.51955688312649728 -0.18394317406415941 0.098079650594625659 -0.15740804868011637 -0.039199939164208428 -0.12327521544427444 -0.19123248303929966 0.35538108010117603 -0.4539222897485245 -0.22675962869859451 -0.46184261417388917 0.46987891870996229 0.87043144282840546 0.2969833493142417 -0.027058156938739059 -0.2208193870017735 -0.41010160793860756 -0.087134636783599867 0.8651828874241223
leaf_weight=13890 27 29 22 39 39 27 34 22 32 25 29 29 20 21 20 32 26 29 20 31 29 20 44 20 20 38 24 23 21 83 31 24 23 21 70 20 29 30 30 20 77 37 20 30 36 32 119 39 23 20 32 29 33 24 26 22 23 269 50 20 23 36 25 31 21 27 25 43 49 22 29 22 313 24 27 27 29 102 202 53 61 34 46 20 52 26 20 24 21 36 84 47 28 23 20 174 28 97639 31 33 28 27 23 33 43 22 20 20 170 373 58 1958 234 24 41 43 286 20 23 21 66 573 260 48 25 22
leaf_count=13890 27 29 22 39 39 27 34 22 32 25 29 29 20 21 20 32 26 29 20 31 29 20 44 20 20 38 24 23 21 83 31 24 23 21 70 20 29 30 30 20 77 37 20 30 36 32 119 39 23 20 32 29 33 24 26 22 23 269 50 20 23 36 25 31 21 27 25 43 49 22 29 22 313 24 27 27 29 102 202 53 61 34 46 20 52 26 20 24 21 36 84 47 28 23 20 174 28 97639 31 33 28 27 23 33 43 22 20 20 170 373 58 1958 234 24 41 43 286 20 23 21 66 573 260 48 25 22
internal_value=0.000245636 0.235547 1.13222 0.11948 0.0370955 -0.062314 0.0840558 -0.702982 0.686816 -0.000629733 -0.259148 -0.905222 0.0929037 0.86989 -7.09333e-05 0.262692 1.70755 -0.0431537 0.238174 0.967798 -0.420661 -0.0869196 0.141825 -0.114184 -0.159925 -0.438406 -0.220341 -0.299096 -0.000803855 0.0654255 0.0456811 0.385467 0.0905578 0.528732 0.0281921 0.35217 0.154336 0.00857508 0.360892 -0.367997 -0.112872 -0.417538 -0.00836322 -0.173578 0.0193736 -0.48635 0.00531856 0.201827 0.323007 1.04289 0.0191568 -0.120581 0.151985 -0.229035 -0.865502 -0.0333632 -0.92161 -0.0223564 0.0148525 0.396955 0.943983 -0.0021969 0.0874599 0.0545562 0.201322 0.494741 0.353113 -0.103572 -0.146421 0.501674 0.29113 0.865339 -0.0936604 0.236892 -0.125348 0.0899069 0.0259421 0.0559268 0.157728 -0.0182346 -0.0029656 -0.114415 -0.0851956 0.22124 -0.133865 -0.120273 0.525708 -0.12957 0.121813 -0.179381 -0.0899318 -0.355956 -0.205317 -0.52336 0.18561 -0.0212454 -0.543209 -0.00235969 -0.0206576 -0.241938 -0.0160938 -0.0788419 -0.366604 -0.230973 -0.00583298 0.102976 0.633627 0.0661984 -0.109891 0.146624 -0.37688 -0.0606242 -0.207813 -0.595692 0.0310862 -0.146195 -0.179286 -0.0204312 -0.0376627 0.143373 0.0373436 -0.0725586 -0.0875359 -0.182352 -0.0108921 0.358631
internal_weight=120062 445 51 394 367 328 267 61 59 119617 258 91 167 41 119359 332 58 274 157 51 117 208 126 92 126 82 62 106 119027 2452 2431 119 88 45 2312 132 112 2180 100 43 106 62 2080 299 1781 114 1745 287 224 43 185 145 181 63 56 1458 43 1436 1167 93 43 116575 991 966 501 166 145 465 429 120 76 44 380 67 83 56 148 335 233 1074 115584 625 591 81 510 58 40 74 45 458 304 154 107 59 48 258 48 114959 17320 350 16970 2385 142 119 14585 648 42 606 190 416 91 2243 285 51 116 75 317 49 1021 165 144 856 833 78 13937 47
internal_count=120062 445 51 394 367 328 267 61 59 119617 258 91 167 41 119359 332 58 274 157 51 117 208 126 92 126 82 62 106 119027 2452 2431 119 88 45 2312 132 112 2180 100 43 106 62 2080 299 1781 114 1745 287 224 43 185 145 181 63 56 1458 43 1436 1167 93 43 116575 991 966 501 166 145 465 429 120 76 44 380 67 83 56 148 335 233 1074 115584 625 591 81 510 58 40 74 45 458 304 154 107 59 48 258 48 114959 17320 350 16970 2385 142 119 14585 648 42 606 190 416 91 2243 285 51 116 75 317 49 1021 165 144 856 833 78 13937 47
is_linear=0
shrinkage=0.005


Tree=2
num_leaves=127
num_cat=0
split_feature=29 111 139 9 117 105 148 111 148 6 89 83 148 6 148 147 111 149 11 89 11 22 111 122 83 23 105 25 9 135 15 122 147 146 6 105 72 140 22 72 32 122 11 31 9 111 25 139 11 148 103 140 22 139 95 75 15 25 95 111 25 25 95 146 32 100 100 146 138 29 9 15 89 103 148 9 148 75 148 100 31 75 76 146 76 148 117 105 31 86 89 148 86 76 103 31 6 86 23 138 86 11 139 32 25 29 6 31 76 6 22 140 25 117 149 75 6 146 31 117 22 89 147 15 100 117
split_gain=4.18485e+06 5.32955e+06 1.38544e+06 7.36122e+06 1.69046e+06 1.30272e+06 1.85139e+06 1.27661e+06 2.15027e+06 2.6145e+06 1.26395e+06 1.29054e+06 2.31539e+06 1.16714e+06 1.12085e+06 1.98728e+06 1.11414e+06 981702 921402 876848 854468 961012 748322 666073 746793 653636 650478 589654 542313 428089 383211 618892 567202 559985 426115 2.5344e+06 1.05451e+06 1.07129e+06 618763 754490 599980 557301 643429 518394 487066 814112 500417 488507 474646 459524 1.03359e+06 414184 662625 582263 390176 383456 596543 563621 421068 379709 379086 370512 451412 347813 552689 802749 827246 334777 325374 322459 317211 314067 311608 317303 400657 461764 362624 287957 298279 281334 246720 428914 244490 244386 496279 626923 563959 502119 632646 602171 501054 471485 441810 438979 969874 481114 608761 433437 436382 398290 578623 378852 349944 341329 476397 396585 322937 307972 304298 254996 323048 302661 249344 634026 433936 404703 369787 311339 288612 469484 365229 281947 356383 280910 489850 478791
threshold=4.316820429033748 2.7813052358227459 806.36419485099384 1.7606262404167083 33.328692395385723 4.1584911350256641 3.9600255510546294 0.21902170624387848 1.6336710694219703 1159.3829285341908 2.1494632109380474 1.8995352967279069 0.68374650421041439 1325.2101879327395 -0.20940786971981371 1.6259259071848238 0.68066819630120634 2.5172224219555215 1.2668144466494458 1.2233489566369591 1.8895467632355383 0.075890656123106651 -0.17619624218803873 0.96213355210283213 2.0517962683808997 2.1579331357446399 1.6699134962585227 0.28819128258326093 1.0949461245494467 0.12776677523928573 3.2647211317233764 4.5431764406046105 3.6203281924556339 -1.5604999999999994e-05 1052.835698393432 4.5786465503228486 2.8380682713918843 2.5570707036785598 0.034736206528800252 -1.2581230740837175 -110.96476202865023 2.955399716196859 2.5348032484462535 3.3162068673762763 -0.11508739136007333 0.4375118252523118 -2.7658409072888612 334.16342887169998 -0.2829423644591153 1.1803207257833221 0.46259149685011502 3.7580439122344256 0.020954115114196172 310.66828508277473 -3.0296315865829166 298.16932686054014 0.64461623276626623 0.22078815343741928 0.30066504260040516 0.99024198995719359 0.20365919243822675 0.087420198993200707 -1.4614006185259985 -0.00030811999999999994 -697.09957941505911 1122.702614396185 1426.2943594303758 -0.00026534499999999995 1.2404822069364516 -1.0014932064676361 0.58880177550955004 1.2944775181079098 1.5887291234243317 1.6019720512622926 1.3950791471721506 0.72216551627575143 2.7545837879236492 850.5456092259268 2.5886799022330709 1929.907044085727 0.79508995966011398 10.879822106123484 161.33944015208735 -0.00073257999999999993 1060.2943939687395 -0.74750005598316516 23.509162286549095 3.0655641109387592 1.1237132366349545 2.6068278052183644 2.9992335025106365 1.0345333455384376 0.31983419580659528 900.66776232991435 0.89280846179280371 1.9828573686324817 741.60788281725024 1.3766797679459366 0.7025104762536275 1.4085702950942196 0.60683248100757903 2.6870508362462315 282.93296014099252 -2591.2001441238867 -3.8062890083720045 -1.4067696924580313 719.02908212958312 1.1668860717822815 271.69088562247873 767.04341195222969 0.049481405921185079 0.67160500828702163 -2.9304199984141097 135.27076863174673 1.1205155299373615 318.4615585027729 380.63022530094423 0.0018920600000000003 1.4176986850904638 213.4430578327862 0.097707044460047465 4.5883242716700572 -0.65856057612958174 0.21265874368584012 1568.6979761524058 92.00299528040469
decision_type=2 2 2 2 2 2 2 2 2 2 2 2 2 2 2 2 2 2 2 2 2 2 2 2 2 2 2 2 2 2 2 2 2 2 2 2 2 2 2 2 2 2 2 2 2 2 2 2 2 2 2 2 2 2 2 2 2 2 2 2 2 2 2 2 2 2 2 2 2 2 2 2 2 2 2 2 2 2 2 2 2 2 2 2 2 2 2 2 2 2 2 2 2 2 2 2 2 2 2 2 2 2 2 2 2 2 2 2 2 2 2 2 2 2 2 2 2 2 2 2 2 2 2 2 2 2
left_child=2 7 30 4 16 6 13 10 9 14 17 12 25 23 18 29 22 -2 19 -9 -15 26 -4 71 -25 -12 -22 -28 -10 -16 34 32 51 -33 83 36 38 -38 40 48 44 42 49 -37 45 47 -46 79 -40 80 -51 54 -53 -54 -32 56 60 58 -57 77 -48 62 -56 64 -63 -66 -67 -61 -47 82 -44 -6 -65 74 -74 -76 -77 78 -55 -36 -41 -82 -50 93 112 92 101 89 -89 97 102 -91 -86 103 99 96 -96 109 -99 100 -95 -87 -90 108 105 -105 -101 -108 -1 110 111 -88 113 114 115 117 -116 -85 121 120 123 -114 -123 -120 125 -125
right_child=1 -3 3 -5 5 -7 -8 8 28 -11 11 -13 -14 20 15 -17 -18 -19 -20 -21 21 -23 -24 24 -26 -27 27 -29 -30 -31 31 33 -34 -35 35 43 37 -39 39 41 -42 -43 70 -45 46 68 55 -49 69 50 -52 52 53 59 61 57 -58 -59 -60 67 -62 63 -64 72 65 66 -68 -69 -70 -71 -72 -73 73 -75 75 76 -78 -79 -80 -81 81 -83 -84 84 85 86 87 88 90 91 -92 -93 -94 94 95 -97 -98 98 -100 106 -102 -103 -104 104 -106 -107 107 -109 -110 -111 -112 -113 118 -115 116 -117 -118 -119 119 -121 -122 122 -124 124 -126 -127
leaf_value=-0.065622314254442843 0.091039483837391202 3.011279438018799 0.57515721196713654 2.5219208448073442 0.20942045668760936 0.92585967659950263 -1.6321760470526558 -0.0045616979598999026 0.084588370139400168 2.1050343750462388 -0.61152221832956588 -0.70014378023147583 1.887608725892173 -1.1835255821262087 0.87563537909796363 2.3659591959416866 -0.070294302816574394 -1.0695951298304966 -0.4469024589402335 1.2374540770495379 0.73719522294998174 -1.1528122372627259 1.8372564663986364 1.0892379534244538 -0.074041103287176654 0.62172851952639496 0.35285900343032112 -0.78363743839263922 -0.97834102183580396 0.011372034653373386 0.51593046236038209 1.0511936403810977 -0.90999563780697912 -0.023446318661725082 -0.057525742570279349 1.8302147414467553 -0.078556887308756512 1.3188940784335137 0.11519015351931254 0.058567663576367862 -0.92392408284274019 0.82586858840215771 -1.0187150855291458 0.71797581911087038 0.59919926246007282 -0.40911320061595358 -0.12103987245478182 0.56336832323074337 0.62867136406898494 -0.10445981979370117 1.3837723023891448 0.22258572507787633 -0.96772660422969514 0.14866501346878383 0.67638891267776491 1.1546515337058476 -0.73557022460632848 -0.19233717634871197 0.15338074423017956 -0.43938376029332482 0.62384834754467011 -0.69736112117767335 0.018447449167666198 -0.085831526686873189 -0.11617217775848176 1.4009963837536898 0.13324775959214857 0.26486472839779324 -1.1853504629377967 0.3719534029187383 -0.19249257307786211 -0.61725093656033281 -0.11908722648620605 0.021080509685888524 -0.31611433378855386 -1.4535362966855367 -0.5648255268010226 -0.96609603052553927 -0.52941913075880576 -0.66545215441630434 0.10829314083666415 -0.6638299383095333 1.4104807567596436 0.062738775392742058 -0.24707684379957973 0.061248900235154252 -0.11183186821736298 0.91728319537639624 -0.017775978308457594 -0.17460336112976074 0.62425861869539534 -1.1592787430363316 -1.0415308259328206 -0.068477852929096958 -0.17606175415714581 1.0533269554376603 0.80113782433902514 0.68757457930308119 -0.22850150365095873 0.13640420536200204 0.79127525397709431 0.711701742167826 -0.74768543064594273 0.15166028990465052 0.018422896827815557 1.0255775815745194 -1.035963979959488 -0.15850748826563357 -0.8503776322589035 -0.47468836498260503 0.29343221859498458 -0.71887357030596055 -0.00053526461117891111 0.74919964533863648 0.036300772258213591 -0.38453638085297182 0.93630568275451664 -0.41540557394708905 -0.057457694342919557 -0.56055167005175632 0.53957477812256127 0.83713443235917528 0.093176174682875479 -0.032206517594348588 0.23123175348970626 0.24382723197385051
leaf_weight=30 38 20 23 34 27 28 21 30 30 33 21 20 27 28 38 20 26 35 35 27 25 20 24 37 22 22 21 25 20 23 30 22 22 27 71 22 24 32 60 303 22 21 21 20 36 27 117 25 20 28 20 54 37 23 30 21 36 37 21 27 20 21 199 218 90 22 31 45 27 37 26 20 50 41 45 24 22 23 55 26 37 35 20 1248 42 131 77 20 52 20 21 31 30 65 30 38 34 26 26 24 28 27 24 34 8128 21 20 20 21 95 33 28 98940 33 21 56 25 35 4310 42 28 22 60 2230 225 169
leaf_count=30 38 20 23 34 27 28 21 30 30 33 21 20 27 28 38 20 26 35 35 27 25 20 24 37 22 22 21 25 20 23 30 22 22 27 71 22 24 32 60 303 22 21 21 20 36 27 117 25 20 28 20 54 37 23 30 21 36 37 21 27 20 21 199 218 90 22 31 45 27 37 26 20 50 41 45 24 22 23 55 26 37 35 20 1248 42 131 77 20 52 20 21 31 30 65 30 38 34 26 26 24 28 27 24 34 8128 21 20 20 21 95 33 28 98940 33 21 56 25 35 4310 42 28 22 60 2230 225 169
internal_value=0.00240474 0.489687 0.000612702 0.301641 0.0840915 -0.0960415 -0.212355 0.369324 0.58955 0.81531 0.0234496 0.419985 0.740021 -0.0798389 0.569293 0.998208 0.760207 -0.465429 0.191661 0.583762 -0.419714 -0.184695 1.21963 0.301719 0.655473 0.0194433 0.0880139 -0.264802 -0.340583 0.549766 -0.000351174 -0.0908642 -0.115161 0.459045 0.000538347 0.0938073 0.0504873 0.719987 0.0168321 0.120496 -0.117121 0.0289507 -0.00665628 1.30058 -0.0788669 -0.286093 0.0477714 -0.0598514 0.448589 0.0550103 0.515637 -0.0990745 -0.2714 -0.398425 -0.0437963 -0.0310041 -0.162805 0.257623 0.654016 -0.276667 -0.0122971 -0.0649713 0.104641 -0.133839 0.0600764 0.171308 0.659483 0.000771545 -0.797232 0.708381 -0.561656 -0.142355 -0.213344 -0.366078 -0.478656 -0.676222 -1.0285 -0.474445 -0.329471 -0.220475 -0.00394987 -0.267044 1.01958 -0.000430971 -0.00245952 -0.136812 -0.0848111 -0.174524 0.107575 -0.272754 -0.059375 -0.773132 -0.578099 0.0253951 0.228078 0.607679 0.343076 -0.183213 0.229537 -0.0185419 0.190373 0.172402 -0.248274 0.0190197 0.0215611 0.485338 -0.322121 -0.597236 -0.388757 -0.275329 -0.138089 -0.27371 -0.00160546 0.0642583 0.0479384 0.0315345 0.525434 0.0496951 -0.00248633 -0.0335043 -0.0303248 -0.000292375 0.292775 -0.0326261 0.0081606 -0.012761
internal_weight=119810 439 119371 381 347 274 246 419 256 206 163 90 70 225 173 81 73 73 92 57 119 91 47 106 59 43 71 46 50 61 118990 1158 1109 49 117832 1212 1170 56 1114 628 486 491 470 42 464 176 288 122 137 423 48 1087 264 210 823 252 173 79 42 173 137 793 229 564 164 143 53 72 54 77 47 47 400 182 141 91 46 101 78 97 375 72 40 116620 108127 683 611 453 117 336 97 51 72 8493 259 102 64 285 52 157 93 158 76 8234 8183 55 64 40 51 233 138 105 107444 1418 1385 1339 46 1283 106026 7004 6962 99022 82 6934 2624 2399
internal_count=119810 439 119371 381 347 274 246 419 256 206 163 90 70 225 173 81 73 73 92 57 119 91 47 106 59 43 71 46 50 61 118990 1158 1109 49 117832 1212 1170 56 1114 628 486 491 470 42 464 176 288 122 137 423 48 1087 264 210 823 252 173 79 42 173 137 793 229 564 164 143 53 72 54 77 47 47 400 182 141 91 46 101 78 97 375 72 40 116620 108127 683 611 453 117 336 97 51 72 8493 259 102 64 285 52 157 93 158 76 8234 8183 55 64 40 51 233 138 105 107444 1418 1385 1339 46 1283 106026 7004 6962 99022 82 6934 2624 2399
is_linear=0
shrinkage=0.005


Tree=3
num_leaves=127
num_cat=0
split_feature=30 80 143 109 128 109 75 55 155 147 43 31 145 117 103 150 138 155 80 92 31 147 55 132 43 109 85 160 82 103 73 150 26 109 62 138 125 150 27 73 117 111 111 138 155 155 111 150 143 55 132 27 124 150 143 82 82 26 103 109 71 55 109 128 55 103 75 30 80 82 147 117 27 73 109 64 75 31 155 138 82 73 138 75 30 71 43 26 147 103 71 128 85 82 73 125 117 145 27 132 145 116 115 31 30 117 30 145 85 92 116 43 75 138 132 71 150 111 150 103 30 150 43 115 138 109
split_gain=1.75186e+06 3.49957e+06 3.38966e+06 2.42598e+06 1.23909e+06 2.17694e+06 1.53459e+06 1.41593e+06 1.18448e+06 1.14975e+06 1.0941e+06 1.08523e+06 890993 849671 755252 835999 716315 692525 641535 3.26113e+06 7.01001e+06 1.50216e+06 943045 931014 2.25334e+06 2.59595e+06 668024 701876 630515 619416 665147 712443 590410 635344 574883 567780 539960 817791 993989 729526 581149 522647 489989 447198 586014 758870 580368 481746 420594 457026 416787 494269 408182 426778 404219 587931 437902 421934 399720 398508 378691 371393 354421 377395 327174 326755 931934 680678 1.12081e+06 896574 729883 726269 522451 587926 628479 465652 433432 634213 391971 382083 620644 366119 376924 380768 364928 397224 361555 343752 465997 333964 326074 322695 315745 308665 503818 308566 412730 308112 295416 293653 289321 275970 269933 264100 254183 245546 242031 241623 233285 723915 495161 313185 232534 322625 382206 314817 324034 342541 298170 295538 283245 429333 275098 231458 227347 319850
threshold=5055.9143200838726 2400.452098336802 539.93450248799434 0.0017439100000000002 1.2717090672383906 -0.0020166449999999996 15.407924819488274 0.98709267811875512 3.8097777415072742 1.2045126661033467 -0.13524726255026195 4.6073871819621006 -0.097700826309734659 74.398935368809063 0.80667879574549028 0.059508077186971729 2.0424755354482338 4.5905921703889492 1163.9990722016325 -442.85431476313636 1.477269829876471 -0.54041260942082714 -2.0310083699947743 -0.70946701532791712 -0.77441289738432639 -0.00055227499999999986 2.9972745130747276 0.035038341691418277 0.97245676361360878 1.4658503540853054 2.4565047094562131 0.11394893091873802 1380.1960848377162 -0.0010309849999999997 1.0463244333475765 1.7362043356030685 81.913469181590372 0.13094505886963007 2.8658865076816928 2.9748389997276199 149.32098985453783 -0.50201381457995753 0.29777079396603229 2.4755242755219418 3.5404393814838997 2.8802411337625906 0.71966079881809231 0.028485500765098103 -279.41952279676656 2.295142122444997 0.095409736892048999 1.1010324188522624 -2.4314145663713149 0.036939720770100583 -39.44491765602686 0.87962385437321922 0.6740420235068193 2210.1423028174099 0.44143829512151495 0.00049048000000000006 -0.24362613977905662 -0.21786865335065472 -0.0006224999999999999 -0.10769257976530876 0.75885388363662953 1.2310668576382591 1003.0243738419388 2494.2052402008912 837.57636994675102 0.9261671231703662 -0.65856057612958174 80.629368034144122 0.41732293047134078 -0.2660293775051546 -0.00018502499999999998 1.10555602494618 850.5456092259268 2.3039953525713224 2.8802411337625906 1.1333691122169043 0.80738423695369399 -0.96716053506169297 4.2847357541357836 -741.65330028474307 1004.3121703006487 -2.4812954634694528 -0.66694869428964021 2375.1887337444591 -0.064858960017978043 0.59269034891066585 0.5534007061936973 -2.0159433585669793 1.5545458025787202 0.84136699554962702 0.52790578559892809 54.783657685341105 58.054461755322478 -0.10972337469306241 2.3719688096515434 0.61100343554764203 0.13650386583514593 2.6116642043632332 -1.3379300215966545 2.894417917559386 1731.3389099288347 95.814022831638439 557.33849456411815 0.027156900398902995 -2.442045322621095 411.21809342980271 4.254933970012087 -2.4825406605585161 -838.24163050272057 0.738710861181607 1.0210672394613372 1.6728821608074671 0.090988247352962792 -1.0182342569583624 0.10206772960116696 0.067597865514983937 3888.2666606905595 0.020118639628731325 0.34516595177520187 -1.8476148486674673 3.8066289943310108 -0.00015466999999999995
decision_type=2 2 2 2 2 2 2 2 2 2 2 2 2 2 2 2 2 2 2 2 2 2 2 2 2 2 2 2 2 2 2 2 2 2 2 2 2 2 2 2 2 2 2 2 2 2 2 2 2 2 2 2 2 2 2 2 2 2 2 2 2 2 2 2 2 2 2 2 2 2 2 2 2 2 2 2 2 2 2 2 2 2 2 2 2 2 2 2 2 2 2 2 2 2 2 2 2 2 2 2 2 2 2 2 2 2 2 2 2 2 2 2 2 2 2 2 2 2 2 2 2 2 2 2 2 2
left_child=17 2 4 13 5 -2 10 9 -4 -6 -7 16 -9 -3 59 123 58 18 65 20 -20 23 101 34 25 -25 36 -28 54 30 31 41 -31 -34 -21 -17 37 43 -39 40 52 102 -35 48 45 47 -46 -45 99 -50 51 -43 -38 -54 56 93 -19 -57 -12 -8 97 -55 -32 -64 -59 76 67 87 70 -70 71 103 -72 74 107 98 78 79 108 89 -81 86 83 104 85 -85 -80 -67 -89 106 -76 -86 124 94 -56 96 -82 -52 -75 -24 -63 -23 -26 -69 -83 -93 -78 -74 109 110 111 -1 113 -110 115 116 -115 -118 -119 -116 -114 -122 -123 -16 125 -49
right_child=1 3 8 -5 7 6 14 12 -10 -11 11 -13 -14 -15 15 35 -18 28 19 21 -22 22 26 24 29 -27 27 -29 -30 32 62 -33 33 42 -36 -37 39 38 -40 -41 -42 50 -44 44 46 -47 -48 92 49 -51 60 -53 53 61 55 57 -58 64 -60 -61 -62 100 63 -65 -66 66 -68 68 69 -71 72 -73 73 75 90 -77 77 -79 81 80 95 82 -84 84 91 -87 -88 88 -90 -91 -92 105 -94 -95 -96 -97 -98 -99 -100 -101 -102 -103 -104 -105 -106 -107 -108 -109 112 -111 -112 -113 120 114 119 -117 117 118 -120 -121 121 122 -124 -125 -126 -127
leaf_value=-0.44660267685398913 1.5324620510101319 -0.045402449423616584 -1.787425821798819 2.7116356329123183 0.5066888942718506 1.4592958374023437 0.48780917485555014 -0.62500239169597627 -0.3321440437744404 2.1012813940873514 -0.36113265043213255 1.0356272891589573 0.73743467998504642 1.1954188018231779 -0.57197135210037231 -1.7540453858375549 -0.85293208661286724 -0.52631256166257356 3.6434510998725891 0.049398460634823504 -0.17809041468302408 -0.37943289536016955 0.037547306656837462 2.7303671951293946 -0.71883095409559161 0.37181837333100182 0.095532358714512405 -1.1232588280571834 0.56062298136452837 -0.032053846236198183 -0.64168497082165299 0.9346211006785885 1.4613843989372253 -0.13844780671596529 -1.0525057597160339 -0.62377732639312744 -0.88495493316650398 0.10914477284749349 1.5481761384010315 -0.88306135640424843 0.49428802405084882 0.028428851869844257 0.8376450228359964 0.93973140120506293 -0.83447863231534547 1.1174488303171737 0.20679342526942493 0.66815745626177103 -0.034299198920976874 -0.67577012440253958 0.70649697329546957 1.0040559952399311 -0.7149998469352723 -0.34527937432994016 -0.10993778251324381 -0.35452610632952519 0.10598737493461492 -0.68302618882872834 0.50254399183634169 -0.42335714817047121 -0.10818499136109684 -0.083262381073501382 0.42225284302676164 -0.41373729869171427 -1.5666308507919311 0.013181359244315823 0.82742533730136014 -0.41493793194293982 0.28488065264441753 1.7292432947385878 1.0091396613554522 -1.0665128969862347 1.3245403280258179 -0.7262025685968071 0.54038924992084503 0.29267137717227548 -0.011963034438590208 0.45305923591960556 0.6366165683004591 0.073269720778745773 -0.50572581652937265 -0.004694228595302951 -0.70220747515007309 -0.66151788015257229 0.1819812073310216 0.028389381001228561 0.025002002946708513 1.0180457725524903 -0.04837603682563419 0.40576529136070838 -0.13308754089401992 -0.19260246228922634 0.68063083839416505 0.34620873178754535 -0.94942904293537145 -0.25339760680993395 -1.3492914692286788 0.13803283436752076 -0.012523388754704903 0.89436281561851505 0.55515390893391203 -1.133840675354004 0.075411951065063473 0.22861176834187724 0.67292669353485113 -0.54974860553558058 -0.48559899325273476 0.58041763529181478 -0.0079507721630223283 0.90596013537645337 0.75905025204022725 0.046673407824911854 -0.0030522323324625096 -0.14321848564157963 0.26319275476932524 0.62499123940101042 -0.25694116280629087 0.91532246388140182 0.22155934281773487 0.88456713122706265 -0.64682908259158911 0.37145537631852288 -0.27813484142988154 0.14348522984064543 -0.36448767563508405 -0.059064640711855007
leaf_weight=33 25 22 27 21 20 20 30 20 29 26 21 28 30 37 20 20 23 38 20 29 30 27 20 20 23 28 21 27 24 31 35 33 24 20 20 25 20 30 20 34 35 21 36 20 23 28 32 21 653 29 37 34 25 46 70 34 98 22 37 20 86 36 27 27 20 11403 36 25 22 21 22 21 20 29 32 49 60 33 27 34 29 31 27 22 54 404 230 20 21 26 41 646 20 21 24 24 29 67 29 20 35 22 20 44 25 52 49 24 406 25 24 1292 100884 113 50 26 26 21 59 31 43 28 39 26 31 54
leaf_count=33 25 22 27 21 20 20 30 20 29 26 21 28 30 37 20 20 23 38 20 29 30 27 20 20 23 28 21 27 24 31 35 33 24 20 20 25 20 30 20 34 35 21 36 20 23 28 32 21 653 29 37 34 25 46 70 34 98 22 37 20 86 36 27 27 20 11403 36 25 22 21 22 21 20 29 32 49 60 33 27 34 29 31 27 22 54 404 230 20 21 26 41 646 20 21 24 24 29 67 29 20 35 22 20 44 25 52 49 24 406 25 24 1292 100884 113 50 26 26 21 59 31 43 28 39 26 31 54
internal_value=0.00143443 0.289078 0.116708 1.2522 0.281486 0.120918 -0.00978013 0.774897 -1.0338 1.40798 0.384313 0.187069 0.19246 0.73274 -0.370333 -0.641584 -0.10626 0.000161741 0.000817188 0.0896776 1.35053 0.0572984 -0.0374076 0.260962 0.317913 1.35455 -0.0113481 -0.590038 -0.221603 0.222407 0.132703 0.238745 0.553746 0.780744 -0.400358 -1.12612 0.0111982 0.0614828 0.684757 -0.206701 -0.0899692 0.159009 0.48904 0.0287133 0.221235 0.36344 -0.228648 0.218835 -0.0323497 -0.0615758 0.248243 0.631544 -0.216198 -0.122006 -0.279015 -0.427354 -0.0706847 -0.768593 0.189833 0.123343 0.137288 0.00470162 -0.249765 0.00425777 -1.10379 -0.00070262 0.0241745 0.0217287 0.2302 0.990267 0.13293 -0.252348 0.273885 0.201672 0.446638 -0.0661884 -0.00351494 -0.198582 -0.0029854 -0.284255 -0.494706 -0.0827458 -0.117801 -0.105014 -0.124164 -0.00723963 0.0892572 0.0148245 0.47183 -0.103424 0.162135 -0.1904 0.104407 -0.20184 -0.324276 -0.730208 -0.927509 0.340275 -0.369363 0.465955 0.23145 -0.718147 -0.349416 -0.00455841 0.297815 -0.219209 -0.224882 0.918655 -0.00181104 0.0629042 0.0472805 0.034388 -0.00268514 0.0861101 0.203253 0.104814 0.0430576 0.241635 0.403672 0.501003 -0.00332873 -0.256911 -0.0066643 -0.167583 -0.00431417 0.144558
internal_weight=119636 527 447 80 391 295 270 96 56 46 129 109 50 59 141 91 81 119109 118758 1997 50 1947 1329 618 569 48 1280 48 351 521 410 321 111 80 49 45 1232 1001 50 231 197 288 56 951 229 174 55 146 722 682 245 55 162 142 327 191 136 76 58 50 190 117 89 54 42 116761 11859 11823 379 43 336 90 246 224 117 107 104902 284 104618 251 116 1518 1261 1234 1178 426 257 11444 41 135 73 752 126 115 94 82 58 104 58 40 71 49 43 69 56 698 109 44 103100 1374 1349 1325 101726 732 326 245 219 106 80 81 100994 110 67 46 106 75
internal_count=119636 527 447 80 391 295 270 96 56 46 129 109 50 59 141 91 81 119109 118758 1997 50 1947 1329 618 569 48 1280 48 351 521 410 321 111 80 49 45 1232 1001 50 231 197 288 56 951 229 174 55 146 722 682 245 55 162 142 327 191 136 76 58 50 190 117 89 54 42 116761 11859 11823 379 43 336 90 246 224 117 107 104902 284 104618 251 116 1518 1261 1234 1178 426 257 11444 41 135 73 752 126 115 94 82 58 104 58 40 71 49 43 69 56 698 109 44 103100 1374 1349 1325 101726 732 326 245 219 106 80 81 100994 110 67 46 106 75
is_linear=0
shrinkage=0.005


Tree=4
num_leaves=127
num_cat=0
split_feature=154 116 39 111 84 32 161 7 74 27 39 67 108 30 108 111 7 39 5 15 5 93 39 39 7 150 6 98 6 154 84 154 32 139 139 39 5 141 30 39 39 93 98 141 116 16 74 53 54 31 116 154 27 154 161 150 26 161 5 26 31 141 32 16 116 74 6 30 31 116 111 98 39 154 139 54 133 73 53 32 32 39 30 73 27 154 40 16 54 73 16 30 150 7 111 2 26 26 26 74 74 73 141 16 73 53 55 31 54 6 108 161 13 53 73 67 54 55 31 32 150 7 55 139 133 133
split_gain=2.53387e+06 5.97107e+06 4.87501e+06 2.48686e+06 2.07547e+06 1.83958e+06 2.78631e+06 2.45008e+06 1.8174e+06 819756 798114 788564 704474 687359 1.25404e+06 1.98622e+06 1.59961e+06 1.42681e+06 666588 1.47266e+06 636547 571099 2.99539e+06 608403 560090 539672 521439 516962 448945 481469 428869 565881 573850 646013 466692 1.05772e+06 466073 445608 1.23019e+06 1.19975e+06 1.34383e+06 914837 447924 419149 413385 409456 408033 386517 364113 302918 286511 799778 443243 317782 797337 570549 498568 668758 499667 473261 1.00497e+06 1.12704e+06 467370 458701 547102 994310 373783 365620 895653 585921 622863 515647 589047 1.39046e+06 427148 411381 388946 360865 323463 313390 368018 882959 799489 432488 379916 337484 313303 526709 459794 302709 301830 448006 436000 426977 356979 296608 291567 344515 290461 282219 496480 329808 271867 268956 392009 674616 345253 379868 369085 266332 267607 302748 265081 328636 307577 330118 284208 264179 263308 354927 327628 261773 341891 321658 269644 497605
threshold=3175.2251412855044 4.254933970012087 0.00019547462847222227 0.15210802071100549 0.00042672000000000006 -530.40617095021105 2.7313618651472509 523.05394890862738 1.4853327013235906 4.2413863095535449 0.00013542085069444447 -3.7534245546064167 -286.12346938680861 5055.9143200838726 265.59792784786265 0.12755921015345109 628.84511890402018 0.0006136659548611113 -1.2809018128353875 -0.87898183978083377 -2.4705113210027325 -3.5019992930145891 0.00073047027083333351 0.000451653232638889 523.05394890862738 0.084863674628942079 919.60729533287383 -0.42447822364991245 833.57780915100727 525.45845093320611 -0.0010495299999999997 2540.3657444301903 -1642.4786425053665 637.85330872680368 806.36419485099384 -0.00021697135763888887 -0.030178181666699919 -467.70463060915807 2318.8214331897102 0.00080475317361111112 0.00033016144097222226 -0.52324372307914491 -0.11584811004903516 -178.60718193721311 2.9625120289476832 0.00062533000000000011 1.5161875105588514 -0.9752658099172048 -0.00013109999999999991 0.054005047988253986 4.254933970012087 1632.2886801227266 1.4412833593249108 980.07110831501052 -7.187428170699385 0.048048532247177873 2210.1423028174099 -1.4685767093006021 1.163369082986158 2897.3296293006028 2.5849006232011313 -120.53116839613797 -167.59064502933629 0.0025230200000000004 2.6116642043632332 1.0140480565117322 440.50801479981425 2494.2052402008912 0.55456762559566453 2.7761473111102473 -1.2891180090064982 0.61643382705299232 0.00054813062500000008 1932.5202818669288 216.8205481463348 -0.00069730499999999995 0.10642989399999993 -0.91841007435386846 0.57276219962062547 -2316.0163167442074 -653.18081955723187 0.00060044618402777786 1420.6841673076333 0.64181646857318086 1.6455467533445833 1767.3313092602441 0.00066844000000000007 0.00057376000000000009 0.0005238100000000001 0.010382162294890746 -0.00039843999999999996 1668.4266443886979 0.027391640030070216 255.86899261451416 0.28909247145220879 -0.31767807411526489 1693.5326135322118 1452.9889431516253 1184.8910272336368 1.5901340692706289 1.0667801348219708 -0.75698667288054045 -85.082144785145189 -0.0019335299999999999 2.4565047094562131 2.7614645471886132 0.68712584986961145 2.0800581306826733 -0.0018077649999999998 450.55741281395336 1066.8756540004233 1.6916040605442719 -2.4749405589573414 -3.0544560200608601 -0.44069600233697387 -0.2251752769579938 -0.00026416499999999991 0.23891327701183093 1.1237132366349545 -116.59840464922853 0.0892803582423735 523.05394890862738 0.46952077490075833 428.1177722501406 -0.048619829999999913 0.0090277629999999682
decision_type=2 2 2 2 2 2 2 2 2 2 2 2 2 2 2 2 2 2 2 2 2 2 2 2 2 2 2 2 2 2 2 2 2 2 2 2 2 2 2 2 2 2 2 2 2 2 2 2 2 2 2 2 2 2 2 2 2 2 2 2 2 2 2 2 2 2 2 2 2 2 2 2 2 2 2 2 2 2 2 2 2 2 2 2 2 2 2 2 2 2 2 2 2 2 2 2 2 2 2 2 2 2 2 2 2 2 2 2 2 2 2 2 2 2 2 2 2 2 2 2 2 2 2 2 2 2
left_child=13 3 11 8 5 9 7 -7 12 25 -6 -3 -2 21 17 27 46 -15 19 -14 -12 22 23 28 -20 -5 -19 -16 -1 -30 31 32 33 36 103 -36 -23 38 118 40 42 47 -40 -29 -31 -43 -17 -42 -21 -25 53 52 -52 59 -55 56 58 -58 63 -39 66 -62 109 64 90 77 -61 79 -69 70 -70 74 99 -74 86 -71 -75 -66 95 85 81 -81 84 -84 -83 -57 87 -72 -88 -76 91 93 -93 -56 -94 -79 97 -54 -92 100 101 -73 -102 104 105 106 107 -34 -109 -59 -111 -112 114 -114 115 -105 -116 -64 119 -32 -120 123 -123 124 -100 -126
right_child=1 2 -4 4 10 6 -8 -9 -10 -11 20 -13 18 14 15 16 -18 26 24 48 -22 30 -24 49 -26 -27 -28 43 29 44 37 -33 34 -35 35 -37 -38 50 39 -41 41 45 -44 -45 -46 -47 -48 -49 -50 -51 51 -53 96 54 55 67 57 62 -60 60 61 -63 117 -65 65 -67 -68 68 69 75 71 72 73 76 89 -77 -78 78 -80 80 -82 82 83 -85 -86 -87 88 -89 -90 -91 98 92 94 -95 -96 -97 -98 -99 121 -101 102 -103 -104 112 -106 -107 -108 108 -110 110 111 -113 113 -115 116 -117 -118 -119 120 -121 -122 122 -124 -125 125 -127
leaf_value=0.10071617085654708 0.71401945686340329 0.18937831302483876 3.6804707098007201 0.28069867902181367 -1.0398273054758709 1.084704114596049 0.28612073229418861 3.4542553992271423 -1.7349449484688897 1.0017312908172609 0.79383484272729787 1.5160992926643007 0.43079949878510976 1.4910549737311698 -1.2756651210784913 0.3532009537466641 1.725833839416504 0.63696589572089057 -0.42779366709969263 -1.6802567859888078 -0.29086588558397797 0.33702413570959316 2.070901479244232 1.0522901887893676 0.67669382969538372 -0.76018150854110722 -0.40530661037990023 0.13534238110417904 0.29703887337730045 -0.20296765598757513 0.01060815608214076 0.64543820064801438 0.0090795814398898188 1.0672407308491794 -1.2566419098593973 0.33210309052467346 -0.056091628752946855 -0.0015005195761228674 0.55716890875995162 0.50697077693939208 -0.036856935501098635 -1.1188859939575195 -0.41547978466954727 -0.80922613481680561 -1.1005740562210913 -2.0970886507034301 -0.47500063920021057 -0.96140924939742467 -0.73759578943252568 0.30172120524615781 0.27893356568973376 0.81236757433414453 -0.18216353682925307 -0.78883257498059944 0.019687997162049893 -0.0023080318945425528 -1.1470373380751837 -0.35860738417733523 0.72042874276638036 0.21427006820837657 1.6153831736246744 0.13880664957421165 -0.2836294447021051 0.51195825237216375 0.54164582402809802 0.88160420638322834 -0.71124910533428198 1.1041027926314961 -0.65639300802479628 -0.90344773967564107 0.15684563250177438 0.64848106651079096 1.7703854185058958 0.71622119018009733 -0.03362640043290762 -0.10985958339123243 0.0099557487531141808 -0.21119266316942548 -0.58787648073832199 -0.03870351069514294 0.0083749393552062443 -0.099718246574097502 -0.50769352984428406 -1.5236043617942117 -0.8586232135295867 0.82189740823662805 -0.0062060752014319103 -0.76036280819773683 1.006871399354367 -0.80419413299560549 -0.083194059404938306 -0.021757682360393899 0.87756832652621797 -0.36720075024498833 0.13215444589483327 0.4569385257134071 -0.51099548554420471 0.56193613960629418 -0.043796965810882896 -0.31737894897107727 1.0954402469453357 -0.034827267339637688 0.33054762051655695 -0.6696886760361016 -0.53655466163158416 0.85495687695987088 0.6086759188680938 1.0074788422584535 0.10401537500894988 0.21947902529327959 -0.67966976874592633 0.14982570016925986 0.59741185932159424 0.02203948532715725 0.17809815933555365 0.0016478026707967123 -0.28880660699714317 -0.86569592412028995 -0.28053936091204845 -0.50158272171020513 0.30108151350702561 -1.0751710367351772 -0.17191289705309001 0.3502640790205736 -0.72036531930691317 -0.21586908052504367
leaf_weight=266 20 24 22 33 21 24 36 20 21 24 21 21 21 37 22 58 20 28 22 20 38 190 20 20 24 20 21 23 21 29 1006 39 302 22 22 20 125 105713 20 25 20 23 29 24 23 20 20 26 21 41 108 40 60 35 255 27 21 59 20 24 24 28 44 33 23 40 20 22 23 20 72 21 21 35 26 89 44 46 30 795 2666 94 20 22 20 23 24 20 21 25 991 71 36 99 29 26 40 21 158 27 21 111 26 47 20 34 33 20 26 81 22 22 25 3398 80 30 55 35 179 35 28 20 22 26 57 343
leaf_count=266 20 24 22 33 21 24 36 20 21 24 21 21 21 37 22 58 20 28 22 20 38 190 20 20 24 20 21 23 21 29 1006 39 302 22 22 20 125 105713 20 25 20 23 29 24 23 20 20 26 21 41 108 40 60 35 255 27 21 59 20 24 24 28 44 33 23 40 20 22 23 20 72 21 21 35 26 89 44 46 30 795 2666 94 20 22 20 23 24 20 21 25 991 71 36 99 29 26 40 21 158 27 21 111 26 47 20 34 33 20 26 81 22 22 25 3398 80 30 55 35 179 35 28 20 22 26 57 343
internal_value=0.000447645 0.373691 1.75155 0.13453 0.452745 0.786747 1.31773 2.16177 -0.371625 0.235078 -0.202734 0.808515 -0.147955 -0.000965955 0.259375 0.00676128 0.464309 0.749914 -0.30758 -0.645933 0.095214 -0.0015178 0.182532 0.0881136 0.148461 -0.112086 0.190278 -0.64309 0.00539544 -0.341938 -0.00216774 0.0457784 0.0405217 0.23888 0.0242653 -0.500097 0.181026 -0.00404791 -0.0923537 -0.500866 -0.683445 -1.04955 -0.0184803 -0.34699 -0.599986 -1.57386 0.140842 -0.55943 -1.19743 0.547809 -0.00294562 0.160039 0.0460954 -0.00333441 -0.0360632 -0.032258 -0.0906282 -0.288392 -0.0664712 -0.00118186 0.349722 0.820304 -0.219831 -0.073299 -0.0817997 0.195462 -0.20642 0.00303465 0.112522 0.0776737 0.147911 0.185359 0.311978 0.626839 -0.0207349 -0.255472 0.322858 -0.0241032 -0.151674 -0.0163129 -0.0217475 -0.106192 -0.450123 -1.03984 -0.232859 0.376826 0.124679 -0.0425475 0.466563 -0.411356 -0.103512 0.0051994 0.249119 -0.0885097 0.544999 0.0300769 -0.161727 0.0107512 -0.136455 0.159134 0.23101 0.0738809 0.672308 0.0296764 0.147172 0.180123 0.119901 0.0735518 0.496826 -0.0817207 0.0489699 -0.264922 0.0156157 0.0262417 -0.155955 -0.408129 -0.0121223 -0.541507 -0.0389983 -0.00661248 -0.201866 -0.220771 -0.602036 -0.193351 -0.218681 -0.28776
internal_weight=120062 453 67 386 237 157 80 44 149 77 80 45 128 119609 253 167 98 86 108 62 59 119356 420 400 46 53 49 69 339 73 118936 4488 4449 337 4112 42 315 114448 1411 163 138 89 49 47 52 43 78 46 41 61 113037 269 229 112768 6959 6924 2609 284 2325 105809 96 52 263 2305 2272 165 44 4315 648 626 517 494 306 100 188 109 79 125 102 3667 3617 951 156 42 114 50 137 92 45 51 2107 490 136 354 65 72 121 81 1617 206 179 132 47 4070 435 415 381 348 46 184 125 44 3635 3423 212 77 135 79 1248 1041 207 626 42 584 558 400
internal_count=120062 453 67 386 237 157 80 44 149 77 80 45 128 119609 253 167 98 86 108 62 59 119356 420 400 46 53 49 69 339 73 118936 4488 4449 337 4112 42 315 114448 1411 163 138 89 49 47 52 43 78 46 41 61 113037 269 229 112768 6959 6924 2609 284 2325 105809 96 52 263 2305 2272 165 44 4315 648 626 517 494 306 100 188 109 79 125 102 3667 3617 951 156 42 114 50 137 92 45 51 2107 490 136 354 65 72 121 81 1617 206 179 132 47 4070 435 415 381 348 46 184 125 44 3635 3423 212 77 135 79 1248 1041 207 626 42 584 558 400
is_linear=0
shrinkage=0.005


end of trees

feature_importances:
x_1440m_L2C_neut=17
x_1440m_O2L=16
x_1440m_RatioSkewDiff_neut=16
x_480m_RatioSkewDiff_neut=16
x_1440m_O2H_neut=15
x_720m_EffRatio=15
x_720m_OI_XSkew=13
x_240m_OI_P_Corr=12
x_120m_H2L_Vol=11
x_1440m_O2H=11
x_240m_EffRatio_neut=11
x_240m_NetTaker_neut=11
x_240m_O2C=11
x_240m_PremiumDiff=11
x_5m_L2C=11
x_120m_Close_Diff_Rate_neut=10
x_120m_L2C=10
x_1440m_EffRatio_neut=10
x_1440m_Premium=10
x_15m_OI_Chg=10
x_60m_Vol_neut=10
x_1m_H2L_Vol=9
x_480m_NetTaker_neut=9
x_60m_H2L_Vol_neut=9
x_1440m_L2C=8
x_15m_PremiumDiff_neut=8
x_480m_L2C=8
x_480m_PremiumDiff=8
x_5m_H2L_Vol_neut=8
x_5m_O2H_neut=8
x_60m_O2H=8
x_120m_H2C_neut=7
x_1440m_H2C_neut=7
x_30m_L2C_neut=7
x_480m_H2L_Vol=7
x_480m_OI_Chg=7
x_5m_WhaleGap=7
x_60m_Close_Diff_Rate=7
x_60m_PremiumDiff_neut=7
x_720m_O2H=7
x_1440m_H2C=6
x_1440m_RVol=6
x_240m_O2H=6
x_480m_Close_Diff_Rate=6
x_5m_PremiumDiff_neut=6
x_720m_O2L_neut=6
x_120m_NetTaker_neut=5
x_120m_O2H_neut=5
x_120m_O2L=5
x_120m_OI_Chg_neut=5
x_120m_PremiumDiff=5
x_1440m_EffRatio=5
x_15m_O2H_neut=5
x_15m_PremiumDiff=5
x_30m_O2H_neut=5
x_30m_PremiumDiff_neut=5
x_5m_PremiumDiff=5
x_60m_PremiumDiff=5
x_720m_O2H_neut=5
x_1440m_Close_Diff_Rate_neut=4
x_1440m_NetTaker_neut=4
x_15m_OI_Chg_neut=4
x_1m_H2C=4
x_1m_Premium_neut=4
x_30m_O2L=4
x_30m_PremiumDiff=4
x_480m_O2H_neut=4
x_5m_O2L=4
x_5m_RatioSkew_neut=4
x_60m_EffRatio=4
x_60m_O2L=4
x_60m_OI_Price_Ratio=4
x_720m_OI_Price_Ratio_neut=4
x_120m_CrowdingPressure_neut=3
x_120m_L2C_neut=3
x_120m_PremiumDiff_neut=3
x_120m_Vol=3
x_1440m_O2C_neut=3
x_1440m_PremiumDiff=3
x_15m_O2L=3
x_1m_L2C_neut=3
x_1m_O2H_neut=3
x_240m_OI_Chg=3
x_240m_PremiumDiff_neut=3
x_480m_EffRatio_neut=3
x_60m_O2H_neut=3
x_60m_OI_Chg=3
x_15m_H2C=2
x_1m_H2C_neut=2
x_1m_O2L_neut=2
x_240m_C2VWAP_neut=2
x_240m_PctB_neut=2
x_30m_OI_Chg=2
x_30m_OI_Chg_neut=2
x_480m_PremiumDiff_neut=2
x_5m_H2C_neut=2
x_5m_O2C=2
x_5m_OI_Chg=2
x_720m_Close_Diff_Rate_neut=2
x_120m_O2L_neut=1
x_1m_H2L_Vol_neut=1
x_5m_O2C_neut=1
x_5m_O2L_neut=1

parameters:
[boosting: gbdt]
[objective: regression]
[metric: rmse]
[tree_learner: serial]
[device_type: cpu]
[data_sample_strategy: bagging]
[data: ]
[valid: ]
[num_iterations: 4000]
[learning_rate: 0.005]
[num_leaves: 127]
[num_threads: 0]
[seed: 42]
[deterministic: 0]
[force_col_wise: 0]
[force_row_wise: 0]
[histogram_pool_size: -1]
[max_depth: -1]
[min_data_in_leaf: 20]
[min_sum_hessian_in_leaf: 0.001]
[bagging_fraction: 0.2]
[pos_bagging_fraction: 1]
[neg_bagging_fraction: 1]
[bagging_freq: 1]
[bagging_seed: 400]
[bagging_by_query: 0]
[feature_fraction: 0.2]
[feature_fraction_bynode: 1]
[feature_fraction_seed: 30056]
[extra_trees: 0]
[extra_seed: 12879]
[early_stopping_round: 0]
[early_stopping_min_delta: 0]
[first_metric_only: 0]
[max_delta_step: 0]
[lambda_l1: 0]
[lambda_l2: 0]
[linear_lambda: 0]
[min_gain_to_split: 0]
[drop_rate: 0.1]
[max_drop: 50]
[skip_drop: 0.5]
[xgboost_dart_mode: 0]
[uniform_drop: 0]
[drop_seed: 17869]
[top_rate: 0.2]
[other_rate: 0.1]
[min_data_per_group: 100]
[max_cat_threshold: 32]
[cat_l2: 10]
[cat_smooth: 10]
[max_cat_to_onehot: 4]
[top_k: 20]
[monotone_constraints: ]
[monotone_constraints_method: basic]
[monotone_penalty: 0]
[feature_contri: ]
[forcedsplits_filename: ]
[refit_decay_rate: 0.9]
[cegb_tradeoff: 1]
[cegb_penalty_split: 0]
[cegb_penalty_feature_lazy: ]
[cegb_penalty_feature_coupled: ]
[path_smooth: 0]
[interaction_constraints: ]
[verbosity: -1]
[saved_feature_importance_type: 0]
[use_quantized_grad: 0]
[num_grad_quant_bins: 4]
[quant_train_renew_leaf: 0]
[stochastic_rounding: 1]
[linear_tree: 0]
[max_bin: 255]
[max_bin_by_feature: ]
[min_data_in_bin: 3]
[bin_construct_sample_cnt: 200000]
[data_random_seed: 175]
[is_enable_sparse: 1]
[enable_bundle: 1]
[use_missing: 1]
[zero_as_missing: 0]
[feature_pre_filter: 0]
[pre_partition: 0]
[two_round: 0]
[header: 0]
[label_column: ]
[weight_column: ]
[group_column: ]
[ignore_column: ]
[categorical_feature: ]
[forcedbins_filename: ]
[precise_float_parser: 0]
[parser_config_file: ]
[objective_seed: 16083]
[num_class: 1]
[is_unbalance: 0]
[scale_pos_weight: 1]
[sigmoid: 1]
[boost_from_average: 1]
[reg_sqrt: 0]
[alpha: 0.9]
[fair_c: 1]
[poisson_max_delta_step: 0.7]
[tweedie_variance_power: 1.5]
[lambdarank_truncation_level: 30]
[lambdarank_norm: 1]
[label_gain: ]
[lambdarank_position_bias_regularization: 0]
[eval_at: ]
[multi_error_top_k: 1]
[auc_mu_weights: ]
[num_machines: 1]
[local_listen_port: 12400]
[time_out: 120]
[machine_list_filename: ]
[machines: ]
[gpu_platform_id: -1]
[gpu_device_id: -1]
[gpu_use_dp: 0]
[num_gpu: 1]

end of parameters

pandas_categorical:[]
